tree
version=v4
num_class=1
num_tree_per_iteration=1
label_index=0
max_feature_idx=53
objective=regression
feature_names=Column_0 Column_1 Column_2 Column_3 Column_4 Column_5 Column_6 Column_7 Column_8 Column_9 Column_10 Column_11 Column_12 Column_13 Column_14 Column_15 Column_16 Column_17 Column_18 Column_19 Column_20 Column_21 Column_22 Column_23 Column_24 Column_25 Column_26 Column_27 Column_28 Column_29 Column_30 Column_31 Column_32 Column_33 Column_34 Column_35 Column_36 Column_37 Column_38 Column_39 Column_40 Column_41 Column_42 Column_43 Column_44 Column_45 Column_46 Column_47 Column_48 Column_49 Column_50 Column_51 Column_52 Column_53
feature_infos=none [0:7] [0:45] [0:435] none none -1:0:1 [0:1] [-0.25881904510252063:1] [0:1] [-0.32143946530316159:1] none none [-5.48492431640625:-5.23773193359375] [90.5877685546875:90.9722900390625] [1:5] [-14.935096760357844:46.636316553649181] -1:1:2:0 -1:3:1:0:2:4 -1:1:0 -1:1:0 -1:25:28:29:30:31:32:33:34:36:44:48:49:54:55:56:57:58:60:61:67:70:71:72:75:86:92:93:94:100:102:103:105:106:109:111:112:113:114:115:116:117:118:119:120:122:127:129:130:133:135:136:137:138:139:140:141:143:144:147:148:149:150:151:152:153:154:155:156:157:158:159:160:161:162:163:164:165:166:171:173:174:176:178:196:197:199:200:202:204:205:207:208:209:210:211:229:230:231:232:233:234:235:236:237:238:239:240:241:242:243:416:438:439:441:448:449:451:453:454:472:473:474:475:478:479:480:481:482:483:484:485:486:487:488:489:490:491:492:493:494:495:496:497:520:525:526:527:533:548:549:550:551:557:558:560:561:562:567:581:582:586:587:588:592:593:598:602:603:605:607:608:610:611:612:613:614:615:616:617:618:619:620:622:624:625:626:631:632:633:634:635:644:646:647:650:653:654:655:656:657:658:659:660:664:665:679:680:681:682:684:686:687:688:690:691:693:761:762:764:765:766:767:768:769:770:771:772:773:774:794:796:798:801:889:890:892:893:897:898:899:916:917:927:928:938:946:948:950:952:953:967:974:989:990:991:992:993:995:996:1015:1020:35:37:38:42:43:47:69:80:81:99:104:108:110:177:183:189:201:203:213:214:215:216:217:218:219:220:221:222:223:224:225:226:227:244:245:246:247:248:249:250:251:252:253:254:255:256:257:258:259:267:268:269:270:271:272:273:275:276:281:282:283:284:285:286:287:288:289:291:293:297:298:299:300:301:303:304:305:309:313:314:315:316:319:322:323:326:338:340:343:346:349:360:370:391:424:435:446:450:507:523:524:539:563:579:609:636:645:648:668:669:670:671:672:673:674:675:685:689:696:697:700:702:703:705:710:711:713:714:715:716:717:720:721:724:737:739:743:745:755:775:776:777:778:779:783:804:806:807:810:811:816:817:819:821:829:832:835:837:839:840:843:844:847:849:851:852:854:855:856:857:858:866:867:868:874:875:877:878:879:880:885:999:1000:1001:1002:1003:1004:1007:1011:1012:1014:1017:1018:1019:1023:1026:1027:1029:1035:1036:1043:1048:1054:1059:1060:1062:1063:1064:1065:1066:1067:1068:1081:1082:1083:1086:1104:1120:1121:1162:1175:1177:1178:1180:1198:1206:1207:1208:1211:1213:1220:1223:1225:1226:1257:21:40:45:52:68:79:83:95:125:168:172:175:185:212:302:335:345:351:376:415:422:428:442:444:476:532:546:556:559:570:578:590:594:599:604:627:628:629:652:661:708:712:719:722:725:726:780:782:797:805:872:881:894:994:1009:1047:1053:1094:1106:1108:1160:1169:1171:1172:1179:1185:1229:1230:1232:1243:13:23:46:169:170:186:193:228:262:266:274:317:324:347:354:369:371:383:421:432:445:467:512:538:583:591:596:597:663:692:701:707:709:723:747:750:753:830:838:842:902:926:935:955:1008:1033:1061:1084:1101:1124:1125:1137:1148:1173:1241:76:85:91:101:123:145:296:307:312:336:359:447:518:547:553:568:569:630:651:683:695:704:754:809:876:922:936:997:998:1005:1013:1069:1105:1130:1181:17:20:41:50:82:107:142:290:310:325:342:350:384:440:501:529:545:577:792:793:802:823:836:850:860:966:1028:1056:1057:1114:1165:1187:1219:16:62:188:190:277:294:320:321:334:339:390:412:430:508:519:535:537:667:694:795:944:951:954:969:971:1025:1034:1098:1152:1163:1174:12:27:98:337:344:584:585:621:638:666:706:736:931:1031:1049:1140:1147:1214:1244:15:24:64:180:184:355:356:365:403:433:437:477:566:678:718:799:827:859:882:1052:1055:1087:1135:1151:1170:1242:19:51:77:87:89:121:146:167:389:418:470:589:600:735:742:760:763:808:833:834:853:869:924:1006:1040:1109:1118:1122:26:39:358:572:676:758:781:824:891:895:896:925:939:949:1123:1216:4:11:53:73:187:352:429:544:791:848:871:1091:1218:8:84:96:192:348:357:555:576:790:940:959:1079:1089:1127:1141:1191:1200:1248:22:63:263:362:364:372:374:375:388:404:423:426:468:469:623:826:845:846:884:1037:1144:1167:1192:1236:279:308:366:414:431:443:522:748:977:1039:1046:1107:1161:1202:1204:3:198:260:261:333:436:541:740:756:784:813:818:970:1041:1111:1117:1153:1195:1231:18:332:510:528:534:536:863:901:947:973:1010:1131:1143:1145:9:295:411:413:462:552:887:903:923:929:961:983:1022:1085:1134:1209:5:7:134:179:306:331:382:504:511:540:554:571:741:800:900:960:1071:1146:1246:1252:327:368:502:521:698:864:870:913:943:963:987:1132:1210:328:329:353:543:601:788:908:909:945:958:1136:1176:1199:1247:66:367:728:730:825:865:920:1045:1227:0:74:126:377:434:465:580:606:731:734:820:828:873:906:933:986:1021:1050:1072:1078:1158:1201:1224:10:182:206:379:402:410:499:751:757:1038:1051:1142:90:181:194:195:380:385:459:642:738:861:934:942:1110:1112:1203:1205:1228:59:88:132:264:381:400:401:464:509:649:749:841:941:982:1042:1074:1093:1150:1156:1239:311:341:420:455:574:812:910:915:921:972:978 -1:7:11:10:30:6:27:13:43:36:28:33:23:29:5:45:26:12:34:21:25:15:3:35:8:1:39:31:37:24:53:32:44:46:49:54:16:51:50:40:19:52:4:14:38:22:2:48:17:18:9:55:42:47:0:20 -1:4:1:5:2:3:0 -1:26:28:27:30:29:25:24:31:54:53:52:4:5:6:51:50:3:49:2:55:1:7:48:0:76:75:77:78:74:73:72 -1:77:78:75:74:76:73:72:28:30:27:4:29:6:3:26:2:5:25:1:24:0:79:7:52:54:53:31:50:51:49:48:55:99:101:102:100:98:97:96 [1.4088935900360218e-06:1] [1.4088935900360218e-06:1] [1.4088935900360218e-06:1] none none [6.1381619414759519e-06:1] [6.1381619414759519e-06:1] [0:0.21874495860003682] [0:0.29086926982082822] [0.00023888744493780027:1] [1.4088935900366528e-06:1] none [0.00023888744493780027:1] [0.00051238660629709942:0.40860611307533012] [0.0041233220341275008:0.34436257475988097] [0.049612234370044049:0.70894337178195255] [0.054558677800063994:0.15137768616940026] [0.0002388874449378:1] [1.4088935900360218e-06:1] none [0.0002388874449378:1] [0.00051238660629709996:0.28646179292517238] [0.0033678687345215:0.2262267891884443] [0.031435620840664098:0.75392717581181623] [0.032667579801763602:0.063482666530273554] [0.058737197833140152:0.5825600243545066] [1:30] [0:0.21874495860003682]
tree_sizes=11408 11666 11569 11529 11615 11553 11480 11519 11688 11644 11636 11729 11716 11631 11671 11594 11786 11726 11646 11713 11856 11678 11601 11760 11806 11711 11614 12057 11901 12206 11834 11713 11693 11558 12044 12456 12207 12745 11506 12487 11847 11569 12497 12844 13138 12513 12857 12038 12703 12437 13197 13097 12884 13238 11945 13363 13519 13315 12536 13589 13728 13730 13993 12044 11748 13427 13656 11888 13741 13920 13316 11931 11444 14061 11550 13842 14093 11633 13471 14556 13400 12087 12074 14622 13496 11877 14117 14040 13647 13357 14113 13803 11895 13674 11409 13650 13414 13216 11742 14221 13585 13770 13898 13572 13688 13685 13220 11544 13722 13379 11659 13810 13999 13335 13946 11808 13813 13579 13350 14018 13834 13574 11868 13113 11428 13998 13671 13238 13560 13310 13524 11375 13410 13483 13742 13064 11188 13932 11528 13570 13717 13765 13614 13276 13430 14227 11689 13130 13369 13324 13462 13762 11178 13601 11545 13653 14149 11310 13828 13607 13140 11314 11236 11551

Tree=0
num_leaves=127
num_cat=4
split_feature=17 36 36 17 31 31 36 36 36 35 32 44 36 17 36 35 31 53 35 46 31 44 44 53 35 53 53 31 36 53 36 32 31 31 53 31 53 42 36 53 46 35 53 44 13 13 36 36 50 53 35 27 53 42 53 36 36 36 35 36 33 31 53 36 46 53 33 41 32 41 39 53 42 36 53 35 31 53 42 36 42 40 53 34 44 39 42 42 35 53 53 36 13 44 36 44 33 44 36 35 42 34 47 36 32 25 53 33 47 27 53 53 35 35 53 27 46 31 28 31 27 39 42 42 53 33
split_gain=207.857 56.1253 29.9495 11.5859 8.71199 2.24212 1.62316 1.39768 1.39343 1.17794 0.808026 0.591707 0.475867 0.331118 0.303837 0.254928 0.236437 0.212444 0.16789 0.14725 0.128522 0.12146 0.113661 0.112527 0.0975756 0.0751515 0.0745865 0.0664978 0.0542878 0.0542012 0.0541384 0.05048 0.0494997 0.0472553 0.0470474 0.0457456 0.0410955 0.0403869 0.0389258 0.0474024 0.0367539 0.0357421 0.030801 0.0303812 0.029245 0.026674 0.0260501 0.025347 0.0249234 0.0221343 0.0567672 0.0210737 0.0208764 0.0206249 0.0202705 0.0200533 0.0193289 0.0170275 0.0168744 0.0164977 0.0162587 0.0176256 0.0161601 0.0173677 0.0154059 0.0152881 0.0141577 0.0138859 0.0138257 0.0165709 0.0133964 0.0128258 0.0127521 0.0114463 0.0114054 0.0112804 0.0110619 0.0110299 0.0107469 0.0103012 0.00962044 0.00939795 0.00923367 0.00907823 0.0103591 0.00834809 0.00806592 0.00791869 0.00772212 0.00762563 0.00752117 0.0131211 0.00972698 0.0107854 0.00719186 0.00782392 0.00680852 0.00674864 0.00634816 0.00992593 0.00588599 0.00557022 0.00902569 0.00513732 0.00510724 0.00507012 0.00796288 0.00532804 0.00455032 0.00436434 0.00434368 0.00421459 0.00351765 0.00342554 0.00333822 0.0031931 0.00313716 0.00296841 0.00328904 0.00299645 0.00269176 0.00262202 0.00286068 0.00234703 0.00231123 0.00324483
threshold=0 0.11176006541443891 0.6892965735795149 1 0.048043606496952405 0.52376586634099542 0.081768159749569067 0.84071550235094128 0.16213799493658396 0.029959915089911582 0.15437018020306717 0.4502867826162319 0.27939615610975416 2 0.034083600152351727 0.058529098364119903 0.11521011685210376 0.027029616740426057 0.018582056727407242 0.074131960285897261 0.13847131009960331 0.054233677545411203 0.99505161662943908 0.027643720573694127 0.1381356573573452 0.032318162044088668 0.074137476863376447 0.019767089862075867 0.05898374587829975 0.074137476863376447 0.05547364589366257 0.061433050021782294 0.10126771271620401 0.40152988914097071 0.013786016980020573 0.064037199007971016 0.043512755285223755 0.054700929159924569 0.019844256102781736 0.016832570303880207 0.16377988124634518 0.084865974218641171 0.034610213488373565 0.42074620352641406 -5.4107666015624991 -5.3942871093749991 0.1242694831232123 0.092343894776105384 0.059690319497773453 0.029180510228934985 0.066181762571680638 0.11904221093800771 0.037001034418916966 0.054714610948189739 0.051651018370505612 0.047035171498399551 0.025441263072579656 0.37156899714068808 0.013246743991611834 0.044349197795394805 0.024121668777516769 0.086013407688268748 0.046750587109454698 0.25901527018441345 0.08180393646954616 0.030663770523447095 0.025980678679739053 0.050642816852504637 0.036440368489194297 0.050616560190758143 0.099009219999414075 0.035401404066737925 0.054693624026630062 0.15211869248932372 0.031672667095955016 0.046190952713318009 0.064037199007971016 0.037658956489474878 0.089145144640811247 0.07690663347607396 0.054706280447658295 0.072087976130559908 0.035914295742092775 0.023391018845288002 0.063805711869481266 0.057357254294487868 0.14751765602865727 0.05471083098445665 0.024455317315656581 0.029693994071420513 0.024103271863427079 0.094537762557145757 -5.4327392578124991 0.094393740755904065 0.071549966908707477 0.066570704367762717 0.0090027213284151354 0.091138733257564067 0.10130003393055546 0.083198516648882379 0.14751765602865727 0.027558564023874649 0.07841116400867075 0.068273753811939369 0.05313453629363963 3 0.023783408134698109 0.022978869670293119 0.052798624923779132 0.072705524358379819 0.056241303779703468 0.031672667095955016 0.067380006858355115 0.093246943422586437 0.023512324620893862 0.10841132536280756 0.1128591432552319 0.083591810299523603 0.15868481217414102 0.078615429321963651 0.11767798061205277 0.091671803987136521 0.065238782423600025 0.14751765602865727 0.015761348973989609 0.039038553128099264
decision_type=9 2 2 9 10 10 2 2 2 2 10 2 2 9 2 2 10 2 2 2 10 2 2 2 2 2 2 10 2 2 2 8 10 8 2 10 2 2 2 2 2 2 2 2 2 2 2 2 2 2 2 8 2 2 2 2 2 2 2 2 8 10 2 2 2 2 10 2 10 2 2 2 2 2 2 2 10 2 2 2 2 2 2 10 2 2 2 2 2 2 2 2 2 2 2 2 10 2 2 2 2 10 2 2 10 9 2 10 2 10 2 2 2 2 2 8 2 8 8 10 10 2 2 2 2 10
left_child=2 4 5 8 9 11 15 -4 16 18 19 54 13 62 17 28 31 34 58 35 29 27 -9 30 44 47 -7 53 42 116 -17 65 48 -13 56 74 60 -23 39 -20 89 -38 55 -14 77 70 100 105 51 80 59 66 -19 -16 -1 -6 -11 -56 -2 -51 83 -62 63 -5 82 -3 81 -55 69 -39 -34 103 -32 -26 -8 -44 -49 -18 -47 120 -29 -27 -33 -25 -85 -66 117 -36 -40 -22 91 112 -92 101 124 -96 -71 -98 115 -100 113 -94 108 -70 -81 121 -107 -108 -103 -67 -42 -95 -37 -46 -106 -78 -10 119 -119 -87 -74 122 -21 -48 -30 -126
right_child=1 3 7 12 6 26 10 22 20 14 -12 33 43 -15 21 23 24 52 38 25 40 37 -24 36 73 32 -28 49 94 -31 72 64 45 -35 87 90 41 68 88 -41 110 -43 75 -45 46 78 123 76 -50 50 -52 -53 -54 67 57 -57 -58 -59 -60 -61 61 -63 -64 -65 85 109 -68 -69 71 96 -72 -73 79 -75 -76 -77 98 -79 -80 104 -82 -83 -84 84 -86 86 -88 -89 -90 -91 92 -93 93 111 95 -97 97 -99 99 -101 -102 102 -104 -105 114 106 107 -109 -110 -111 -112 -113 -114 -115 -116 -117 -118 118 -120 -121 -122 -123 -124 -125 125 -127
leaf_value=0.10546886220988144 0.086180027835969744 0.090946031845027142 0.12447349535493388 0.097975004804169 0.08772681764032017 0.11489269601060757 0.089512017444667857 0.13005870942526471 0.091960082075912344 0.08657549931874986 0.097724994526470557 0.10740386722171896 0.10050503316198615 0.093340196335651854 0.088825281060428793 0.088370686501534165 0.091704653776490966 0.089085991169417011 0.086472703440104409 0.090178185194190241 0.094380042908207853 0.090178185194190241 0.1350062297959489 0.091076002992085084 0.092893225775238633 0.090178185194190241 0.12033221077084155 0.089299196208611167 0.08888160131407713 0.090262725228215976 0.090178185194190241 0.091072365651719334 0.090178185194190241 0.11109407918692862 0.088721516996521449 0.089733389182772072 0.090178185194190241 0.089712733597446442 0.0868627436965866 0.087781063047168886 0.094903270891250391 0.092565750091701871 0.088796410519631774 0.10369385753391906 0.090856002045176298 0.093414581048585285 0.092534160772851926 0.089709736565231873 0.089745155493317352 0.089284232585624942 0.090178185194190241 0.090042526513168616 0.090717904034125843 0.088581401195022016 0.10611934555490346 0.088283719732343585 0.087161476376375002 0.10870744235736873 0.086490813986639006 0.087723549098792569 0.089181968149340637 0.090353555911059327 0.099271898280076196 0.09927398545207454 0.090985985968445371 0.089332527296564476 0.092069481021457733 0.086738004510705874 0.088478792268189332 0.087728382493554913 0.091916808975452374 0.089986484959985513 0.089082179010078116 0.093733250220517275 0.088290434170443868 0.090237989115585962 0.090668100920197156 0.090316546391274163 0.091778172920739573 0.088962544758750067 0.087812951459555866 0.091427754677075201 0.089919285711305724 0.090691941258702766 0.089447893662344749 0.091446456996829975 0.090376761060538657 0.08735514427495375 0.087202098557196989 0.093443768575901989 0.088847838576499569 0.090593878306409803 0.089783595255708504 0.089940338846925011 0.090178185194190241 0.088980144383981469 0.088299601743563272 0.089614182773507592 0.090178185194190241 0.09101558447432935 0.090540725927515428 0.090632734773018725 0.091406490176227331 0.089173910042027626 0.089651977106937342 0.090178185194190241 0.091507009072725423 0.09020929048610217 0.089708312685112451 0.090178185194190241 0.09380853875518165 0.088806695147582521 0.090178185194190241 0.091920231002527483 0.090178185194190241 0.090261363083569759 0.093475026227019267 0.091879085995815818 0.09105909930625096 0.09028562768065039 0.090007631520252027 0.090178185194190241 0.089435117372507145 0.091527428843450845 0.088329838405371827 0.089492948094168995
leaf_weight=177 1875 46 83 345 406 51 58 60 20 698 39 34 319 35 24 255 37 67 994 21 143 36 94 29 294 25 27 22 172 20 24 43 21 117 27 107 27 27 911 100 589 29 22 20 26 48 411 21 34 34 38 25 23 22 92 541 373 59 1560 104 109 36 191 100 85 31 57 239 180 127 21 30 773 117 53 20 248 38 34 38 1353 24 20 27 37 29 20 542 888 124 26 118 40 35 23 159 239 22 52 323 22 26 20 85 144 222 22 26 27 24 54 23 59 130 21 100 129 344 41 20 21 41 39 31 212 21
leaf_count=177 1875 46 83 345 406 51 58 60 20 698 39 34 319 35 24 255 37 67 994 21 143 36 94 29 294 25 27 22 172 20 24 43 21 117 27 107 27 27 911 100 589 29 22 20 26 48 411 21 34 34 38 25 23 22 92 541 373 59 1560 104 109 36 191 100 85 31 57 239 180 127 21 30 773 117 53 20 248 38 34 38 1353 24 20 27 37 29 20 542 888 124 26 118 40 35 23 159 239 22 52 323 22 26 20 85 144 222 22 26 27 24 54 23 59 130 21 100 129 344 41 20 21 41 39 31 212 21
internal_value=0.090155 0.0891447 0.115236 0.0945183 0.0878205 0.108879 0.0895031 0.130141 0.0929036 0.0870016 0.0906016 0.107561 0.0991297 0.0983215 0.0876429 0.088791 0.0920502 0.0871227 0.0865654 0.0904596 0.0943295 0.0879935 0.133138 0.0892485 0.0925103 0.0907398 0.116876 0.0877691 0.0883385 0.0929762 0.0890452 0.0913189 0.0914653 0.110308 0.0869922 0.0898033 0.090148 0.0885529 0.0868591 0.0865875 0.0945749 0.0913461 0.0881006 0.100712 0.0921272 0.0922406 0.092247 0.0905472 0.0908515 0.0879102 0.0885422 0.0911769 0.0895587 0.0870199 0.106275 0.0880395 0.0867746 0.107175 0.0863196 0.0880709 0.0898447 0.0895072 0.0985872 0.0982801 0.091493 0.0902317 0.0914915 0.0868736 0.0884701 0.0882495 0.0910264 0.088798 0.0892187 0.0931453 0.0888826 0.0896002 0.0907159 0.091069 0.0927997 0.0891909 0.087833 0.0907147 0.0906272 0.0903173 0.0900507 0.0915848 0.0916857 0.0874109 0.0870273 0.0939653 0.0900264 0.0901782 0.0897888 0.0899617 0.0887481 0.0891074 0.0881607 0.088391 0.0907521 0.0909116 0.0916512 0.0902047 0.090504 0.0886824 0.0895701 0.0901955 0.0903198 0.0909096 0.0901782 0.0897247 0.0948197 0.0894031 0.089905 0.0917754 0.089741 0.0905656 0.0933065 0.0917344 0.091805 0.0910757 0.0891003 0.0899241 0.0896881 0.0924752 0.0885992 0.0884129
internal_weight=20513 19719 794 3898 15821 557 5181 237 2888 10640 2035 479 1010 671 4312 3146 1809 1730 6328 1996 1079 2582 154 1570 1106 1404 78 1836 1576 169 1276 703 289 151 1640 592 294 746 2893 1094 910 56 989 339 695 124 620 1115 165 1551 176 131 90 285 328 947 1071 151 3435 138 238 145 636 445 602 101 106 261 710 415 42 295 1021 411 111 42 744 75 82 997 1375 49 63 93 64 539 454 569 1799 267 481 284 197 171 587 182 388 261 723 375 178 113 73 265 203 371 270 48 53 55 643 58 166 156 165 348 149 434 385 49 794 101 60 442 405 233
internal_count=20513 19719 794 3898 15821 557 5181 237 2888 10640 2035 479 1010 671 4312 3146 1809 1730 6328 1996 1079 2582 154 1570 1106 1404 78 1836 1576 169 1276 703 289 151 1640 592 294 746 2893 1094 910 56 989 339 695 124 620 1115 165 1551 176 131 90 285 328 947 1071 151 3435 138 238 145 636 445 602 101 106 261 710 415 42 295 1021 411 111 42 744 75 82 997 1375 49 63 93 64 539 454 569 1799 267 481 284 197 171 587 182 388 261 723 375 178 113 73 265 203 371 270 48 53 55 643 58 166 156 165 348 149 434 385 49 794 101 60 442 405 233
cat_boundaries=0 1 2 3 6
cat_threshold=1 2 4 33554471 0 20480
is_linear=0
shrinkage=1


Tree=1
num_leaves=127
num_cat=5
split_feature=17 36 26 17 26 36 36 36 36 35 17 44 36 17 36 53 36 26 53 26 44 35 26 32 35 26 53 35 43 26 32 26 26 35 53 53 36 35 53 53 26 43 26 53 36 13 36 35 53 36 53 26 53 26 26 26 36 26 53 32 43 28 28 32 28 43 35 36 43 43 36 53 43 53 26 53 53 34 36 53 26 28 53 53 53 43 36 53 26 33 44 53 13 26 35 14 43 25 48 53 33 39 53 32 36 26 35 43 39 50 50 50 50 53 53 26 26 26 53 39 39 53 47 53 44 53
split_gain=187.658 50.6903 27.2925 10.454 7.88583 2.13878 1.46416 1.35505 1.25641 1.10973 0.754288 0.44995 0.427663 0.297354 0.28113 0.268678 0.225217 0.207873 0.169429 0.167309 0.137082 0.123799 0.116071 0.10808 0.0921477 0.0793839 0.0703002 0.0625249 0.0604419 0.0603912 0.0574794 0.0504121 0.0471241 0.0398569 0.0633129 0.0349858 0.0342331 0.0323264 0.0297073 0.0286958 0.0265415 0.0255538 0.0251042 0.025014 0.0245187 0.0244016 0.0226391 0.0286658 0.0225504 0.018799 0.0180039 0.0174169 0.016128 0.0157154 0.0157079 0.0152297 0.0142056 0.0141572 0.0129732 0.0121694 0.0117285 0.0116537 0.0111933 0.0105249 0.0102337 0.00994905 0.00872968 0.00870915 0.00858537 0.00828514 0.0081372 0.00796607 0.00791722 0.00769937 0.00724694 0.00889702 0.00699672 0.00623709 0.00621914 0.00607842 0.00595945 0.00594634 0.0149189 0.00579339 0.00562385 0.00553661 0.0050643 0.00987495 0.00501022 0.00466206 0.004619 0.00451316 0.00449361 0.0041039 0.00480967 0.00651483 0.00421454 0.00398938 0.0039625 0.00391812 0.00380306 0.00375635 0.00371333 0.00357199 0.00350323 0.00340701 0.00334461 0.00341627 0.00319388 0.00308486 0.0101601 0.00627201 0.00787973 0.00299605 0.0028713 0.00278251 0.00275157 0.00254896 0.00245909 0.00241373 0.00235554 0.00359293 0.00234254 0.00230694 0.00225024 0.00212846
threshold=0 0.11176006541443891 0.67061526506104407 1 0.049757959185682162 0.56411804341049476 0.080459681603683469 0.84071550235094128 0.16213799493658396 0.029959915089911582 2 0.4502867826162319 0.27939615610975416 3 0.031490742503295192 0.037658956489474878 0.059615896945024262 0.11836912776767521 0.025045866403779239 0.094025590245218615 0.05869020188512606 0.018582056727407242 0.15502963141458001 0.13402744402296371 0.12706373187822401 0.99505161662943908 0.069991887477374656 0.091941161413266678 0.074131960285897261 0.021399133351154304 0.076461157726229953 0.56750456789278336 0.42928612428367291 0.080421348705816437 0.032318162044088668 0.029180510228934985 0.047580562784880188 0.062912515804816729 0.031672667095955016 0.01310072727068457 0.40066426125380111 0.17915907993349436 0.017196527639296553 0.054205021990308522 0.081768159749569067 -5.4382324218749991 0.046504813815962547 0.059543564834017432 0.037001034418916966 0.13397590699995537 0.047808509045212826 0.089737340891506909 0.029180510228934985 0.10623343784042032 0.0096952817729197022 0.24754553419387212 0.047035171498399551 0.3625009190349554 0.07797520385508265 0.10302007933813355 0.098324320395659165 0.054045884163347456 0.020991301103461351 0.040368168130305977 0.081219616865668018 0.055223291651429536 0.075763108635885063 0.020234638309857271 0.1128591432552319 0.075213560716986164 0.10130003393055546 0.047808509045212826 0.053684291857755535 0.0092164470747390786 0.081090674172210206 0.032318162044088668 0.017275368764640257 0.035809527692927792 0.094537762557145757 0.030967208720026614 0.023449578209432904 0.06189001141299421 0.023330149647672941 0.027029616740426057 0.05024545953877789 0.070863334100052286 0.028464000963752224 0.016387898822280932 0.086704134795139151 0.027073977886982157 0.029326814719622354 0.039391961288716686 -5.4162597656249991 0.092065544958081655 0.094346465251969672 90.736083984375014 0.081189409204800458 4 0.061786508185325759 0.046750587109454698 0.022462991222759927 0.059978011786931393 0.027643720573694127 0.063705259797498207 0.12115666965116208 0.082144226823519212 0.10536809594703898 0.15461977351162889 0.07813094893684254 0.055717938036158259 0.055897556626185237 0.055201709061266112 0.054694943619315754 0.023959364677916834 0.035401404066737925 0.097785623193656704 0.072848259213697156 0.075302613706768967 0.030663770523447095 0.077656313798437196 0.07813094893684254 0.01939613489160558 0.052380788764225451 0.010460965522852028 0.08126240299283731 0.02364549099068099
decision_type=9 2 10 9 10 2 2 2 2 2 9 2 2 9 2 2 2 10 2 10 2 2 10 10 2 10 2 2 2 10 8 8 10 2 2 2 2 2 2 2 10 2 10 2 2 2 2 2 2 2 2 10 2 10 10 8 2 10 2 10 2 10 10 8 10 2 2 2 2 2 2 2 2 2 10 2 2 10 2 2 10 10 2 2 2 2 2 2 10 10 2 2 2 10 2 2 2 9 2 2 10 2 2 10 2 10 2 2 2 2 2 2 2 2 2 10 10 10 2 2 2 2 2 2 2 2
left_child=2 4 5 8 9 11 15 -4 17 21 -8 57 13 55 18 16 36 30 39 28 29 54 26 33 49 -9 68 50 38 58 43 -7 -13 61 70 56 83 88 78 67 -14 52 73 53 80 -36 -37 -48 118 66 62 81 -24 91 -2 99 -31 -1 -16 119 79 72 -17 -46 93 -38 -19 -11 -10 -65 97 -59 -21 -23 89 122 -67 -61 85 -32 125 116 -83 90 115 123 87 -44 109 100 -6 104 -40 94 96 120 103 -35 -68 -5 -66 -97 -53 -30 -3 -98 -71 -108 -74 111 -111 112 -18 -80 -70 -62 -39 -118 -20 -26 121 -96 -76 -12 -47 -22
right_child=1 3 7 12 6 31 10 25 22 14 19 32 40 -15 20 27 37 24 48 23 44 42 41 -25 59 -27 -28 -29 64 35 60 -33 -34 34 45 46 65 51 92 -41 -42 -43 86 -45 63 124 47 -49 -50 -51 -52 102 -54 -55 -56 -57 -58 71 -60 77 84 -63 -64 69 74 76 98 -69 114 106 -72 -73 108 -75 75 -77 -78 -79 113 -81 -82 82 -84 -85 -86 -87 -88 -89 -90 -91 -92 -93 -94 -95 95 101 105 -99 -100 -101 -102 -103 -104 -105 -106 -107 107 -109 -110 110 -112 -113 -114 -115 -116 -117 117 -119 -120 -121 -122 -123 -124 -125 -126 -127
leaf_value=0.014270057234304254 -0.0037879113222783257 0 0.0326211091468857 0.0073462631988509336 -0.002664267181294035 0.02202672600966098 0.0091723358884639276 0.038333088736080351 0.0015917498324140536 -0.0035525851805400751 -0.00010666294277066845 0.016212882852618585 0.0097909640240616286 0.0030043610370322597 -0.0026079149209085155 -0.001226664674168082 -0.0011244515747252093 0.00027083609290846092 -0.0015426952015212166 -0.0011844744766826062 -0.0015008373249751751 -0.0036264436864810179 0.0042423258582110837 0.0038016135184578202 0.0010690225137060859 0.042919269604469422 0 0.0025786126660662921 0.0005344613611744524 -0.0023431949194302466 0.0010263905240917356 0.027001511405192302 0.019723572382376913 4.0799666450213382e-05 9.4699212430585244e-05 -0.00010471110055913858 -0.0017915960544994996 -0.0011957102427570506 -0.0023254496455898783 -0.0027450908481445706 0.012597533633847455 0.0046008434145623231 -0.0032615610582360818 -0.0011448183803752596 -0.0015371510482670948 0.0013045299186072432 -0.0023181122169236017 -0.00022784927560161935 0.00037517485059207782 0.0021320158612882553 0.0011284131325369358 -0.00037148909820492143 0.0033563186842550784 0.0012839690714346352 -0.0034784203073011709 0.0085798534703063201 -0.0019237908330794733 0.014908699503778612 -0.0034321316339691898 0.0025354477944412365 0.0012200995084364619 0.00033994741947486728 4.4815524535002127e-05 -0.0011337476360051791 0 -0.0015566661857874357 0.0011475379052647398 -0.0030565204287953365 0.003725402352961045 0.00030915452502844456 0.00080949078797325376 0.016929873896997256 -0.00038240456001261292 -0.0032157938516120298 0.00081057897469454074 0.0016127018971526207 -0.00093930800547540856 0.0031862788570857954 0.00029220000991374669 0 -0.0014598232416967608 -0.00082030875877079539 0 -0.0015461331750436314 0.0003933983280432301 0 -0.002812782767496047 -0.0024862786610318956 -0.00080002240433555598 0.00044200374570149025 -0.0020852666122084386 -0.00019981473779831177 -0.0011155184630228414 -0.00069578679341570553 0 3.2488765868494076e-05 -0.00070723894091156037 0.00050737995003864408 0.0017417490702025086 0.0084000165110614169 -0.0007659463632379228 0.00090955977433923628 0.00013862270568751878 -0.00022874233052980086 0.00072245616787862963 0 -0.00073411138312206236 0 0.00028919543087061855 -0.0022596427814942015 -0.001279818057936883 -0.00063633794948662436 -0.0021406932071516209 -0.00043538845901780606 0.0028329224276687523 0.0017187549071930133 0 -0.00084072629328468004 -0.0004025440297201878 0.0022728582686578117 9.8539102028973242e-05 -0.00086643835564435877 0.00019221713656998249 -0.0007314447933197617 0.0023905726202341454 -0.0023160961641362572
leaf_weight=129 2108 42 87 297 129 27 24 64 20 462 39 37 315 35 498 22 194 24 53 20 67 544 242 28 27 87 21 36 24 1012 53 53 110 107 23 39 511 207 21 495 24 411 710 23 45 32 62 30 22 270 32 88 178 54 1308 224 490 104 109 218 143 250 51 36 70 224 111 448 105 21 259 96 35 787 31 20 128 207 43 29 341 276 64 93 23 32 624 110 106 48 483 35 91 25 26 39 54 188 208 115 20 35 42 39 44 20 29 22 34 58 163 80 38 20 102 250 23 101 20 48 43 20 112 137 81 90
leaf_count=129 2108 42 87 297 129 27 24 64 20 462 39 37 315 35 498 22 194 24 53 20 67 544 242 28 27 87 21 36 24 1012 53 53 110 107 23 39 511 207 21 495 24 411 710 23 45 32 62 30 22 270 32 88 178 54 1308 224 490 104 109 218 143 250 51 36 70 224 111 448 105 21 259 96 35 787 31 20 128 207 43 29 341 276 64 93 23 32 624 110 106 48 483 35 91 25 26 39 54 188 208 115 20 35 42 39 44 20 29 22 34 58 163 80 38 20 102 250 23 101 20 48 43 20 112 137 81 90
internal_value=-2.18201e-05 -0.000981754 0.023809 0.00412496 -0.00224029 0.0177216 -0.000652567 0.0379955 0.00259104 -0.00302586 0.000371568 0.0164131 0.00850544 0.00773747 -0.00241398 -0.00133387 -0.00143445 0.00178039 -0.00297786 0.000266474 -0.00211958 -0.00345899 0.00394519 0.000707071 0.00220869 0.0410352 0.00292633 0.00077598 -0.000190153 -0.00230916 0.0010881 0.0254145 0.0188855 0.000617646 0.000837512 -0.00213661 -0.00185266 -0.0009755 -0.000686602 -0.00311748 0.0100081 0.00424285 -0.00319611 0.000333383 -0.00145932 0.00182174 -0.00125787 -0.00169178 -0.000859273 0.0017735 0.000108495 -0.000747878 0.00387962 0.000556759 -0.00367097 0.00798956 -0.00220984 0.0152878 -0.0027647 0.00273176 0.001378 0.00015527 -0.000271125 -0.000834973 0.000105661 -0.0016161 0.00147618 -0.00331423 0.00318263 -0.000494993 0.000586588 0.0159118 -0.000307169 -0.00338765 0.000319114 0.000546731 -0.0013467 0.00286488 -0.000377523 0.000704463 -0.0016409 -0.000852678 -0.000660767 -0.00213487 0.00149854 -0.000510279 -0.00301588 -0.00316397 -0.00125284 1.38557e-05 -0.00221589 0.000190139 -0.00138886 -7.6688e-05 -8.22064e-06 0.000157351 -0.000241655 0.000373736 0.00155108 0.00765449 -0.000159233 0.000515464 -0.000168272 0 0.00040696 -0.000500237 -0.000105139 -0.000373849 0 -0.00133335 -0.00156049 -0.001156 -0.0013133 0 0.00331135 0.00155039 -0.00103445 -0.000724206 -0.0012997 0.00190806 -8.45341e-05 -0.00036397 0.000361681 -0.000621531 0.00212865 -0.00200119
internal_weight=20513 19719 794 3898 15821 556 5239 238 2888 10582 2090 476 1010 671 4391 3149 3008 1809 1500 2066 2891 6191 1079 1057 1113 151 248 141 1009 2240 696 80 147 1029 690 1633 1568 1440 383 1405 339 831 2775 198 651 136 131 92 95 613 105 801 420 175 3416 636 1502 329 607 500 498 339 73 153 626 863 343 910 227 108 554 200 89 1331 301 163 352 425 271 82 498 671 340 705 416 208 1444 820 639 138 612 121 112 325 300 163 137 295 319 412 90 74 130 63 86 74 72 51 69 533 221 312 232 63 207 393 331 124 73 75 89 46 143 176 113 157
internal_count=20513 19719 794 3898 15821 556 5239 238 2888 10582 2090 476 1010 671 4391 3149 3008 1809 1500 2066 2891 6191 1079 1057 1113 151 248 141 1009 2240 696 80 147 1029 690 1633 1568 1440 383 1405 339 831 2775 198 651 136 131 92 95 613 105 801 420 175 3416 636 1502 329 607 500 498 339 73 153 626 863 343 910 227 108 554 200 89 1331 301 163 352 425 271 82 498 671 340 705 416 208 1444 820 639 138 612 121 112 325 300 163 137 295 319 412 90 74 130 63 86 74 72 51 69 533 221 312 232 63 207 393 331 124 73 75 89 46 143 176 113 157
cat_boundaries=0 1 2 3 4 7
cat_threshold=1 2 4 4 1124073480 0 13312
is_linear=0
shrinkage=0.05


Tree=2
num_leaves=127
num_cat=6
split_feature=17 36 36 17 31 31 36 36 36 35 17 36 36 17 36 35 31 53 31 43 32 31 53 53 42 35 31 53 36 53 41 36 32 36 53 53 31 53 53 31 35 35 35 53 53 31 13 53 31 36 36 36 53 43 50 47 36 40 13 53 36 53 53 36 33 31 42 53 43 42 22 32 35 34 36 31 53 42 53 36 42 34 36 53 42 39 42 27 28 41 36 42 36 35 36 25 53 33 43 50 34 49 42 27 41 27 42 27 42 28 35 47 53 32 36 28 53 36 36 39 42 33 47 35 42 3
split_gain=169.424 45.7806 24.4643 9.43318 7.11237 1.81012 1.32711 1.13302 1.10982 0.954369 0.675911 0.452066 0.386738 0.276774 0.245501 0.209764 0.194578 0.175211 0.136501 0.131838 0.107676 0.105633 0.0925539 0.0905973 0.0880571 0.0803527 0.0687793 0.0529165 0.0437467 0.0437139 0.0432563 0.0423873 0.0420072 0.0418645 0.0476623 0.040042 0.038583 0.0375579 0.0338851 0.0334231 0.0310947 0.0303002 0.029585 0.025632 0.0255668 0.0288683 0.0253367 0.0249689 0.02493 0.0216903 0.0213386 0.021003 0.0307416 0.0207068 0.0193015 0.0213423 0.0191208 0.0189903 0.0189554 0.0171181 0.0155555 0.0149065 0.0148908 0.0147215 0.0142306 0.0150511 0.0132479 0.0131151 0.0129434 0.0114569 0.0104043 0.0100812 0.00996722 0.00975008 0.00945903 0.00944611 0.00912443 0.00892906 0.00886262 0.00839599 0.00838855 0.0081327 0.0079935 0.00780833 0.00707511 0.00696013 0.00725843 0.00667402 0.0060104 0.00593979 0.00585992 0.0052647 0.00502675 0.00842911 0.00472294 0.00453371 0.0072125 0.00475744 0.00444661 0.00806595 0.00443229 0.00425878 0.00419945 0.00384913 0.00370739 0.00351308 0.00305782 0.0105434 0.00999459 0.00460943 0.00285789 0.00281365 0.00271239 0.00257032 0.00381631 0.00256271 0.00256146 0.00972952 0.00461441 0.00232209 0.00248385 0.00232192 0.00225466 0.00220169 0.00216646 0.00210876
threshold=0 0.11176006541443891 0.6892965735795149 1 0.048043606496952405 0.52376586634099542 0.081768159749569067 0.16213799493658396 0.84071550235094128 0.029959915089911582 2 0.45176356349875219 0.29019889915300612 3 0.034083600152351727 0.058529098364119903 0.11521011685210376 0.027029616740426057 0.020031012534584367 0.074131960285897261 0.13402744402296371 0.13847131009960331 0.027643720573694127 0.019105364463431109 0.054700929159924569 0.1381356573573452 0.030297231693229367 0.074137476863376447 0.05547364589366257 0.074137476863376447 0.050616560190758143 0.05898374587829975 0.061433050021782294 0.053693937627031792 0.034610213488373565 0.032318162044088668 0.064037199007971016 0.013786016980020573 0.043512755285223755 0.10126771271620401 0.013631586833642366 0.084865974218641171 0.15402602157487943 0.034610213488373565 0.069991887477374656 0.33256261471016807 -5.4107666015624991 0.069991887477374656 0.40152988914097071 0.092343894776105384 0.1242694831232123 0.032278886620233219 0.020971210628147292 0.49535658970235213 0.059690319497773453 0.058876484377565957 0.21917754366195288 0.063023554912252325 -5.3942871093749991 0.037001034418916966 0.047035171498399551 0.010131434312237548 0.029693994071420513 0.019844256102781736 0.024121668777516769 0.086013407688268748 0.06524295195305134 0.029693994071420513 0.08180393646954616 0.054693624026630062 4 0.090663815027523534 0.046190952713318009 0.028416102826701064 0.15211869248932372 0.064037199007971016 0.031672667095955016 0.089145144640811247 0.023330149647672941 0.06910337949700722 0.06518566050624823 0.026507751928543506 0.056619717010649752 0.035914295742092775 0.05471083098445665 0.057357254294487868 0.14751765602865727 0.070290480694531116 0.056030132254342259 0.050630568821610787 0.069824420316341937 0.14751765602865727 0.10130003393055546 0.083198516648882379 0.094537762557145757 5 0.023783408134698109 0.022978869670293119 0.074131960285897261 0.044917318183175202 0.029136256332212691 0.051277843879013907 0.054693624026630062 0.072705524358379819 0.08877066982661462 0.10977145136187587 0.065217887649151138 0.046511532306740759 0.071997055691310943 0.12908600695148847 0.093246943422586437 0.03706413785254653 0.020509197175211349 0.052576714521054925 0.07690663347607396 0.098027412016132312 0.035401404066737925 0.23634703966093254 0.19500150455192619 0.091671803987136521 0.065238782423600025 0.0058240442702380745 0.075902412093340157 0.021585748893354552 0.08920368289414482 367.50000000000006
decision_type=9 2 2 9 10 10 2 2 2 2 9 2 2 9 2 2 10 2 10 2 10 10 2 2 2 2 10 2 2 2 2 2 8 2 2 2 10 2 2 10 2 2 2 2 2 10 2 2 8 2 2 2 2 2 2 2 2 2 2 2 2 2 2 2 8 10 2 2 2 2 9 10 2 10 2 10 2 2 2 2 2 10 2 2 2 2 2 8 10 2 2 2 2 2 2 9 2 10 2 2 10 2 2 10 2 10 2 10 2 8 2 2 2 10 2 8 2 2 2 2 2 10 2 2 2 2
left_child=2 4 5 7 9 11 15 16 -4 18 -8 44 13 56 17 31 32 37 40 36 35 29 28 -10 102 46 30 -7 -17 -9 -26 43 67 34 89 49 76 63 64 54 -2 -40 62 60 -1 -46 71 82 -13 95 91 52 -20 -14 55 57 -5 -37 -41 -19 -6 -42 -23 -11 81 -66 80 -3 83 -30 100 -18 -45 -57 -27 -51 -12 -60 94 112 -35 -24 -32 -34 -39 -70 106 124 -89 -28 -33 110 111 -94 -72 119 -97 -98 -68 -100 -38 -102 -16 -69 -83 113 107 -87 -108 -110 -48 -77 -71 -81 -115 -96 118 -118 -44 120 -21 -113 -116 -53 -80 -90
right_child=1 3 8 12 6 27 10 21 23 14 19 48 53 -15 24 22 25 59 51 20 -22 42 38 -25 26 74 33 -29 69 -31 47 90 68 66 -36 39 70 84 41 58 61 -43 116 72 45 -47 50 -49 -50 75 -52 123 -54 -55 -56 73 -58 -59 77 -61 -62 -63 -64 -65 65 -67 98 103 85 79 78 -73 -74 -75 -76 92 -78 -79 87 105 -82 104 -84 -85 -86 86 -88 88 125 -91 -92 -93 93 -95 115 96 97 -99 99 -101 101 -103 -104 -105 -106 -107 108 -109 109 -111 -112 121 -114 114 122 -117 117 -119 -120 -121 -122 -123 -124 -125 -126 -127
leaf_value=0.014031954451449828 -0.0036078709150334058 0.00072412474459468011 0.031006839674158938 0.0070801274746786456 -0.0022121252608894911 0.022271386879530904 0.0087156220837747416 0.0028120015660631284 0.04098189614918793 -0.003359477233549504 -0.0006058360736800291 0.015577310856835933 0.009455807081742526 0.0028545709256549761 0.00044469169276119204 -0.0016296059906487079 0 -0.00097251711391035207 -0.003089949085851812 0 0.0035823234458553163 0.0038293004595777239 0.00071197520184360834 0.036529020692261174 -0.00036594152714623188 0.0024538163029974224 -0.00076001850643716055 0.027200732107971866 3.2632035152316159e-05 5.2191044012228231e-05 -0.0024974725932723121 -0.0014593264554248978 0.00080008195904126764 -0.0013566168481530391 0 0.00094476356732521604 0 -0.0012562530953780752 0 0.00062275436300652761 -0.0034389614211649566 0.0021907441206420433 0.0040373827036562877 -0.0012585944345440058 0.014291197628464373 0.017714329353740389 0.00057912473780927308 -0.00337585141411522 0.018813861918079763 -0.00042655761403327371 0.0020813639565838509 -0.0029807667442264792 -0.0018082263562747437 0.012084786118976624 -0.00044490278434691831 0.00018132539994236246 0.0079819084876654924 -0.00082033834319886537 0.002816715720828596 0.00049764552633419184 -0.0017097942129735784 -0.0030928202646619846 0.0026987399676623013 -0.0028491355905753768 -0.00091454935612030649 0.00016078642205724755 -0.0016159685122149555 -0.00077730749630023992 0.00071508612803300594 -0.0011642530180075838 -0.00023344733945628027 0.0012316265858612842 9.9609738832052356e-05 0.0018220600609472231 0.0032356582776701796 0 -0.0017220099234301072 0.0012527536821690885 0.00021739229320106017 -0.001089840147454426 0 3.0820272426643825e-05 -0.0018601459102751952 -0.00025604398068578086 -0.0025506964341469839 0.00079346535060678463 0.00012125080099227414 -0.0012928355648352281 -0.00056664053710894888 -0.0020742946662909104 -0.0010118598848570498 0.00027351558477906469 0 0.00076833549743200529 0.00043122475816671617 0 0.0012554657675022454 1.8331542668214694e-05 -0.0015246197171713204 -0.00031232085782091634 0 0.0010519679432347071 -0.00044367750507636432 0 -0.00069557087595707604 -2.9395800108048184e-06 0.00037675167483769342 0.0024160093440023702 0.0014601607198352021 0.00034399776847514731 0.0015761082338684612 0 -0.00071484994300092001 -0.00080614314514298254 -0.00055769795566582307 -5.7974352460210917e-05 0.0034565612446481849 0.0045158550424521235 0.0047776669544087247 0 -0.0007028117606802213 0.00045105839815588468 -4.6778957907294825e-05 -0.0024431947233262861 -0.00044574457636584907 0
leaf_weight=241 1911 44 83 252 406 51 24 149 76 463 58 34 259 35 29 255 29 67 1372 21 29 126 40 78 30 294 21 27 24 20 498 363 43 20 32 32 56 27 27 39 1286 29 237 22 48 40 26 100 116 21 442 148 69 25 34 20 439 28 42 23 541 1103 101 608 109 36 397 32 85 361 126 46 20 49 117 46 53 32 30 94 35 30 139 20 542 27 20 41 53 1176 224 22 52 322 61 222 22 26 41 40 20 28 24 25 23 30 41 47 297 22 130 20 114 247 92 20 176 84 186 41 39 282 59 439 20 26
leaf_count=241 1911 44 83 252 406 51 24 149 76 463 58 34 259 35 29 255 29 67 1372 21 29 126 40 78 30 294 21 27 24 20 498 363 43 20 32 32 56 27 27 39 1286 29 237 22 48 40 26 100 116 21 442 148 69 25 34 20 439 28 42 23 541 1103 101 608 109 36 397 32 85 361 126 46 20 49 117 46 53 32 30 94 35 30 139 20 542 27 20 41 53 1176 224 22 52 322 61 222 22 26 41 40 20 28 24 25 23 30 41 47 297 22 130 20 114 247 92 20 176 84 186 41 39 282 59 439 20 26
internal_value=-2.05391e-05 -0.000932657 0.0226229 0.00392043 -0.0021287 0.0168759 -0.000608228 0.00246319 0.0360958 -0.00286859 0.000384862 0.0156884 0.00808165 0.00743693 -0.00229091 -0.00125219 0.00169313 -0.0027593 -0.0032614 0.000282525 0.000545361 0.00374933 -0.000836606 0.0387842 -0.00197505 0.00211093 -0.00201732 0.0240744 -0.00102098 0.00251519 -0.00243342 -0.00166294 0.0010285 -0.00183323 -0.00200451 0.00047815 -0.000339025 -0.00287794 -1.93286e-05 0.00102629 -0.00342772 0.00106735 0.00397274 -0.00187476 0.0145574 0.0159223 0.00176139 -0.00251073 0.0181244 0.000337777 0.0018729 -0.00290613 -0.00303218 0.009709 0.000522453 0.000816291 0.00766135 3.78603e-05 0.00170775 -0.00054118 -0.00193064 -0.00328138 0.0033497 -0.00307472 -0.000296358 -0.000613184 -0.00142862 3.27597e-05 0.00118722 -0.00086393 -0.000133235 0.000771724 -0.000494365 0.00141979 0.00268928 0.000493925 -0.00118486 0.00221049 -0.000259181 -0.000890528 -0.000539221 0.000144041 -0.00236656 0.00038569 -0.00249829 0.00127154 0.00136453 -0.000535412 -0.000738199 -0.00205548 -0.00129729 0.00132629 0.000527677 0.000672274 -2.05464e-05 1.15392e-05 0.000130117 0.000690733 -0.00152037 -0.000988729 0.000273704 0.000652032 0 -0.000413693 -0.00019096 -0.000720109 0.00141027 0.00189335 0.00129659 0.00139898 0.00144245 0.000357765 -0.00106709 -0.000753669 -0.000661458 0.00024886 0.00417197 0.00381962 0.00437577 -0.000244498 -0.000466937 0.000413243 -0.000391321 -0.00258773 0 -0.000385868
internal_weight=20513 19719 794 3898 15821 557 5181 2888 237 10640 2035 479 1010 726 4312 3146 1809 1730 6328 2011 1419 1079 1570 154 2582 1106 2529 78 1276 169 767 1576 703 1762 1229 1390 592 1640 294 276 4300 56 910 989 329 88 695 737 150 1114 620 2028 1441 284 163 129 691 60 113 90 947 2389 227 1071 238 145 533 101 602 1021 481 75 42 69 411 743 111 74 377 997 55 93 637 63 569 539 454 170 120 1197 587 178 722 374 207 371 270 48 478 81 104 48 53 57 53 522 434 74 360 319 156 348 475 492 398 81 683 260 423 101 60 302 151 587 50 79
internal_count=20513 19719 794 3898 15821 557 5181 2888 237 10640 2035 479 1010 726 4312 3146 1809 1730 6328 2011 1419 1079 1570 154 2582 1106 2529 78 1276 169 767 1576 703 1762 1229 1390 592 1640 294 276 4300 56 910 989 329 88 695 737 150 1114 620 2028 1441 284 163 129 691 60 113 90 947 2389 227 1071 238 145 533 101 602 1021 481 75 42 69 411 743 111 74 377 997 55 93 637 63 569 539 454 170 120 1197 587 178 722 374 207 371 270 48 478 81 104 48 53 57 53 522 434 74 360 319 156 348 475 492 398 81 683 260 423 101 60 302 151 587 50 79
cat_boundaries=0 1 2 3 4 6 9
cat_threshold=1 2 4 4 3229614208 1 33554471 0 20480
is_linear=0
shrinkage=0.05


Tree=3
num_leaves=127
num_cat=7
split_feature=17 36 26 17 26 36 36 36 36 35 17 44 44 17 36 53 31 36 26 53 35 44 31 35 31 35 27 26 26 31 43 31 53 31 26 26 42 26 36 26 53 53 26 42 13 53 53 53 53 52 53 53 3 36 35 35 53 35 26 36 36 53 26 26 26 41 53 36 44 53 32 35 22 28 36 32 28 36 42 9 53 42 28 52 53 42 53 53 42 26 35 36 27 41 32 53 36 22 36 36 53 28 53 43 36 36 41 53 27 26 25 53 43 53 53 43 42 41 41 42 32 35 42 32 33 44
split_gain=152.964 41.3492 22.3184 8.51028 6.46095 1.73976 1.1673 1.07559 1.02383 0.919853 0.60965 0.357987 0.349352 0.232549 0.222499 0.200254 0.193017 0.187397 0.140243 0.128836 0.121425 0.108605 0.0912471 0.083978 0.0813596 0.0604873 0.0591993 0.0561363 0.0519623 0.0515272 0.0395909 0.0390863 0.0379729 0.0345151 0.0321411 0.0299655 0.0293907 0.0287206 0.0259996 0.0247034 0.0245758 0.0243313 0.0302757 0.0207762 0.0205281 0.0193333 0.0191963 0.0190453 0.018868 0.0183998 0.0348322 0.0183186 0.0256206 0.0164946 0.0154239 0.0154228 0.0153701 0.0200804 0.0151137 0.014704 0.0132343 0.0229302 0.013203 0.0130558 0.0129453 0.012201 0.0113458 0.0111666 0.0106849 0.0104965 0.0104914 0.0102219 0.00981865 0.00942993 0.00927975 0.00883942 0.00879315 0.00877948 0.00811919 0.0135686 0.0106807 0.00798151 0.0091414 0.00781756 0.00924449 0.0078027 0.0232242 0.00744633 0.00702475 0.00688572 0.00682515 0.00665164 0.00623503 0.00611532 0.00605753 0.00562645 0.00550937 0.005354 0.00564574 0.00523492 0.00516889 0.00494829 0.00494799 0.00468985 0.00467319 0.0045704 0.00453309 0.00451979 0.00446406 0.00438097 0.00420139 0.00414426 0.0039495 0.00394151 0.00730006 0.00368392 0.00363412 0.00342327 0.0034134 0.00338944 0.00331302 0.00325018 0.00317131 0.00313392 0.00306949 0.00302676
threshold=0 0.11176006541443891 0.67061526506104407 1 0.050327851096158109 0.56411804341049476 0.081768159749569067 0.84071550235094128 0.16486951763046107 0.031769050359004285 2 0.4502867826162319 0.26088280080638304 3 0.031490742503295192 0.037658956489474878 0.11521011685210376 0.059615896945024262 0.11836912776767521 0.025045866403779239 0.018582056727407242 0.05869020188512606 0.064037199007971016 0.12706373187822401 0.13847131009960331 0.091941161413266678 0.17276612829553681 0.99505161662943908 0.32663748288640071 0.025577206254712343 0.092110736428743914 0.083591810299523603 0.074137476863376447 0.46606912208277856 0.56750456789278336 0.012537235432617153 0.054693624026630062 0.084950828333628006 0.047580562784880188 0.090945353068669257 0.046750587109454698 0.035401404066737925 0.2161321682424612 0.05471083098445665 -5.4107666015624991 0.047808509045212826 0.031672667095955016 0.01310072727068457 0.030967208720026614 27.500000000000004 0.031343279647765926 0.034108682813334019 97.500000000000014 0.12798256927361487 0.080421348705816437 0.060505649855527067 0.033652005889246099 0.046190952713318009 0.10907774703818836 0.19500150455192619 0.028464000963752224 0.016387898822280932 0.056315839549184309 0.16080180840552247 0.0096952817729197022 0.050630568821610787 0.051651018370505612 0.05308840153343073 0.092150679901873214 0.04913811761730006 0.31914463827778311 0.091941161413266678 4 0.040760096628155863 0.043283058212066898 0.076461157726229953 0.062599506059233617 0.37156899714068808 0.08231130427637566 0.95642797789208711 0.028230033434744565 0.054700929159924569 0.066149599330555614 27.500000000000004 0.017275368764640257 0.14390915077791505 0.042294822087078666 0.037658956489474878 0.065206649607096392 0.076820801862045762 0.059543564834017432 0.12625315496452524 0.089332255957476556 0.072326851446472343 0.052576714521054925 0.022512522435929921 0.095584508350310182 5 0.092343894776105384 0.18733405862486185 0.046750587109454698 0.059891681559583208 0.020135701457605158 0.13713549990087615 0.093583626808602577 0.020234638309857271 0.050616560190758143 0.027029616740426057 0.12376001495655496 0.11281112464548866 6 0.026630578940289123 0.067467368028924918 0.030076804568999881 0.020368667537581056 0.070863334100052286 0.054714610948189739 0.068539185093652671 0.088825267945212519 0.087175331470948983 0.037606825360446704 0.085674008063322524 0.075063429622617625 0.063705259797498207 0.018786721858302217 0.029326814719622354
decision_type=9 2 10 9 10 2 2 2 2 2 9 2 2 9 2 2 10 2 10 2 2 2 10 2 8 2 10 10 10 10 2 8 2 10 8 10 2 10 2 10 2 2 10 2 2 2 2 2 2 2 2 2 2 2 2 2 2 2 10 2 2 2 10 10 10 2 2 2 2 2 10 2 9 10 2 10 10 2 2 2 2 2 10 2 2 2 2 2 2 10 2 2 10 2 10 2 2 9 2 2 2 8 2 2 2 2 2 2 8 10 9 2 2 2 2 2 2 2 2 2 8 2 2 10 8 2
left_child=2 4 5 8 9 11 15 -4 16 20 -8 66 13 40 19 17 31 38 22 47 64 29 46 44 32 45 49 -9 -14 43 39 62 -10 -13 -7 -22 -23 55 107 72 -5 59 99 -16 87 73 -12 105 -21 -20 101 89 -53 71 -52 122 74 -58 69 -26 61 -37 -3 91 -2 -45 -1 -59 92 -33 -30 -46 121 -17 -31 109 96 -68 79 115 -80 -57 106 -40 -85 86 97 -18 -60 -32 -86 -25 120 -55 -64 -63 -70 102 111 -43 -67 -51 -41 -65 -54 -11 -83 125 -108 -39 -91 -99 -94 114 -112 -74 -49 -84 -82 -96 -38 123 -19 -24 -116 -6
right_child=1 3 7 12 6 34 10 27 24 14 18 33 28 -15 21 25 23 37 26 48 35 36 30 63 41 -27 -28 -29 70 56 51 58 -34 -35 -36 60 68 75 83 85 -42 42 -44 65 53 -47 -48 116 -50 50 54 52 104 93 -56 81 57 67 88 -61 -62 95 94 103 -66 100 77 -69 76 -71 -72 -73 78 -75 -76 -77 -78 -79 80 -81 118 82 117 84 90 -87 -88 -89 -90 110 -92 -93 112 -95 119 -97 -98 98 -100 -101 -102 -103 -104 -105 -106 -107 108 -109 -110 -111 113 -113 -114 -115 124 -117 -118 -119 -120 -121 -122 -123 -124 -125 -126 -127
leaf_value=0.013078825913668352 -0.003423680875278608 -0.00078038241919131115 0.029501655307757738 0.0067042244267858722 -0.002392646129117262 0.019875596689122189 0.0082816488886275231 0.034581929231396712 0.0027042057133289093 -0.0032053664591296157 -0.00046854074685095541 0.015582613439060922 0.0083208200968835026 0.0025397097642732855 -0.00082464112403461221 -0.0010940495078782682 0.0012096466731593431 -0.00072529453809071134 0 -0.0014046374401134531 -0.0030992985196534838 0.0003159189655770004 0.0003565339944506326 0.0015896267695293493 0.0037452305051521532 0.0022893970461396736 0.0035128753037557922 0.038769926679941884 0.0093460213420684998 -0.0021276483558811247 0 0.0009280218958592169 4.9594471715297994e-05 0.018366957921409095 0.024365439752849931 -0.0029685847943315483 -0.0017989890997474969 -0.00060102141855089216 -0.0018821026670043921 0.00026457553748643591 0.0078115986134997123 0.0020651792743893974 0.0039893017713848794 -0.00097125800307932783 0.00038830259248168398 0.0010058174107794922 -0.001611991624405079 -0.0013502083311992131 0 0 0.00044307554753195816 0 0.00093904292652272243 0.00082195942323521308 0.0021916301915966756 0 -0.0020874389502958247 0 0.0025609325086571513 0.0045228838223264961 -0.0025086046915051307 -0.0023074523724811147 -6.744001989370618e-05 0.0019835833895240416 -0.0031365650368290116 -0.0025356621192844904 0.013641189914055161 -0.0011530961335228628 -0.00024505857181096613 -1.6776935146843401e-05 0.012044657121747088 0.0014792465896797625 -0.0009081102142879388 0 -0.0017929380116437574 6.2333514548321256e-05 0 0.015919495461982815 -0.00030400407033775209 0.00078259995841853478 -0.00062930910403304193 -8.2829586347137689e-05 0 -0.0015145420567855899 -0.0012762327123194779 -0.00023081373998566588 0.0020442268297215806 0 0.001317295272501715 0.00010065339462859768 -0.00060980438363978403 0.0024128141516410362 -0.0011022587152312716 0.0020591141712414194 0.00086245753137048338 -0.00092476122291986233 -0.0015404264966678773 0 0.0002992949089689662 0.0031178581560076081 -0.003299511627248146 0.00073581395705828937 0.0011505042401873551 0.0032232085914459378 0.0026020872028423223 -0.0027487118319684039 -0.00099644461018696191 -0.0013566640744166792 -0.0019908336512899005 0 0.00045738150224061284 -0.00077247927973280741 0 0 0.0016992591740735343 -0.00010370024235983396 -0.0025331584786569528 -0.00064299432370273294 -0.0017251742738580789 0 -0.0013493693267626311 0.00066504353147455201 -0.0012977324050601423 -0.00025919315742816768 0.00069416100788902081 -0.0018619792014283418
leaf_weight=177 2108 25 87 359 125 27 24 64 102 418 105 73 338 34 25 32 32 73 33 49 1131 22 34 71 322 39 27 87 94 798 78 226 20 74 53 972 176 258 142 78 162 53 155 20 40 33 76 26 39 24 24 20 20 25 83 26 53 31 22 220 826 118 26 35 1310 346 92 49 26 22 23 168 28 44 748 59 24 60 134 32 40 23 22 437 162 56 20 35 303 109 100 344 21 291 62 22 31 78 131 135 87 149 32 128 26 392 300 90 24 22 248 23 20 25 27 68 422 287 28 26 345 22 395 52 55 464
leaf_count=177 2108 25 87 359 125 27 24 64 102 418 105 73 338 34 25 32 32 73 33 49 1131 22 34 71 322 39 27 87 94 798 78 226 20 74 53 972 176 258 142 78 162 53 155 20 40 33 76 26 39 24 24 20 20 25 83 26 53 31 22 220 826 118 26 35 1310 346 92 49 26 22 23 168 28 44 748 59 24 60 134 32 40 23 22 437 162 56 20 35 303 109 100 344 21 291 62 22 31 78 131 135 87 149 32 128 26 392 300 90 24 22 248 23 20 25 27 68 422 287 28 26 345 22 395 52 55 464
internal_value=-1.92996e-05 -0.000885991 0.0214961 0.00372622 -0.00202268 0.0159897 -0.000570334 0.0343266 0.00234197 -0.00272637 0.000369941 0.0148067 0.00767876 0.0067922 -0.00214278 -0.00117027 0.00164813 -0.00125913 0.000271352 -0.00268078 -0.00310052 -0.00188432 7.70026e-05 0.00204745 0.00363275 0.000602259 0.00119666 0.037052 0.00874744 -0.0020607 0.000210773 0.000985285 0.00231037 0.0170298 0.0229392 -0.00285969 -0.00130449 -0.000853384 -0.00165323 -2.59202e-06 0.00705958 0.00380912 0.00337984 -0.00255219 0.0016036 0 -0.000976898 -0.00281172 -0.000751121 0.000979829 0.00111238 0.000519343 0.00134011 0.00171584 0.0018469 -0.000976129 -0.00191765 -0.00128139 0.00116965 0.00407088 -0.00271713 -0.00286729 0.000189056 0.00249228 -0.0033152 -0.00263629 0.0137933 -0.000683024 -0.00136775 0.000824083 0.00992905 0.00129376 -0.000270684 -0.000441701 -0.00196907 -0.00042208 -0.000698852 0.0145833 -0.000402641 -5.82235e-05 -0.000615931 -0.000801779 -0.000835905 -0.00144141 -0.00134448 0.000266366 0.000357129 0.000650053 0.00141762 0.000409944 -0.00104128 0.00228444 -0.00145512 0.00197735 0.00044597 -0.00212668 -0.00103859 0.000243284 6.4572e-05 0.00284893 -0.00270141 0.000628402 0.000521187 0.00298907 0.00199109 -0.00299091 -0.00103407 -0.00190797 -0.00108612 -0.00054199 0.000483105 -0.000184023 -0.000619281 0.000567574 0.000629429 -0.00039105 -0.00247598 -0.000596932 -0.00115584 0.000654318 -0.00151117 0.000113051 -0.0012193 0 0.00108768 -0.00198347
internal_weight=20513 19719 794 3898 15821 556 5166 238 2888 10655 2009 476 1010 555 4168 3157 1881 3009 1985 1346 6487 2822 1645 1169 1007 148 340 151 455 2157 1464 712 122 147 80 3069 665 1489 1520 856 521 885 343 478 591 109 181 1258 88 313 280 608 66 524 107 1150 1679 133 573 542 1938 1112 139 578 3418 453 329 80 643 248 117 208 438 76 1546 339 81 152 330 128 202 682 656 841 699 418 362 67 325 542 262 415 562 316 114 140 57 342 232 188 433 173 110 163 46 810 347 679 324 280 464 101 41 355 330 96 448 309 68 88 521 108 468 86 82 589
internal_count=20513 19719 794 3898 15821 556 5166 238 2888 10655 2009 476 1010 555 4168 3157 1881 3009 1985 1346 6487 2822 1645 1169 1007 148 340 151 455 2157 1464 712 122 147 80 3069 665 1489 1520 856 521 885 343 478 591 109 181 1258 88 313 280 608 66 524 107 1150 1679 133 573 542 1938 1112 139 578 3418 453 329 80 643 248 117 208 438 76 1546 339 81 152 330 128 202 682 656 841 699 418 362 67 325 542 262 415 562 316 114 140 57 342 232 188 433 173 110 163 46 810 347 679 324 280 464 101 41 355 330 96 448 309 68 88 521 108 468 86 82 589
cat_boundaries=0 1 2 3 4 6 8 11
cat_threshold=1 2 4 4 3758096576 1 2692745376 2048 50331662 0 4096
is_linear=0
shrinkage=0.05


Tree=4
num_leaves=127
num_cat=4
split_feature=17 36 26 17 26 36 36 36 36 38 32 44 36 17 36 53 26 36 53 26 44 32 38 53 53 26 32 26 53 52 36 43 53 26 26 43 38 53 53 42 38 26 26 36 36 53 44 26 42 36 42 36 32 38 53 53 26 28 42 26 41 43 34 42 44 25 53 53 26 36 43 49 33 28 32 42 26 38 42 38 52 53 28 43 13 27 42 53 33 27 38 33 27 38 53 36 53 53 41 28 53 32 36 53 38 26 42 33 41 27 53 27 48 53 42 36 36 9 41 53 42 43 34 40 53 26
split_gain=138.106 37.3462 20.1394 7.67939 5.83264 1.56834 1.05566 0.964931 0.923656 0.829281 0.552515 0.32043 0.31937 0.22214 0.209538 0.18126 0.174061 0.169033 0.126368 0.109172 0.104646 0.0915153 0.0772194 0.0706303 0.0552496 0.0488099 0.0447719 0.043551 0.0423432 0.0590339 0.0421043 0.0410152 0.0373538 0.0332506 0.0328343 0.029313 0.028342 0.0279537 0.027577 0.0273426 0.0261983 0.0260057 0.0245487 0.0231276 0.0214732 0.0206652 0.0176765 0.0172472 0.0155324 0.0147669 0.01472 0.014599 0.0142376 0.0138269 0.0136206 0.0132969 0.0129647 0.0129138 0.0127208 0.0124674 0.0123818 0.0119355 0.0116439 0.0106058 0.0101213 0.0100184 0.0156771 0.0133283 0.00988955 0.00898922 0.00877323 0.00859796 0.00825147 0.00811253 0.00804291 0.0076858 0.00745279 0.00694998 0.00687205 0.0068449 0.00674641 0.00807172 0.00649283 0.00682081 0.00615169 0.00612875 0.00658121 0.00601161 0.00572593 0.00534897 0.00531527 0.00576132 0.00514848 0.0051409 0.00730564 0.00499155 0.00471937 0.00469831 0.00456151 0.00446956 0.0043955 0.00428241 0.0042058 0.0278846 0.0041571 0.00402214 0.00400263 0.00386354 0.00376906 0.00400655 0.00372921 0.00367005 0.00350895 0.00336374 0.00330189 0.00325219 0.00324895 0.00316341 0.0030987 0.00298196 0.00285411 0.00278968 0.00278843 0.00275663 0.00412943 0.00503683
threshold=0 0.11176006541443891 0.67061526506104407 1 0.050327851096158109 0.56411804341049476 0.081768159749569067 0.84071550235094128 0.16486951763046107 0.029959915089911582 0.15437018020306717 0.4502867826162319 0.29019889915300612 2 0.031490742503295192 0.037658956489474878 0.11836912776767521 0.059615896945024262 0.022142263895187798 0.094025590245218615 0.05869020188512606 0.011558766102998228 0.12706373187822401 0.058824161764374834 0.058824161764374834 0.021399133351154304 0.076461157726229953 0.99505161662943908 0.035914295742092775 27.500000000000004 0.1995082943071621 0.070863334100052286 0.037001034418916966 0.42928612428367291 0.23923410232006984 0.018653137390799303 0.080421348705816437 0.030663770523447095 0.033652005889246099 0.054700929159924569 0.091941161413266678 0.084950828333628006 0.56750456789278336 0.047580562784880188 0.057818129718161436 0.054205021990308522 0.42074620352641406 0.24754553419387212 0.05471083098445665 0.094537762557145757 0.054719890017458216 0.13397590699995537 0.056569970138484908 0.055619671470321076 0.085563420492824213 0.0185044775344981 0.3625009190349554 0.1015833938793033 0.089145144640811247 0.10623343784042032 0.050630568821610787 0.068516804171066564 0.027779917808272051 0.14754653435940782 0.092150679901873214 3 0.036384736531281624 0.04522106241208939 0.16080180840552247 0.041771583957429255 0.098324320395659165 0.031488694517869356 0.0052034073581133473 0.062599506059233617 0.076461157726229953 0.054700929159924569 0.022640738811483405 0.075763108635885063 0.054722784908684395 0.056280699459556605 27.500000000000004 0.022142263895187798 0.066149599330555614 0.074131960285897261 -5.3393554687499991 0.078321624323024822 0.082555944598092026 0.017808057414582471 0.033342181463957711 0.065221625736255118 0.093246943422586437 0.020306030127736015 0.09245853499891922 0.083198516648882379 0.024805879145307037 0.095584508350310182 0.046750587109454698 0.030967208720026614 0.050630568821610787 0.063662431199581357 0.010565054469027278 0.099262912673712581 0.028464000963752224 0.022512522435929921 0.070634047108711143 0.11281112464548866 0.072051992506824411 0.020306030127736015 0.050616560190758143 0.12376001495655496 0.027029616740426057 0.073559011377229463 0.061786508185325759 0.039391961288716686 0.05471083098445665 0.095584508350310182 0.12115666965116208 0.93540483100319627 0.074672549576704481 0.024346634048966306 0.14751765602865727 0.13995643439905311 0.031375907291959583 0.1065758506958525 0.01939613489160558 0.076035140413723265
decision_type=9 2 10 9 10 2 2 2 2 2 10 2 2 9 2 2 10 2 2 10 2 10 2 2 2 10 8 10 2 2 2 2 2 10 8 2 2 2 2 2 2 10 8 2 2 2 2 8 2 2 2 2 10 2 2 2 10 8 2 10 2 2 10 2 2 9 2 2 10 2 2 2 10 10 10 2 10 2 2 2 2 2 10 2 2 10 2 2 10 10 2 10 10 2 2 2 2 2 2 10 2 10 2 2 2 10 2 8 2 8 2 10 2 2 2 2 2 2 2 2 2 2 8 2 2 10
left_child=2 4 5 8 9 11 15 -4 16 21 19 56 13 47 18 17 26 43 50 31 25 78 51 30 40 48 45 -9 49 -30 32 55 -10 -13 54 100 61 107 69 -22 52 53 -7 110 -40 59 -14 96 -16 88 -11 77 62 106 -25 -8 -1 87 -38 113 -50 -31 -17 70 76 66 84 89 101 114 97 -59 -62 95 105 -55 98 -18 -2 -46 -45 -82 108 -84 119 -57 -87 -52 104 -67 91 -91 -78 117 -95 -66 -5 -28 -41 -72 -23 -24 103 -37 -21 -43 -19 -20 -77 -110 -6 -54 -79 116 -27 -86 -3 -51 -53 -33 -120 -70 -96 124 -92 -126
right_child=1 3 7 12 6 42 10 27 23 14 -12 33 46 -15 20 24 22 41 37 28 39 35 68 34 -26 38 63 -29 29 36 -32 65 -34 -35 -36 102 58 -39 44 64 -42 74 -44 80 79 -47 -48 -49 60 93 57 118 111 75 -56 85 -58 71 -60 -61 72 -63 -64 -65 73 67 -68 -69 121 -71 99 -73 -74 -75 -76 82 92 112 -80 -81 81 -83 83 -85 115 86 -88 -89 -90 90 123 -93 -94 94 122 -97 -98 -99 -100 -101 -102 -103 -104 -105 -106 -107 -108 -109 109 -111 -112 -113 -114 -115 -116 -117 -118 -119 120 -121 -122 -123 -124 -125 125 -127
leaf_value=0.012164700869254417 -0.0018399883664687703 0 0.028028267444069707 0.006284999903028084 -0.0018847608552593374 0.018885483425041847 -0.00014281205128807215 0.032855530978179018 0.003529044478153478 -0.0018349644460436303 0.0062426117856217468 0.013799522937629422 0.0085658894255841965 0.0025773901053229372 -0.00082994617245334438 0 0.00017572589263540239 -0.00036832327670007761 -0.0010221918091419377 -0.00011145656019384743 0 -0.0030954607987174129 0.0014319442673327112 0.0018743819837580952 0.0028908513899370014 -0.00091754981733824887 0.00090998963093908618 0.036833656929116852 -0.00033979608650233531 0.001401099168107062 0.0040850016316503835 0.00017590971312610743 0.0023582441714548857 0.016923560518822166 0.0035495543642751638 -0.0027806080141390029 0.0026835366906789674 0 0 -0.00071959902915941297 0.001438683038461409 -0.00057098198932775983 0.023149461530696202 -0.0017880637472162252 -0.0019842201944747224 -0.0010801507676125089 0.011299504628821986 0.0074148311998635825 -0.00084307006255710307 0 -0.002635669480975847 0.0010309663139428128 0.00077956312459688711 0 7.1451365710259281e-05 -0.0011892524238330826 0.013681443442945657 -0.0017729936291398956 0.0011965447099661832 0.0011153055328162224 -0.0028378795635283826 -0.00012203320229796868 -0.0014168626726463558 0 -0.00023285259860228761 -0.00034000887951854278 0.0014527684144829353 -0.0010674934713334634 0.0020036690736398534 -0.001730705811800448 0.00084221363607326141 -0.0030704763617617021 -0.0022542898604072052 0 5.9222108243244442e-05 -7.8706027641569889e-05 -0.0012856284992776249 0.00095850043910675848 -0.0032381061372925724 -0.00041953351056731454 -0.0013766264274137578 -0.00082411798517802279 -0.00082393482712950412 -0.00029957127316494926 -0.00046132469141661552 -0.0010243974825205622 0 -0.0018531618427767974 -0.00035064748711601196 0.00010192874892367553 3.9984655229827679e-05 -0.00050870731897430731 -0.00013223825224133122 0.00055546552776681852 0.0016822093393523219 -0.0014897355185960887 0.0072683925300607508 0 -0.0019105422417184173 0.0014536775212684754 -0.0027991675878758695 0.0022873283471229137 -0.0024560802275092296 -0.00065610344317316072 0.00034029873792274629 0 -0.0012621685359316545 -0.0020531673419432045 -0.00094499886984177571 -0.0018917049594316246 -0.00128890615832058 0 0.0015124413636077828 -0.00019206350518024374 -0.0020851633528214935 0.00012540389636570402 0.00062472907143969658 0.00046853278198722803 0.0020308672718196532 0.00090259664730927853 0.00087475757308439156 0.0030720915002145359 0.00069050802537936966 0 1.2967396805931232e-05 0.0011207798501693352
leaf_weight=129 26 42 87 304 589 27 107 64 407 81 39 37 264 35 25 20 24 30 54 49 37 1061 52 59 22 22 49 87 39 20 366 87 120 110 35 1169 68 42 41 24 30 258 53 142 38 23 20 270 21 63 658 36 24 26 20 107 200 33 38 54 230 22 32 23 26 87 29 31 42 859 83 516 331 24 59 23 365 111 2350 20 565 134 197 147 44 31 47 75 46 105 62 55 20 308 34 30 117 28 143 322 853 333 719 22 195 22 346 41 357 24 90 20 208 35 699 31 45 98 224 28 22 125 43 32 28 36
leaf_count=129 26 42 87 304 589 27 107 64 407 81 39 37 264 35 25 20 24 30 54 49 37 1061 52 59 22 22 49 87 39 20 366 87 120 110 35 1169 68 42 41 24 30 258 53 142 38 23 20 270 21 63 658 36 24 26 20 107 200 33 38 54 230 22 32 23 26 87 29 31 42 859 83 516 331 24 59 23 365 111 2350 20 565 134 197 147 44 31 47 75 46 105 62 55 20 308 34 30 117 28 143 322 853 333 719 22 195 22 346 41 357 24 90 20 208 35 699 31 45 98 224 28 22 125 43 32 28 36
internal_value=-1.81742e-05 -0.000841708 0.0204255 0.00354154 -0.00192199 0.015194 -0.000542004 0.0326145 0.00222648 -0.00259059 0.000352086 0.0140692 0.00729629 0.0067079 -0.0020664 -0.00111255 0.00156721 -0.00119712 -0.0025561 0.000232623 -0.00181605 -0.00296639 0.00194318 0.00345271 0.000572728 -0.00198085 0.000931347 0.0352035 0.000591719 0.0012855 0.00361149 -0.000150035 0.00327243 0.0161811 0.00216303 -0.00280433 0.00174748 -0.00104683 -0.00182861 -0.00124523 0.000126354 -0.000811409 0.0217982 -0.00157159 -0.000913776 0.000263082 0.00877991 0.00690948 -0.00239336 0.000430417 -0.00270404 0.00153916 -0.00023279 -0.000928364 0.00148182 -0.000644353 0.0131058 -0.00275491 0.00219922 0.000467524 -0.00245178 0.000486108 -0.000823491 0.00118468 -0.00132269 6.27645e-05 0.000333985 -6.81437e-05 0.00239121 -0.00188271 0.00123508 -0.00300193 -0.00250293 -0.000665319 -0.000399759 -0.000787738 -0.00140877 0.0012692 -0.00322499 -0.00153238 -0.00137026 -0.00127799 -0.000817179 -0.000614544 0.000153816 -0.000907186 -0.000455202 -0.00256269 0.000119803 0 0.000101902 -7.69336e-05 -0.00123875 0.000586187 0.000696607 -0.000996765 0.00657183 0.000612378 -0.00176984 0.00134095 -0.00296618 0.00218518 -0.00263938 -0.00274562 0.000229085 -0.00051431 -0.00120426 -0.00152141 -0.000977152 -0.00101823 -0.00181335 0.000352217 0.00133572 0.000139173 -0.0020566 -0.000152388 0.000329902 0.000290835 0.00184923 0.000396913 0.00194819 0.00283467 0.00119487 0.00031456 0.000422741 0.000714891
internal_weight=20513 19719 794 3898 15821 556 5166 238 2888 10655 2009 476 1010 726 4455 3157 1881 3009 1500 1970 2955 6200 1177 1007 148 2286 704 151 1023 187 893 947 527 147 114 3824 148 137 1679 669 126 1489 80 1520 99 199 284 691 607 836 1363 625 96 1150 79 292 329 1282 106 176 582 42 52 505 632 655 219 436 552 1580 482 549 561 80 339 774 552 343 2376 58 841 699 748 344 190 185 78 733 290 405 318 160 385 546 385 56 421 77 167 405 1914 385 1910 1191 244 280 376 95 404 381 679 44 319 122 721 75 87 161 282 115 246 167 77 158 126 64
internal_count=20513 19719 794 3898 15821 556 5166 238 2888 10655 2009 476 1010 726 4455 3157 1881 3009 1500 1970 2955 6200 1177 1007 148 2286 704 151 1023 187 893 947 527 147 114 3824 148 137 1679 669 126 1489 80 1520 99 199 284 691 607 836 1363 625 96 1150 79 292 329 1282 106 176 582 42 52 505 632 655 219 436 552 1580 482 549 561 80 339 774 552 343 2376 58 841 699 748 344 190 185 78 733 290 405 318 160 385 546 385 56 421 77 167 405 1914 385 1910 1191 244 280 376 95 404 381 679 44 319 122 721 75 87 161 282 115 246 167 77 158 126 64
cat_boundaries=0 1 2 3 6
cat_threshold=1 2 4 1811939432 0 4352
is_linear=0
shrinkage=0.05


Tree=5
num_leaves=127
num_cat=4
split_feature=17 36 36 17 32 36 36 36 44 35 17 27 36 44 17 53 46 32 53 36 32 32 32 36 46 53 53 53 53 42 28 35 36 42 36 32 53 36 35 36 32 27 36 27 36 35 36 44 36 42 53 53 47 41 42 53 53 46 42 28 27 34 53 35 53 53 53 36 53 28 32 36 9 36 36 53 44 32 41 53 53 52 46 28 44 32 46 36 28 42 13 40 46 46 53 53 36 53 35 33 28 46 42 44 35 53 50 36 27 53 44 33 53 42 39 40 27 44 42 14 32 42 41 44 42 42
split_gain=126.391 34.4147 18.0324 7.55021 4.82572 1.16379 0.956349 0.886613 0.817622 0.745025 0.501124 0.300096 0.295274 0.210819 0.195842 0.157227 0.144507 0.128686 0.122605 0.103396 0.102092 0.0982155 0.0958793 0.0943343 0.0867673 0.0720199 0.0576743 0.049157 0.0453875 0.0370326 0.0364266 0.0332669 0.0326625 0.0325338 0.0301379 0.029798 0.0284488 0.0281175 0.026244 0.0249545 0.0229033 0.0220017 0.0219012 0.0216207 0.019327 0.0174593 0.0170541 0.0161578 0.0160498 0.0159869 0.015958 0.0158085 0.0139972 0.0138377 0.0137326 0.0132083 0.0124871 0.0120497 0.0117427 0.0145969 0.0116484 0.011012 0.0101163 0.0100542 0.011599 0.00959441 0.0103929 0.00937479 0.00916064 0.00909691 0.00892833 0.00880226 0.00871475 0.00866359 0.00861389 0.0222492 0.00853994 0.0084869 0.00760465 0.00743698 0.00740891 0.00713988 0.00717859 0.00703365 0.0069379 0.00794718 0.00674475 0.00656027 0.00596853 0.0128657 0.00591421 0.00554991 0.00546698 0.00535691 0.00531644 0.00508085 0.0352077 0.00870518 0.00711659 0.00637708 0.00507819 0.00577707 0.0049785 0.00487021 0.00481564 0.0105901 0.0049539 0.00481562 0.00451397 0.00777704 0.00446918 0.00440982 0.00437178 0.0042884 0.00424439 0.00745296 0.00424307 0.00424113 0.00418909 0.00416801 0.00411381 0.00521997 0.00646934 0.00402443 0.0036195 0.0177116
threshold=0 0.10888976167222959 0.6892965735795149 1 0.041732545443168977 0.56411804341049476 0.15826007623896568 0.074168734451114979 0.99505161662943908 0.029959915089911582 2 0.42795262880472951 0.27939615610975416 0.050366687036519302 3 0.040722646860407156 0.074131960285897261 0.090663815027523534 0.085563420492824213 0.047580562784880188 0.014200407271931092 0.45621374450527946 0.016503801515246136 0.39688020104736749 0.15218887682963975 0.042294822087078666 0.017656925064535017 0.03201661312043981 0.054205021990308522 0.054717313863283143 0.15868481217414102 0.1132249935941718 0.037152787128254226 0.054700929159924569 0.063163414190300096 0.34491088609845766 0.027029616740426057 0.090187642130391918 0.024455317315656581 0.19500150455192619 0.071216185969958476 0.09145676997370901 0.12798256927361487 0.03185439562594896 0.065943235225410332 0.080421348705816437 0.094537762557145757 0.072554081054985162 0.1242694831232123 0.054700929159924569 0.028494265476862825 0.044208017387873812 0.041066784760475955 0.050642816852504637 0.054706280447658295 0.032662925915742533 0.019990118693218501 0.075213560716986164 0.054683432340811078 0.059243906947092258 0.09245853499891922 0.027558564023874649 0.040722646860407156 0.083198516648882379 0.025704080040496461 0.0061920331644190153 0.11806763133686014 0.063830733376570567 0.017521149196454412 0.041838805374103408 0.097962813283246297 0.19132574762132418 0.16280825711808994 0.21917754366195288 0.032278886620233219 0.022512522435929921 0.11168690585658837 0.055983263203495871 0.050616560190758143 0.016387898822280932 0.016600070712314289 29.500000000000004 0.07013781971762284 0.084159048398738862 0.063805711869481266 0.039881829835494792 0.12430232960165229 0.16486951763046107 0.010866698562270702 0.065238782423600025 -5.3668212890624991 0.16717844773170185 0.11788159081858419 0.06913020248324217 0.033652005889246099 0.028844865027543274 0.038342718667944281 0.035401404066737925 0.043515269002245956 0.016473003872553075 0.06189001141299421 0.092110736428743914 0.082302068563324296 0.089790556249529016 0.05770939927193839 0.023783408134698109 0.05228524414232686 0.085676931798342931 0.021393857515389154 0.034108682813334019 0.096500408408897509 0.0257677124743859 0.019254236164409525 0.054700929159924569 0.076719102660018287 0.051399653162288068 0.067152219979563957 0.025790967452630053 0.054717313863283143 90.823974609375014 0.11152117113639461 0.14388952490927936 0.089531889000368722 0.085240692841119056 0.072026956684300578 0.072047397878972394
decision_type=9 2 2 9 10 2 2 2 2 2 9 10 2 2 9 2 2 10 2 2 10 10 10 2 2 2 2 2 2 2 10 2 2 2 2 8 2 2 2 2 8 10 2 10 2 2 2 2 2 2 2 2 2 2 2 2 2 2 2 10 10 10 2 2 2 2 2 2 2 10 10 2 2 2 2 2 2 10 2 2 2 2 2 8 2 10 2 2 10 2 2 2 2 2 2 2 2 2 2 8 10 2 2 2 2 2 2 2 10 2 2 10 2 2 2 2 10 2 2 2 10 2 2 2 2 2
left_child=2 4 5 6 9 11 17 15 21 20 -9 23 14 22 51 19 43 28 -13 36 65 -4 29 -1 27 37 32 87 42 -11 47 120 118 -15 49 -14 117 68 -22 62 -30 -29 45 -12 108 80 61 60 72 -21 -44 73 -49 -31 -28 110 107 67 -39 116 -27 77 -26 -61 103 -2 79 -17 123 -47 -50 -43 -33 -5 75 -40 90 -45 -36 -67 -3 93 -83 -54 -58 -86 92 -8 -51 -90 -66 -71 -74 114 -38 99 97 -97 -98 -56 -70 119 -103 -65 -91 -106 -107 -46 -35 -110 -48 -95 -112 -80 115 -63 -60 -6 -24 -102 121 -19 -123 -18 -115 -126
right_child=1 3 8 12 7 -7 24 10 -10 13 16 18 35 33 -16 57 25 31 -20 34 38 -23 26 -25 39 30 54 41 40 53 -32 48 -34 44 78 -37 94 58 74 -41 -42 71 50 46 56 69 55 52 70 88 -52 -53 83 -55 95 -57 84 -59 59 63 -62 81 -64 64 76 66 -68 -69 100 91 -72 -73 86 -75 -76 -77 -78 -79 113 -81 -82 82 -84 -85 85 -87 -88 -89 89 104 -92 -93 -94 111 -96 96 98 -99 -100 -101 101 102 -104 -105 105 106 -108 -109 109 -111 112 -113 -114 124 -116 -117 -118 -119 -120 -121 -122 122 -124 -125 125 -127
leaf_value=0.011694703956988534 -0.0031809882601357129 0.00087731779642376642 0.023919565310337447 0.0056159128583054517 -0.0023680660095573001 0.020595876291786913 0.0021793690403318329 0.0071715486833298821 0.034723770173398893 -0.0013521004284297615 -0.0016479901997420146 0.014805225884339896 0.0080003066600880697 0 0.0020495234113164593 0.0009656492149692843 -0.00036624887623014509 0.0014169006737606944 0.019948019327428106 0 -0.0027040272521180655 0.029164709479842843 -0.0015591214390912635 0.013882116837734474 0.0032355879057510959 -0.00044001879205786258 -0.00017175012233346327 0 -0.0016436840871493317 -0.0013237082930065173 0.003200271129130434 0.00015772177293047 -0.0018287877480441068 -0.0019248745748635017 0 0.010745880846337324 -0.0009704627051703035 0.0014690703152330062 -0.0025712323385801536 0.0037942397333784249 0.0004436677866800692 0.0014166495091999501 0.001646176149912796 -0.0010161825489849482 -0.00078904530642289871 0 0.00060424333879991604 8.5765786603605131e-05 0.0011460653305753736 -0.0017174093437744926 0.00069160029374674601 0.0070793382502868547 0.0010397636727654523 -0.002797548507962295 -0.0014599517016421638 -0.00089081722147076243 -0.00031738003087810034 0.00166813993277267 -0.00056128873212191351 3.8202719971949922e-05 0.00089669441878915024 0 0.0020960475319179478 0 0.0018657651204561654 -0.0028662670578422644 -0.0032088572810351902 -0.00035011875895580268 -0.00011658707863953537 0.0010486738498642586 0.0020862039828925178 0.0025416532986949894 0.0013282681515742187 0.0065496045415412811 -0.0020705102865437048 -0.0010699453658553873 0 -0.00044271447500281294 0 -0.0022986689409968974 -0.00017438100231749403 -0.00010080110669209784 0.00097102407604659829 0.0026053999070893455 -0.0015312625315492649 -0.00022095420452601769 0.001795338518269577 0.0033708569993541773 0 -0.0013864835752624184 0.00078920219588907473 0.00020191322153054051 0.00011393259599683556 -0.0002102655038358893 0 -0.00070772704368823403 -0.0021965245255680518 0.00042126242462916304 -0.0011538499911012366 -0.0019597534894519736 0.00030875643813043908 0.0010722425077920375 9.5604552203775058e-05 0.00048052358312240817 -0.001171552274066218 -0.00079639257494078719 0 0 -0.0015046536333111001 -0.00023578622529064029 0.00028930744494011826 -0.001489854365012006 -0.00034860021882832977 -0.0012749137987243724 0 -0.0013005772918921795 5.23319185998575e-05 -0.0017810486466785327 -0.0024055735157793891 -0.00034563760618325277 0.00048166102679688587 0 0.0011230125774416384 4.5385008715663552e-06 0.0002944364209152931 -0.00084882971560371772
leaf_weight=190 1167 21 27 159 102 72 47 25 97 67 39 141 339 38 29 26 200 283 21 29 2186 119 51 135 371 25 24 20 27 30 25 22 575 165 25 23 46 29 658 424 20 77 149 157 122 40 49 21 53 122 95 223 31 722 235 33 28 35 35 130 35 29 50 41 36 1226 445 21 84 221 550 57 36 273 392 38 22 191 23 167 75 46 20 28 202 22 112 118 23 468 65 38 26 26 21 50 78 20 57 318 63 39 39 352 314 31 33 28 583 22 65 22 45 85 96 21 96 555 909 37 37 24 34 75 29 642
leaf_count=190 1167 21 27 159 102 72 47 25 97 67 39 141 339 38 29 26 200 283 21 29 2186 119 51 135 371 25 24 20 27 30 25 22 575 165 25 23 46 29 658 424 20 77 149 157 122 40 49 21 53 122 95 223 31 722 235 33 28 35 35 130 35 29 50 41 36 1226 445 21 84 221 550 57 36 273 392 38 22 191 23 167 75 46 20 28 202 22 112 118 23 468 65 38 26 26 21 50 78 20 57 318 63 39 39 352 314 31 33 28 583 22 65 22 45 85 96 21 96 555 909 37 37 24 34 75 29 642
internal_value=2.03495e-05 -0.000771556 0.0194763 0.00332141 -0.00183867 0.0145118 0.00205347 -0.000556787 0.0308655 -0.00244168 0.00014228 0.0135979 0.00698534 -0.00193456 0.00633859 -0.00118916 6.49724e-05 0.0013462 0.0155146 -0.00125936 -0.00279184 0.028246 -0.00215369 0.0126227 0.00318096 0.000359471 -0.00198028 0.00242269 0.000787757 -0.00263787 0.00135139 0.00166734 -0.00216814 -0.00136238 -0.00105179 0.00819148 -0.00177517 0.00023379 -0.00258728 0.00346098 -0.000650236 0.00170236 0.000901434 -0.000458374 -0.00140913 0.000645129 -0.000393932 0.000983494 0.00186353 -0.00124172 0.00129544 0.00652051 0.00146514 -0.00274558 -0.0016049 0 -0.00108497 0.000930178 0.000421079 0.000375347 0.00025673 -0.000523729 0.00311265 0.000474159 0.000574276 -0.00301296 -0.00290338 0.000272101 -3.80345e-05 0.000834086 0.00201207 0.00193402 0.00138025 0.0062189 -0.00234789 -0.00249661 0.00102795 -0.000716016 -0.000804496 -0.00280198 4.3225e-06 -0.00024696 0.000149329 0.00187053 -0.00132197 -0.00142504 0.00150593 0.00306327 -0.00127566 -0.0012077 0.00122385 0.000943862 0.000900549 -0.000407548 -0.000670051 -0.00164366 -0.00131362 -0.000313691 -0.00179447 -0.0017567 0.000162218 0.000321854 0.000648692 0.000419341 -0.00123944 -0.00104384 -0.000338395 -0.000652875 -0.00157171 -0.00146682 0.000206036 -0.000902572 0 -0.000832096 -0.00021007 -0.000583511 -7.37768e-05 -0.00188014 -0.00236598 1.65772e-05 0.00123903 0.00130639 0.000679578 -0.000246985 -0.00085301 -0.000791932
internal_weight=20502 19700 802 4073 15627 559 3027 5002 243 10625 2372 487 1046 4346 684 2630 2347 1863 162 2548 6279 146 3136 325 1164 1508 2317 319 686 819 165 1177 1535 1210 1824 362 724 1343 3274 845 47 154 639 839 1172 395 800 140 799 1020 244 655 80 752 782 192 402 82 806 777 60 608 421 646 516 3005 1838 47 537 299 603 134 196 432 1088 696 123 348 804 1393 96 260 66 59 252 224 174 165 991 869 101 259 62 194 67 758 205 70 135 553 262 178 78 393 846 378 64 150 770 605 159 48 110 779 146 50 131 657 960 100 378 341 58 275 756 671
internal_count=20502 19700 802 4073 15627 559 3027 5002 243 10625 2372 487 1046 4346 684 2630 2347 1863 162 2548 6279 146 3136 325 1164 1508 2317 319 686 819 165 1177 1535 1210 1824 362 724 1343 3274 845 47 154 639 839 1172 395 800 140 799 1020 244 655 80 752 782 192 402 82 806 777 60 608 421 646 516 3005 1838 47 537 299 603 134 196 432 1088 696 123 348 804 1393 96 260 66 59 252 224 174 165 991 869 101 259 62 194 67 758 205 70 135 553 262 178 78 393 846 378 64 150 770 605 159 48 110 779 146 50 131 657 960 100 378 341 58 275 756 671
cat_boundaries=0 1 2 3 4
cat_threshold=1 2 4 4
is_linear=0
shrinkage=0.05


Tree=6
num_leaves=127
num_cat=3
split_feature=17 36 26 17 26 36 36 26 36 35 17 26 36 53 44 46 26 26 36 26 31 35 26 26 35 31 42 53 35 26 53 26 31 42 35 36 36 53 53 53 46 53 31 41 26 44 36 35 36 53 36 35 36 53 44 53 53 26 44 41 42 31 26 53 36 42 33 26 53 41 13 53 26 40 33 26 36 53 42 26 28 31 53 53 50 50 27 44 42 9 41 41 53 53 53 36 36 26 34 48 28 35 39 35 53 44 39 36 44 42 26 40 47 31 53 42 40 46 28 39 36 36 36 36 52 35
split_gain=114.106 31.0873 16.3725 6.8123 4.51387 1.25671 0.872862 0.868181 0.862397 0.606813 0.453888 0.282258 0.265052 0.156962 0.132464 0.124802 0.119836 0.116188 0.115364 0.0910032 0.0899254 0.0845965 0.0775108 0.0732366 0.0425914 0.0423334 0.0410806 0.0410503 0.0381211 0.036812 0.0360038 0.0343272 0.0323243 0.0322696 0.0309243 0.0247017 0.0246061 0.0240359 0.0235393 0.0230959 0.0222997 0.0220104 0.017649 0.0171615 0.0162446 0.0157947 0.0152034 0.0150305 0.0149028 0.0143056 0.0141403 0.0138963 0.0138843 0.0189239 0.0138071 0.0135617 0.0133572 0.0130759 0.0130548 0.0125081 0.0113188 0.0107465 0.0096518 0.00953183 0.00945527 0.00895383 0.0084761 0.00847213 0.00843659 0.00832922 0.0081986 0.00802443 0.0130892 0.00792017 0.00759242 0.00722378 0.00716614 0.0318345 0.00696558 0.00680768 0.00656232 0.00631884 0.00688972 0.00602555 0.00641913 0.00725754 0.00931284 0.00589255 0.00556007 0.00528222 0.00520438 0.0115567 0.0050827 0.0050473 0.00497797 0.0113289 0.00629405 0.00456997 0.00454766 0.00454364 0.00461961 0.00456851 0.00440406 0.00622491 0.00423087 0.00703189 0.00416215 0.0040306 0.00391204 0.00373251 0.00372794 0.00372562 0.00563517 0.00367793 0.00564576 0.00364369 0.00356829 0.00374754 0.00329435 0.00328908 0.00306949 0.00306191 0.00293506 0.00261737 0.00255404 0.00253239
threshold=0 0.10888976167222959 0.67061526506104407 1 0.047971299944745555 0.56411804341049476 0.073129653319084983 0.81805837604055009 0.15826007623896568 0.031769050359004285 2 0.42928612428367291 0.27939615610975416 0.040722646860407156 0.051625380474225303 0.074131960285897261 0.11836912776767521 0.99505161662943908 0.14710545569934955 0.017617412531310352 0.021189459842753052 0.045092283914788971 0.14990767195405622 0.12859329715433318 0.080421348705816437 0.092704977112996426 0.054714610948189739 0.017656925064535017 0.10868856676109358 0.097785623193656704 0.064812649865125735 0.077645409468857313 0.42652607533075937 0.054700929159924569 0.15402602157487943 0.037152787128254226 0.060380322789532259 0.025704080040496461 0.044208017387873812 0.0060761307466650656 0.053684291857755535 0.032662925915742533 0.073897246167957273 0.050616560190758143 0.018331347789795952 0.4502867826162319 0.39688020104736749 0.082379532064577723 0.1995082943071621 0.047808509045212826 0.096614177234597434 0.018875621470892747 0.087767734146950951 0.022005767055283485 0.10155010074859032 0.041543783451040671 0.03201661312043981 0.059567672706003653 0.082407234159688966 0.050642816852504637 0.054700929159924569 0.10804687014807941 0.039513599973791308 0.034108682813334019 0.013995671609053252 0.14754653435940782 0.029038518715115414 0.2161321682424612 0.029451175003613248 0.050616560190758143 -5.4162597656249991 0.025704080040496461 0.14990767195405622 0.090179593079861786 0.033342181463957711 0.096560395515371975 0.038342718667944281 0.03201661312043981 0.081746337385557963 0.076035140413723265 0.042330235442163154 0.052692043967925727 0.023783408134698109 0.020368667537581056 0.055717938036158259 0.055201709061266112 0.073559011377229463 0.095449532432157938 0.13663170036395275 0.93540483100319627 0.085731365316915498 0.085187936869428965 0.035914295742092775 0.023783408134698109 0.02233696605790322 0.036231742812034999 0.039757362593834958 0.06889597038084741 0.03484962658313203 0.039039493490787204 0.063662431199581357 0.11887631597588894 0.043674573933540524 0.090236465437292676 0.016716926364625261 0.088624990616843521 0.046541786709325052 0.12115666965116208 0.095449532432157938 0.054706280447658295 0.086704134795139151 0.072364018595718352 0.041310517849840904 0.14632185571848885 0.037001034418916966 0.13668824080367906 0.1040011969480983 0.097211681391056862 0.13531481919895452 0.074643824265337153 0.090187642130391918 0.096614177234597434 0.053693937627031792 0.098873238961096246 27.500000000000004 0.1025619162880189
decision_type=9 2 10 9 10 2 2 10 2 2 9 10 2 2 2 2 10 10 2 10 10 2 10 10 2 8 2 2 2 10 2 10 8 2 2 2 2 2 2 2 2 2 10 2 10 2 2 2 2 2 2 2 2 2 2 2 2 8 2 2 2 10 10 2 2 2 10 10 2 2 2 2 10 2 10 10 2 2 2 10 10 10 2 2 2 2 8 2 2 2 2 2 2 2 2 2 2 10 10 2 10 2 2 2 2 2 2 2 2 2 10 2 2 10 2 2 2 2 8 2 2 2 2 2 2 2
left_child=2 4 5 8 9 11 13 -4 16 19 -8 46 18 21 20 29 24 -9 -5 39 26 63 25 31 55 -10 109 35 71 50 58 81 -14 -16 56 -22 41 54 48 64 -15 60 -39 -35 -45 -13 -1 -44 -20 -42 83 -21 53 -41 104 -3 -24 -26 -25 -28 -23 119 76 110 -2 75 120 -36 -64 -38 89 107 78 -74 122 102 77 -29 -73 124 -62 -17 -83 -12 85 86 97 -68 -27 -31 91 115 121 -82 96 -96 -53 -85 -81 -77 -101 125 -59 -104 105 -33 -106 -18 -60 -11 -6 112 -84 114 -63 -86 117 -113 -58 -30 -49 -72 -46 -108 -71 -102
right_child=1 3 7 12 6 -7 10 17 22 14 15 45 32 40 33 23 28 -19 38 51 27 36 34 30 57 88 59 62 61 70 -32 37 -34 43 67 -37 69 42 -40 52 49 -43 47 44 74 -47 -48 66 -50 -51 -52 94 -54 -55 -56 -57 118 65 108 -61 80 113 68 -65 -66 -67 87 -69 -70 79 92 72 73 -75 -76 99 -78 -79 -80 98 93 82 111 84 90 -87 -88 -89 -90 -91 -92 -93 -94 -95 95 -97 -98 -99 -100 100 101 -103 103 -105 106 -107 123 -109 -110 -111 -112 116 -114 -115 -116 -117 -118 -119 -120 -121 -122 -123 -124 -125 -126 -127
leaf_value=0.011078425003733912 -0.0030980796471659936 0.00011791100376384681 0.024501991871111434 0.00292927365494027 -0.0016872530911948862 0.019806135514444261 0.0068144000116809912 0.029227477783047597 0.00015754937012000441 -0.00014542214750638892 -0.0004944040819739162 0.013083421176029109 0.0075909494520973861 0 0 -0.00092375125202393416 0.00090471828956545776 0.033324755181367148 0.004888802809262109 -0.0026241891002242068 -0.0022151233935761836 0 0.0030014502681397878 0 -5.5828984263373192e-05 0.0025443648444229564 -0.0013271782481733261 -0.0015339970985386285 0.00019360987972088866 -0.0010767882119343392 0.0028728706447773765 -0.0003014926169199177 0.01034977903420275 -0.00018028944892395688 0.0032416564911502618 -0.0017108077035133205 0 -8.7795712244816303e-05 0.0068103246491067627 -0.002665947211700233 0.00053590120783505524 0 0 -0.0018796860389569698 -0.0017118139492815557 0.015205586318328232 0.01265794391007383 0.00084293869446319886 0.0060915248949217748 0.00268368291131441 0 -0.0023688246668398059 -0.0029969041646221951 -0.0018602716912320125 0.00057934817349966996 -0.0012235270140700321 0.001167944921803129 0 0.001736923253052255 -0.0025608233042218329 -0.0014687800285727592 0.0016512371887672393 -0.0012641740024584324 -0.0004010428015891573 -0.0025846386167170362 0 0 0.0038602965966832328 -0.00021337397006526086 -0.0016844797113850661 -1.1625285985981661e-05 0.0011370486723472229 0.00056703582169711391 0.0020061961501384169 -0.00052693888003299484 0.0017368178522909981 -0.0018253419118095121 7.0233287608180561e-05 0 -0.00065934175173634312 -0.0011949999643698873 -0.00027838912012253115 0 -0.00071219118882486702 -0.00035527220014615151 0 -0.001269719857822245 0.0010842441476937106 0.0012530124325651347 0 -0.0017498780677597673 0 0.00084187994258915497 -0.00061537430957502351 -0.00083245946241872508 -0.0021429682577193978 -0.0018134902433493802 0.00018724005284328094 0 0.0003506675120621553 0.0011345893282066158 0.0014640026259498309 0 0.00089726763549291685 -0.00017727275341872955 0.00015942090094933365 0.00046502142504529533 0.0016168205123357441 0.00070965768508100986 -0.0013296000448600302 -0.00062967006487122659 -0.00084090788354346821 0.0011571533829715121 0.0022023357298183795 0.0024702530307781343 -0.0016176015313410321 0.00029354587895795707 0 0.0023550071247239557 0.0013312798835094658 0.001753498018290953 0.00038241173213169092 -0.0012315112155350727 0 -0.00090985430011250937 0.00053125754703508838
leaf_weight=185 1141 66 77 35 839 77 25 79 28 21 313 75 339 26 42 28 72 89 85 714 758 21 155 26 23 203 39 226 22 21 35 136 23 38 449 563 26 35 208 2048 22 33 39 200 113 114 106 42 356 24 79 1272 564 121 207 24 33 22 35 898 409 400 125 26 253 22 24 222 37 28 124 20 32 32 53 58 314 29 66 264 453 226 28 23 21 44 55 20 26 23 44 29 31 84 40 80 142 23 29 41 88 113 27 211 30 206 141 140 49 37 24 21 20 216 54 36 39 20 48 36 75 64 449 36 529 78
leaf_count=185 1141 66 77 35 839 77 25 79 28 21 313 75 339 26 42 28 72 89 85 714 758 21 155 26 23 203 39 226 22 21 35 136 23 38 449 563 26 35 208 2048 22 33 39 200 113 114 106 42 356 24 79 1272 564 121 207 24 33 22 35 898 409 400 125 26 253 22 24 222 37 28 124 20 32 32 53 58 314 29 66 264 453 226 28 23 21 44 55 20 26 23 44 29 31 84 40 80 142 23 29 41 88 113 27 211 30 206 141 140 49 37 24 21 20 216 54 36 39 20 48 36 75 64 449 36 529 78
internal_value=1.94496e-05 -0.000732975 0.0185057 0.00315707 -0.0017472 0.0137465 -0.000561451 0.0292951 0.00195257 -0.002357 0.000123339 0.0127601 0.00663746 -0.00116012 -0.00186499 5.2689e-05 0.0012807 0.0314463 0.00602291 -0.00266041 -0.00202521 -0.00122101 0.00302341 0.000333918 0.000791601 0.00219328 -0.00243108 -0.00182586 0.00162286 -0.00040096 0.00140857 0.00021669 0.00778285 -0.0013138 0.00325285 -0.00200412 -0.0010233 0.000373553 0.00618157 -0.00280714 0.00110732 -0.00120372 0.0008235 -0.00138044 -0.00143023 0.0143973 0.0116751 0.00100793 0.0058722 0.00176833 -0.000599464 -0.0023887 -0.00270241 -0.00262339 0.000226985 -0.000185273 0.0026576 0.000927653 0.000895055 -0.00251496 -0.00124711 0.00184393 -0.00149665 -0.00163246 -0.00300867 0.000969504 0.00122275 0.00345433 -0.0010553 -0.000811512 8.35016e-05 0.00116409 0.00079793 0.00136663 -0.00127566 0.00100371 -0.00161331 -0.001332 0.000315546 -0.000838563 -0.00127268 -0.000177154 -0.000103737 -0.000683915 -0.000881179 -0.000578189 -0.000811948 0.000449184 0.00242018 -0.000505286 -0.00117999 -0.000828659 0.000224794 -0.00111377 -0.00227567 -0.00174882 -0.00231672 -0.000154585 -0.000594078 0.00116993 0.00105105 0.00113589 0.000742467 0.000805254 8.49393e-05 -9.28529e-06 0.000264687 0.00139909 0.00119869 -0.000987893 -0.00166371 0.000165578 0.000516386 0.0019105 0.00176019 -0.00124154 0 -0.000367523 0.00193508 0.000986884 0.00147033 9.60654e-05 -0.00133727 0.000367886 -0.000958065 0.000881689
internal_weight=20502 19700 802 4073 15627 557 5310 245 3027 10317 2473 480 1046 2837 3942 2448 1863 168 684 6375 3047 2765 1164 1518 773 257 995 2052 1090 930 145 1373 362 895 907 1321 1876 991 649 4127 72 1000 235 853 815 189 291 200 441 46 667 2248 2733 2169 756 90 236 683 110 937 967 728 731 889 1394 660 161 671 162 876 263 362 150 64 615 638 569 255 86 850 946 382 354 588 275 145 101 44 229 44 130 86 219 537 1534 120 1414 46 293 378 320 279 260 238 549 342 207 212 84 58 863 128 48 670 454 57 80 41 81 58 117 188 562 177 557 166
internal_count=20502 19700 802 4073 15627 557 5310 245 3027 10317 2473 480 1046 2837 3942 2448 1863 168 684 6375 3047 2765 1164 1518 773 257 995 2052 1090 930 145 1373 362 895 907 1321 1876 991 649 4127 72 1000 235 853 815 189 291 200 441 46 667 2248 2733 2169 756 90 236 683 110 937 967 728 731 889 1394 660 161 671 162 876 263 362 150 64 615 638 569 255 86 850 946 382 354 588 275 145 101 44 229 44 130 86 219 537 1534 120 1414 46 293 378 320 279 260 238 549 342 207 212 84 58 863 128 48 670 454 57 80 41 81 58 117 188 562 177 557 166
cat_boundaries=0 1 2 3
cat_threshold=1 2 4
is_linear=0
shrinkage=0.05


Tree=7
num_leaves=127
num_cat=2
split_feature=51 36 31 51 26 36 36 36 26 43 51 26 36 53 36 31 43 36 53 38 26 26 42 38 31 31 43 38 41 26 53 31 38 36 36 53 53 36 36 53 31 26 38 53 31 53 53 53 44 53 25 53 26 53 44 36 36 44 42 33 43 44 26 26 42 26 42 22 53 42 9 26 53 53 38 28 13 42 26 36 53 34 53 44 42 42 53 53 27 28 42 28 9 42 33 53 42 41 34 36 36 42 31 43 53 42 38 1 53 44 53 44 26 39 42 53 44 13 48 53 26 33 42 38 26 44
split_gain=103.016 28.0848 14.8164 6.14577 4.07528 1.20052 0.78885 0.778505 0.749163 0.548061 0.407639 0.253793 0.239605 0.142255 0.141615 0.131938 0.111069 0.10806 0.0992735 0.0801447 0.0789272 0.0645306 0.0641461 0.0606889 0.0596603 0.0472734 0.0426109 0.0402474 0.0399761 0.0339472 0.0321394 0.0286293 0.0269907 0.0252201 0.0251967 0.0228395 0.0220619 0.0389673 0.0219119 0.0271168 0.020947 0.0201686 0.0200786 0.0199872 0.0183602 0.0171809 0.0169062 0.0168718 0.0157108 0.0155634 0.0147089 0.0149772 0.0136932 0.0128586 0.0123006 0.0115248 0.0113722 0.0110907 0.0101305 0.00997256 0.015084 0.012621 0.00984627 0.0097052 0.00969665 0.00957215 0.00906341 0.00905981 0.00993722 0.0090404 0.0111524 0.00889594 0.00823048 0.00755073 0.0074353 0.00702614 0.00870732 0.00699494 0.00677207 0.00661922 0.00644082 0.00640806 0.00757748 0.0117201 0.00695393 0.00648383 0.00622443 0.0061907 0.00604815 0.00697602 0.00587751 0.00565043 0.00563595 0.00690794 0.00561246 0.00551762 0.00549975 0.0143546 0.00506723 0.00498748 0.00485841 0.00465902 0.00580602 0.00452672 0.00434272 0.00433184 0.00406202 0.00390576 0.00378683 0.00457155 0.00371861 0.00370431 0.00369585 0.00369331 0.00360782 0.00355658 0.00415349 0.0034493 0.00546504 0.00407252 0.00340743 0.00318843 0.00305352 0.00298728 0.00377418 0.00287295
threshold=0.42655620771115049 0.10888976167222959 0.62722637478413035 0.072697212782439721 0.047971299944745555 0.56411804341049476 0.074168734451114979 0.16486951763046107 0.81805837604055009 0.02694466900956945 0.17860480939976681 0.42928612428367291 0.29019889915300612 0.040722646860407156 0.031141996339212972 0.12237287615446808 0.074131960285897261 0.14710545569934955 0.02110604863061372 0.045092283914788971 0.99505161662943908 0.12859329715433318 0.054706280447658295 0.013631586833642366 0.10922779095885325 0.036849998317410794 0.13995643439905311 0.080421348705816437 0.050616560190758143 0.097785623193656704 0.064812649865125735 0.075704125214641094 0.049561726798658584 0.060380322789532259 0.21917754366195288 0.025704080040496461 0.010673862529265797 0.02325884021443413 0.19500150455192619 0.032318162044088668 0.40152988914097071 0.0089109197585406016 0.075763108635885063 0.032662925915742533 0.092704977112996426 0.041543783451040671 0.033652005889246099 0.046750587109454698 0.4502867826162319 0.047808509045212826 0 0.019105364463431109 0.10623343784042032 0.037658956489474878 0.082407234159688966 0.39688020104736749 0.070579772532478727 0.10155010074859032 0.054700929159924569 0.017941637226881951 0.10662923808885287 0.080142990816658002 0.092065544958081655 0.56750456789278336 0.054693624026630062 0.017617412531310352 0.14754653435940782 1 0.019254236164409525 0.065233934599133556 0.16280825711808994 0.065952579149832213 0.034108682813334019 0.017925038316200039 0.091063516650355072 0.054045884163347456 -5.4272460937499991 0.071997055691310943 0.0066032611300703009 0.043283058212066898 0.021418023946313692 0.041191859028684184 0.042992207580912885 0.12545080548687187 0.072026956684300578 0.074991725967872847 0.034108682813334019 0.040722646860407156 0.12067768854846976 0.043306488652036103 0.072047397878972394 0.042330235442163154 0.91037613702198772 0.082584993635783879 0.035292430255207445 0.035039738139983824 0.082596108081967642 0.085275994943966316 0.031631999446616731 0.094537762557145757 0.009818871254436751 0.14388952490927936 0.15466491075872499 0.13545685702424318 0.023783408134698109 0.054719890017458216 0.031769050359004285 5.5000000000000009 0.02364549099068099 0.095449532432157938 0.0461469695435179 0.091138733257564067 0.10493704423934806 0.050535827126713166 0.075066608029579471 0.016716926364625261 0.088624990616843521 -5.3009033203124991 0.071130168597482363 0.019990118693218501 0.13260384244540482 0.014413831162402515 0.072035035059757321 0.056280699459556605 0.0987640226469534 0.10269859780191201
decision_type=2 2 10 2 10 2 2 2 10 2 2 10 2 2 2 10 2 2 2 2 10 10 2 2 8 10 2 2 2 10 2 10 2 2 2 2 2 2 2 2 10 10 2 2 8 2 2 2 2 2 9 2 10 2 2 2 2 2 2 10 2 2 10 8 2 10 2 9 2 2 2 10 2 2 2 10 2 2 10 2 2 8 2 2 2 2 2 2 8 8 2 10 2 2 10 2 2 2 10 2 2 2 10 2 2 2 2 2 2 2 2 2 10 2 2 2 2 2 2 2 10 10 2 2 10 2
left_child=1 4 5 7 9 11 13 15 -4 23 16 55 17 19 18 27 29 -5 65 72 -10 31 64 -1 62 28 52 47 -24 50 54 69 -27 43 110 57 37 -25 39 -26 -14 87 94 58 71 79 -20 73 -13 -40 96 99 -17 -36 -23 -2 -47 113 -21 61 92 -37 -9 -7 -16 105 81 68 -35 70 -18 -29 106 -3 80 76 -31 -71 100 -34 -54 84 83 -83 95 122 98 -30 89 -73 -79 -60 114 -94 -15 -46 107 -98 -62 -52 -38 102 -76 123 -93 -11 -6 -8 -56 -110 -19 -53 -87 -33 -61 116 -115 118 119 -92 -28 -77 -86 -69 -125 -123
right_child=2 3 8 12 6 63 10 24 20 14 -12 48 40 42 22 26 21 34 46 33 -22 30 25 36 38 32 120 44 41 75 -32 35 45 67 53 59 78 -39 49 -41 -42 -43 -44 -45 66 56 -48 -49 -50 -51 51 111 74 -55 108 -57 -58 -59 91 60 86 -63 -64 -65 -66 -67 -68 103 -70 77 -72 88 -74 -75 101 121 -78 90 -80 -81 -82 82 -84 -85 85 112 -88 -89 -90 -91 117 104 93 -95 -96 -97 97 -99 -100 -101 -102 -103 -104 -105 -106 -107 -108 -109 109 -111 -112 -113 -114 115 -116 -117 -118 -119 -120 -121 -122 125 -124 124 -126 -127
leaf_value=-0.0028068766500936723 0.010524802922655093 0.00090752184627369457 0.023424395119940249 0.0027832272384273275 -0.0018412285245037231 0.016566859733607761 0 0 0.027894090059975552 -0.0014715977907856065 0.0064750373897799448 0.012402979626213832 0.0073240834532224842 0.0008015396148496047 0.00040279217345124991 0.00053072030236864405 -0.00033041487295273306 0.0049923205185425481 -0.0011474196584449533 0 0.031660389164347706 0 -0.00014482727956024259 -0.0027043375423903681 0.0030394580472326454 -0.0016702410065754737 0.0016650919883955885 -9.8589848895295028e-05 -0.0020573240263912999 -0.001132277681291439 0.002729636323611727 -0.00029039950393767398 -0.0016101848135136175 -0.00065514346785378963 0.0058467358350753782 0 -0.0017420983321642419 -0.0021028423723308729 0.003586759130066296 0.0020633985992953192 0.0096882334671258008 -0.0017607781997747013 0.0019212233107482408 0 0.0013884349497300587 0.00057398302334921332 0.00011899962643740244 -0.0012966716034217409 0.014463688706336698 0.0027267231234657172 -0.00046248404372505291 -0.0011144220059936588 0.0011539504682261503 0.0068032690253044623 0.00019557724685978088 0.012025643189935389 -0.00087737754169863911 0.00050653864677506304 -0.0013953589806954673 8.0731835804731249e-06 0.00095045636173751193 0.0017103957177162618 0.0016905670223840274 0.020261488621200904 -0.00063101052079671228 -0.002140854851921867 0 -0.0010988422552590503 0 -0.0010250754577657234 0.0010028738008551539 0 -0.00038106748080451997 0 0.0015317728973014775 -0.00013485237215623541 0 0.00050549594948473228 -0.0021916726890631537 -0.0011307169379974685 0 0.00024264084140612703 0 0.0014918664680028527 0.00075427640776210166 0.00075203079709289732 0.0015340819533628659 -0.002761508765088517 0 0.00094046934656964894 -0.0001955599732289935 -0.0011352631437222846 0.0010317644662352213 0 -0.00025229888296016064 0.0026609194325887923 0.0004594066726280947 -0.00086160492973575212 0 0.00017497528226528302 -0.002577401373574064 0.0010032061310353833 0.0023308625410737574 0 -0.00058464217723325663 -0.0025455453459909409 -0.0014596200850842628 0.00070253169947746309 0.0020059071061101731 0.00074772876693623654 0.0060616561656214232 -0.00049539421577970055 0.0013080074547742692 -0.00021195787205387977 -0.00069029528168253467 0.00029318365478999179 0.00015756742891808416 2.4796479304465852e-05 0 -0.0010598177391724561 0.0022900491936402897 0.00050029099941170955 0 -0.00081029912841747067 0 0
leaf_weight=1926 185 33 76 35 254 29 42 20 77 33 25 76 279 21 31 58 24 173 119 21 89 25 39 1564 342 684 107 34 278 21 35 55 169 149 267 20 60 438 355 143 26 918 34 33 102 21 25 20 115 138 190 201 32 180 20 106 30 219 409 20 24 53 23 49 59 707 25 238 92 36 31 25 26 74 378 21 63 21 1347 513 20 49 25 49 20 92 40 108 21 124 46 453 26 30 22 23 27 56 22 24 543 78 56 22 84 705 612 26 27 37 86 66 263 120 27 192 201 34 63 43 278 117 20 409 26 35
leaf_count=1926 185 33 76 35 254 29 42 20 77 33 25 76 279 21 31 58 24 173 119 21 89 25 39 1564 342 684 107 34 278 21 35 55 169 149 267 20 60 438 355 143 26 918 34 33 102 21 25 20 115 138 190 201 32 180 20 106 30 219 409 20 24 53 23 49 59 707 25 238 92 36 31 25 26 74 378 21 63 21 1347 513 20 49 25 49 20 92 40 108 21 124 46 453 26 30 22 23 27 56 22 24 543 78 56 22 84 705 612 26 27 37 86 66 263 120 27 192 201 34 63 43 278 117 20 409 26 35
internal_value=1.86329e-05 -0.00069628 0.0175836 0.00300112 -0.0016603 0.0130952 -0.000533561 0.00185694 0.0279396 -0.00223972 0.000134375 0.0121296 0.00630697 -0.00108824 -0.00181637 0.0012804 6.54012e-05 0.00578964 -0.00220316 -0.00114681 0.0299613 0.000330927 -0.0015989 -0.00255853 0.00298456 -0.00164206 0.00168956 0.000862828 -0.00186724 -0.000374293 0.00134346 0.00021888 -0.001425 -0.000959177 0.00593119 0.000343536 -0.00243617 -0.00257535 0.00306747 0.00276246 0.00754511 -0.00191491 0.000996763 -0.00114404 0.000984003 -0.00118913 -0.000892927 0 0.0136768 0.00335676 -0.000572494 -0.000703639 0.00140872 0.00624454 0.000850433 0.0110926 -0.000181957 0.000200143 -0.00118539 0.000754944 0.000516894 0.00130132 0.000980133 0.0189748 -0.000219377 -0.0023302 0.00111797 -0.00075623 -0.00038693 -0.000203121 0.000330787 0.000520503 -0.0015483 0.000279792 0.00149004 9.36945e-05 -0.000250636 -0.000344618 -0.00229059 -0.00125708 0.000715101 0.00115485 0.000720631 0.000919106 0.00124778 0.00110287 0.00101048 -0.00226796 0.000673701 0.000786899 -0.000201697 -0.00120959 5.56982e-05 0.000432927 0.000147023 0.00166448 -7.02425e-05 -0.000371674 0.000444369 -0.000367591 -0.00250288 0.00155883 0.00164691 -0.000859096 -0.00105857 -0.0025045 -0.00157752 0.000213951 0.00114188 0.00135883 0.00536889 -0.000980366 0.00117826 7.31389e-05 -0.000287574 0.000121908 3.83267e-06 -0.000308638 -0.000416062 -0.00066996 0.00212982 0.000289817 0.000307907 -0.000895025 -0.000771793 0.000381412
internal_weight=20502 19700 802 4073 15627 560 5310 3027 242 10317 2405 482 1046 2905 4439 2006 2380 741 1589 2828 166 1491 2850 5878 1021 2760 1007 999 1343 889 144 1347 1417 1936 706 1049 3952 2002 978 485 305 1304 77 1000 872 733 144 127 191 493 632 481 622 447 109 291 51 787 967 262 189 73 43 78 90 1445 668 936 241 298 55 204 892 107 564 257 84 243 1950 682 52 643 123 98 520 395 86 386 170 149 207 946 103 56 43 125 151 83 46 214 603 512 434 695 537 738 866 68 84 64 259 267 355 568 47 513 321 186 152 89 385 173 40 673 435 152
internal_count=20502 19700 802 4073 15627 560 5310 3027 242 10317 2405 482 1046 2905 4439 2006 2380 741 1589 2828 166 1491 2850 5878 1021 2760 1007 999 1343 889 144 1347 1417 1936 706 1049 3952 2002 978 485 305 1304 77 1000 872 733 144 127 191 493 632 481 622 447 109 291 51 787 967 262 189 73 43 78 90 1445 668 936 241 298 55 204 892 107 564 257 84 243 1950 682 52 643 123 98 520 395 86 386 170 149 207 946 103 56 43 125 151 83 46 214 603 512 434 695 537 738 866 68 84 64 259 267 355 568 47 513 321 186 152 89 385 173 40 673 435 152
cat_boundaries=0 3 5
cat_threshold=1610612736 524288 16896 138422536 1067014
is_linear=0
shrinkage=0.05


Tree=8
num_leaves=127
num_cat=3
