tree
version=v4
num_class=1
num_tree_per_iteration=1
label_index=0
max_feature_idx=56
objective=regression
feature_names=Column_0 Column_1 Column_2 Column_3 Column_4 Column_5 Column_6 Column_7 Column_8 Column_9 Column_10 Column_11 Column_12 Column_13 Column_14 Column_15 Column_16 Column_17 Column_18 Column_19 Column_20 Column_21 Column_22 Column_23 Column_24 Column_25 Column_26 Column_27 Column_28 Column_29 Column_30 Column_31 Column_32 Column_33 Column_34 Column_35 Column_36 Column_37 Column_38 Column_39 Column_40 Column_41 Column_42 Column_43 Column_44 Column_45 Column_46 Column_47 Column_48 Column_49 Column_50 Column_51 Column_52 Column_53 Column_54 Column_55 Column_56
feature_infos=none [0:14] [0:45] [0:885] none none -1:0:1:2:3 [-0.49999999999999972:1] [-1:1] [-0.65934581510006884:1] [-1:1] none none [-5.48492431640625:-5.23773193359375] [90.5877685546875:90.9722900390625] [1:5] [-14.935096760357844:46.636316553649181] -1:2:3:0 -1:3:1:0:2:4 -1:1:0 -1:1:0 -1:25:28:29:31:32:33:34:36:44:48:49:55:56:57:58:60:67:70:71:72:86:92:94:100:102:103:105:106:109:111:112:113:114:115:116:117:118:119:120:122:127:129:130:133:135:136:137:138:139:140:141:143:144:147:148:149:150:151:152:153:154:155:157:159:160:161:162:163:165:438:439:441:449:451:453:454:472:473:474:475:478:479:480:481:482:483:484:485:486:487:488:489:490:492:494:495:496:525:527:533:548:549:550:551:557:558:560:581:582:586:587:592:593:598:602:603:605:607:608:610:613:614:615:616:618:625:626:631:632:633:634:644:646:647:889:890:892:893:898:899:916:917:927:928:946:948:953:30:35:43:47:54:61:69:80:81:93:99:104:108:110:156:158:164:166:171:173:174:183:189:196:197:199:200:202:204:205:207:208:209:210:211:213:214:215:216:218:219:220:221:222:223:224:225:226:227:229:230:231:232:233:234:235:236:237:238:239:240:241:242:243:244:245:246:247:248:249:250:251:252:253:254:255:256:257:258:259:267:268:269:270:271:272:273:275:276:281:282:283:284:287:289:291:293:297:298:299:300:301:303:304:305:309:314:315:316:319:322:338:340:343:346:349:360:391:424:435:448:450:491:493:497:507:520:523:524:526:539:561:563:588:611:617:619:622:624:650:653:654:655:656:657:658:659:660:664:665:668:669:670:671:672:673:674:675:679:680:681:682:684:686:688:690:691:693:696:697:702:705:710:711:713:714:715:716:717:720:721:724:739:743:745:755:761:762:764:765:766:767:768:769:770:771:772:773:774:775:776:777:778:779:794:796:798:801:804:806:807:810:811:817:819:821:829:832:835:837:839:840:843:844:849:851:852:854:855:856:857:858:867:868:874:875:877:878:879:880:897:938:950:952:967:974:989:990:991:992:993:995:996:999:1001:1002:1003:1004:1007:1011:1012:1014:1015:1020:1027:1029:1035:1036:1043:1048:1059:1060:1062:1065:1066:1067:1068:1081:1082:1083:1086:1104:1120:1121:1162:1175:1177:1180:1198:1206:1207:1208:1211:1213:1220:1223:1225:1226:40:42:45:68:75:83:125:177:201:203:217:286:288:302:313:370:428:444:532:546:567:599:609:612:635:687:689:703:712:719:726:782:816:847:885:1019:1047:1063:1094:1108:1160:1171:1172:1178:1179:1185:1230:1232:37:38:168:172:178:185:212:262:274:285:326:335:369:371:383:415:422:432:445:446:467:512:538:562:570:590:620:627:645:648:652:661:708:722:723:725:750:780:783:797:805:842:866:1017:1018:1033:1053:1054:1064:1084:1106:1148:1229:85:145:170:317:323:416:442:447:547:553:556:569:591:629:700:701:747:753:1000:1009:1026:1105:21:107:175:176:228:266:347:351:476:529:578:636:754:860:881:902:1005:1023:1069:1130:1165:1181:16:23:46:50:76:82:95:101:186:345:384:430:535:594:597:683:704:792:793:836:838:872:955:1034:1098:1124:1137:1152:1163:1187:17:20:41:52:62:79:307:638:685:709:809:922:997:1013:1219:290:359:390:433:508:568:577:585:621:718:737:876:882:1061:1151:1169:1170:1241:169:188:190:437:579:604:692:823:827:935:998:1057:1125:1174:312:325:707:736:808:954:1101:1114:1118:1122:1173:13:24:123:277:350:354:376:389:403:412:537:545:596:628:651:666:830:949:1109:1244:91:142:421:470:559:695:758:848:853:951:966:1006:1008:1052:12:89:121:337:667:926:1191:11:19:477:583:600:663:678:706:1216:310:339:440:518:694:871:1202:1243:1257:53:84:365:519:630:763:790:891:936:994:1214:98:193:324:355:358:501:760:859:1028:1055:1079:1147:1242:96:334:336:342:344:356:375:824:846:896:1031:1161:39:134:167:924:939:1089:27:146:321:352:566:572:584:784:850:894:923:969:1049:1056:1087:1123:15:87:294:296:510:589:601:799:802:1037:1111:1141:26:51:735:931:1107:1218:8:781:944:1135:63:73:372:544:756:826:1091:1140:1236:22:320:413:418:534:676:730:748:820:348:366:388:431:443:795:833:925:947:1117:1200:1231:77:180:187:469:555:813:834:895:971:983:1085:64:198:261:414:429:522:818:940:1010:1025:1039:1046:1134:1248:7:9:18:260:308:423:576:742:869:884:1131:1204:184:374:426:536:791:1127:279:362:1040:3:10:295:368:623:728:900:970:973:977:1071:1072:1167:1246:404:462:540:543:1041:1192:528:870:929:1051:1144:381:468:741:959:1136:4:74:192:206:263:364:504:845:864:933:960:1022:1050:1132:357:521:552:734:788:887:901:986:1145:1153:861:1199:382:436:502:541:738:863:963:1195:5:332:400:571:909:1143:1146:132:179:327:961:1021:1201:1209:1247:66:126:306:367:377:393:402:464:606:740:757:865:903:945:972:987:333:379:580:908:1210:385:751:825:1252:353:554:943:958:1045:1133:1149:1158:1205:1224:59:182:328:329:331:380:411:511:913:920:1110:1203:1227:698:731:828:1024:1150:1176:0:90:420:800:906:1038:1157:1251:499:509:841:918:982:1042:1193:1228:181:410:434:465:981:1103:1113:1222:1237:6:124:459:471:749:873:934:1142:131:264:387:399:455:812:915:956:984:1078:1112:1115:1156:1233 -1:11:7:10:30:6:27:36:43:13:33:23:28:5:29:45:12:21:25:34:26:35:3:15:1:8:31:39:53:32:37:24:46:44:49:16:54:51:50:40:52:19:4:14:38:22:2:48:17:18:9:55:42:47:0:20 -1:4:1:5:2:3:0 -1:50:52:51:54:53:58:55:57:49:56:59:60:61:48:62:11:12:13:82:78:83:79:10:77:76:84:9:81:8:4:5:85:6:80:75:7:14:86:74:3:73:2:1:72:0:29:35:37:26:28:31:32:33:24:34:30:36:25:27 -1:82:77:78:81:80:75:74:76:79:84:83:73:85:72:28:30:27:4:10:29:6:11:31:7:35:36:33:12:3:26:2:86:32:5:9:8:25:34:1:37:13:24:0:38:14:52:58:59:54:53:50:56:57:55:51:60:49:61:62:48:99:101:102:100:104:106:107:108:98:103:105:97:109:96 [0:1] [1.4088935900360218e-06:1] [1.4088935900360218e-06:1] [1.4088935900360218e-06:1] none none [6.1381619414759519e-06:1] [6.1381619414759519e-06:1] [0:0.23252861662070998] [0:0.31794808953401554] [0.00024551164820310004:1] [1.4088935900366528e-06:1] none [0.00024551164820310004:1] [0.0011543683891644999:0.79821505711403962] [0.0041233220341275008:0.48428247274194874] [0.049612234370044049:0.6817512448950489] [0.054558677800063994:0.18235571250042465] [0.00024551164820309999:1] [1.4088935900360218e-06:1] none [0.00024551164820309999:1] [0.0011543683891644999:0.79821505711403951] [0.0031428041930571002:0.46606715915604824] [0.031488694517869349:0.65483463607377168] [0.0327291242279346:0.068937661951903248] [0.060258143345131229:0.61644120325916252] [1:60] [0:0.21874495860003682] none none
tree_sizes=11393 12363 11700 11925 11956 11803 11861 12013 11845 11828 12426 11939 12359 11986 11695 13026 11893 12662 11826 12431 12578 11931 12729 13002 13132 12018 11850 13050 13457 13404 13476 12038 13563 13388 13555 13999 14251 13338 12032 12141 14365 13966 11899 12076 14132 14608 15100 14662 15008 13969 14124 15158 15107 14982 14535 15034 14479 14951 15057 12219 14452 14599 15430 15427 12097 14699 11822 14602 15654 14518 15716 15606 12007 14614 15751 14970 15724 14918 11920 14796 12146 12032 15502 15790 16483 16114 15992 15009 16347 15168 12031 14800 15240 15815 14719 14241 15991 17376 16657 14846 16058 16576 16106 14152 16043 15899 16613 15332 17739 11928 14541 14947 15808 16507 16142 12086 15914 16501 15393 15673 16742 15287 11758 11656 14651 15070 16003 17461 15775 11846 16603 11840 16032 17014 17120 16022 11878 15998 15317 14521 11918 12058 16238 16731 17174 15132 17746 14827 17061 14124 15811 13906 15671 16436 14359

Tree=0
num_leaves=127
num_cat=6
split_feature=17 37 45 17 45 45 27 37 32 37 37 19 27 27 44 27 32 44 27 32 27 15 27 37 27 37 44 44 44 27 44 37 27 27 43 27 37 27 27 37 37 44 32 44 37 27 27 27 44 28 27 53 44 27 44 27 37 37 28 37 27 33 37 37 34 44 22 22 45 44 37 35 27 34 34 37 22 27 43 32 37 1 27 27 43 44 32 27 50 45 29 27 27 9 44 44 35 43 43 34 32 41 45 27 27 43 27 44 37 43 37 27 29 44 27 34 41 32 27 37 27 50 33 33 44 45
split_gain=583.997 125.809 90.5076 26.3878 17.1945 7.37406 4.74947 2.67109 2.49394 2.4252 1.32142 1.41787 1.29588 0.746175 0.496251 0.437551 0.394751 0.361325 0.358095 0.345998 0.310381 0.246384 0.176488 0.175461 0.170051 0.150059 0.117671 0.115045 0.113642 0.108133 0.0983374 0.0975318 0.0970004 0.0927188 0.0890464 0.0765622 0.0736592 0.0711604 0.0704413 0.0678501 0.0662327 0.0537405 0.0506807 0.0477065 0.0475708 0.0420456 0.0410686 0.0392424 0.0373902 0.0356764 0.0355486 0.0348042 0.0332372 0.0331874 0.0326308 0.0310607 0.0307212 0.0287825 0.0268133 0.0256706 0.0250752 0.0240585 0.0238815 0.0227694 0.02869 0.0218248 0.0200377 0.019935 0.0192372 0.0190609 0.0174956 0.0162358 0.0142812 0.0149019 0.014213 0.0140197 0.0136773 0.0129937 0.0119919 0.0114477 0.011431 0.0108568 0.0105914 0.0104138 0.0128356 0.0101769 0.0126273 0.0101689 0.0100218 0.00997671 0.00983589 0.00962526 0.00944893 0.00925299 0.0155739 0.00894643 0.00879574 0.00878821 0.0139523 0.00866734 0.00825372 0.008143 0.00801997 0.00796729 0.00794815 0.00874431 0.00770521 0.0075017 0.00732829 0.00695619 0.00693948 0.00677828 0.00677271 0.00676049 0.00886696 0.00659073 0.00658675 0.00654951 0.00645898 0.00623688 0.00615858 0.0060581 0.00661968 0.00597823 0.00592075 0.00628423
threshold=0 0.1143202381752161 0.70422284655926382 1 0.052807428753870657 0.5461727002287099 0.84327735676348559 0.15792015323498376 0.026737321014718145 0.081492150127846621 0.26914149945359928 2 0.4451960610862235 0.62487472916420195 0.038458380402126131 0.99857676556949582 0.066453926261701726 0.016565197105079203 0.093909657381477912 0.12821036407398553 0.17454671362961163 1.5000000000000002 0.060887197126382506 0.43743977261547434 0.37744463117415888 0.74150817799467339 0.12395071428417202 0.074130198748487558 0.07951694792064877 0.091934681643862856 0.049501150946592111 0.039973385249770892 0.029014073229253302 0.089714140249561661 0.054714566306461758 0.25002848430362018 0.18028010640276396 0.11901628123565712 0.11771910738012391 0.017740945033229674 0.30120050477975863 0.064144521584133737 0.062111881525131335 0.080929795913351463 0.13848088683771387 0.11901628123565712 0.059490143976890508 0.05498642590837826 0.045050444293724186 0.18242348615934484 0.040279986802922309 58.500000000000007 0.15421034514870105 0.009530616090384152 0.10718132840761709 0.50979888385826844 0.090213960424280745 0.14767047288591847 0.070430832767530274 0.091311954582580443 0.026292407020644004 0.076689319606467868 0.059067900002812167 0.1251713032340083 0.051892832043210678 0.024790549060043802 3 4 0.080223521603581358 0.059196744063531009 0.12343269112670775 0.034037809809193735 0.13624413848018738 0.038058503915851638 0.031757434384725211 0.069223671492508923 5 0.10448640011379422 0.065216497668090248 0.083771308622671195 0.097034271961372306 11.500000000000002 0.14641299630152743 0.091934681643862856 0.065242268556777352 0.11382840457629612 0.075772980591605796 0.50979888385826844 0.051775856148910761 0.063605258032462073 0.13078789208436978 0.099792253800661562 0.14445277340217477 0.097964660725097366 0.10083578234649569 0.026499555079600726 0.032710170961168551 0.07199154168266958 0.072023197537834455 0.033274405731476914 0.14090345548320185 0.17613331817153127 0.12465602623715503 0.083831201784019566 0.023803003359943054 0.054706087829935621 0.080082804922899459 0.10401639471982171 0.025930567423598189 0.079286353292851899 0.061689092987219217 0.085660025809904769 0.061757600285177162 0.067461855257787709 0.14445277340217477 0.029164284713576901 0.17613331817153127 0.15652379605215527 0.097509334988478816 0.069223671492508923 0.082949824126051869 0.046215854984452985 0.047950218459267731 0.10010626619629588 0.092520067234686379 0.14248344645814651
decision_type=9 2 2 9 2 2 8 2 10 2 2 1 10 8 2 8 10 2 10 10 10 2 10 2 10 2 2 2 2 10 2 2 10 10 2 10 2 8 10 2 2 2 8 2 2 10 10 10 2 10 10 2 2 10 2 10 2 2 8 2 10 8 2 2 10 2 9 9 2 2 2 8 10 10 10 2 9 10 2 10 2 2 10 10 2 2 10 10 2 2 10 10 10 2 2 2 10 2 2 10 10 2 2 10 10 2 10 2 2 2 2 10 8 2 10 10 2 10 10 2 10 2 10 10 2 2
left_child=2 4 5 7 8 12 25 19 17 16 21 40 24 87 32 -8 30 53 28 29 37 35 31 -14 -1 -4 45 72 48 61 50 108 95 41 -19 57 -22 58 59 -36 -12 111 -30 91 77 70 104 65 -11 67 -6 -38 -39 -2 63 -25 93 -5 -9 -29 110 99 115 113 -65 -34 103 -40 -69 -33 -21 -35 73 121 107 -52 -61 -28 -56 -80 -50 -60 -46 84 -48 -68 -87 -7 -75 -73 100 -24 -47 -44 -95 -10 -78 -81 -99 102 -79 109 -3 -58 105 -32 -49 123 -16 -98 -41 -18 -76 -31 -115 -45 -109 -92 -85 -86 -82 -20 -123 -70 -63 -126
right_child=1 3 6 10 9 13 15 20 14 18 11 -13 23 -15 22 -17 33 34 27 26 36 -23 43 55 -26 -27 44 38 42 54 46 69 47 71 39 -37 51 52 49 60 -42 -43 56 62 82 92 83 106 80 -51 75 -53 -54 -55 78 -57 66 -59 81 76 -62 124 -64 64 -66 -67 85 68 74 -71 -72 89 -74 88 112 -77 96 90 79 97 120 -83 -84 118 119 86 -88 -89 -90 -91 117 -93 -94 94 -96 -97 101 98 -100 -101 -102 -103 -104 -105 -106 -107 -108 116 -110 -111 -112 -113 -114 114 -116 -117 -118 -119 -120 -121 -122 122 -124 -125 125 -127
leaf_value=0.11536623641104229 0.096175089073867376 0.099965054890980079 0.13026769952883596 0.10632005622913894 0.097741659757810045 0.12155076478674362 0.14132165455054654 0.10069751015665958 0.096752712871665883 0.098431182886499102 0.10977483864392459 0.12322409235488516 0.11756803107631497 0.1295363831224805 0.097208025703066941 0.1453961838431144 0.098789353081117595 0.098660102573084621 0.10069751015665958 0.1005289468191975 0.10402641666753802 0.10329955265913233 0.098499671610478165 0.11970621705764936 0.11720351458575329 0.13543218711776042 0.10117644955537382 0.10035876715868641 0.099282121020685621 0.10065222308187391 0.099503549909136166 0.098029500797398597 0.097080102465955415 0.099767003080953598 0.096571445490427954 0.10910790112419096 0.10397879506578539 0.10332506892005376 0.10071539917991408 0.096901449083799357 0.11089600034284218 0.099423590144057161 0.099547817510114739 0.099072993316395797 0.10293116548990075 0.10200940518157776 0.099677566080786623 0.09785281030753705 0.099492558368651812 0.10336100965322276 0.098273202148896968 0.10503252351543819 0.10403574032492025 0.0964690230572504 0.10272195752581216 0.12182129527399405 0.10006474182106967 0.10820167583480844 0.10295825814989858 0.1004702927907367 0.097218316600533691 0.10064978670415906 0.10113077915890738 0.10197639018781988 0.10036010669869158 0.097528744863961278 0.10063174333370993 0.10043883847050052 0.10125957371229259 0.09845982545690507 0.10166441538458802 0.099815368761152004 0.10090205903565948 0.098656224222640032 0.10128055629321461 0.098945335930213305 0.10087518121520719 0.10230058606429773 0.10069751015665958 0.10095252691271282 0.099819427952986275 0.10130647520793173 0.10355131284480293 0.10063067940914897 0.098769632356906625 0.10031578342757258 0.10141355111494922 0.12475446622078853 0.10043214980990986 0.10069751015665958 0.10249807709651459 0.099393481080010129 0.10255469110503669 0.09993576957434476 0.10070941437482833 0.097152814111515731 0.10069751015665958 0.10346501927080851 0.10196184883567849 0.099307758200792767 0.10091674475264682 0.10069751015665958 0.10081227686786605 0.10059783633564436 0.098614264152710601 0.097921534480572725 0.098774387009316122 0.10178068709570656 0.097679598044832366 0.10146069144698268 0.096356464361930308 0.099719472680257729 0.10241064333749393 0.10114994686283686 0.10206522567506542 0.10018679904393174 0.10069751015665958 0.10333428398015346 0.099396767572685632 0.099228912700062288 0.10057780198192608 0.10069751015665958 0.10003965770766694 0.10055811525477402 0.10101279682556515 0.10187467218257784
leaf_weight=404 4043 44 41 45 406 40 146 20 813 84 344 23 95 127 273 355 685 78 49 42 376 27 611 168 321 123 27 236 123 33 22 1301 669 412 2207 403 133 398 116 2333 589 1092 103 68 230 241 87 377 547 26 839 1036 525 2369 79 122 202 843 99 117 1095 34 20 294 25 1299 272 30 129 573 96 48 48 33 34 154 467 62 23 32 113 21 348 25 620 28 108 127 20 110 158 63 306 190 80 725 23 22 631 23 24 45 56 146 974 157 65 161 1315 215 210 44 87 268 38 36 23 82 50 218 57 29 269 26 114 38
leaf_count=404 4043 44 41 45 406 40 146 20 813 84 344 23 95 127 273 355 685 78 49 42 376 27 611 168 321 123 27 236 123 33 22 1301 669 412 2207 403 133 398 116 2333 589 1092 103 68 230 241 87 377 547 26 839 1036 525 2369 79 122 202 843 99 117 1095 34 20 294 25 1299 272 30 129 573 96 48 48 33 34 154 467 62 23 32 113 21 348 25 620 28 108 127 20 110 158 63 306 190 80 725 23 22 631 23 24 45 56 146 974 157 65 161 1315 215 210 44 87 268 38 36 23 82 50 218 57 29 269 26 114 38
internal_value=0.100679 0.0993043 0.126564 0.104785 0.0978319 0.119358 0.141765 0.10304 0.0969992 0.0995131 0.10937 0.110803 0.117477 0.126435 0.0976768 0.144227 0.0988614 0.0965486 0.100429 0.102108 0.104243 0.108327 0.0980564 0.119885 0.116189 0.13419 0.102639 0.100873 0.0999541 0.101616 0.0985248 0.0978985 0.0972686 0.0993636 0.0968373 0.108428 0.104704 0.103568 0.101059 0.0968139 0.110489 0.0991865 0.100258 0.0987482 0.103013 0.102122 0.0987477 0.0974819 0.0994855 0.101481 0.0981855 0.104917 0.103735 0.0962828 0.101798 0.12062 0.100369 0.108113 0.102429 0.100812 0.0969624 0.10075 0.0997277 0.101517 0.101834 0.0973735 0.10056 0.101392 0.101524 0.0981583 0.101283 0.0999382 0.100163 0.100062 0.101624 0.0983722 0.100941 0.102507 0.102026 0.101941 0.0996162 0.102712 0.103314 0.0990062 0.0989522 0.10079 0.101151 0.12403 0.0992305 0.100416 0.102602 0.0985756 0.102324 0.0999942 0.100183 0.0969378 0.10102 0.101978 0.102021 0.100227 0.101973 0.101254 0.100489 0.100286 0.0985279 0.0980873 0.0979766 0.101426 0.0975952 0.101371 0.0968543 0.0988385 0.102135 0.101204 0.10128 0.0994096 0.101666 0.102806 0.0997409 0.098883 0.100044 0.100203 0.100119 0.10111 0.101123 0.101262
internal_weight=41043 38974 2069 8252 30722 1404 665 5978 20543 10179 2274 956 1110 294 8208 501 5943 12335 4236 3370 2608 1318 4260 385 725 164 1616 2183 2053 1754 3552 3462 3948 2391 5923 1291 1545 1063 1735 5845 933 1821 1252 798 931 685 2153 2410 801 632 1399 1169 923 6412 1445 290 1129 888 140 1103 3638 309 124 658 319 1968 756 606 490 1874 138 570 448 400 460 993 867 353 787 708 717 120 578 1000 925 408 136 167 53 158 326 674 547 373 270 1538 750 685 653 123 86 283 100 348 1153 179 442 339 1588 238 2543 729 121 339 306 104 184 240 75 838 170 347 298 155 186 152
internal_count=41043 38974 2069 8252 30722 1404 665 5978 20543 10179 2274 956 1110 294 8208 501 5943 12335 4236 3370 2608 1318 4260 385 725 164 1616 2183 2053 1754 3552 3462 3948 2391 5923 1291 1545 1063 1735 5845 933 1821 1252 798 931 685 2153 2410 801 632 1399 1169 923 6412 1445 290 1129 888 140 1103 3638 309 124 658 319 1968 756 606 490 1874 138 570 448 400 460 993 867 353 787 708 717 120 578 1000 925 408 136 167 53 158 326 674 547 373 270 1538 750 685 653 123 86 283 100 348 1153 179 442 339 1588 238 2543 729 121 339 306 104 184 240 75 838 170 347 298 155 186 152
cat_boundaries=0 1 2 3 5 7 9
cat_threshold=1 4 2 2709523538 16409 218169344 17 8388626 2053
is_linear=0
shrinkage=1


Tree=1
num_leaves=127
num_cat=12
split_feature=17 45 45 17 45 45 32 45 32 32 45 15 45 32 44 45 32 45 32 44 44 45 44 32 44 44 32 45 32 45 21 44 32 32 32 44 45 32 44 32 13 9 45 32 44 50 21 32 45 45 45 13 32 21 42 45 25 32 45 32 33 45 25 44 28 36 49 36 45 22 45 44 42 53 44 36 44 24 13 28 51 32 44 36 45 33 35 41 13 33 22 42 42 32 29 44 25 32 35 45 45 32 42 34 35 35 42 29 21 45 45 51 42 45 34 44 32 32 44 35 45 34 3 42 32 32
split_gain=527.145 112.699 81.6814 24.5562 15.1601 6.65416 3.95031 2.43656 2.25412 2.03863 1.1704 1.24542 1.12626 0.552921 0.496795 0.474251 0.409143 0.343635 0.296629 0.287899 0.282829 0.18056 0.131117 0.122142 0.118964 0.109467 0.102761 0.0895001 0.0890895 0.0791052 0.0682522 0.0672905 0.0576539 0.057397 0.0561797 0.0558497 0.054791 0.0531455 0.0531238 0.0493102 0.0462106 0.0422847 0.0420116 0.0389035 0.0370066 0.0367087 0.0355955 0.0351366 0.0349025 0.0329215 0.0320129 0.0394382 0.0315188 0.0314676 0.0308975 0.0282917 0.0277305 0.0270404 0.025882 0.0216359 0.0213967 0.0205238 0.0214162 0.0191451 0.0189277 0.0187014 0.018141 0.0177814 0.0171157 0.0168981 0.0152487 0.0147364 0.0144417 0.0134801 0.0131319 0.0130648 0.0118583 0.0118394 0.0116267 0.0114198 0.0112365 0.0112235 0.0105355 0.0103774 0.0101787 0.0100301 0.00971759 0.00938432 0.00928464 0.00900677 0.00896414 0.00872604 0.00930064 0.00848513 0.00847375 0.00824188 0.00820345 0.00808816 0.00801953 0.00864611 0.0077557 0.0077533 0.00753797 0.00979131 0.00743353 0.00736769 0.00736673 0.0077471 0.00711255 0.00708202 0.00697516 0.0065434 0.00632297 0.00793247 0.00873819 0.00630253 0.00625311 0.00612265 0.00604173 0.00603646 0.00600325 0.00594089 0.0056828 0.005616 0.00559617 0.00526399
threshold=0 0.11246179094121746 0.70422284655926382 1 0.052807428753870657 0.5461727002287099 0.88128075038292619 0.15688009436495867 0.032313679029631816 0.077565635166461477 0.2783356935542069 1.5000000000000002 0.43171195088120279 0.62415870065055412 0.017885891810902301 0.84216771194771833 0.13408587381095363 0.08998498472274101 0.18199845443047691 0.055755153095500859 0.045689671220083258 0.15688009436495867 0.13682340756642197 0.093967955572797954 0.07951694792064877 0.12395071428417202 0.49346155006069475 0.026850135608861604 0.058821304755106087 0.033698871173039401 2 0.099935390532100668 0.23387794110466173 0.34605813107235878 0.11349007104802579 0.011023561042179277 0.073220489912662015 0.065763328910368304 0.036405580535116208 0.087045325210985278 -5.4272460937499991 0.19509032201612822 0.080223521603581358 0.55022049543208784 0.08152407510509041 0.056118482097797955 3 0.062810272940501108 0.038297367914119605 0.052792508557800606 0.17210930527155857 -5.4162597656249991 0.16226067820100315 4 0.068518470291451666 0.30008150299518899 5 0.10929644863452505 0.19858223355901247 0.15913161053196001 0.092351035302810622 0.13605234067903313 6 0.030924228378870704 0.12506533721568222 0.15743186712992438 0.064558734184257144 0.039613573222950227 0.013506351580962802 7 0.99857676556949582 0.09873360231886906 0.097874201537457448 50.500000000000007 0.055755153095500859 0.16169853092451744 0.081706052736757115 8 -5.4162597656249991 0.072829288042275911 0.058873334732636902 0.11651205927766441 0.19548389112402234 0.11016473109919844 0.091245981017346767 0.12735960898531287 0.043765089166049577 0.095880943599604931 -5.4162597656249991 0.10761732295412994 9 0.081484959946152097 0.08142456963306996 0.069654900104812525 0.077612671983570872 0.027205433890321002 10 0.10807179455752285 0.0836124700884643 0.18604675902533366 0.075702341227921868 0.087045325210985278 0.08891416623723257 0.039193949556066025 0.033526204674614556 0.016918492274971674 0.062226401990811198 0.051687450292401807 11 0.095592821175275511 0.085316144596741861 0.05569209685569923 0.08308863908014856 0.096667831594565115 0.026743889868747709 0.13089667035714822 0.4048421511951778 0.11806725378903205 0.02418100364413275 0.029620094773464025 0.10066717035898336 0.021648141206908358 502.50000000000006 0.094080574723769017 0.071367030258282407 0.035408798592938322
decision_type=9 2 2 9 2 2 8 2 10 10 2 2 2 8 2 2 10 2 10 2 2 2 2 8 2 2 10 2 10 2 9 2 8 10 10 2 2 10 2 10 2 2 2 10 2 2 9 10 2 2 2 2 10 9 2 2 9 8 2 10 10 2 9 2 8 2 2 2 2 9 2 2 2 2 2 2 2 9 2 8 2 10 2 2 2 10 10 2 2 10 9 2 2 10 10 2 9 10 8 2 2 10 2 10 10 10 2 10 9 2 2 2 2 2 10 2 10 10 2 10 2 8 2 2 10 8
left_child=2 4 5 7 8 12 15 16 14 19 21 55 33 43 35 -4 23 31 22 38 29 45 39 47 69 73 116 68 84 118 96 46 -23 -1 56 -2 76 48 93 -9 82 97 -40 -7 80 65 81 83 -22 63 51 87 77 -46 121 -12 88 -24 -42 -27 -39 62 -55 -29 72 -5 101 -31 -16 -19 -8 109 -49 -18 -48 -50 124 -36 -78 119 -25 100 -20 -3 125 -52 -47 -41 -32 94 -58 92 -76 -6 -68 -70 -26 -33 99 -59 -11 -43 -64 -104 -53 -98 -92 -108 -107 -56 -73 -74 -109 -114 -115 -79 -14 -81 -10 -71 -90 -38 -44 -103 -30 -21
right_child=1 3 6 10 9 13 70 18 20 17 11 -13 26 -15 27 -17 25 24 40 28 37 32 57 44 30 59 -28 49 36 67 34 41 -34 -35 52 -37 54 60 42 50 58 66 122 -45 53 86 74 64 75 -51 85 104 -54 61 71 -57 90 98 -60 -61 -62 -63 102 -65 -66 -67 89 -69 95 79 -72 110 111 -75 91 -77 78 115 -80 117 -82 -83 -84 -85 -86 -87 -88 -89 120 -91 106 -93 -94 -95 -96 -97 105 -99 -100 -101 -102 123 103 -105 -106 108 107 112 -110 -111 -112 -113 113 114 -116 -117 -118 -119 -120 -121 -122 -123 -124 -125 -126 -127
leaf_value=0.013874957896830098 -0.0043134543096417935 -0.0016102036144159883 0.031364639668410597 0.0020543051624105344 -0.0026650961445754242 0.021377801936823173 0.039540886578123657 0 -0.0036011696476428174 -0.00092083959676496666 0.0086164237405137352 0.02161682618284657 0.015811401349330911 0.027919221472284112 -0.0038936758980878793 0.03690991833123141 9.3472274053457366e-05 0 0.0020603103312512665 -0.0024173470229935817 -0.0027299903428916633 0.0071317363286006897 0.0013195122937796656 0.00057993518769100744 0.00011320654856922963 0.002069594769081019 0.019724913023017366 -0.0034239823329222522 -0.0017047981513591732 -0.0029571229844504543 -0.0011196121821314014 -0.00097375063547584762 0.0079672309521201003 0.015232570301096014 0.00028559928609170327 -0.0039990025223692214 8.2470991858157199e-05 -0.0018964867078786075 -0.0021069921259382887 0 0.0035963561583812658 -0.00073404308885540782 -0.0016557152055821805 0.02412151551687277 0.00057868777233372891 0.0042087311094391629 -0.0015276469965191546 0.00057448920096249282 -0.0022780529421428 -0.0040335666232039318 0.0029381136184720297 0.0012633669146081637 0.0023973003216515593 0.0014034042843035345 -0.0011985485648810289 0.0096512886768405515 8.9029871386116168e-05 0.0030865744111000923 0.0042379148204653742 0.0026836145000105564 -0.00067659534022380843 0.0016012249102967187 0.0010460421146585759 -0.0030571174872139925 -0.0008332300403175695 0.0049394870176911352 0.00093442404638834965 -0.002589328012320024 -0.0037283648323001486 -0.00044331328653472762 0.042452027325850517 -0.00079252637612322967 -0.0010207721766603379 0.0014330155665433831 -0.00075450906906779033 -0.0010370155490151635 0 0.000856609467255789 -0.0012331902375207937 -0.00084268789304838248 -0.00024596010129641731 0.00045729036392979467 0.0033678093605769028 -6.0460719072984317e-05 -0.0012192891211667092 0.0015672604732121179 0.0067067161028425666 0.0011875340082308284 -0.00036053869546015407 0.001199579573631232 0.0015055985912618797 -0.001083695233473682 0.00021221701966673667 -0.0013480865015809127 -9.6317029387409477e-05 -0.0034385812790527085 0.00043255750109746129 -8.8995910823393674e-05 0.0024699944607679894 0.0036430635642148179 -0.00031679792363806464 -0.00015903050793353337 0.00069207472142108074 -0.00016802618101597979 0.0023686049803276301 -2.237132405470607e-05 -0.00027652577269274048 0.00016236413512927129 -0.0005944203011740485 -0.00060517060767255825 0 1.1765465826458255e-05 0.00018500096122593635 0.00061870143546372252 0.0015444705100740902 0.0016250973119646729 0.017799909075241895 0 -0.0031914475841228803 0.00068996898126666819 0.00018308172810470706 -0.00056841487263148676 -0.00096829877876257106 0.00073498044167202804 -0.0012601579761897345 -0.0017977427873155261
leaf_weight=305 3535 35 141 20 546 100 95 25 396 101 219 22 72 94 1440 85 28 111 56 92 737 727 29 149 110 473 115 1178 561 1225 27 165 578 378 137 3877 75 364 1794 32 413 49 114 100 319 20 196 243 1376 199 162 43 38 439 577 620 208 535 689 368 55 363 238 1239 32 20 27 969 1550 28 344 47 20 455 141 37 25 200 285 356 47 26 77 26 119 34 47 30 103 43 24 836 21 29 52 1242 21 46 90 269 204 83 238 28 140 110 23 115 206 96 46 30 86 162 45 57 240 25 1126 20 88 53 119 22 209 902
leaf_count=305 3535 35 141 20 546 100 95 25 396 101 219 22 72 94 1440 85 28 111 56 92 737 727 29 149 110 473 115 1178 561 1225 27 165 578 378 137 3877 75 364 1794 32 413 49 114 100 319 20 196 243 1376 199 162 43 38 439 577 620 208 535 689 368 55 363 238 1239 32 20 27 969 1550 28 344 47 20 455 141 37 25 200 285 356 47 26 77 26 119 34 47 30 103 43 24 836 21 29 52 1242 21 46 90 269 204 83 238 28 140 110 23 115 206 96 46 30 86 162 45 57 240 25 1126 20 88 53 119 22 209 902
internal_value=-1.78946e-05 -0.00132364 0.024575 0.00379477 -0.00273604 0.0177291 0.0390162 0.00215349 -0.00351332 -0.00113876 0.00823666 0.00970892 0.0159416 0.0244532 -0.00386187 0.0334878 0.00129352 -0.000317366 0.00330871 -0.00176044 -0.00272164 0.00733475 0.002794 0.000872538 9.81769e-05 0.00199136 0.0180147 -0.00354954 -0.00142894 -0.00300514 0.000299203 -0.000794856 0.0075062 0.0146358 0.000479967 -0.0041497 -0.00121913 -0.00230951 -0.00215174 0.0020773 0.00388328 -0.000268684 -0.00201983 0.022786 0.00104394 0.00519194 -0.000959578 5.0899e-05 -0.00241644 -0.0033007 0.00219982 0.00175696 0.000954754 0.00112377 -0.000914277 0.00938818 0.000246845 0.00315017 0.00400236 0.00234451 -0.00174849 0.00123911 0.0011074 -0.00323812 0.000269912 0.0036303 0.000123118 -0.00279709 -0.00370211 -0.000547694 0.0418426 -0.00103572 0.000407693 0.00136575 -0.00109014 -0.00224917 -0.00146674 0.000802366 -0.00114211 -0.000682038 0.000356367 -0.000427499 0.00285681 -0.00103267 -0.00179642 0.00272673 0.00604295 0.00055295 -0.000225268 0.000589735 0.000406891 -0.00100998 -0.000598294 -0.00260761 0.000193486 -0.00360138 -0.000226248 -0.000804685 0.0032038 0.00327941 -0.000533449 -0.000214237 0.000795806 0.000582719 0.00213704 -0.000351524 0.00053636 0.000482895 -0.00043069 -0.00112144 -0.000361188 -0.000302662 0.000538015 0.00066829 0.000844747 0.00100786 0.0173623 -0.000789541 -0.00330157 0 -8.39458e-05 -0.000148238 -0.00132665 0 -0.00159078 -0.00186036
internal_weight=41043 38974 2069 8428 30546 1404 665 6155 20545 10001 2273 861 1110 294 14260 226 3531 4312 2624 5689 6285 1412 1389 2207 2300 1324 427 6848 3087 3716 1760 2012 1305 683 1313 7412 1974 2569 2602 466 1235 487 2027 200 1821 107 1525 386 2150 2616 441 245 432 1625 894 839 881 923 1102 841 419 1306 943 2417 325 40 276 2194 4232 540 439 766 293 483 1194 1413 1080 394 310 429 196 331 133 61 1113 196 67 62 218 122 663 998 162 575 79 2792 447 211 894 804 305 154 504 266 183 337 455 431 316 673 93 50 408 293 207 257 312 381 1522 48 191 128 233 105 770 994
internal_count=41043 38974 2069 8428 30546 1404 665 6155 20545 10001 2273 861 1110 294 14260 226 3531 4312 2624 5689 6285 1412 1389 2207 2300 1324 427 6848 3087 3716 1760 2012 1305 683 1313 7412 1974 2569 2602 466 1235 487 2027 200 1821 107 1525 386 2150 2616 441 245 432 1625 894 839 881 923 1102 841 419 1306 943 2417 325 40 276 2194 4232 540 439 766 293 483 1194 1413 1080 394 310 429 196 331 133 61 1113 196 67 62 218 122 663 998 162 575 79 2792 447 211 894 804 305 154 504 266 183 337 455 431 316 673 93 50 408 293 207 257 312 381 1522 48 191 128 233 105 770 994
cat_boundaries=0 1 2 30 67 104 107 110 112 114 116 119 147
cat_threshold=1 4 0 0 268435584 2147614720 0 16448 0 16913536 65536 0 0 0 0 0 33554432 34817 0 0 32 1 2147491840 5120 0 524800 1073741824 536870912 131104 98304 0 0 0 2147483648 8192 16384 0 4096 0 1024 0 0 0 0 0 134219808 256 512 2080 0 0 360448 131072 524288 0 0 524448 268435456 8 1024 0 4194306 0 4096 0 0 33554432 2097152 0 0 2148007936 0 4098 0 16777216 8192 4096 0 0 0 0 0 0 0 8192 4326400 33554432 131072 152576 0 128 1073743872 0 75497472 0 0 0 1073741824 0 0 0 0 1 268435456 2231379137 536870978 3147776 234894162 67108880 5666560 541589512 2320 0 1493696512 2703243280 16396 224 134217745 71680 0 0 0 131072 0 0 0 16777344 65536 0 0 0 0 0 0 1 0 0 0 0 2147491840 0 0 0 0 0 0 32768
is_linear=0
shrinkage=0.05


Tree=2
num_leaves=127
num_cat=4
split_feature=17 37 27 17 45 45 37 37 27 37 37 19 27 54 27 44 32 37 27 27 27 33 15 54 54 27 37 44 54 54 54 44 54 37 27 54 54 54 54 44 37 44 44 37 27 45 44 54 37 44 54 37 27 54 32 44 32 37 54 54 37 37 54 54 37 54 44 54 44 54 37 36 37 35 54 54 54 37 44 37 43 37 36 37 32 22 27 54 37 36 37 37 37 54 27 32 53 44 27 43 29 54 54 43 37 54 44 37 44 44 54 36 32 28 44 32 37 43 43 3 32 44 28 54 27 44
split_gain=475.827 102.621 73.8745 21.4844 13.9833 6.45791 3.61638 2.17846 2.03999 1.98778 1.08091 1.1559 1.0428 0.545919 0.488155 0.423664 0.321667 0.305937 0.30123 0.283469 0.2614 0.226627 0.206846 0.167318 0.159861 0.138856 0.138437 0.129524 0.121849 0.120693 0.0972872 0.0927268 0.0918254 0.0861474 0.0846728 0.088616 0.0843791 0.0791282 0.0789552 0.0784498 0.0743823 0.073798 0.0732735 0.0642423 0.0639299 0.0599512 0.059483 0.0525222 0.0506016 0.0484148 0.0464735 0.0454294 0.0438583 0.043261 0.0414727 0.0413565 0.0407679 0.0370058 0.1162 0.0423433 0.0436117 0.0341748 0.0755256 0.0336444 0.032791 0.0325976 0.031902 0.0316572 0.0291383 0.029039 0.0277762 0.0258753 0.0244251 0.0231729 0.021617 0.0209729 0.020777 0.0207151 0.0201183 0.0193663 0.0187954 0.0180045 0.0177885 0.0175168 0.017292 0.017278 0.0169136 0.0160581 0.0155632 0.0155482 0.0151415 0.0149405 0.0143223 0.0142779 0.0140417 0.0139551 0.0130734 0.0127614 0.012742 0.0183053 0.0136373 0.0126342 0.0122381 0.0120522 0.0120117 0.0119725 0.0114324 0.0110358 0.0109702 0.0109566 0.0107441 0.0107431 0.0106441 0.00987417 0.00974701 0.00939494 0.00913437 0.0100678 0.0113653 0.00941687 0.00905864 0.00890381 0.0114801 0.00964999 0.00882726 0.00976068
threshold=0 0.1143202381752161 0.71755533956812945 1 0.052807428753870657 0.5461727002287099 0.8792551390557074 0.15792015323498376 0.028037112148503251 0.081492150127846621 0.26914149945359928 2 0.4451960610862235 0.028659254322083789 0.62487472916420195 0.023105070988772552 0.066453926261701726 0.036186185533702807 0.093909657381477912 0.12058694927374976 0.16869305607061763 0.44142782533633024 1.5000000000000002 0.033790776036545532 0.013906318781836865 0.37744463117415888 0.467564741314971 0.1251620504999448 0.047774437985583125 0.052713673077453213 0.059641817862984593 0.07951694792064877 0.035416867011847541 0.15250423138564392 0.035395404914460811 0.043289258014795676 0.020444685993145927 0.04270891783643032 0.054186904861020797 0.096697297589318817 0.18717770290477434 0.070330394527697168 0.013355192725829053 0.022949666950509467 0.085660025809904769 0.25295226270817833 0.039062885463077034 0.031970404366335671 0.30120050477975863 0.050076919331445403 0.032248097793836916 0.14070027780296404 0.50979888385826844 0.085258056372281385 0.083771308622671195 0.063022090463045535 0.062111881525131335 0.10065824109538084 0.049023934954988094 0.028982720407308839 0.042473031312084415 0.084524805393669619 0.04270891783643032 0.0099069225436715282 0.12861950326084168 0.073996190096741535 0.11608025979099126 0.036426941537670385 0.069771949919471554 0.047774437985583125 0.24613055669512832 0.11595299125965243 0.090213960424280745 0.053536120763169881 0.03506616079505568 0.049023934954988094 0.024227771491058769 0.19135499251606211 0.031692933442336854 0.04680770519473864 0.10462723307351258 0.10070483302414508 0.072082471140092683 0.09592527352752582 0.19002773637364423 3 0.20321652607821783 0.03095490600333578 0.092411954394443177 0.087160959401746327 0.1251713032340083 0.020454400170761021 0.069223671492508923 0.039993985598143739 0.05766367054545566 0.15913161053196001 55.500000000000007 0.045050444293724186 0.14641299630152743 0.084752973310594823 0.17347172696990237 0.022575324478534008 0.02689838623998585 0.054714566306461758 0.18339829321360576 0.02931806210566407 0.081706052736757115 0.038005507447076502 0.030057165849028154 0.043918157608917062 0.049023934954988094 0.13025480985065832 0.06073581410606782 0.13755132173856757 0.031180874304645504 0.11956524086533794 0.15008915882361865 0.080777019296267905 0.075042280341025419 67.500000000000014 0.10662198923506006 0.11382840457629612 0.1056348303049784 0.02689838623998585 0.14865974486886538 0.15421034514870105
decision_type=9 2 10 9 2 2 2 2 10 2 2 1 10 2 8 2 10 2 10 10 10 10 2 2 2 10 2 2 2 2 2 2 2 2 10 2 2 2 2 2 2 2 2 2 10 2 2 2 2 2 2 2 10 2 8 2 8 2 2 2 2 2 2 2 2 2 2 2 2 2 2 2 2 8 2 2 2 2 2 2 2 2 2 2 10 9 10 2 2 2 2 2 2 2 10 10 2 2 10 2 8 2 2 2 2 2 2 2 2 2 2 2 10 8 2 10 2 2 2 2 10 2 10 2 8 2
left_child=2 4 5 7 8 12 21 19 15 16 22 48 25 17 52 42 34 36 31 38 32 -4 28 -8 43 69 -14 64 33 44 39 47 104 -5 108 49 78 40 54 68 -22 61 -2 -17 55 84 -19 88 -12 114 81 95 -7 77 -3 -18 -33 58 59 103 -61 62 107 91 82 -27 90 -57 112 -1 -35 -40 -58 80 83 -43 -66 124 -10 101 -52 -41 -21 -70 -39 102 -86 92 -11 -76 105 -44 -51 -46 -69 -29 -37 -49 99 -78 -100 -48 -74 -26 -9 -56 -95 -15 -6 -109 -64 -104 -20 -79 -36 -53 117 118 119 -68 -84 -87 -123 -124 -34 -126
right_child=1 3 6 10 9 14 23 20 13 18 11 -13 26 41 -16 24 29 46 30 27 37 -23 -24 -25 57 65 -28 51 -30 -31 -32 56 53 70 35 96 -38 45 71 50 -42 75 63 -45 93 -47 79 97 -50 87 73 115 -54 -55 66 67 72 -59 -60 60 -62 -63 110 -65 76 -67 116 94 74 -71 -72 -73 85 -75 89 -77 98 113 -80 -81 -82 -83 120 -85 86 121 -88 -89 -90 -91 -92 -93 -94 106 -96 -97 -98 -99 100 -101 -102 -103 111 -105 -106 -107 -108 109 -110 -111 -112 -113 -114 -115 -116 -117 -118 -119 -120 -121 -122 122 123 -125 125 -127
leaf_value=0.012375784911778933 -0.004075500970743399 -1.5058697451716708e-05 0.02654113433945542 0.0028951903193521855 -0.0032069780081345166 0.018736704526250796 0.040453715249585687 0.002753944891554924 -0.0033821034124678602 -0.0010611270928980311 0.0081972913508566274 0.020358511560407036 0.015966770801841695 -0.0010496229808428111 0.025932974672474487 -0.0038020589675644353 -0.0017457213821943239 -0.0027741462830220189 -0.0017330627749956508 -0.0002715747208330641 0.0032838377602264542 0.032323076628065828 0.0022599625332466568 0.036983222897297829 -0.001884847365840113 0.01439480127549758 0.018374321979948465 0.001519544876046531 0.0078360796343077046 0.0022408794898624794 0.0027454338494721808 -0.0012790405312530352 0.0019291276288685114 0.0064595153809361419 -0.0026299424982142269 -0.00042604786805041929 -0.002397257071142354 0.0017901284433409258 -0.0023693837202250711 0 0.00413684518946801 -0.00041959480738052129 -0.0039946879502050147 -0.0032506009928193872 -0.00088804741699252557 0.0038227055304233489 -0.0025377733964742377 -0.0028201002815723877 0.0092098605134980499 -0.001844401616380265 0.0018993759083296355 0.0010163377238393094 0.022181393208246757 0.00015828204758065129 0.00051322758791209043 -0.0012600986709486977 -0.00063674485984237565 -0.0038057071810707142 0 -0.0014813421987627164 -0.0030530486434527881 -0.0036002027454660902 -0.00021071618280775868 -0.00355710318598681 0.001748271171393187 0.016509555479977917 0.00032646944301448829 -0.00082390610411281311 -0.00039066290151676896 0.01386639870092079 0.0073419429710367967 -4.2940952760249011e-05 -0.0001850873494028512 0 0.0012772407730766825 0.0011024903380267108 0.001142532682314743 0.0013667871696220254 -0.0030233660813546396 -0.0021245259907356432 0.00053588103319822638 0.00046982884962377128 0.00033969632938627781 0.00010709587533234882 0.0017284153782870845 -7.0483570249777543e-05 0.0031615088792227154 -0.0010388615957671436 -0.00047985377605190457 0 0.00088896342709169024 -0.0034949718219078082 -0.0014109294286355171 -0.00074987555855182025 0.00096410822478078674 0.0024334478644793029 0.0011460581119061928 -0.0015577720565754819 0.0015532795580185733 -0.000107090661287083 0 -0.001830546503799246 -0.001174477215519153 -0.003069537934526973 0.0035588491621086297 -0.0001629494105738867 0.00077478052788371556 -0.0022556388619660471 -0.0023804290971088703 -0.0013928562722758024 0.0010655538452400246 0 -0.00045862600157561335 0.0029146851237244215 -0.0020655118621739073 0.0024630553606254796 0.0021428577765102113 0.0012698110432663239 0 0.0014395510586604639 0.0010815100727306986 8.4948467501837891e-06 0 0.0016438683388453124 0.000171815740842538 0.0016732346668160967
leaf_weight=181 4559 140 36 20 90 40 360 394 1809 401 344 23 173 108 129 1582 652 1254 21 24 528 153 27 104 45 248 209 409 365 24 36 123 160 656 173 31 375 104 24 337 748 83 1792 1103 652 145 1163 41 589 1267 94 24 140 39 222 971 373 155 35 122 94 20 33 1811 389 73 50 20 297 223 250 33 231 32 53 31 62 27 1019 1104 51 493 70 413 47 289 130 122 217 43 243 378 368 25 23 73 21 142 156 43 21 126 76 1469 122 79 24 114 561 133 26 21 313 104 919 487 33 313 48 57 370 89 22 28 31 29
leaf_count=181 4559 140 36 20 90 40 360 394 1809 401 344 23 173 108 129 1582 652 1254 21 24 528 153 27 104 45 248 209 409 365 24 36 123 160 656 173 31 375 104 24 337 748 83 1792 1103 652 145 1163 41 589 1267 94 24 140 39 222 971 373 155 35 122 94 20 33 1811 389 73 50 20 297 223 250 33 231 32 53 31 62 27 1019 1104 51 493 70 413 47 289 130 122 217 43 243 378 368 25 23 73 21 142 156 43 21 126 76 1469 122 79 24 114 561 133 26 21 313 104 919 487 33 313 48 57 370 89 22 28 31 29
internal_value=-1.68607e-05 -0.00125743 0.0233483 0.00369276 -0.00258723 0.0169239 0.0372671 0.00211804 -0.00333822 -0.00107108 0.00783 0.00912718 0.0151242 -0.00267156 0.0233481 -0.00371301 -0.00166112 -0.00279356 -0.000242077 0.00127585 0.00320429 0.0312628 0.00688468 0.0396948 -0.00331909 0.0139678 0.0173015 0.00162784 0.00697735 -0.00120723 0.000164973 -0.000677325 0.00249906 0.00663265 -0.0019652 -0.00184274 -0.00315597 0.00357659 0.00066866 0.00011925 0.00378808 -0.00113726 -0.0039248 -0.00357751 -0.00124439 0.00293064 -0.00247382 -0.00110106 0.0088428 -0.00188021 0.000442148 0.00205294 0.0214545 0.00188294 0.000758642 -0.0014173 -0.00040217 -0.00295493 -0.00287717 -0.00293488 -0.00218956 -0.00143458 -0.00131704 -0.00375087 0.00125136 0.0148963 0.000867071 -0.00120104 -0.000161604 0.0132142 0.00670931 -0.0011125 -0.000302105 0.00118629 0 0 0.00148694 0.00206023 -0.00325472 -0.00231424 0.00145496 0.00027731 0.000899665 -9.4106e-05 0.00245134 -0.000130323 0.00281039 -0.00170352 -0.000865223 0.000704925 0.000582991 -0.00391011 -0.00174999 -0.000826195 1.64823e-05 0.0016688 0.000113853 -0.00186928 0.00110823 0.000583593 0.00139071 -0.00247267 -0.000398891 -0.00303775 0.00295459 0.000319158 0 -0.00159454 -0.00250285 -0.00181205 0.000267957 -0.000896924 -0.000554216 0.00263508 -0.00215974 0.0024051 0.00116538 0.00108533 0.000679976 0.000966895 0.000974959 7.15083e-05 0.000407653 0.00101692 0.00169418 0.000982273
internal_weight=41043 38974 2069 8252 30722 1416 653 5978 20543 10179 2274 956 1107 7398 309 13145 5943 6850 4236 3370 2608 189 1318 464 4605 725 382 2128 1291 2391 2183 2053 906 926 3552 2901 3203 1702 1242 2147 1276 548 8540 2685 2367 426 3647 801 933 2849 1007 993 180 390 1185 1666 1252 1920 1765 1730 216 434 414 3981 1135 321 1045 1014 1140 404 906 57 1129 177 806 114 671 351 2828 2393 145 830 464 710 281 756 177 1757 618 96 544 2170 1635 701 43 482 52 183 282 105 177 1289 328 1514 516 301 49 355 651 247 59 97 334 131 1092 511 501 468 155 107 440 428 139 50 220 60
internal_count=41043 38974 2069 8252 30722 1416 653 5978 20543 10179 2274 956 1107 7398 309 13145 5943 6850 4236 3370 2608 189 1318 464 4605 725 382 2128 1291 2391 2183 2053 906 926 3552 2901 3203 1702 1242 2147 1276 548 8540 2685 2367 426 3647 801 933 2849 1007 993 180 390 1185 1666 1252 1920 1765 1730 216 434 414 3981 1135 321 1045 1014 1140 404 906 57 1129 177 806 114 671 351 2828 2393 145 830 464 710 281 756 177 1757 618 96 544 2170 1635 701 43 482 52 183 282 105 177 1289 328 1514 516 301 49 355 651 247 59 97 334 131 1092 511 501 468 155 107 440 428 139 50 220 60
cat_boundaries=0 1 2 3 5
cat_threshold=1 4 2 562039890 16409
is_linear=0
shrinkage=0.05


Tree=3
num_leaves=127
num_cat=8
split_feature=17 37 37 17 45 45 37 37 32 37 37 19 27 27 37 32 27 32 36 27 15 36 37 37 27 27 27 36 36 43 27 27 27 27 13 27 37 27 27 27 37 36 29 37 36 36 32 25 36 27 27 36 27 25 42 37 27 37 32 25 37 32 33 27 13 36 43 36 27 43 43 42 43 37 37 13 37 27 22 22 32 37 37 37 45 36 36 33 1 27 27 27 29 29 42 27 45 32 45 13 43 37 13 40 33 37 27 49 43 43 27 36 32 36 42 48 42 42 27 43 36 27 27 49 41 36
split_gain=429.514 92.6562 66.7491 19.3883 12.6194 6.7227 2.19391 1.96696 1.84979 1.79436 0.973896 1.04226 0.968929 0.668916 0.367283 0.290263 0.27242 0.256798 0.248768 0.234707 0.185392 0.127436 0.126742 0.126727 0.107894 0.0860486 0.0859655 0.0795219 0.0778372 0.0774404 0.076863 0.0766428 0.0732357 0.0659608 0.0656833 0.065368 0.0617421 0.0614033 0.0516917 0.046101 0.0439805 0.0426325 0.0416764 0.0396007 0.0363888 0.036231 0.0332601 0.0298394 0.0290391 0.026744 0.0262081 0.0239403 0.0238155 0.0232202 0.0231524 0.0221417 0.0210916 0.0208144 0.0200466 0.0200149 0.0198991 0.0190048 0.0182234 0.0180919 0.0169984 0.0165945 0.0155857 0.0155127 0.0152623 0.0151599 0.0165568 0.0183042 0.0191732 0.015157 0.0148257 0.0143373 0.0142681 0.0141726 0.0133901 0.0133061 0.0131251 0.012648 0.0122455 0.0111293 0.0109941 0.0108543 0.0107123 0.0104993 0.0104108 0.010339 0.0100896 0.00991695 0.00965987 0.00936253 0.0091544 0.00909707 0.00877175 0.008628 0.0084092 0.00835802 0.00789923 0.00783788 0.00744295 0.00735786 0.00730068 0.00720311 0.00695456 0.00692431 0.00678569 0.00670051 0.00699682 0.006434 0.00627132 0.00618335 0.0061568 0.00635545 0.00610264 0.00985563 0.00607906 0.00606096 0.00578271 0.00565979 0.00561851 0.00645594 0.00543765 0.00581548
threshold=0 0.1143202381752161 0.74150817799467339 1 0.052807428753870657 0.5461727002287099 0.8792551390557074 0.15792015323498376 0.026737321014718145 0.081492150127846621 0.26914149945359928 2 0.4451960610862235 0.62487472916420195 0.036623839810862986 0.066453926261701726 0.093909657381477912 0.12821036407398553 0.016983395310728466 0.16869305607061763 1.5000000000000002 0.048202102194476452 0.43743977261547434 0.39006576377217178 0.99857676556949582 0.14445277340217477 0.091934681643862856 0.089597207835112005 0.078499478456864877 0.054714566306461758 0.08102371827859807 0.040279986802922309 0.089714140249561661 0.055668316210211503 -5.4272460937499991 0.021242587995677801 0.18717770290477434 0.25002848430362018 0.11771910738012391 0.11901628123565712 0.30120050477975863 0.12783425056156753 0.023170783546126804 0.063884503351532312 0.035156428357980822 0.43278509734103848 0.062111881525131335 3 0.062122681152186041 0.50979888385826844 0.0050305387703174003 0.10758023744264912 0.15561289005501047 4 0.050652940100539855 0.12176010417654472 0.066999952142999211 0.04738506634562014 0.084912030288358781 5 0.13636211949142621 0.15913161053196001 0.076689319606467868 0.012337638660946402 -5.4162597656249991 0.16169853092451744 0.054693312626991529 0.10652608690434399 0.50979888385826844 0.065216497668090248 0.07199154168266958 0.067012186033208174 0.072023197537834455 0.12698328960986785 0.14767047288591847 -5.4437255859374991 0.10568342317575453 0.047270205696770505 6 7 0.06073581410606782 0.0947725328440613 0.093619458557185106 0.097034271961372306 0.21179463877673324 0.027843565237098949 0.037293570476901204 0.041465679402419124 11.500000000000002 0.090787749834101608 0.11901628123565712 0.10448640011379422 0.065837851585225066 0.11137588149897407 0.097852362175760751 0.21575141868298339 0.035844066462412658 0.014570683264836926 0.092278747867055158 -5.4162597656249991 0.054724692324775968 0.075089101208766815 -5.4382324218749991 0.086632537348270131 0.087023344975160802 0.099330452821326978 0.11771910738012391 0.079149273271505019 0.054706087829935621 0.054706087829935621 0.023803003359943054 0.13025480985065832 0.11079129417900573 0.025604608614857291 0.097748313910645604 0.065634369250986799 0.097898520745376152 0.097161825384391901 0.84327735676348559 0.065242268556777352 0.031286591473519358 0.11091796152586612 0.08102371827859807 0.069947542904812102 0.073356469278960182 0.10306872820258325
decision_type=9 2 2 9 2 2 2 2 10 2 2 1 10 8 2 10 10 10 2 10 2 2 2 2 8 10 10 2 2 2 10 10 10 10 2 10 2 10 10 8 2 2 10 2 2 2 10 9 2 10 10 2 10 9 2 2 10 2 10 9 2 10 8 10 2 2 2 2 10 2 2 2 2 2 2 2 2 10 9 9 10 2 2 2 2 2 2 10 2 10 10 10 10 10 2 10 2 10 2 2 2 2 2 2 10 2 10 2 2 2 10 2 10 2 2 2 2 2 10 2 2 10 10 2 2 2
left_child=2 4 5 7 8 12 118 17 18 15 20 40 23 68 33 31 27 26 63 39 37 50 -14 -1 -8 41 62 42 80 108 57 86 48 44 84 54 -36 60 59 58 -12 55 -11 67 -10 -15 66 64 -17 -24 -16 104 78 75 -31 106 -44 -23 -9 105 -5 74 107 -2 103 -41 -29 87 -7 -49 -71 -72 -73 92 102 -48 111 113 -40 101 -18 -58 -61 -80 -21 -37 -6 -33 -60 119 -82 -43 -74 99 114 -38 -59 100 -54 -92 -56 -34 -27 -28 -32 -30 -19 -3 -20 -88 -111 -55 -81 -52 115 -57 117 -50 -4 -45 -99 -96 123 -77 125 -66
right_child=1 3 6 10 9 13 24 19 14 16 11 -13 22 45 21 32 28 25 29 34 -22 30 49 -25 -26 61 47 46 38 35 51 43 79 -35 36 85 95 -39 52 65 -42 91 56 89 -46 -47 53 69 116 -51 77 -53 98 76 97 94 81 96 88 82 -62 -63 -64 -65 124 -67 -68 -69 -70 70 71 72 73 -75 -76 122 -78 -79 83 112 90 -83 -84 -85 -86 -87 109 -89 -90 -91 93 -93 -94 -95 121 -97 -98 120 -100 -101 -102 -103 -104 -105 -106 -107 -108 -109 -110 110 -112 -113 -114 -115 -116 -117 -118 -119 -120 -121 -122 -123 -124 -125 -126 -127
leaf_value=0.012614301070689721 -0.003893007398773254 -0.00064268009150941004 0.029270362324375701 0.004207807549171565 -0.0028074706319052819 0.017802206053400872 0.035340949243094798 0 -0.0031729480291911231 -0.0021890349535985637 0.0077875460300186414 0.019344992309937747 0.014453551610373551 0.021821659285676445 -0.0034350921701636417 -0.0016082268575658089 -0.0015725577797903003 -0.00034108537057339156 -0.00066955692520172434 0.0019483572619424677 0.0021473814239313074 -0.0022542049674825816 0.016277637980226814 0.014256346820014127 0.038351912979553121 0.00035995436217045894 0.00039320249499669716 2.7827429932667236e-05 0.00018605321395639325 -0.0024114666291330591 -0.0013003181260193069 -0.0021706267511514246 -0.00056792512339998852 -0.0021820373860182048 0.003047958911629602 -0.0032662217011222398 0.0035414337976250529 0.0072432371152597683 2.6888233762009908e-06 0.0022383869009614411 0.0087494458324677317 0.00066592709567456318 -0.0012130180279660279 -0.00084918793450094337 -0.0027965987498215408 0.025729910691148272 0.0014606550655591845 0.0018292081144462757 -0.0011136727954296915 0.018221301456683003 -0.0031418232475174768 0.00048930367503537608 0.00030552691720519908 -0.00061138042567176413 -0.0029068565662953728 0.00055969780994858146 -0.00084499444119018991 -0.00047915828242121145 0.0019299479373533367 -0.00032366015599497006 0.0063996511982790452 0.0024378815236951847 0.00034234617874597819 -0.0036140763373741316 0 0.0028319548220522924 -0.0012646286358904196 -0.00092147458502282145 0.020814674527097513 9.8972115350014398e-06 0.0024211534331897064 0.0024295723238556654 0 0.0012395711370987567 0.0022713629034358754 -0.00043508367133686257 0.00014911685048857532 -0.0022809423100931194 0.00017537775838412655 -0.00093207576637843303 -0.00045788946029181801 -0.00036451196160348096 0.00010683558736568902 0.00085004459187790432 0.0030150243887376378 -0.0029303412130702554 -0.0009744569007128878 -0.0018078657185794846 0.00035664079384216201 -0.00082620479008617019 -0.00089296871241931132 0.0017847423651224722 0.00083263298443544671 0.0010120545083577457 0 0.0040519977949813593 -0.001887553220769572 -0.0034817288925538849 0.0018568592098000738 5.6732890221653424e-05 -0.0036529492266403302 0 0.0016533809445309214 -0.00073103750229382668 -2.8812687819761814e-05 0.00082159298589789317 0.00056632090698367982 0.0001554763908484075 -0.0020538540272894553 -0.0025172074407155409 -0.0020096876262758953 -2.2642812568643101e-06 -9.7294870521063377e-05 -0.0025564510324975255 0.0023835602019501119 0.001336500442375557 -0.0014061585077438286 -0.00041064697022418048 0.032760977352450704 -0.0015692928900524956 -0.0031586103327384835 0.00077340715160852233 0.00028877000259676605 0.00018711498725924039 0.00080920418008951101 0.00063078332543318408
leaf_weight=439 3982 98 104 25 158 40 115 20 2029 67 344 23 95 33 107 608 24 36 26 109 27 1021 168 286 354 22 20 20 113 80 154 522 107 306 558 1166 513 403 116 388 589 37 312 63 1497 129 20 89 840 122 138 20 20 334 108 62 477 21 99 226 863 280 186 1502 54 378 114 59 134 46 31 29 46 375 179 88 86 871 101 312 343 256 608 313 79 956 26 1052 21 90 28 342 373 21 20 443 848 1700 60 93 2104 112 330 33 21 117 43 25 53 260 389 69 39 1175 20 169 295 78 50 933 658 76 144 66 281 68
leaf_count=439 3982 98 104 25 158 40 115 20 2029 67 344 23 95 33 107 608 24 36 26 109 27 1021 168 286 354 22 20 20 113 80 154 522 107 306 558 1166 513 403 116 388 589 37 312 63 1497 129 20 89 840 122 138 20 20 334 108 62 477 21 99 226 863 280 186 1502 54 378 114 59 134 46 31 29 46 375 179 88 86 871 101 312 343 256 608 313 79 956 26 1052 21 90 28 342 373 21 20 443 848 1700 60 93 2104 112 330 33 21 117 43 25 53 260 389 69 39 1175 20 169 295 78 50 933 658 76 144 66 281 68
internal_value=-1.59052e-05 -0.00119456 0.0221831 0.00350914 -0.00245815 0.01628 0.0358715 0.00201315 -0.00317158 -0.00101781 0.00743941 0.00867154 0.0143891 0.0225056 -0.00258764 -0.00157841 -0.000230102 0.00121276 -0.00355972 0.00304539 0.00654131 -0.00226952 0.0164779 0.0132708 0.037632 0.00167027 0.000788324 -0.000644037 0.000156905 -0.00335253 -0.00197538 -0.00186738 -0.00114697 -0.00294954 0.00339855 -0.00337148 0.00351603 0.00662916 0.000323156 0.00237612 0.00840102 0.00128672 -0.000932439 -0.00173114 -0.00301467 0.0249786 -0.000297849 0.000950269 -0.00130448 0.0171186 -0.00253494 -0.000979764 0.000691619 -0.000169212 -0.00348628 0.000916852 -0.000846887 -0.0020754 0.0014527 0.000107169 0.00634405 0.00204462 1.47725e-05 -0.00381759 0.000547801 0.00253815 -0.00103456 -0.00189811 0.0201615 0.00111391 0.0010498 0.00109995 0.00104382 0.000986609 0.00182741 0.000152418 -0.00038385 -0.00248839 0.000555025 -0.000634864 -0.000379998 -0.000684079 -3.80623e-06 0.000681159 0.00242453 -0.0031174 -0.00230583 -0.00193148 0.00169678 -0.00147531 -0.000310365 0.00168891 0.000748038 1.08639e-05 0.00109068 0.00378365 -0.00185933 -0.00350394 0.00153231 -0.0001223 -0.00361891 -0.000249807 0.00158687 -0.000212692 -0.0011764 0.000509168 8.96997e-05 -0.000439841 -0.0016629 -0.00218061 -0.00222107 -0.00051952 -0.000829978 -0.00262202 0.00126909 0.00114998 -0.00114799 -0.00105944 0.0304566 -0.00152885 -0.00339382 0.000571345 5.24964e-05 -0.000136032 0.000673838 0.000320696
internal_weight=41043 38974 2069 8252 30722 1446 623 5978 20543 10179 2274 956 1110 336 8208 5943 4236 3370 12335 2608 1318 4376 385 725 469 1616 1754 2053 2183 6851 2085 3552 2391 3832 1702 6772 1514 1291 1674 906 933 805 1112 2719 3526 162 941 1445 1821 290 2291 195 610 807 4650 426 1045 1890 140 1064 888 811 309 5484 456 766 134 1633 174 989 900 854 823 794 531 318 489 2184 530 570 509 733 834 414 188 2122 833 1574 120 1086 485 379 419 142 347 956 869 4570 80 121 2212 219 352 53 175 230 79 123 79 675 649 403 351 1313 251 231 1213 918 154 996 2358 96 298 154 403 122
internal_count=41043 38974 2069 8252 30722 1446 623 5978 20543 10179 2274 956 1110 336 8208 5943 4236 3370 12335 2608 1318 4376 385 725 469 1616 1754 2053 2183 6851 2085 3552 2391 3832 1702 6772 1514 1291 1674 906 933 805 1112 2719 3526 162 941 1445 1821 290 2291 195 610 807 4650 426 1045 1890 140 1064 888 811 309 5484 456 766 134 1633 174 989 900 854 823 794 531 318 489 2184 530 570 509 733 834 414 188 2122 833 1574 120 1086 485 379 419 142 347 956 869 4570 80 121 2212 219 352 53 175 230 79 123 79 675 649 403 351 1313 251 231 1213 918 154 996 2358 96 298 154 403 122
cat_boundaries=0 1 2 3 6 9 12 14 16
cat_threshold=1 4 2 1476412720 171180137 1640448 2751468908 1 1000192 1677733936 138412036 66048 218107904 19 3055553632 1048581
is_linear=0
shrinkage=0.05


Tree=4
num_leaves=127
num_cat=7
split_feature=17 37 37 17 45 37 37 37 32 37 37 37 19 32 44 54 32 32 37 44 54 54 37 54 15 37 54 45 37 37 54 54 54 36 54 37 54 44 37 44 44 54 32 37 44 54 45 54 21 54 37 54 37 32 54 37 54 25 54 37 54 37 54 35 54 36 54 54 37 37 22 54 37 44 32 54 43 34 37 37 54 37 54 54 37 37 37 54 49 44 54 32 32 36 54 44 32 37 37 37 53 36 37 37 44 33 32 54 37 54 54 29 32 35 37 32 22 54 32 54 37 54 44 43 54 44
split_gain=387.712 83.6623 60.2391 17.4949 11.3902 6.09354 1.97171 1.77378 1.72571 1.57236 1.04468 0.877584 0.939712 0.422292 0.366732 0.337524 0.250521 0.231623 0.230291 0.213106 0.207393 0.188373 0.186992 0.172408 0.166077 0.140618 0.136078 0.12203 0.113119 0.112238 0.112054 0.0993034 0.0976653 0.0965075 0.0856458 0.0839105 0.113129 0.080071 0.0725974 0.0649302 0.0494851 0.0488095 0.0487782 0.0472937 0.0467945 0.0534264 0.0453109 0.0631439 0.0442843 0.0407564 0.038755 0.0385022 0.0380896 0.0366214 0.045233 0.0364456 0.0365981 0.0350747 0.04672 0.0340784 0.0320119 0.0359687 0.0316434 0.0315507 0.0313296 0.0308226 0.0285137 0.0284988 0.0281607 0.027832 0.0269166 0.039207 0.0259417 0.0256472 0.0249783 0.0234215 0.0233847 0.0211453 0.0194567 0.0194355 0.0191516 0.018791 0.0183512 0.0171964 0.0171527 0.016892 0.0161795 0.0346656 0.0210552 0.0159704 0.0153975 0.0153527 0.0149954 0.0146814 0.0144812 0.0139701 0.0139261 0.0137065 0.0135386 0.0130363 0.0125837 0.0125118 0.0119494 0.0117595 0.0114669 0.0176786 0.0109784 0.010744 0.0105576 0.0103698 0.0102884 0.0117477 0.0102263 0.0100413 0.0100253 0.0103865 0.0098897 0.0147465 0.00983362 0.00970174 0.00852691 0.00829955 0.00826534 0.00810666 0.00806898 0.00800428
threshold=0 0.1143202381752161 0.74150817799467339 1 0.053398524310234757 0.55733743630272836 0.8792551390557074 0.15792015323498376 0.032313679029631816 0.081492150127846621 0.467564741314971 0.26914149945359928 2 0.62415870065055412 0.016860851057999077 0.02931806210566407 0.066453926261701726 0.12821036407398553 0.39006576377217178 0.074130198748487558 0.033790776036545532 0.016962845839727667 0.041981384803347545 0.036953134183687071 1.5000000000000002 0.18339829321360576 0.10249860683962959 0.2330167123943204 0.027114988683610338 0.10065824109538084 0.039270284807856402 0.052713673077453213 0.047774437985583125 0.067946667715059916 0.054186904861020797 0.066010921043612017 0.037556903149584223 0.12395071428417202 0.16699798469758462 0.046934285870412963 0.15231090829200297 0.045038125757938689 0.10662198923506006 0.043570535841991158 0.068575067475668119 0.036426941537670385 0.050992088218490259 0.044124959022751785 3 0.056152313504492256 0.03295363657319559 0.0060384809035067049 0.30120050477975863 0.064246469245206092 0.057832930279201715 0.10065824109538084 0.016600070712314289 4 0.032248097793836916 0.13848088683771387 0.026648683035456488 0.037582044040916758 0.016600070712314289 0.03434330375635225 0.011695345741270811 0.062854372428177416 0.027376755605997272 0.049023934954988094 0.12176010417654472 0.097034271961372306 5 0.031312491220859551 0.19529687708838506 0.045689671220083258 0.060105633797817602 0.043289258014795676 0.054693312626991529 0.021460075540502607 0.018037668543911971 0.063163859108873649 0.061536333081659199 0.12861950326084168 0.024839039883680407 0.050471540250732132 0.21760986571618865 0.24613055669512832 0.066010921043612017 0.047774437985583125 0.06916175390375516 0.13682340756642197 0.069863524017053716 0.13846719971810209 0.45789743414344514 0.069601103072695389 0.020444685993145927 0.11248519847803809 0.2166563611372386 0.064592870277015643 0.014486097642639409 0.057887614263574791 58.500000000000007 0.034602897937239863 0.074240328830043681 0.037108562853045722 0.11087190419308844 0.097630316526547786 0.074001579456547159 0.019493352638038097 0.10711830332058278 0.027078889250515249 0.030580620727499494 0.17955866610652274 0.12821036407398553 0.043765089166049577 0.036623839810862986 0.072293810837829556 6 0.022352999160944052 0.074905670971869578 0.019207266586841788 0.16699798469758462 0.046040137529157407 0.035732818350964958 0.072051013127899813 0.022763599606486752 0.10493338528320813
decision_type=9 2 2 9 2 2 2 2 10 2 2 2 1 10 2 2 10 10 2 2 2 2 2 2 2 2 2 2 2 2 2 2 2 2 2 2 2 2 2 2 2 2 10 2 2 2 2 2 9 2 2 2 2 10 2 2 2 9 2 2 2 2 2 10 2 2 2 2 2 2 9 2 2 2 8 2 2 8 2 2 2 2 2 2 2 2 2 2 2 2 2 10 10 2 2 2 8 2 2 2 2 2 2 2 2 10 10 2 2 2 2 10 10 10 2 10 9 2 10 2 2 2 2 2 2 2
left_child=2 4 5 7 8 10 -4 17 14 16 18 24 52 -7 51 22 39 34 32 41 -8 28 50 25 30 112 -20 40 64 48 38 44 -1 46 42 36 60 68 -5 75 63 69 66 121 97 102 47 77 -21 91 62 98 -13 108 70 56 -53 58 107 110 -23 -62 -10 -25 78 -43 -3 76 -19 94 125 -72 -32 -24 -59 82 -41 -17 -16 -78 -29 -44 99 -70 109 -82 87 -35 -88 -68 120 -42 -12 -67 -11 113 -40 -18 -2 -6 -36 -84 119 -30 105 -73 -91 -50 -31 -27 -39 -112 -9 -60 -79 -116 117 -76 -109 -46 -65 -38 -52 -99 -124 -55
right_child=1 3 6 11 9 13 20 23 15 19 92 12 -14 -15 21 33 31 37 26 29 -22 35 73 27 -26 84 -28 80 103 53 72 -33 -34 86 100 -37 43 59 96 67 49 65 81 -45 45 -47 -48 -49 57 -51 122 55 -54 54 -56 -57 -58 74 95 -61 61 -63 -64 90 -66 93 89 -69 83 -71 71 104 -74 -75 116 -77 79 114 -80 -81 85 -83 101 -85 -86 -87 88 -89 -90 106 -92 -93 -94 -95 -96 -97 -98 123 -100 -101 -102 -103 -104 -105 -106 -107 -108 118 -110 -111 111 -113 -114 -115 115 -117 -118 -119 -120 -121 -122 -123 124 -125 -126 -127
leaf_value=0.011021898960062025 -0.0038352499190128565 0.00077777992507745846 0.028937452288899313 0.0024808418284880955 -0.0022095104188225279 0.019981910934535888 0.036533638677317092 0.0018840191447590056 -0.003059007500824459 -0.00061673659359174097 0.015028241711141893 0.0073982818572370856 0.018381930003950605 0.024203488348437135 -0.0035866713632691123 -0.00093119385709923086 -0.0017106680423356448 0.00030422428024507435 0.01357550858624155 -0.00069949049323219964 0.033060311758330754 -0.0026543277462871767 -0.0023066802666991417 0 0.0020404085733436348 0.0037119255196535333 0.018369234472642212 0.0037256357383948085 -0.0029441298380317085 -0.0014954426061957954 0.0061931279085008619 0.0021047481283287465 0.012821993384707842 -0.00033490307055510251 -0.0015803870930778856 -0.0035099398034180562 0 0.0012083247863770102 0.0054444400683262145 0 0.0016181920328365261 -0.0030130079443590834 0.00083189277132889093 -0.0021944648849655433 -0.0013394636613173116 0.0003218742001029006 -0.0029195518911409009 0.00047139575630988624 -0.00025583260149842995 0.0013835072239556656 -0.0027126675185780188 -0.0034512488835955536 0.00831204800710191 -0.00021082102519726461 0.0023484431566288414 -0.0038051945735196389 -0.0028326757965404879 -0.0014712625444172674 0.00096695236214848132 0.0021549338165413093 -0.00132803420049619 -0.0026854116741605568 -0.0024688585145710199 0.0010294758798387235 -0.0030816476735151845 0 -8.5182979322590455e-05 5.903285812234403e-05 0.0013518930343340994 -0.00027772245265124043 0.00032626415040176113 0.0012364950684765892 0.0072279474643548204 -0.0019334648008350178 -0.00030571457910083468 -0.00051660545299415743 -0.0017849994146054327 -0.0010618120623950449 -0.0032477637827120474 -0.0014409813686757228 0.0012677923152749227 0.0013046507443953716 -0.0031703037372350982 0 0.0042110549332979681 0.0030370125965414512 0 0.001578224841598112 -0.0020740804873261745 0 0.00069189818062946465 0.0028752040838802371 0.016965285092520637 -0.0017748796344642039 -0.0011099841324492881 0.0020114371282679419 0.0062119553155063397 -5.5647472996119544e-05 -0.003357852849197083 -0.0017164281771994095 0 -0.0022108406018200842 -0.00076274131850061558 -0.0025179753720200818 0.0016973192658967366 -2.3695097902758745e-05 0.0012990850297036809 -0.0004789171118593108 0 0.0030263151994250961 0.0014511424716946021 0.0028325163823617696 0.0027979495334930489 -0.00013964491414452963 -0.0023201060924135839 -0.00070727238965648904 -0.00036985448546596926 0.00050867517616025272 0.00042047277797480336 -0.00087900881465993209 0.0020467983724340132 0.0012210683195170626 -0.0024496761509852599 -0.0012639038336973933 -0.0018352441652534715 0.00026181951722810425
leaf_weight=211 2142 332 154 21 435 174 361 70 1111 362 86 344 23 129 1795 110 291 98 353 432 108 1097 1109 34 27 409 23 157 1254 31 198 23 262 107 38 232 27 234 268 21 50 42 622 25 367 78 62 38 257 100 674 2958 589 214 30 911 372 47 61 578 140 103 435 50 1148 20 236 20 560 302 689 64 371 1377 134 32 1178 50 1242 1032 30 437 90 27 218 81 23 30 23 21 52 247 208 21 378 34 433 23 376 431 28 199 494 434 77 36 40 33 25 195 82 37 748 20 139 21 523 94 156 311 167 20 977 766 134 153
leaf_count=211 2142 332 154 21 435 174 361 70 1111 362 86 344 23 129 1795 110 291 98 353 432 108 1097 1109 34 27 409 23 157 1254 31 198 23 262 107 38 232 27 234 268 21 50 42 622 25 367 78 62 38 257 100 674 2958 589 214 30 911 372 47 61 578 140 103 435 50 1148 20 236 20 560 302 689 64 371 1377 134 32 1178 50 1242 1032 30 437 90 27 218 81 23 30 23 21 52 247 208 21 378 34 433 23 376 431 28 199 494 434 77 36 40 33 25 195 82 37 748 20 139 21 523 94 156 311 167 20 977 766 134 153
internal_value=-1.49939e-05 -0.00113483 0.0210761 0.00333474 -0.00233553 0.0154679 0.0340802 0.00191362 -0.00300573 -0.000951577 0.0137824 0.00706822 0.00823868 0.0218031 -0.00331275 -0.0023222 -0.00148719 0.00115342 0.0128609 -0.000217981 0.0357517 -0.00306763 -0.00243975 0.00289392 0.00621489 0.00321482 0.0138868 0.00234481 -0.00320373 -3.03533e-06 0.00629816 -0.00108403 0.0120321 -0.00117973 0.000750049 -0.00257824 -0.00242138 0.00158807 0.00583354 -0.00176162 0.00197865 -0.000807688 0.000820775 -0.000405571 -0.00111774 -0.000897455 -0.00159894 -0.00135552 -0.00026239 0.00236722 -0.00269021 -0.00358457 0.00798133 0.000345332 0.000403556 -0.00347553 -0.00338374 -0.000113741 0.000181882 0.00189868 -0.00252592 -0.00192482 -0.00289636 0.00145242 -0.0033501 -0.00200751 0.000457425 -0.00159384 0.0011584 -0.000707135 0.000351994 0.000501194 0.00687779 -0.00210205 -0.00032743 -0.00207541 -0.0016109 -0.00158816 -0.00344983 -0.00162669 0.00328146 0.0010318 -0.00211422 0.00129242 0.0036947 0.00260542 -0.000189947 4.84059e-05 -0.00100685 8.2348e-05 0.00163376 0.00268103 0.016421 -0.000851016 -0.000875565 0.00108483 0.00592648 -0.00136796 -0.00376608 -0.00197011 -0.000981679 -0.00252792 -0.000982892 -0.00283768 0.00118163 0.000733306 0.000811412 -3.5846e-05 -0.000877083 0.00349939 0.00146444 0.00192464 0.00272609 0.000632231 -0.00190789 -0.00214023 -0.000253361 7.85388e-06 0.000236825 -0.00113579 0.00183601 0.00044245 -0.00250871 -0.00123503 -0.00238024 -1.3846e-07
internal_weight=41043 38974 2069 8252 30722 1446 623 5978 20696 10026 1143 2274 956 303 14276 6420 5791 3370 849 4235 469 7517 5817 2608 1318 1640 376 968 5873 3110 1291 2353 473 603 1754 1644 1412 1616 722 3438 700 1125 1688 72 2330 1250 420 358 1791 397 3331 6759 933 1319 1263 4241 3330 1359 561 931 1340 243 1546 303 4185 83 629 2251 685 1042 1233 866 569 2486 798 1187 2231 320 3037 2210 268 1059 1155 587 822 111 183 137 46 297 269 297 294 41 740 115 701 1080 2518 866 66 289 1172 1688 177 100 61 446 56 604 353 119 818 81 210 160 751 228 189 678 217 47 1785 789 1111 367
internal_count=41043 38974 2069 8252 30722 1446 623 5978 20696 10026 1143 2274 956 303 14276 6420 5791 3370 849 4235 469 7517 5817 2608 1318 1640 376 968 5873 3110 1291 2353 473 603 1754 1644 1412 1616 722 3438 700 1125 1688 72 2330 1250 420 358 1791 397 3331 6759 933 1319 1263 4241 3330 1359 561 931 1340 243 1546 303 4185 83 629 2251 685 1042 1233 866 569 2486 798 1187 2231 320 3037 2210 268 1059 1155 587 822 111 183 137 46 297 269 297 294 41 740 115 701 1080 2518 866 66 289 1172 1688 177 100 61 446 56 604 353 119 818 81 210 160 751 228 189 678 217 47 1785 789 1111 367
cat_boundaries=0 1 2 3 40 43 45 47
cat_threshold=1 4 2 0 0 4096 2148597760 2048 16384 2415919104 5120 0 1024 0 0 0 0 67108864 2049 2097408 524288 134283296 0 1048576 262144 2048 0 2048 0 524416 0 0 0 0 1572864 0 1073741824 0 0 33562624 2013287352 402784301 348672 228655168 13 1224745088 2103302
is_linear=0
shrinkage=0.05


Tree=5
num_leaves=127
num_cat=6
split_feature=17 37 27 17 27 27 37 37 37 47 37 15 37 37 37 54 54 47 27 54 37 32 47 15 39 47 47 37 54 54 27 54 54 54 27 54 37 54 54 27 27 37 37 43 33 37 54 27 37 54 37 37 54 54 25 54 54 37 27 27 33 32 54 22 37 54 37 37 27 37 54 37 54 47 35 3 47 37 27 27 33 25 54 53 54 29 27 37 27 54 32 54 27 54 37 54 54 37 32 54 37 54 27 37 54 27 37 54 34 22 54 37 32 37 54 54 47 39 42 54 47 27 43 47 43 54
split_gain=359.858 76.3111 55.953 16.7345 9.62697 4.53328 2.42102 1.71906 1.67614 1.44599 0.773463 0.81942 0.673587 0.563639 0.381748 0.293257 0.285038 0.23802 0.222932 0.212915 0.209197 0.201335 0.185935 0.158803 0.157831 0.143394 0.117427 0.0995883 0.101936 0.0994474 0.0957901 0.0925529 0.088988 0.0889058 0.0732877 0.0651169 0.0646911 0.0643582 0.064046 0.0631864 0.0619657 0.0612612 0.060348 0.0488345 0.0464437 0.0452002 0.0509133 0.0435048 0.0422322 0.0419439 0.0502235 0.040012 0.0387283 0.0362855 0.0361239 0.0453153 0.0340983 0.0339468 0.031883 0.0290611 0.0289732 0.0288439 0.0265499 0.0263775 0.0263468 0.0261996 0.0455539 0.0249988 0.0249596 0.022619 0.0218932 0.0218672 0.0220532 0.0214904 0.0187125 0.0184418 0.0179043 0.0172543 0.0164801 0.0162827 0.0160339 0.0156937 0.0218942 0.0167776 0.0154166 0.0149326 0.0167621 0.0148602 0.0147741 0.0147605 0.0144655 0.0142984 0.0144197 0.0137401 0.0135043 0.0151797 0.0134125 0.0162335 0.0133568 0.0165485 0.0132038 0.0129781 0.0127745 0.0126216 0.0123204 0.0122869 0.0122528 0.0129292 0.011923 0.0117077 0.0116165 0.0113498 0.0109449 0.00999219 0.0101782 0.00987711 0.009649 0.00954071 0.00927992 0.0116276 0.00891229 0.00879434 0.00868513 0.0086581 0.0082744 0.00817191
threshold=0 0.11128699313874102 0.71755533956812945 1 0.049706772086901212 0.50979888385826844 0.8792551390557074 0.15513671646659019 0.074240328830043681 0.026499555079600726 0.2783637616269618 1.5000000000000002 0.55733743630272836 0.39006576377217178 0.036623839810862986 0.047774437985583125 0.028365401611361241 0.083720040731817782 0.17454671362961163 0.033790776036545532 0.74150817799467339 0.12821036407398553 0.046934285870412963 1.5000000000000002 0.46642063881441059 0.014484997759152128 0.060215253621841956 0.467564741314971 0.069863524017053716 0.037556903149584223 0.10329702144986017 0.040638450116648468 0.059641817862984593 0.016728855816424054 0.085660025809904769 0.031312491220859551 0.062417841893587754 0.054186904861020797 0.047774437985583125 0.16086496891053634 0.00042846552297065007 0.13636211949142621 0.025524103086885668 0.054693312626991529 0.075854327657987761 0.19529687708838506 0.061536333081659199 0.098514098365666172 0.16699798469758462 0.013293457290880909 0.023990487352683703 0.20800636937826622 0.066740860293646204 0.036953134183687071 2 0.045038125757938689 0.025319266016185078 0.24613055669512832 0.10697012170997712 0.077566579305355557 0.096226299240038282 0.067280566217604157 0.04270891783643032 3 0.092411954394443177 0.10249860683962959 0.467564741314971 0.1251713032340083 0.11901628123565712 0.055492999046155352 0.041955549852787197 0.018690353048325056 0.02119213655219827 0.11777151863203114 0.023796963554223383 832.50000000000011 0.10471499417421511 0.093619458557185106 0.11630078879806101 0.0099393613281357016 0.075055801858545462 4 0.03506616079505568 50.500000000000007 0.037556903149584223 0.14007221468066935 0.23657886632510253 0.085566201712815079 0.10844216933167566 0.035905597274921562 0.087045325210985278 0.028982720407308839 0.2309805795814264 0.054186904861020797 0.047888072528190093 0.01784766609669931 0.020272991823506052 0.093619458557185106 0.11487236344138842 0.025319266016185078 0.043570535841991158 0.023541181959186676 0.0091297667596080528 0.30120050477975863 0.035905597274921562 0.17454671362961163 0.04521949025322531 0.02931806210566407 0.018693194132565493 5 0.0099069225436715282 0.12698328960986785 0.15652379605215527 0.19939834491327887 0.032950790917584565 0.034627996169866476 0.11777151863203114 0.13327062663512698 0.08891416623723257 0.026068967299327117 0.074130198748487558 0.11901628123565712 0.082268749240543906 0.082497175734421016 0.08279284202987279 0.017571028001642425
decision_type=9 2 10 9 10 10 2 2 2 2 2 2 2 2 2 2 2 2 10 2 2 10 2 2 2 2 2 2 2 2 10 2 2 2 10 2 2 2 2 10 10 2 2 2 10 2 2 10 2 2 2 2 2 2 9 2 2 2 10 10 8 10 2 9 2 2 2 2 10 2 2 2 2 2 8 2 2 2 10 10 10 9 2 2 2 8 10 2 10 2 10 2 10 2 2 2 2 2 10 2 2 2 10 2 2 10 2 2 8 9 2 2 10 2 2 2 2 2 2 2 2 10 2 2 2 2
left_child=2 4 5 7 9 13 20 21 15 25 23 103 65 38 16 22 33 34 31 -8 -4 37 59 29 -14 79 40 28 -15 39 54 48 56 42 96 36 94 47 -1 -5 -16 68 110 -28 -39 62 91 70 117 50 -27 52 -31 -18 87 90 -32 -41 -17 84 78 106 -20 -58 81 66 -7 76 115 -42 123 72 -51 101 -37 122 -49 -65 -33 -2 -76 82 -36 -83 100 -48 -87 -19 -38 -85 -56 -47 -93 -63 -24 -96 97 -10 99 -69 -6 -43 -73 -12 -89 124 107 -45 -82 120 -11 -46 -70 114 -50 -23 -117 -9 119 -78 -66 -111 -62 -3 -103 -92
right_child=1 3 6 10 8 12 19 18 17 14 11 -13 24 27 26 58 53 30 45 -21 -22 41 35 -25 -26 49 43 -29 -30 51 32 60 -34 -35 64 74 88 44 -40 57 69 73 -44 61 111 46 85 67 113 71 -52 -53 -54 -55 55 -57 63 -59 -60 -61 75 93 -64 77 109 -67 -68 98 112 -71 -72 102 -74 -75 80 -77 118 -79 -80 -81 108 83 -84 89 -86 86 -88 104 -90 -91 125 92 -94 -95 95 -97 -98 -99 -100 -101 -102 105 -104 -105 -106 -107 -108 -109 -110 121 -112 -113 -114 -115 -116 116 -118 -119 -120 -121 -122 -123 -124 -125 -126 -127
leaf_value=0.010479879974366758 -0.003532548019406152 0 0.02362347335835261 0.0026090171621523765 -0.0023454626930058775 0.01311298967150513 0.034701006665480226 0.0015391716338094337 -0.00090507193161775952 -0.0033171601090283471 0.0070516803813663823 0.017623120256408848 0.018359236675622805 0.012604560336188534 -0.0030118747534375206 0.0022799123912696896 -0.0010787093180038704 -0.00078004476539765284 0.0028745167900409109 0.03131974721518508 0.028358952852199033 0.000792479407075601 -0.0019477503799085795 0.0019172372339410202 0.02176482910206759 -0.0033033538968004158 8.6766645383354251e-05 0.014917626227186342 0.01534930183333817 0.0055469910505727736 5.7121796677786056e-05 -0.00016768561050374052 0.0033013247172936967 -0.0023425387437196804 -0.00043526299501809614 0.00020128346290190107 -0.0012359954559691426 -0.0020044060742778758 0.012074381114986746 0.0053780921575332791 -0.002264084858077399 0.001666870677402475 -0.0026891112161318781 -0.0023435192125266023 0.0012189834789147875 0.0038604136774549463 0.00079999487409650378 0.00034857569288295224 0.0027567789436729433 -0.0026146129288340007 -0.0028410597713617383 0.0069789291416978982 0.0073520441251775925 0.00057021494784359158 -0.00033871057286858719 0.0022405056270235536 0 0.0062887447137039898 0 -0.001498120094779887 0.0024646167999969625 -0.0012969353836776224 0.0017660051493632912 0.00028859323608813978 -0.0010114510228464697 0.019573784432422494 0.016536433582557911 0.0011883277029496242 0.0011230410403101695 -0.0018710865779144735 -0.00051239226957236256 -0.0032251291924991106 -0.0013897649427796976 0.0019114005823006566 -0.0011765649282752977 0.00011908486229464163 0.00084905923564560556 0.0012499081680637193 0.0011768127041105669 -0.0032881495936763123 0.00066988194148190588 -0.0021427060350761441 0.00099147757839417689 -0.00080510873078616034 -0.00050205898262536172 0.0016113172313136496 0.0032385409935943147 -0.00020935219662380868 0 0.00015390630949260747 -8.4916413609372254e-05 0.0028528468897840251 0.0036847270518796794 0 -0.0017206978504789958 -0.0013052654312435876 -0.0012039674587002822 -3.8983183897222302e-05 0.0013244565965624486 0.00037137329945095886 -0.0019809769489168346 0.0010192332270510228 -0.0027868619823225374 0.0078856313256727237 -0.001124640174942353 0.0017245092072373709 -0.0017179160163263896 -0.00075936468513257405 -0.00059566709363142252 -0.0001492052528283211 -0.0029387634069072397 -0.00028691420297884292 0.0018115129260725432 0.0034815641117807434 0.001851862549093369 -0.00060345720518318528 0.00066124958518360344 0.0022480327568033956 0.00058861177732882734 0.0018346752023573919 0 0.00037809786683246121 0.0015228055934617005 0.00055752552321546684 0 0.00031791296461440626
leaf_weight=219 3678 77 54 23 671 32 375 150 521 1023 225 22 83 282 277 49 107 280 605 112 135 145 510 27 167 2744 33 205 66 221 556 38 26 877 181 41 1359 37 231 471 2130 118 1509 236 21 338 23 326 342 267 1015 400 63 44 289 22 103 279 21 294 64 229 88 83 65 21 121 151 409 670 67 500 66 612 166 24 154 183 42 1960 20 26 30 407 23 45 60 465 32 35 238 226 180 23 886 483 510 74 373 145 1065 32 920 604 44 29 834 24 91 328 743 22 107 82 78 30 30 208 210 57 36 103 154 310 51 238
leaf_count=219 3678 77 54 23 671 32 375 150 521 1023 225 22 83 282 277 49 107 280 605 112 135 145 510 27 167 2744 33 205 66 221 556 38 26 877 181 41 1359 37 231 471 2130 118 1509 236 21 338 23 326 342 267 1015 400 63 44 289 22 103 279 21 294 64 229 88 83 65 21 121 151 409 670 67 500 66 612 166 24 154 183 42 1960 20 26 30 407 23 45 60 465 32 35 238 226 180 23 886 483 510 74 373 145 1065 32 920 604 44 29 834 24 91 328 743 22 107 82 78 30 30 208 210 57 36 103 154 310 51 238
internal_value=2.14304e-05 -0.00106329 0.0201689 0.0030972 -0.00223732 0.0145473 0.0320243 0.00174862 -0.00101578 -0.00288462 0.00671028 0.00793152 0.0189084 0.0126971 -0.00240162 -0.00159625 -0.00274122 -0.000330214 0.00268671 0.0339402 0.0270456 0.0010136 -0.00163661 0.0060061 0.020662 -0.00326357 -0.0020725 0.0138129 0.0131437 0.00607831 3.3956e-06 0.00215386 0.000401606 -0.00281914 -0.00069636 -0.00141471 -0.00148257 0.000669847 0.011312 0.00563844 -0.00224924 0.00143921 -0.00294517 -0.00167437 -0.000686438 0.00308581 0.00335356 0.000730577 0.00243275 -0.00307342 -0.00317993 0.0065672 0.00596745 -0.000565078 -0.000233733 2.59745e-06 0.000314348 0.00572431 0.00158233 -0.00202191 0.00139296 -0.00172126 0.00274124 0.000688262 -0.000420423 0.0163498 0.0158621 0.000868961 0.00108193 -0.0021719 0.00028786 -0.002842 -0.00238735 0.00173904 -0.000700897 0.00167499 0.000653109 0.000933866 0.000476342 -0.00344853 -0.000852501 -0.000629164 -0.000198927 -0.00079122 -0.00210652 0.00230903 0.00259093 -0.00046985 -0.00121078 -0.000717841 -5.54761e-05 0.00352621 0.00323479 -0.00117997 -0.00168103 -0.00157789 -0.000994177 -0.000805783 0.00110237 0.000805277 -0.00212487 0.00125805 -0.00294492 0.0076662 -0.0002985 0.000781617 -0.00184126 -0.00221686 -0.000322238 -0.00014454 -0.00316097 0.000333637 0.00127582 0.00275555 0.00260111 0.000569129 0 0.0019655 0.000876911 0.00113974 -0.000602497 -1.12726e-05 0.00182323 0.000439418 0.000390326 0.000106021
internal_weight=41161 39058 2103 8595 30463 1427 676 6260 10554 19909 2335 851 424 1003 8759 5711 4303 4843 2747 487 189 3513 5641 1484 250 11150 4456 553 348 1457 2527 1182 951 4152 2316 3588 3270 1950 450 773 3077 1563 3275 1379 80 1565 872 1870 860 5512 3759 684 284 151 1576 787 925 750 70 2053 322 1346 693 369 1211 174 153 1416 721 2800 454 1753 333 842 318 242 747 266 80 5638 277 679 211 468 1759 128 105 789 1391 442 765 744 406 252 1879 1369 1105 595 669 296 1736 230 1420 829 509 112 1094 260 111 532 1766 43 516 502 420 205 60 358 421 211 101 431 218 387 83 476
internal_count=41161 39058 2103 8595 30463 1427 676 6260 10554 19909 2335 851 424 1003 8759 5711 4303 4843 2747 487 189 3513 5641 1484 250 11150 4456 553 348 1457 2527 1182 951 4152 2316 3588 3270 1950 450 773 3077 1563 3275 1379 80 1565 872 1870 860 5512 3759 684 284 151 1576 787 925 750 70 2053 322 1346 693 369 1211 174 153 1416 721 2800 454 1753 333 842 318 242 747 266 80 5638 277 679 211 468 1759 128 105 789 1391 442 765 744 406 252 1879 1369 1105 595 669 296 1736 230 1420 829 509 112 1094 260 111 532 1766 43 516 502 420 205 60 358 421 211 101 431 218 387 83 476
cat_boundaries=0 1 2 5 7 10 12
cat_threshold=1 4 285238419 1880490098 7912448 136382498 1 3623880848 8 550912 1075839010 2621456
is_linear=0
shrinkage=0.05


Tree=6
num_leaves=127
num_cat=8
split_feature=17 37 45 17 45 27 27 37 27 37 37 15 45 37 54 54 44 27 37 27 32 27 15 54 54 37 54 44 44 44 45 37 54 54 54 37 54 37 44 36 54 37 54 53 50 54 54 27 45 44 54 32 44 27 54 43 37 33 27 54 37 44 45 54 37 32 54 37 54 27 37 54 37 54 27 22 37 25 54 22 37 54 54 33 37 54 44 54 54 45 37 44 22 53 27 44 54 37 54 22 54 37 44 36 54 37 54 27 25 44 9 37 54 54 54 37 42 27 37 34 54 37 42 42 37 54
split_gain=324.841 68.9119 50.5173 13.5414 10.2931 3.76383 2.68708 1.5866 1.46275 1.16079 0.687144 0.718956 0.623302 0.499722 0.389295 0.295677 0.273966 0.236739 0.214341 0.212437 0.179224 0.125881 0.129358 0.123843 0.11325 0.104145 0.100309 0.0942004 0.0912049 0.0874249 0.084813 0.0813321 0.089603 0.0790911 0.0764259 0.0738275 0.0707162 0.0698976 0.0669869 0.056226 0.055654 0.0525067 0.0464019 0.0395957 0.0459944 0.0390143 0.0386752 0.0386701 0.0376593 0.0367403 0.035646 0.0351722 0.0349813 0.0326866 0.0324964 0.0324317 0.0305994 0.030066 0.0289537 0.0378279 0.0288066 0.0287946 0.028505 0.0335501 0.0275396 0.0262732 0.0260764 0.0255596 0.0256738 0.0248975 0.0248154 0.0233081 0.0219988 0.0200229 0.0199973 0.0195922 0.0191804 0.0191134 0.0203497 0.0183658 0.0183008 0.0180656 0.0178053 0.0177685 0.0172351 0.0171285 0.0164895 0.0164809 0.0164338 0.0161261 0.0166689 0.0167853 0.0151564 0.014719 0.014535 0.0143235 0.0274558 0.013025 0.0127942 0.012591 0.0142745 0.0123205 0.0117975 0.0120665 0.0115969 0.0107478 0.010746 0.0106891 0.0104031 0.0100584 0.0100222 0.0100174 0.014303 0.00965336 0.010799 0.0106421 0.00945708 0.00936369 0.00912624 0.00840334 0.0232398 0.00821236 0.00817944 0.00885625 0.00778067 0.00766526
threshold=0 0.11868024583744199 0.70422284655926382 1 0.053398524310234757 0.50979888385826844 0.84327735676348559 0.083567561594272075 0.028037112148503251 0.16384317617133706 0.28870806000481997 1.5000000000000002 0.61336505347902259 0.39006576377217178 0.02931806210566407 0.033790776036545532 0.020231721212902554 0.07349691608015041 0.037108562853045722 0.098514098365666172 0.12821036407398553 0.25673307527223993 1.5000000000000002 0.032950790917584565 0.013793135825212294 0.22270597855613158 0.066740860293646204 0.055755153095500859 0.077233033413210764 0.74419655749032543 0.49376346659240727 0.467564741314971 0.069863524017053716 0.041363297146666901 0.020091452730286782 0.14070027780296404 0.054186904861020797 0.19529687708838506 0.096341943641980579 0.067946667715059916 0.047774437985583125 0.023626308546764504 0.037556903149584223 54.500000000000007 0.05122983532865636 0.031970404366335671 0.049023934954988094 0.71755533956812945 0.17210930527155857 0.045689671220083258 0.024839039883680407 0.056867108018659927 0.012835466767631353 0.17454671362961163 0.064094268936281978 0.054706087829935621 0.19135499251606211 0.077632670229031295 0.0074999295301717509 0.028982720407308839 0.1020349981243632 0.13520274029694088 0.052172727815564056 0.047774437985583125 0.067568890998776901 0.11079129417900573 0.030580620727499494 0.018037668543911971 0.026367495851700062 0.035395404914460811 0.063884503351532312 0.056152313504492256 0.038962874666084231 0.043289258014795676 0.13429512315540212 2 0.10988816794080701 3 0.029958987910210209 4 0.19529687708838506 0.021859462962716694 0.041955549852787197 0.043972722674179558 0.066843718717876241 0.010538722513617245 0.031692933442336854 0.085258056372281385 0.035416867011847541 0.12309572708866307 0.093619458557185106 0.10471499417421511 5 56.500000000000007 0.10697012170997712 0.13682340756642197 0.024654486440022858 0.093619458557185106 0.041955549852787197 6 0.024654486440022858 0.04738506634562014 0.057230841157843652 0.094176535900982059 0.046040137529157407 0.10988816794080701 0.032950790917584565 0.10104628108302696 7 0.11777151863203114 -0.097964660725097089 0.038473272191636744 0.036953134183687071 0.029958987910210209 0.047774437985583125 0.12343269112670775 0.097718021559086363 0.067709665167209901 0.1251713032340083 0.043428584024645868 0.041363297146666901 0.09592527352752582 0.097852362175760751 0.089460074642770948 0.067568890998776901 0.036426941537670385
decision_type=9 2 2 9 2 10 10 2 10 2 2 2 2 2 2 2 2 10 2 10 10 10 2 2 2 2 2 2 2 2 2 2 2 2 2 2 2 2 2 2 2 2 2 2 2 2 2 10 2 2 2 8 2 10 2 2 2 10 10 2 2 2 2 2 2 10 2 2 2 10 2 2 2 2 10 9 2 9 2 9 2 2 2 10 2 2 2 2 2 2 2 2 9 2 10 2 2 2 2 9 2 2 2 2 2 2 2 10 9 2 2 2 2 2 2 2 2 10 2 8 2 2 2 2 2 2
left_child=2 4 5 9 8 13 29 17 16 20 21 116 30 40 18 -8 52 27 34 28 36 22 42 37 41 54 38 69 45 -4 87 32 -15 64 86 94 65 -11 74 62 -1 -18 48 44 -35 97 70 -14 -5 -20 76 -30 -2 71 56 -26 93 -38 67 -60 77 -27 63 111 107 66 -3 68 -57 -6 125 95 -61 -41 79 -52 -40 78 -53 82 -44 101 -21 -74 -75 -54 -10 -7 121 90 -77 -92 98 -25 122 96 -37 -9 -62 100 -66 -51 -76 -104 -79 -47 -93 -19 -72 -98 -95 112 -16 -96 115 -115 -12 -80 -67 120 -94 -81 123 -22 -71 -29
right_child=1 3 6 10 7 12 15 19 14 23 11 -13 47 31 39 -17 24 33 49 26 35 -23 -24 25 55 61 -28 46 51 -31 -32 -33 -34 43 -36 53 57 -39 50 73 -42 -43 80 -45 -46 105 -48 -49 -50 81 75 60 85 -55 -56 58 -58 -59 59 72 92 -63 -64 -65 99 118 -68 -69 -70 124 108 -73 83 84 102 89 -78 104 117 88 -82 -83 -84 -85 -86 -87 -88 -89 -90 -91 91 106 119 110 113 -97 109 -99 -100 -101 -102 -103 103 -105 -106 -107 -108 -109 -110 -111 -112 -113 -114 114 -116 -117 -118 -119 -120 -121 -122 -123 -124 -125 -126 -127
leaf_value=0.0099561251091228025 -0.0033335195211132221 0.00085045843329046168 0.02232938923291107 0.0025971023369542579 -0.0021875678382921328 0.013136979923252868 0.032948575823968221 -0.00088269133636241731 -0.0027538792044585593 0.0027122840559653943 0.0077690220761633651 0.016745951030049389 0.019895687297352006 0.011974555605250611 -0.0010137988870531085 0.029641730166785549 -0.0031137697336638247 -0.0013018814707691632 -0.0021464682288899421 -0.0003391601640520626 3.7280695547691114e-05 0.0064591583648613742 0.0014999937551836116 0.00038982745629834111 -0.00036536552479560198 0.0010499352202090609 0.0032636428247719632 -0.0015693814019170126 -0.0011842336262680123 0.025937444714524006 0.017042199409415322 0.0141406443278501 0.014582997749865326 -0.0019861429389085605 -0.0018904148730863471 0.0017689213393562481 -0.0018099999989242294 0.0035388143980994223 6.3604124119505956e-05 -0.00044194525130152214 0.011470923248125537 -0.0026433994510911244 0.0053864454857864693 0.0013221949898748436 0.00080628078480605775 -0.0017771807475521141 0.0004150187159189126 0.023948212310500528 0.0052385301407473668 -0.0020522706609524643 0.00019682659309020563 -0.00016828728586497246 -0.0032009548943731023 0.0024090814927135826 0.00097226272861061953 -0.0023207338562867131 0.0024922020763688373 0.00023917569330800644 -0.0024086205293431216 -0.00055460659723507685 0 0.0031088979462352961 -0.0029748687179944602 0.00065436326110868614 -0.00067173329754708657 0.00074775464949057308 0.00012114508275531632 -0.0028815996381137731 -0.0003079604813866169 -0.001769834409531861 -0.00066894034811666855 0 -0.0024580860205116821 0.0014691055279847812 -0.00051696798361405307 0.00018905383808929659 0.00060156075557692308 -0.00041604531635311832 0 -0.00030423897069870764 0.0063764050224924028 -0.0013574479509572777 -0.0017558562335052493 -0.00075864381247602432 -0.00019675064090620816 -0.0028977151518472903 -0.0024394297478316364 0.016660438954088204 0.00099463573558127428 0 0.00036493302941834147 0.0011710722397751364 0.0003313691010014845 0.00096053692190857173 0.0010769427513656899 0.0019617771581237325 0.00025830346071092648 -0.00032647389712394271 -0.0010194969779421758 -0.0009031324930519084 2.1572422340745325e-06 -0.0016824245381368706 0.0008572762034336301 -0.00026835389988395759 -0.0016735197108647707 -0.00033122894742537706 0.0021780536091879736 -0.00036136516568614243 -0.0012478538178502983 0.0012319516519329816 0.0019447587423363868 -0.0013806371807470043 0.00015590067499638718 0.00042221481865482635 0.00048834896624729137 0.0019487136723113042 0.007009357746787623 0.0013364657308753188 0.0011940648383480384 -0.00016994636070771809 0.0019748899402806954 6.9387460044006231e-05 -4.6148270317930101e-05 0.0015603320286667198 -0.001407612546391785 -0.00029858366535698397
leaf_weight=219 4381 346 66 22 404 52 376 313 1859 804 342 22 110 282 84 148 2042 562 1858 209 28 542 24 31 24 26 28 874 86 103 196 204 66 28 446 254 35 482 424 96 231 1137 191 58 28 138 28 26 546 744 111 283 2043 227 107 124 244 29 1132 56 183 329 23 24 241 248 217 704 25 1148 224 26 67 34 21 40 300 585 22 228 266 283 28 33 20 1345 1099 24 39 22 40 90 227 55 478 389 66 213 35 992 95 715 118 22 22 24 83 48 1058 74 228 218 28 22 31 140 372 37 520 41 26 378 33 24 368 22
leaf_count=219 4381 346 66 22 404 52 376 313 1859 804 342 22 110 282 84 148 2042 562 1858 209 28 542 24 31 24 26 28 874 86 103 196 204 66 28 446 254 35 482 424 96 231 1137 191 58 28 138 28 26 546 744 111 283 2043 227 107 124 244 29 1132 56 183 329 23 24 241 248 217 704 25 1148 224 26 67 34 21 40 300 585 22 228 266 283 28 33 20 1345 1099 24 39 22 40 90 227 55 478 389 66 213 35 992 95 715 118 22 22 24 83 48 1058 74 228 218 28 22 31 140 372 37 520 41 26 378 33 24 368 22
internal_value=2.05225e-05 -0.00101006 0.0191626 0.00318725 -0.00206097 0.0137216 0.0302222 -0.000793319 -0.00271125 0.00183169 0.00638476 0.00767022 0.0177983 0.0120551 -0.00215352 0.03203 -0.00303116 -0.00131068 -0.00225255 -6.838e-05 0.0012105 0.00578652 0.00543363 0.00268795 -0.00274899 0.00225631 0.000281314 -0.00153056 -0.000411859 0.024572 0.0163099 0.0131101 0.0124877 -0.00086608 -0.0025423 0.00154419 0.00077817 0.00302621 0.000240056 -0.000827689 0.0107472 -0.0029472 0.0055207 0.000382694 -0.000501856 -0.000892826 -0.0012992 0.0207242 0.0051455 -0.00197712 0.000510754 -0.000194682 -0.00322458 0.00182686 0.00186607 -0.00245551 0.0020283 -0.00080454 -0.00247659 -0.00230026 -0.000132934 0.00297252 -0.0011534 -0.00102013 -0.000942133 0.000858084 0.000578306 -0.00273669 -0.00201699 -0.0017937 -0.00132355 0.00165703 -0.00148086 0 -4.32591e-05 0.000905168 0.000293472 -0.00029789 0 -0.000141174 0.00597487 -0.00179352 -0.000506912 -0.00194854 0.000760477 -0.00308214 -0.00263883 0.0143358 0 0.00112469 0.00127904 0.00146008 0.00016305 0.00165122 0.00115004 0.00170626 0.00144086 -0.000667064 -0.000137291 -0.000803237 -0.000452903 -0.00187458 0.00046186 0.000644637 -0.000462507 -0.00159415 0.00168405 -0.00123614 -0.00116561 0.000809147 0.00177155 -0.00115721 -0.000676893 0.00123293 0.00159261 0.00177264 0.00738127 0.00085156 0.00105657 0.000393995 0.000520737 -6.29624e-05 0.000436241 0.000837842 -0.0016853 -0.0015438
internal_weight=41161 39058 2103 7820 31238 1410 693 10594 20644 5493 2327 736 408 1002 7531 524 13113 6178 7004 4416 3187 1591 1049 2306 5344 1020 2181 4126 2235 169 272 552 348 2052 3404 1792 1395 1286 2153 527 450 3179 1025 114 56 688 2206 136 568 3600 1110 1547 7769 1036 665 2165 558 64 2141 1288 1461 355 377 354 1938 1331 563 853 149 1920 2178 809 156 150 1043 386 724 949 342 882 457 1742 237 100 54 3388 2958 76 645 275 253 213 512 314 756 783 394 526 218 1328 336 1459 161 140 607 162 173 610 1282 140 283 330 112 671 193 162 714 59 768 294 253 606 85 52 1516 896
internal_count=41161 39058 2103 7820 31238 1410 693 10594 20644 5493 2327 736 408 1002 7531 524 13113 6178 7004 4416 3187 1591 1049 2306 5344 1020 2181 4126 2235 169 272 552 348 2052 3404 1792 1395 1286 2153 527 450 3179 1025 114 56 688 2206 136 568 3600 1110 1547 7769 1036 665 2165 558 64 2141 1288 1461 355 377 354 1938 1331 563 853 149 1920 2178 809 156 150 1043 386 724 949 342 882 457 1742 237 100 54 3388 2958 76 645 275 253 213 512 314 756 783 394 526 218 1328 336 1459 161 140 607 162 173 610 1282 140 283 330 112 671 193 162 714 59 768 294 253 606 85 52 1516 896
cat_boundaries=0 1 2 4 7 9 11 13 16
cat_threshold=1 4 136380450 2050 3791655276 43 394752 1142951986 2621460 1092622368 2077 2768275712 3670277 1744830612 335544332 262144
is_linear=0
shrinkage=0.05


Tree=7
num_leaves=127
num_cat=5
split_feature=17 37 27 17 45 27 37 37 27 37 37 19 45 37 47 47 27 27 47 32 27 15 27 47 27 37 47 37 37 47 37 27 47 47 36 47 21 28 27 37 27 47 37 27 27 37 27 27 27 13 3 37 47 29 27 47 35 27 35 47 42 27 27 32 29 9 45 37 37 27 10 42 32 47 13 36 27 36 33 42 35 34 42 27 47 47 47 47 9 27 37 35 27 34 32 29 47 9 41 35 27 24 10 37 45 37 29 29 3 34 47 37 42 35 40 51 32 45 27 42 27 29 48 28 42 29
split_gain=293.235 62.237 45.6312 13.6293 7.91969 3.67666 1.96649 1.40437 1.31949 1.04212 0.632143 0.693784 0.615064 0.454959 0.255764 0.24665 0.213542 0.18615 0.164126 0.163922 0.149712 0.148874 0.115613 0.08485 0.0834376 0.0759328 0.0746144 0.0626937 0.0572042 0.0471097 0.0459639 0.0455226 0.0449075 0.0423111 0.0410464 0.0390877 0.0382155 0.0338186 0.0313976 0.0302391 0.0284405 0.0280134 0.0255466 0.0250464 0.0242777 0.0241757 0.0240502 0.0240289 0.0233251 0.0231999 0.0229546 0.0224558 0.0220612 0.0215656 0.0203208 0.0193777 0.01839 0.017521 0.0160707 0.0150239 0.0149155 0.0168413 0.0147946 0.0147178 0.0138117 0.012894 0.0125737 0.011727 0.0106115 0.0104941 0.0111623 0.0115941 0.0102314 0.0101343 0.0101334 0.00965544 0.00945088 0.00935997 0.00886946 0.00874231 0.00872742 0.00864059 0.00861331 0.00848883 0.00839511 0.00819394 0.00813285 0.00807089 0.00798665 0.00798235 0.00777464 0.00749334 0.00737753 0.00780469 0.00798879 0.00686976 0.00682649 0.00669978 0.00661071 0.00649843 0.0070117 0.00651663 0.00632756 0.00624317 0.00749693 0.00594755 0.00594526 0.00586892 0.00580318 0.00669743 0.00573058 0.00567342 0.0065556 0.00552416 0.00526257 0.00525365 0.00514892 0.00514493 0.00513542 0.00698671 0.0050438 0.00500992 0.00500087 0.00468471 0.00455098 0.0045263
threshold=0 0.11128699313874102 0.71755533956812945 1 0.053398524310234757 0.50979888385826844 0.8792551390557074 0.15513671646659019 0.028037112148503251 0.083567561594272075 0.26914149945359928 2 0.61336505347902259 0.39006576377217178 0.036939283797822506 0.019239924187965805 0.07349691608015041 0.16869305607061763 0.48262380578315006 0.12652156451534205 0.082949824126051869 1.5000000000000002 0.99857676556949582 0.060215253621841956 0.058336088453944453 0.467564741314971 0.082497175734421016 0.467564741314971 0.13636211949142621 0.14996849995228997 0.023626308546764504 0.25673307527223993 0.16408334112502418 0.096341943641980579 0.027843565237098949 0.067757618444213533 3 0.18242348615934484 0.046668492663461209 0.30120050477975863 0.035395404914460811 0.010356946391613301 0.043029676380964145 0.08102371827859807 0.098514098365666172 0.079556062596691901 0.21575141868298339 0.11901628123565712 0.098514098365666172 -5.4217529296874991 862.50000000000011 0.10065824109538084 0.11608025979099126 0.025695677396437955 0.12379183117598262 0.11777151863203114 0.043184666299884933 0.11499072661817407 0.033001912305692181 0.096341943641980579 0.050630494262065694 0.00042846552297065007 0.086618707706588416 0.10254561895842156 0.049947213776831902 0.77259657388510639 0.2160326617165674 0.063884503351532312 0.13439868400149807 0.097509334988478816 -0.91037613702198739 0.10061040876430162 0.15652379605215527 0.060215253621841956 -5.4217529296874991 0.082508183725791912 0.060217785760616059 0.12500535468473517 0.075854327657987761 0.068518470291451666 0.029181425585192756 0.020217747679942163 0.097852362175760751 0.47477034847269878 0.067461855257787709 0.11608025979099126 0.090364482099475077 0.045050444293724186 0.097964660725097366 0.14029471954529094 0.16699798469758462 0.055684658125377449 0.11091796152586612 0.017613144029533338 0.090563996630270482 0.066478627317040961 0.07951694792064877 0.93540483100319627 0.066961198162159105 0.046243098927550075 0.11901628123565712 4 -0.95642797789208689 0.12861950326084168 0.13389431122668091 0.0947725328440613 0.054663850749073851 0.12576592905247255 307.50000000000006 0.038599458708533291 0.077233033413210764 0.1251713032340083 0.097852362175760751 0.039452040481095386 0.069996788519986017 0.058873334732636902 0.099985803389499375 0.046836956494543912 0.0537673803502609 0.050630494262065694 0.19097434398439314 0.08196410822574296 0.032008405906587357 0.083146399822353265 0.092856531106383491 0.12746042831449286
decision_type=9 2 10 9 2 10 2 2 10 2 2 1 2 2 2 2 10 10 2 10 10 2 10 2 10 2 2 2 2 2 2 10 2 2 2 2 9 10 10 2 10 2 2 10 10 2 10 10 10 2 2 2 2 10 10 2 10 10 10 2 2 10 10 8 10 2 2 2 2 10 2 2 10 2 2 2 10 2 8 2 10 10 2 8 2 2 2 2 2 10 2 10 10 8 10 10 2 2 2 8 10 9 2 2 2 2 8 10 2 8 2 2 2 10 2 2 10 2 10 2 10 10 2 10 2 10
left_child=2 4 5 7 8 13 18 19 15 16 21 39 27 -1 34 41 23 29 -4 33 38 31 -8 40 42 83 57 -7 47 43 -17 66 49 53 -10 62 114 51 59 -12 -6 -2 56 -9 78 65 74 85 110 -19 63 99 96 -3 77 82 -16 64 60 -11 -32 -62 -18 -31 -22 118 -5 -42 106 86 71 81 111 -44 -34 117 -36 97 -35 -66 -54 -71 -30 -15 -67 -21 -55 -59 -79 -89 91 -45 98 -94 -95 -60 -40 125 -53 100 101 -38 -64 -72 -105 -81 -46 -98 109 -108 -26 112 -49 -75 -28 -96 -110 -50 -25 -120 -57 -86 -107 -101 -123 -37
right_child=1 3 6 10 9 12 22 17 14 20 11 -13 -14 25 24 30 35 32 -20 28 26 -23 -24 45 48 -27 36 -29 55 50 58 -33 46 44 76 54 37 -39 52 -41 67 -43 73 90 68 -47 -48 72 75 -51 -52 92 80 69 -56 120 -58 87 95 -61 61 -63 102 -65 79 84 -68 -69 -70 70 103 -73 -74 113 -76 -77 -78 88 -80 105 -82 -83 -84 -85 121 -87 -88 89 -90 -91 -92 -93 93 94 115 -97 107 -99 -100 123 -102 -103 -104 104 -106 122 108 -109 116 -111 -112 -113 -114 -115 -116 -117 -118 -119 119 -121 -122 124 -124 -125 -126 -127
leaf_value=0.010210639151950012 -0.0032196358089813023 -0.00098896174905455905 0.018740279742734348 0.0048933343027846516 -0.0020713851504173381 0.012767070167677065 0.028501276370269491 -5.2274827062342286e-05 -0.0025385776552193681 -0.0016632446876136482 0.006303282851255647 0.015786586937321212 0.019616843472286039 0.011583735961844383 -0.0020777115872187011 -0.0027813635411360173 -0.0012422262147976477 0.0014639423121899054 0.025043543468277391 9.9163521556106177e-05 -0.00101798368311438 0.0012474724750194061 0.031293049967857554 -0.0015314101336077698 -0.0015021504824897069 0.013463424836017049 -0.00050497851680140874 0.015907374541000548 0.0013117434177328388 0.00058804144189026535 -0.0008541316963183933 0.0059978321986567081 0.0016056164127883302 -0.00011718418038326655 -0.0022200626692255301 -0.00081024713230110155 0.00036548611115563731 0.002325477048520853 -0.00079777449584687464 0.0071225825240849435 -0.00169040736576653 -0.0029797112383273395 -0.0018321796072954912 0.0013424183258903533 0 -0.00058630474523608915 0.003293726043933529 0.00087368578888230488 -0.0012103355569863389 0.0025076226693626154 0.00022244373613282739 0.00089994105227298349 -0.00032062503093687969 -0.00023676501986514246 0.00020831127126797854 0.0016527258811930641 -0.00054726186930521999 -0.00093021510662371981 -0.0021537957262156718 -0.00062142921387666535 -0.0028079938966882063 -0.002422990816851071 -0.00025631972113225935 0.0023025450752905577 0.00057530558317455468 -0.0013226016996618808 0.0054889640212368758 -0.0013610998915684887 0.0012072645306072933 0.0003865822417688022 6.7039850879597933e-05 0 0.0016614210319865746 -0.0015086749301345052 0.0027813576085864034 0 -0.0017291909168759463 -0.00086783626150319223 0.00048095949348242158 -0.00057344209618363383 0.00048844031819690332 0.0017401822809974842 0.00045850023093169269 0.01352718193439921 -0.00099272877674150208 0.00075585589471147921 0.00075637652264343765 -1.2024416022755057e-05 0.00011204713474939706 0.00070207877882727011 0.0018090389527716582 0.00011204900263503265 0.0002778721000034668 0 0.001237735734405462 -0.0011674679487482136 -0.000526206597471325 -0.00034663252573238768 0.00023407440798908237 -0.00078848466169602707 0.00056092977167073084 -5.2439072284728933e-05 -0.00089229887639384749 0.0011679491815552215 8.8948445003897002e-05 0.00039305053227598928 0.0011277144065493837 0 0 0.00010050464952780617 -0.0009717495332270279 0.0011769222711295617 5.0769254440658526e-06 -0.00046741308918259243 -4.9461503928554416e-05 0.00036113196168155264 0.00069758487381274385 -9.2416062551439943e-05 -0.00023248825300064039 -0.0012673014536198474 0.0024154626660378431 -0.0001511631268586954 -0.00027984450568499096 0 -0.0008888265688462686 -0.00014606800378318431
leaf_weight=450 2838 33 20 489 436 40 116 20 1826 111 349 23 162 301 1555 2782 566 88 169 102 106 25 371 507 737 205 88 222 191 21 23 364 41 67 1553 719 121 23 376 604 1114 4678 951 183 20 176 466 135 51 525 20 55 64 120 63 566 29 20 107 79 590 2039 71 551 20 183 481 667 235 32 204 33 107 405 599 35 216 27 240 262 65 43 59 47 194 139 24 181 67 46 210 23 84 20 135 56 400 155 258 30 101 273 338 37 49 26 211 52 37 29 119 286 40 28 352 40 417 26 29 696 57 77 215 38 47 46
leaf_count=450 2838 33 20 489 436 40 116 20 1826 111 349 23 162 301 1555 2782 566 88 169 102 106 25 371 507 737 205 88 222 191 21 23 364 41 67 1553 719 121 23 376 604 1114 4678 951 183 20 176 466 135 51 525 20 55 64 120 63 566 29 20 107 79 590 2039 71 551 20 183 481 667 235 32 204 33 107 405 599 35 216 27 240 262 65 43 59 47 194 139 24 181 67 46 210 23 84 20 135 56 400 155 258 30 101 273 338 37 49 26 211 52 37 29 119 286 40 28 352 40 417 26 29 696 57 77 215 38 47 46
