tree
version=v4
num_class=1
num_tree_per_iteration=1
label_index=0
max_feature_idx=56
objective=regression
feature_names=Column_0 Column_1 Column_2 Column_3 Column_4 Column_5 Column_6 Column_7 Column_8 Column_9 Column_10 Column_11 Column_12 Column_13 Column_14 Column_15 Column_16 Column_17 Column_18 Column_19 Column_20 Column_21 Column_22 Column_23 Column_24 Column_25 Column_26 Column_27 Column_28 Column_29 Column_30 Column_31 Column_32 Column_33 Column_34 Column_35 Column_36 Column_37 Column_38 Column_39 Column_40 Column_41 Column_42 Column_43 Column_44 Column_45 Column_46 Column_47 Column_48 Column_49 Column_50 Column_51 Column_52 Column_53 Column_54 Column_55 Column_56
feature_infos=none [0:7] [0:45] [0:435] none none -1:0:1 [0:1] [-0.25881904510252063:1] [0:1] [-0.32143946530316159:1] none none [-5.48492431640625:-5.23773193359375] [90.5877685546875:90.9722900390625] [1:5] [-14.935096760357844:46.636316553649181] -1:2:3:0 -1:3:1:0:2:4 -1:1:0 -1:1:0 -1:25:28:29:30:31:32:33:34:36:44:48:49:54:55:56:57:58:60:61:67:70:71:72:75:86:92:93:94:100:102:103:105:106:109:111:112:113:114:115:116:117:118:119:120:122:127:129:130:133:135:136:137:138:139:140:141:143:144:147:148:149:150:151:152:153:154:155:156:157:158:159:160:161:162:163:164:165:166:171:173:174:176:178:196:197:199:200:202:204:205:207:208:209:210:211:229:230:231:232:233:234:235:236:237:238:239:240:241:242:243:416:438:439:441:448:449:451:453:454:472:473:474:475:478:479:480:481:482:483:484:485:486:487:488:489:490:491:492:493:494:495:496:497:520:525:526:527:533:548:549:550:551:557:558:560:561:562:567:581:582:586:587:588:592:593:598:602:603:605:607:608:610:611:612:613:614:615:616:617:618:619:620:622:624:625:626:631:632:633:634:635:644:646:647:650:653:654:655:656:657:658:659:660:664:665:679:680:681:682:684:686:687:688:690:691:693:761:762:764:765:766:767:768:769:770:771:772:773:774:794:796:798:801:889:890:892:893:897:898:899:916:917:927:928:938:946:948:950:952:953:967:974:989:990:991:992:993:995:996:1015:1020:35:37:38:42:43:47:69:80:81:99:104:108:110:177:183:189:201:203:213:214:215:216:217:218:219:220:221:222:223:224:225:226:227:244:245:246:247:248:249:250:251:252:253:254:255:256:257:258:259:267:268:269:270:271:272:273:275:276:281:282:283:284:285:286:287:288:289:291:293:297:298:299:300:301:303:304:305:309:313:314:315:316:319:322:323:326:338:340:343:346:349:360:370:391:424:435:446:450:507:523:524:539:563:579:609:636:645:648:668:669:670:671:672:673:674:675:685:689:696:697:700:702:703:705:710:711:713:714:715:716:717:720:721:724:737:739:743:745:755:775:776:777:778:779:783:804:806:807:810:811:816:817:819:821:829:832:835:837:839:840:843:844:847:849:851:852:854:855:856:857:858:866:867:868:874:875:877:878:879:880:885:999:1000:1001:1002:1003:1004:1007:1011:1012:1014:1017:1018:1019:1023:1026:1027:1029:1035:1036:1043:1048:1054:1059:1060:1062:1063:1064:1065:1066:1067:1068:1081:1082:1083:1086:1104:1120:1121:1162:1175:1177:1178:1180:1198:1206:1207:1208:1211:1213:1220:1223:1225:1226:1257:21:40:45:52:68:79:83:95:125:168:172:175:185:212:302:335:345:351:376:415:422:428:442:444:476:532:546:556:559:570:578:590:594:599:604:627:628:629:652:661:708:712:719:722:725:726:780:782:797:805:872:881:894:994:1009:1047:1053:1094:1106:1108:1160:1169:1171:1172:1179:1185:1229:1230:1232:1243:13:23:46:169:170:186:193:228:262:266:274:317:324:347:354:369:371:383:421:432:445:467:512:538:583:591:596:597:663:692:701:707:709:723:747:750:753:830:838:842:902:926:935:955:1008:1033:1061:1084:1101:1124:1125:1137:1148:1173:1241:76:85:91:101:123:145:296:307:312:336:359:447:518:547:553:568:569:630:651:683:695:704:754:809:876:922:936:997:998:1005:1013:1069:1105:1130:1181:17:20:41:50:82:107:142:290:310:325:342:350:384:440:501:529:545:577:792:793:802:823:836:850:860:966:1028:1056:1057:1114:1165:1187:1219:16:62:188:190:277:294:320:321:334:339:390:412:430:508:519:535:537:667:694:795:944:951:954:969:971:1025:1034:1098:1152:1163:1174:12:27:98:337:344:584:585:621:638:666:706:736:931:1031:1049:1140:1147:1214:1244:15:24:64:180:184:355:356:365:403:433:437:477:566:678:718:799:827:859:882:1052:1055:1087:1135:1151:1170:1242:19:51:77:87:89:121:146:167:389:418:470:589:600:735:742:760:763:808:833:834:853:869:924:1006:1040:1109:1118:1122:26:39:358:572:676:758:781:824:891:895:896:925:939:949:1123:1216:4:11:53:73:187:352:429:544:791:848:871:1091:1218:8:84:96:192:348:357:555:576:790:940:959:1079:1089:1127:1141:1191:1200:1248:22:63:263:362:364:372:374:375:388:404:423:426:468:469:623:826:845:846:884:1037:1144:1167:1192:1236:279:308:366:414:431:443:522:748:977:1039:1046:1107:1161:1202:1204:3:198:260:261:333:436:541:740:756:784:813:818:970:1041:1111:1117:1153:1195:1231:18:332:510:528:534:536:863:901:947:973:1010:1131:1143:1145:9:295:411:413:462:552:887:903:923:929:961:983:1022:1085:1134:1209:5:7:134:179:306:331:382:504:511:540:554:571:741:800:900:960:1071:1146:1246:1252:327:368:502:521:698:864:870:913:943:963:987:1132:1210:328:329:353:543:601:788:908:909:945:958:1136:1176:1199:1247:66:367:728:730:825:865:920:1045:1227:0:74:126:377:434:465:580:606:731:734:820:828:873:906:933:986:1021:1050:1072:1078:1158:1201:1224:10:182:206:379:402:410:499:751:757:1038:1051:1142:90:181:194:195:380:385:459:642:738:861:934:942:1110:1112:1203:1205:1228:59:88:132:264:381:400:401:464:509:649:749:841:941:982:1042:1074:1093:1150:1156:1239:311:341:420:455:574:812:910:915:921:972:978 -1:7:11:10:30:6:27:13:43:36:28:33:23:29:5:45:26:12:34:21:25:15:3:35:8:1:39:31:37:24:53:32:44:46:49:54:16:51:50:40:19:52:4:14:38:22:2:48:17:18:9:55:42:47:0:20 -1:4:1:5:2:3:0 -1:50:52:51:54:53:49:48:55:78:77:76:4:5:6:75:74:3:73:2:79:1:7:72:0:29:26:28:24:30:25:27 -1:77:78:75:74:76:73:72:28:30:27:4:29:6:3:26:2:5:25:1:24:0:79:7:52:54:53:31:50:51:49:48:55:99:101:102:100:98:97:96 [0:1] [1.4088935900360218e-06:1] [1.4088935900360218e-06:1] [1.4088935900360218e-06:1] none none [6.1381619414759519e-06:1] [6.1381619414759519e-06:1] [0:0.21874495860003682] [0:0.29086926982082822] [0.00023888744493780027:1] [1.4088935900366528e-06:1] none [0.00023888744493780027:1] [0.00051238660629709942:0.40860611307533012] [0.0041233220341275008:0.34436257475988097] [0.049612234370044049:0.70894337178195255] [0.054558677800063994:0.15137768616940026] [0.0002388874449378:1] [1.4088935900360218e-06:1] none [0.0002388874449378:1] [0.00051238660629709996:0.28646179292517238] [0.0033678687345215:0.22605126232415251] [0.031488694517869349:0.66391340674389709] [0.0327291242279346:0.063454740719923602] [0.058634680069676183:0.5825600243545066] [1:30] [0:0.21874495860003682] none none
tree_sizes=11413 11562 11589 11770 11695 11591 11533 11573 11582 11563 11696 11651 11778 11598 11746 11615 11544 11689 11693 11860 11973 11719 11792 11935 12023 11601 11793 12195 12036 12093 11558 11712 11945 12097 11910 12809 12297 12708 12011 11464 12544 12703 12024 11875 13150 13090 12592 12965 12548 12907 13252 12599 12696 13013 12634 12704 13010 12626 13338 11856 13494 14003 13203 13055 11746 13736 11816 13777 14091 12964 13157 13475 12018 12964 13946 13796 13762 13670 11676 14121 12036 11943 13287 13749 13615 13993 13802 14052 14220 13252 11683 14086 14429 13714 13938 13826 13858 13352 13592 13351 14476 14051 14422 13483 14043 14457 14569 13925 13694 11777 14632 13345 14045 13932 14031 11744 14157 14022 14537 13436 13359 13585 11995 11651 13316 13644 13660 13611 13484 11077 13332 11623 13663 13331 13086 14371 11554 13916 13872

Tree=0
num_leaves=127
num_cat=5
split_feature=17 37 27 17 32 37 37 37 37 44 17 45 37 37 44 32 17 44 27 32 45 44 27 27 27 27 27 37 33 27 27 33 27 44 44 43 44 44 27 45 44 44 43 43 37 44 44 34 27 43 37 32 43 27 27 27 34 27 33 44 37 27 33 37 29 37 22 33 9 28 14 27 32 27 35 27 44 27 34 43 43 32 1 43 3 43 37 44 33 34 45 50 45 32 35 48 36 29 34 43 35 28 43 35 28 36 34 27 1 37 37 45 34 29 28 48 3 37 27 44 50 37 53 37 28 34
split_gain=207.857 56.1253 30.1187 11.7457 8.71199 2.37018 1.62316 1.53147 1.39824 1.22631 0.881222 0.513046 0.443254 0.295795 0.275469 0.239444 0.210447 0.186664 0.154647 0.128522 0.109195 0.103864 0.0874449 0.0862696 0.0762042 0.0702993 0.0612313 0.0591706 0.0545797 0.0515058 0.0504475 0.0501628 0.0467349 0.0461319 0.0416843 0.0372638 0.0361032 0.0310441 0.0309836 0.0303812 0.0281523 0.02812 0.0273266 0.0269199 0.0255139 0.0213413 0.0213312 0.0253893 0.0206011 0.0198721 0.0189427 0.0159849 0.0157871 0.0154704 0.0153809 0.0133488 0.0121168 0.0117962 0.0115106 0.011051 0.0109107 0.0106186 0.0104182 0.0101777 0.00990708 0.00936447 0.00922301 0.00832731 0.00806951 0.00800091 0.00756436 0.00749378 0.00730136 0.00718633 0.006899 0.00637964 0.00635449 0.00623852 0.0061771 0.00601459 0.00598302 0.00621259 0.00591536 0.00932063 0.00579806 0.00694968 0.00541933 0.00514576 0.00489516 0.0048524 0.00566553 0.00475611 0.00460007 0.00464602 0.00459066 0.00441151 0.0052153 0.0042659 0.00509525 0.00613656 0.00421839 0.00404745 0.00404732 0.00393096 0.00388613 0.00387955 0.00369819 0.00355719 0.00348803 0.0034861 0.00343387 0.0033397 0.00286502 0.00289623 0.002728 0.00272457 0.00260145 0.00252821 0.00243462 0.00958022 0.00238472 0.00237416 0.00225956 0.0022427 0.00247903 0.00222333
threshold=0 0.11176006541443891 0.67061526506104407 1 0.048043606496952405 0.56411804341049476 0.081768159749569067 0.84071550235094128 0.16213799493658396 0.028257787039017903 2 0.4502867826162319 0.27939615610975416 0.035422573067621241 0.060867917525923527 0.11521011685210376 3 0.084119352187744315 0.020023378035745752 0.13847131009960331 0.056704223510253456 0.11942716447336779 0.11836912776767521 0.99505161662943908 0.021841090776040555 0.08577636580258291 0.56750456789278336 0.05844388124856479 0.016503801515246136 0.42928612428367291 0.090945353068669257 0.061433050021782294 0.053020103875817202 0.013410105297165678 0.17163172142039149 0.054700929159924569 0.13239223275987028 0.1165047903818256 0.077645409468857313 0.42074620352641406 0.06774035214466044 0.08558111536471337 0.054693624026630062 0.054717313863283143 0.05547364589366257 0.040621850281832107 0.071443517020682093 0.023753867342024147 0.10907774703818836 0.05471083098445665 0.13397590699995537 0.16986881506959686 0.054714610948189739 0.13679565856334128 0.24754553419387212 0.075302613706768967 0.032070913351071435 0.3625009190349554 0.089276668049422761 0.02153338487337875 0.090159373579442051 0.084950828333628006 0.08648652516507653 0.065943235225410332 0.14576152309060877 0.12625315496452524 4 0.084174809804091782 0.98611507088852057 0.072705524358379819 90.802001953125014 0.063399633641585115 0.096308128097716786 0.10379662704792821 0.014020094864723527 0.072848259213697156 0.043034964704057758 0.12142445424125341 0.025980678679739053 0.082302068563324296 0.1233784761998816 0.083591810299523603 4.5000000000000009 0.082584993635783879 187.50000000000003 0.075063429622617625 0.047035171498399551 0.14279817792046162 0.085177181838589397 0.031003790308132811 0.057423102506154157 0.052252558969778658 0.096500408408897509 0.075704125214641094 0.017380680864255552 0.041363054817946505 0.11089178980899456 0.13531481919895452 0.015780124737710986 0.087175331470948983 0.026089792757288708 0.063894723917536075 0.065206649607096392 0.033986054843683645 0.073559011377229463 0.071410897081465016 0.018339840337341963 0.2161321682424612 1.5000000000000002 0.098873238961096246 0.090159373579442051 0.15546102491671618 0.016250938997416968 0.12512111850706312 0.071982857793147906 0.060956643758764507 202.50000000000003 0.052594001881781739 0.030455116747012054 0.080920628502962125 0.052252558969778658 0.068273753811939369 27.500000000000004 0.10130003393055546 0.10841132536280756 0.027832454793630872
decision_type=9 2 10 9 10 2 2 2 2 2 9 2 2 2 2 10 9 2 10 10 2 2 10 10 10 10 8 2 10 10 10 8 10 2 2 2 2 2 10 2 2 2 2 2 2 2 2 10 10 2 2 10 2 10 8 10 10 10 10 2 2 10 10 2 10 2 9 10 2 10 2 10 8 10 10 10 2 10 10 2 2 10 2 2 2 2 2 2 10 10 2 2 2 10 10 2 2 8 10 2 10 8 2 10 8 2 8 10 2 2 2 2 8 10 10 2 2 2 10 2 2 2 2 2 8 10
left_child=2 4 5 8 9 11 14 -4 15 18 17 57 16 28 27 31 54 30 33 37 24 50 38 -9 52 42 -7 45 43 -13 40 69 59 -2 -21 -22 68 -10 78 -14 71 73 -16 -11 -44 -6 -26 117 -43 -30 62 65 -15 56 -5 86 80 -1 89 -20 97 76 -17 118 -38 -23 112 75 95 115 105 122 -39 -33 -65 84 -29 -58 114 -71 81 92 123 -84 -46 -86 -47 -67 -80 90 -27 -92 93 -32 -51 -24 -97 98 -40 -100 -34 -77 -50 -60 -69 120 -107 -36 -91 -72 -54 -52 -62 -114 -19 -3 -83 -48 -37 -120 -42 -78 -8 124 -68 -108
right_child=1 3 7 12 6 26 10 23 19 13 -12 29 39 20 25 21 -18 22 32 34 35 51 36 -25 46 58 -28 61 49 -31 53 41 100 -35 107 63 64 72 60 -41 70 48 44 -45 67 55 47 -49 102 94 111 -53 110 -55 -56 -57 77 -59 103 -61 66 -63 -64 74 -66 87 82 104 -70 79 109 -73 -74 -75 -76 101 121 -79 88 -81 -82 116 83 -85 85 -87 -88 -89 -90 108 91 -93 -94 -95 -96 96 -98 -99 99 -101 -102 -103 -104 -105 -106 106 125 -109 -110 -111 -112 -113 113 -115 -116 -117 -118 -119 119 -121 -122 -123 -124 -125 -126 -127
leaf_value=0.10524184177102795 0.086202177676407407 0.090178185194190241 0.12444701352421927 0.09824524799108808 0.087734942092105445 0.11337310461629416 0.08804420991116782 0.13056007740331024 0.091367964775370042 0.088324767805066831 0.099736207033741323 0.10732463061538598 0.10050503316198615 0.088743594147877816 0.090587111285456254 0.090817229858605908 0.093806842255425682 0.08959734710300872 0.086727617792129369 0.09407167396461133 0.090178185194190241 0.092185532566680856 0.09066524601790929 0.13531072293634952 0.087931843752619587 0.089077087312193839 0.11860685026148221 0.088213484108511528 0.089069264177022378 0.11096252182856978 0.090278055766012735 0.089970995036210213 0.087846748847539693 0.086576176418390591 0.09465086409432244 0.087903177833077703 0.092056581798412751 0.091838362700295897 0.090129544380997031 0.10369385753391906 0.090770791164968459 0.091247252477772503 0.088587582536213211 0.08664917496326692 0.088862010502023706 0.087900937144805943 0.088242898304929637 0.090178185194190241 0.093007928826857711 0.087212425361068047 0.092460129086451362 0.093835521479586653 0.087293758997106896 0.091409528095781026 0.099189983700790393 0.089004155349668046 0.089335819243173437 0.10690162759650994 0.090178185194190241 0.087110863284864254 0.090757295539082988 0.089246106024130162 0.091755414897355642 0.088458218480493206 0.094105838570492997 0.092597826550294235 0.090831055921228615 0.090178185194190241 0.09034514536825819 0.091381033958669547 0.089342255093680212 0.089459382237137189 0.093559562324979154 0.090912566227692698 0.089136395452634687 0.089837176621630654 0.088594188092979698 0.090178185194190241 0.090178185194190241 0.090178185194190241 0.090066644023370945 0.089965458273535082 0.092081192180701474 0.090965054426938863 0.090178185194190241 0.089215825992149778 0.088393994132515988 0.093196550398993119 0.090887656960431107 0.089798046184876745 0.089706017596636448 0.090236258786323631 0.090178185194190241 0.091547452857425202 0.087575872055072224 0.091932867714561134 0.090862392314644713 0.089942343862252652 0.091211451838129412 0.090178185194190241 0.089206739890821882 0.089283104643906874 0.091833559181287883 0.091303270451202539 0.089496966398616984 0.090178185194190241 0.089440755269131547 0.095335837259008932 0.090563256473583043 0.090178185194190241 0.086532292671805691 0.091444931300150786 0.08999437164682117 0.090620102458124172 0.090159490717543284 0.089470853827815305 0.090419793441723684 0.089205937175832542 0.088382101948428077 0.089885812140812843 0.090178185194190241 0.089022342319328041 0.089147771490770703 0.091119498532861748 0.09022623415164864 0.090178185194190241
leaf_weight=129 2251 21 87 412 338 27 26 64 34 39 26 37 319 28 27 59 28 44 1014 364 36 108 28 87 1232 29 53 132 27 110 21 29 98 2174 355 106 30 20 26 20 31 265 219 570 273 218 120 20 22 784 171 73 310 32 224 95 47 200 22 716 43 135 195 119 22 206 116 40 26 20 57 139 115 40 154 88 252 27 32 34 84 30 47 74 24 259 378 260 39 20 87 54 23 34 504 97 33 31 38 24 21 154 252 20 47 77 36 191 40 20 89 35 46 29 84 26 134 33 175 20 26 195 47 140 42 27
leaf_count=129 2251 21 87 412 338 27 26 64 34 39 26 37 319 28 27 59 28 44 1014 364 36 108 28 87 1232 29 53 132 27 110 21 29 98 2174 355 106 30 20 26 20 31 265 219 570 273 218 120 20 22 784 171 73 310 32 224 95 47 200 22 716 43 135 195 119 22 206 116 40 26 20 57 139 115 40 154 88 252 27 32 34 84 30 47 74 24 259 378 260 39 20 87 54 23 34 504 97 33 31 38 24 21 154 252 20 47 77 36 191 40 20 89 35 46 29 84 26 134 33 175 20 26 195 47 140 42 27
internal_value=0.090155 0.0891447 0.115236 0.0945183 0.0878205 0.108842 0.0895031 0.130138 0.0929001 0.0870016 0.0906016 0.107466 0.0991832 0.087649 0.088791 0.0920479 0.0983937 0.0904804 0.0865519 0.0943295 0.0880218 0.0925118 0.0909236 0.133358 0.0878234 0.0893194 0.116934 0.0883686 0.0871785 0.110093 0.0899592 0.0913164 0.086955 0.0863847 0.0945749 0.0886263 0.0917852 0.0929762 0.0906797 0.100712 0.0896075 0.0914883 0.0891452 0.0867479 0.0891054 0.0881143 0.088015 0.0886367 0.0916126 0.0873819 0.0919069 0.0929337 0.0872055 0.0903434 0.0985872 0.0883074 0.0902454 0.106271 0.0900621 0.0868832 0.0908458 0.0887424 0.0915575 0.0885284 0.0930254 0.0928097 0.0909452 0.0892393 0.0914062 0.0902317 0.0899658 0.0891682 0.093343 0.0904447 0.0888219 0.089184 0.0886338 0.0896877 0.0901572 0.0906877 0.0903874 0.0905194 0.0910583 0.0914411 0.0890714 0.0892915 0.0882049 0.0929432 0.0905017 0.0899078 0.0897665 0.0899444 0.090903 0.0911546 0.0873505 0.0915489 0.0917003 0.090355 0.0905573 0.0908169 0.0880437 0.0894637 0.0919471 0.0907872 0.0898048 0.090157 0.0899926 0.0949005 0.0902248 0.0895422 0.0871105 0.0923126 0.0904073 0.0901782 0.0899269 0.089814 0.0903061 0.0884172 0.0882793 0.0885105 0.0904729 0.0887695 0.0886839 0.0909152 0.090702 0.0897059
internal_weight=20513 19719 794 3898 15821 556 5181 238 2895 10640 2035 476 1003 4366 3146 1816 664 2009 6274 1079 2442 1107 1091 151 1832 1403 80 1743 1924 147 918 709 1849 4425 910 610 236 169 855 339 486 608 1131 609 1104 1029 1405 173 539 1315 460 647 427 432 636 691 400 329 272 1730 656 714 254 574 52 574 537 885 184 101 274 212 135 69 273 798 579 74 199 54 326 242 419 121 556 283 596 466 71 230 170 141 78 55 1288 158 130 119 88 62 119 242 274 42 87 197 140 546 60 77 399 206 118 75 128 47 164 153 301 195 57 447 73 298 158 63
internal_count=20513 19719 794 3898 15821 556 5181 238 2895 10640 2035 476 1003 4366 3146 1816 664 2009 6274 1079 2442 1107 1091 151 1832 1403 80 1743 1924 147 918 709 1849 4425 910 610 236 169 855 339 486 608 1131 609 1104 1029 1405 173 539 1315 460 647 427 432 636 691 400 329 272 1730 656 714 254 574 52 574 537 885 184 101 274 212 135 69 273 798 579 74 199 54 326 242 419 121 556 283 596 466 71 230 170 141 78 55 1288 158 130 119 88 62 119 242 274 42 87 197 140 546 60 77 399 206 118 75 128 47 164 153 301 195 57 447 73 298 158 63
cat_boundaries=0 1 2 3 4 6
cat_threshold=1 4 4 8 1769996288 4
is_linear=0
shrinkage=1


Tree=1
num_leaves=127
num_cat=5
split_feature=17 32 45 17 45 32 45 45 45 32 17 33 45 32 44 44 44 44 36 45 44 32 45 32 45 32 45 44 32 45 45 32 32 44 42 32 45 45 32 32 44 36 3 36 22 3 32 28 45 32 34 32 34 44 22 36 44 36 44 13 28 28 35 49 32 48 33 34 1 44 32 44 44 53 44 32 48 28 32 1 35 45 3 42 45 29 36 35 35 36 44 44 45 28 42 34 53 33 36 34 33 32 42 42 28 33 44 45 29 44 42 35 36 9 14 32 33 28 50 3 14 48 13 42 33 14
split_gain=187.652 50.4429 26.8766 10.4418 8.63591 1.84169 1.3644 1.35689 1.169 1.14078 0.622632 0.357334 0.325235 0.301417 0.274916 0.273264 0.21133 0.205557 0.177421 0.126898 0.116058 0.102457 0.0814715 0.0750122 0.0658175 0.0618433 0.0601598 0.0470978 0.0425342 0.0416106 0.0343058 0.033642 0.0329649 0.0324641 0.0312164 0.034011 0.0311972 0.0293211 0.0273077 0.0228038 0.0221598 0.0196523 0.0180728 0.0162051 0.0156514 0.0153487 0.0143775 0.0141405 0.0139796 0.0134563 0.0132581 0.0127114 0.0121921 0.0116985 0.0116535 0.0114741 0.0113158 0.0115371 0.0106951 0.0106086 0.00888437 0.0085752 0.00847792 0.00797322 0.00779772 0.00745177 0.00742939 0.00717014 0.00712326 0.00710294 0.00668391 0.00584181 0.00568777 0.00560593 0.00557622 0.00960759 0.0054467 0.005301 0.00520377 0.00517256 0.00506559 0.00495778 0.00479586 0.00456854 0.00455948 0.0045013 0.00438358 0.0042671 0.00421755 0.00417433 0.00414538 0.00411134 0.0052558 0.00405127 0.00399813 0.00573698 0.00398679 0.00389375 0.00383191 0.00371897 0.00333567 0.00422828 0.00332271 0.00453892 0.00327858 0.0031985 0.00307735 0.00296567 0.00288419 0.00287501 0.00287061 0.00279563 0.00275881 0.00263696 0.00284748 0.00415767 0.00232837 0.00224466 0.0021523 0.00205612 0.00203057 0.00187427 0.00181129 0.00173659 0.00172415 0.00164849
threshold=0 0.10804687014807941 0.66707563774455381 1 0.052072331942329908 0.46606912208277856 0.085240692841119056 0.99505161662943908 0.15878825352949474 0.027058561627213918 2 0.45621374450527946 0.26088280080638304 0.52376586634099542 0.12061573815396347 0.060867917525923527 0.039752346441536357 0.079673903075108063 0.018582056727407242 0.4502867826162319 0.1469756433011786 0.059885443838329937 0.15878825352949474 0.052692043967925727 0.12070228925941152 0.07939270563706595 0.31888499465454428 0.028098495357263355 0.038798710547261334 0.10381546476287049 0.038837758020252258 0.064843157072674032 0.2252770784976178 0.095069528895949412 0.050642816852504637 0.014372500553307773 0.15266671298355941 0.076577580771152967 0.16199801705854167 0.15181215582706098 0.028098495357263355 0.12235379756041904 202.50000000000003 0.10112393146043687 3 367.50000000000006 0.066367807366774376 0.024335734043938854 0.10637026775521397 0.092704977112996426 0.025059703830877102 0.14397863891280424 0.042774659717692419 0.10525443027175262 4 0.013246743991611834 0.084119352187744315 0.091063516650355072 0.088917553816930062 -5.4217529296874991 0.086232102683986567 0.040237392647788507 0.03484962658313203 0.043619416006037956 0.076698075663909099 0.06746204867206046 0.055983263203495871 0.017441548465965084 3.5000000000000004 0.14901361017635825 0.35389951849499812 0.057106541387599331 0.13731624403400686 27.500000000000004 0.19642085614269225 0.060523078724241126 0.086974416288148712 0.10683333620995202 0.12036252409992565 2.5000000000000004 0.029136256332212691 0.13384293027153593 367.50000000000006 0.076750883692637592 0.080142990816658002 0.09684102102517321 0.089492416224925916 0.037986047515488869 0.019977178199780184 0.073514394034420991 0.064836985378656287 0.053461925545374031 0.069871845796351265 0.053595426551989254 0.050616560190758143 0.032477466383714779 26.500000000000004 0.31914463827778311 0.12706373187822401 0.019353820434819865 0.060811029071198966 0.10387026875593253 0.09248145754227402 0.092891542841494104 0.12218020859987937 0.064500905891581278 0.19642085614269225 0.072554081054985162 0.13946619258198723 0.090180833052209072 0.08971412458791532 0.028416102826701064 0.05412641510024585 0.9946518923062071 90.780029296875014 0.090562147580015948 0.11531908892615958 0.090435495590694456 0.043958950347528704 187.50000000000003 90.714111328125014 0.05881006905427396 -5.3833007812499991 0.08172364034381556 0.081931252409183461 90.780029296875014
decision_type=9 10 2 9 2 10 2 2 2 10 9 10 2 10 2 2 2 2 2 2 2 10 2 8 2 10 2 2 10 2 2 10 10 2 2 10 2 2 10 10 2 2 2 2 9 2 10 10 2 10 10 10 8 2 9 2 2 2 2 2 8 8 10 2 10 2 10 8 2 2 10 2 2 2 2 10 2 10 10 2 10 2 2 2 2 8 2 8 10 2 2 2 2 8 2 8 2 10 2 10 10 10 2 2 8 10 2 2 8 2 2 10 2 2 2 10 10 10 2 2 2 2 2 2 10 2
left_child=2 4 5 8 9 19 15 11 14 18 -8 -4 32 -7 24 28 27 31 55 70 39 42 23 120 33 30 -14 -11 -6 47 105 61 36 48 -20 90 -5 56 78 53 -37 -32 94 54 66 -27 91 -25 73 58 -44 -22 -24 -10 88 -2 77 83 86 -26 98 -12 80 84 -46 -64 111 -65 79 -51 -1 112 76 -3 75 -60 107 102 87 108 100 -80 -75 -58 -56 117 -31 -16 -39 -90 -36 -30 -93 -48 -17 -96 -63 -28 124 -86 -49 113 -23 -104 -77 -18 -53 123 -35 -82 119 -33 -66 114 115 -102 -70 -73 -61 -68 -19 -111 -81 -59 -45 -119
right_child=1 3 7 12 6 13 10 -9 20 16 17 -13 26 -15 38 21 25 22 34 -21 51 37 52 29 59 45 97 -29 46 49 41 44 -34 68 35 40 -38 43 -40 -41 -42 -43 50 60 64 -47 93 62 -50 69 -52 106 -54 -55 63 -57 57 72 74 118 -62 96 65 67 71 -67 110 -69 116 -71 -72 85 -74 82 -76 104 -78 -79 81 122 109 -83 -84 -85 99 -87 -88 -89 89 -91 -92 92 -94 -95 95 -97 -98 -99 -100 -101 101 -103 103 -105 -106 -107 -108 -109 -110 121 -112 -113 -114 -115 -116 -117 -118 125 -120 -121 -122 -123 -124 -125 -126 -127
leaf_value=0.014453145727215459 -0.0038017773621389613 -0.00067216129355591623 0.028805842445043525 0.0054322017421835934 -0.0022653616794275173 0.019899965496152517 0.0084815676590713728 0.04262055592506523 0.00077187056648787735 -0.0029810919789614557 -0.00015547887126138234 0.035969725688943292 0.0090947471420729162 0.025265154389221795 0.0021398212705968354 -0.00044332603447183789 -0.0023136092471930203 -0.0015817561221236091 -0.001827881411269109 0.017996405887133016 0.0032870535598470817 -0.00093628044026279568 0.0013199969856449638 -0.00043242059870670637 0.00057529594162881276 -0.0012543409944411582 0.010258323630179124 -0.002437145194394042 -0.0017195694573580193 0.00044221766509635506 -0.0018113756749999273 2.8566112371152297e-05 0.0085292314185747408 0.0015867673650143141 -0.0034481514604338009 -0.003191825562605697 0.0075763580508663303 -0.00033072031326165268 0.0034017867799263101 0.0034158764272779838 -0.0027830786569182468 -0.0004233056265464791 -0.00095476856201166967 0 -0.00080902408827621542 6.7980432222426235e-05 -0.0003108865486477001 0 0.00093701203701537393 0.0011098971353223905 0.00018376071354905561 0.0041319621694466012 0.003160233388576285 0.002526073426981803 -0.00050406811458961307 -0.0035169378831211256 -1.3692186318031023e-06 -0.0010368073160004216 0 0.0009668588252510703 -0.0001493553274407613 -0.0019810357327889844 0.00047868209963509983 -0.00031242442107413791 -5.3568617733177747e-05 0.001625263829292797 -7.4193550476967394e-05 -0.0011765531941445599 0.0015024033793461847 0.0019574335438404195 0.0160058106018218 0.00040991029853948424 0 0 0.001602103015083645 0.00096731079273145143 0 -5.262278047367689e-05 0.0021855252985996973 0 -0.00035549900754672323 0.0027523057272407321 0.00074263799686504666 0.00082123670910573977 -1.6677400690331843e-06 -0.00041955179314845582 -0.00049031892994427567 0.0010056939792503724 0.00076846258122135298 0 -0.0027782956623105589 -0.001493784048902056 -0.0006965549861594378 -0.0012351013202624615 -0.0012894952491652051 -0.0018511674325762898 -0.00093872837982988944 0.012709602464242763 0.0013358842920497688 0.00077486687840254453 0.00011671102077696666 0 0 -0.00065332476444496387 0 -0.0010757670627318772 0.0046847418818226653 -4.2016839900261589e-05 0.00046476958329962038 0 -0.00023782362053718196 0.0011619412609283268 -0.0012083899890030943 0 0.0010091080120059703 0.00070871767574624464 0.00069196274867218443 -0.00028515731314810729 0.0018987809943148211 0.00033547843795744001 -0.00047394611141774286 0.00043960782440680639 0.00052884936551430715 -0.00036984033081569664 0.00061837750066610247 0.00015777802242673117
leaf_weight=154 1872 21 34 38 270 72 24 94 21 868 33 117 280 71 105 25 637 28 62 86 74 347 28 41 30 34 138 1129 750 30 982 20 186 32 1279 1249 330 25 111 148 885 36 74 20 85 44 28 43 70 298 29 454 39 82 34 1470 21 79 39 30 29 29 59 74 21 33 23 62 184 49 166 41 32 89 33 146 21 37 207 21 31 279 30 24 20 58 21 30 34 42 110 183 54 289 340 126 74 25 26 20 79 27 22 94 20 21 281 28 27 22 62 24 20 21 61 92 36 38 340 77 25 41 42 44 21 41
leaf_count=154 1872 21 34 38 270 72 24 94 21 868 33 117 280 71 105 25 637 28 62 86 74 347 28 41 30 34 138 1129 750 30 982 20 186 32 1279 1249 330 25 111 148 885 36 74 20 85 44 28 43 70 298 29 454 39 82 34 1470 21 79 39 30 29 29 59 74 21 33 23 62 184 49 166 41 32 89 33 146 21 37 207 21 31 279 30 24 20 58 21 30 34 42 110 183 54 289 340 126 74 25 26 20 79 27 22 94 20 21 281 28 27 22 62 24 20 21 61 92 36 38 340 77 25 41 42 44 21 41
internal_value=-2.18712e-05 -0.000981789 0.0238085 0.00424399 -0.00220566 0.0176405 -0.00055454 0.0375966 0.0026489 -0.0030247 0.000484149 0.0344099 0.00862836 0.0226145 0.00182442 -0.0011735 -0.00231809 0.000382829 -0.00340658 0.0158712 0.00395373 -0.000738312 0.000744882 0.000647433 0.00125367 -0.00190736 0.00968884 -0.00267621 -0.0016541 0.000732297 -0.0019724 -0.000341387 0.00776974 0.00088104 -0.00315197 -0.00317381 0.00737007 -0.000457228 0.00255962 0.00294531 -0.00302479 -0.00176725 -0.00127675 -0.000100819 -0.000143532 -0.000445264 -0.00152354 0.000398509 0.000356668 0.00101298 -0.000585848 0.00426001 0.00246881 0.00221801 -0.000286055 -0.00367809 -0.000644184 -0.00033232 0.000717353 0.00175505 0.000446914 -0.00104595 0.000475334 -0.000490059 -0.000369867 0.000945563 0.000175658 -0.000743678 0.00118821 0.00124451 0.015279 -0.000193188 -0.000502419 3.03454e-05 0.000858554 0.00071376 -0.000618048 -0.000789397 0.00240051 0.000777345 0.000359401 0.00252168 0.000196759 0.000327337 -2.22324e-05 -3.87898e-05 0 0.00192573 0.000124844 0.000357047 -0.00339891 -0.0016321 -0.0013336 -0.00116936 -0.00141136 -0.00145246 -0.00128233 0.0106725 0.000779354 0.000262875 0.00045381 0.000517041 -0.000837455 -0.000498211 0.00087959 -0.00228187 0.00435071 -0.000724699 0.00115957 0 0 0.000761382 -0.00074012 0.000581046 0.000629734 0.000464668 0.00139288 0.000103809 0.00183701 0.000191324 -0.00115524 0.000227197 0.00033888 -0.000839329 0.000302386 0
internal_weight=20513 19719 794 3741 15978 549 5300 245 2744 10678 1976 151 997 143 1684 3324 3751 1952 6927 406 1060 1750 1306 1239 952 1754 443 1997 1574 1186 1676 646 554 552 3585 3523 368 1156 732 251 2134 1018 594 407 510 78 1304 550 210 636 103 809 67 103 311 3342 749 249 289 400 96 136 509 210 304 92 206 136 342 347 320 219 204 140 238 205 172 500 621 122 417 486 119 45 74 178 51 135 101 76 1389 987 237 317 491 466 103 163 67 40 323 280 463 116 166 658 735 151 59 94 162 44 41 253 232 171 220 120 370 100 53 63 63 123 41 79
internal_count=20513 19719 794 3741 15978 549 5300 245 2744 10678 1976 151 997 143 1684 3324 3751 1952 6927 406 1060 1750 1306 1239 952 1754 443 1997 1574 1186 1676 646 554 552 3585 3523 368 1156 732 251 2134 1018 594 407 510 78 1304 550 210 636 103 809 67 103 311 3342 749 249 289 400 96 136 509 210 304 92 206 136 342 347 320 219 204 140 238 205 172 500 621 122 417 486 119 45 74 178 51 135 101 76 1389 987 237 317 491 466 103 163 67 40 323 280 463 116 166 658 735 151 59 94 162 44 41 253 232 171 220 120 370 100 53 63 63 123 41 79
cat_boundaries=0 1 2 3 5 7
cat_threshold=1 4 8 2831159712 16385 1073743936 18434
is_linear=0
shrinkage=0.05


Tree=2
num_leaves=127
num_cat=3
split_feature=17 37 27 17 27 37 37 37 37 44 17 45 37 54 37 37 32 54 44 45 37 27 54 44 44 54 27 36 27 32 32 32 27 27 43 44 44 28 54 44 27 37 54 54 45 54 37 44 27 54 54 37 43 54 54 44 44 54 54 54 37 37 42 32 27 54 54 54 27 45 44 27 54 33 27 27 54 29 33 37 44 29 44 54 43 43 27 33 43 45 43 54 54 43 33 54 44 29 33 44 37 37 37 37 40 54 43 43 37 43 29 44 42 43 54 33 37 53 43 43 43 27 37 44 42 43
split_gain=169.405 45.7887 24.6371 9.54934 7.14448 1.9382 1.32614 1.25742 1.14092 1.06004 0.793184 0.405286 0.366434 0.272945 0.247899 0.202146 0.193242 0.174498 0.159584 0.118876 0.118491 0.106131 0.10516 0.0970765 0.08273 0.0682255 0.0614618 0.0605191 0.0530926 0.0516526 0.0481105 0.0415752 0.0406261 0.0373756 0.0334368 0.0327867 0.0315703 0.0310706 0.030916 0.0300617 0.028279 0.0282118 0.0599809 0.0273438 0.0268996 0.0248971 0.0249379 0.0261982 0.0223741 0.0216153 0.0214879 0.0229032 0.0213239 0.0205587 0.018731 0.0176523 0.0176422 0.0170303 0.0166101 0.015833 0.0157998 0.0146191 0.0144078 0.0142249 0.0141964 0.0141367 0.0138339 0.0125587 0.0123975 0.0123773 0.0121179 0.011459 0.0111227 0.0110926 0.0110028 0.0109416 0.0105451 0.0101744 0.0101384 0.0100819 0.0100347 0.0097365 0.00909401 0.00908433 0.00860525 0.00829234 0.00813653 0.00750985 0.00746224 0.00729451 0.00728744 0.0148613 0.00908526 0.00662027 0.00620363 0.00609775 0.00918515 0.00599443 0.00597329 0.0057434 0.00568125 0.00565843 0.00522913 0.00521941 0.00500495 0.00507661 0.0049747 0.00484535 0.00465904 0.00354217 0.00343522 0.00341143 0.00330851 0.00319375 0.00318621 0.00300063 0.00289673 0.00281974 0.00281643 0.0114521 0.00468542 0.00264378 0.00247829 0.00242174 0.00232974 0.00222005
threshold=0 0.11176006541443891 0.67061526506104407 1 0.049757959185682162 0.56411804341049476 0.080459681603683469 0.84071550235094128 0.16213799493658396 0.028257787039017903 2 0.4502867826162319 0.29019889915300612 0.037658956489474878 0.031490742503295192 0.059615896945024262 0.11521011685210376 0.025045866403779239 0.084119352187744315 0.05869020188512606 0.14975542027810126 0.15502963141458001 0.032662925915742533 0.013858735877828177 0.13731624403400686 0.069991887477374656 0.081090674172210206 0.091941161413266678 0.99505161662943908 0.061923110560966499 0.019485512615159892 0.083591810299523603 0.42928612428367291 0.56750456789278336 0.054700929159924569 0.064416934536182413 0.056242551767901487 0.063894723917536075 0.013623198282581685 0.17669458431156945 0.090945353068669257 0.017680952462435551 0.014172459528585023 0.051651018370505612 0.21933549910500938 0.028844865027543274 0.044349197795394805 0.069191423086553391 0.077645409468857313 0.037001034418916966 0.039391961288716686 0.1242694831232123 0.05471083098445665 0.032318162044088668 0.047808509045212826 0.090180833052209072 0.42103809980044554 0.027939034685120021 0.026630578940289123 0.023330149647672941 0.37156899714068808 0.047035171498399551 0.050642816852504637 0.058540100511450019 0.056315839549184309 0.054205021990308522 0.034610213488373565 0.034610213488373565 0.10907774703818836 0.092150679901873214 0.071443517020682093 0.16080180840552247 0.031343279647765926 0.090663815027523534 0.13679565856334128 1.0000000180025095e-35 0.020509197175211349 0.020991301103461351 0.073604538344587481 0.10130003393055546 0.1165047903818256 0.062599506059233617 0.079341175421755825 0.022706216932249824 0.082538099379031879 0.089145144640811247 0.084950828333628006 0.080761426274338299 0.082596108081967642 0.034694448788082859 0.089176600569964876 0.029180510228934985 0.035401404066737925 0.14751765602865727 0.052576714521054925 0.042992207580912885 0.067282742590784636 0.066149599330555614 0.037606825360446704 0.070279575070487169 0.019844256102781736 0.045501606288464898 0.13783677481066028 0.095584508350310182 0.050535827126713166 0.022512522435929921 0.054700929159924569 0.05471083098445665 0.094537762557145757 0.054714610948189739 0.11861366348505087 0.10898156657906742 0.050630568821610787 0.087175331470948983 0.0056561120243259254 0.056569970138484908 0.094537762557145757 25.500000000000004 0.081759921722218368 0.081731734631543138 0.075066608029579471 0.069672831344908107 0.069824420316341937 0.020450044951978504 0.08971412458791532 0.13663170036395275
decision_type=9 2 10 9 10 2 2 2 2 2 9 2 2 2 2 2 10 2 2 2 2 10 2 2 2 2 10 2 10 10 10 8 10 8 2 2 2 10 2 2 10 2 2 2 2 2 2 2 10 2 2 2 2 2 2 2 2 2 2 2 2 2 2 10 10 2 2 2 10 2 2 10 2 10 10 10 2 10 8 2 2 10 2 2 2 2 10 10 2 2 2 2 2 2 10 2 2 10 10 2 2 2 2 2 2 2 2 2 2 2 8 2 2 2 2 10 2 2 2 2 2 10 2 2 2 2
left_child=2 4 5 8 9 11 13 -4 16 23 18 43 20 15 17 36 31 38 29 30 -5 25 48 114 50 80 87 54 -9 70 52 64 -13 -7 -21 86 66 -28 100 53 72 42 -25 -1 65 61 67 -48 115 -19 51 111 -16 -23 77 58 -14 101 -33 106 -45 107 -54 -61 -3 -22 89 -47 78 98 76 102 99 -52 90 -43 -8 -15 -57 104 -10 103 88 -44 -75 97 118 -24 -65 -6 92 124 108 -53 -66 -74 -97 -39 112 116 -11 -38 -26 -71 -50 -106 -37 -32 -42 -40 -84 -18 -36 -96 -2 -20 -31 -78 119 120 -17 -59 -108 -77 -92 -124
right_child=1 3 7 12 6 33 10 28 21 14 -12 32 56 27 19 35 24 49 22 34 44 39 26 41 71 -27 37 -29 -30 40 45 55 -34 -35 69 59 57 85 109 -41 74 75 83 60 -46 46 47 -49 79 -51 73 93 62 -55 -56 68 -58 121 -60 63 -62 -63 -64 82 94 -67 -68 -69 -70 81 -72 -73 95 84 -76 123 117 -79 -80 -81 -82 -83 110 -85 -86 -87 -88 -89 -90 -91 91 -93 -94 -95 113 96 -98 -99 -100 -101 -102 -103 -104 -105 105 -107 122 -109 -110 -111 -112 -113 -114 -115 -116 -117 -118 -119 -120 -121 -122 -123 125 -125 -126 -127
leaf_value=0.013716215616326627 -0.0037173341584896603 -0.00079276333236040833 0.03092011064804244 0.0041362754109887127 -0.0023118731759199582 0.02097519736228394 -0.0003370594953369234 0.036509214641523437 0.0014512346562006956 -0.0033584876695219607 0.0091974472886775134 0.015386343355770061 0.0094143991008346865 -0.0011071679842915405 -0.00085726005468800032 -0.00091169954012694477 0.00094013898183264554 -0.0010619403329203251 -0.00056750020248084738 0 0.0066889961599871017 0.003983069619339712 -0.00057995662259620643 -0.0034655211969147797 0.0019949026140918826 0 0.00032194195790846047 0.002641242621930889 0.040784283579422341 -0.00052632236912441004 -0.0011861892967822149 0.001123659671644982 0.018744263264073989 0.025654103818810815 -0.00081173749225160036 0 -0.0020070142758580865 0.0013886307917572373 -0.0014495496131028995 0.0043729592865157782 -2.3494884368553868e-05 -0.0033612337324401328 -0.0024682113193541314 0.014401408910233605 0.0080103388574432974 -0.0010793124921165509 -0.0021407438961018261 -0.0001628693405510251 -4.1997085630200126e-05 0.00065299206100496955 0 0.0021551801061979177 -0.0014696610123042847 0.0029808551429652591 0.0012321029326985838 0 0.011600035309296236 0 0 -0.0011182833618671153 0.01684440728927809 -0.0018549996502866485 -0.0030230945608238019 0 -3.7494596731501096e-05 0.0082091783963731731 -0.00036451264452589549 0.00031745767640160621 0.0016683047246320538 -0.00029555531904501174 0 0.0033090856508461589 -0.0013782840162806539 0.0002059331868407322 0.001086280964473003 -0.0030691172413721138 -0.0025605188223634849 0.00012137567424083242 0.0011434337352754216 0.00075190412497791719 0.0031642348841076731 0 0.00067005593271847583 -0.00087580545077109234 0.0018684205908632168 0.0015947726438095594 -0.00074122114279003438 0.00061406036950083166 -0.00094772623078137911 -0.0018467928983587482 0.00026167697971197915 -0.0010389769847770518 0.0011811556873630004 0.0010742461764548198 0.00089243970235476731 -0.0011661319048213426 0.00014325057103510097 0.0030326147330459832 -0.0013452943482645016 0 -0.0029210375783383633 -0.001331608997820582 0.0027238854870007098 -0.0016219164218427133 0.00027017014620208388 0.00076483445899936005 -0.0010440700141169717 -0.0022810527763065104 0.00039825248414535671 -0.0025984679724634979 0 0.001646969696148165 -0.0019264962145289243 1.0524033575489924e-06 -0.0034466506947168581 0 0 -0.0013017483235985153 -0.0013870127922180984 0 -0.0019936392045119987 -0.00066287842396471879 -0.00077274824063963015 -0.0027882604941912841 -0.00024536117480444082 -0.00021724424931148585
leaf_weight=177 960 25 87 32 220 27 29 64 21 444 25 37 248 22 21 109 93 70 31 37 210 234 22 1174 116 21 28 36 87 132 30 78 110 53 24 27 79 20 28 455 118 342 125 92 415 35 120 26 52 21 32 403 30 142 32 20 36 21 57 36 60 512 284 43 26 62 22 22 240 25 21 106 42 20 34 806 21 51 175 304 206 22 45 21 33 53 137 30 33 875 84 36 27 35 62 20 25 75 298 161 534 327 189 29 280 90 214 1176 107 435 22 80 206 26 1672 118 28 55 416 23 24 24 263 1053 22 48
leaf_count=177 960 25 87 32 220 27 29 64 21 444 25 37 248 22 21 109 93 70 31 37 210 234 22 1174 116 21 28 36 87 132 30 78 110 53 24 27 79 20 28 455 118 342 125 92 415 35 120 26 52 21 32 403 30 142 32 20 36 21 57 36 60 512 284 43 26 62 22 22 240 25 21 106 42 20 34 806 21 51 175 304 206 22 45 21 33 53 137 30 33 875 84 36 27 35 62 20 25 75 298 161 534 327 189 29 280 90 214 1176 107 435 22 80 206 26 1672 118 28 55 416 23 24 24 263 1053 22 48
internal_value=-2.05722e-05 -0.000932638 0.0226216 0.00392088 -0.00212879 0.0168371 -0.000617483 0.0361012 0.00246157 -0.00287653 0.000357102 0.0155901 0.00812729 -0.0012659 -0.00228291 -0.00136733 0.00169129 -0.0028057 0.000247215 -0.00200463 0.00749272 0.00375309 0.000658822 -0.00330297 0.00210848 0.00277632 0.00162234 0.000862036 0.0390308 -0.000219544 -0.00217934 0.00103264 0.0179441 0.0241656 -0.0013817 -0.000932102 -0.00176376 0.00206922 -0.00294078 0.0040382 -7.08624e-05 -0.00311872 -0.00333772 0.014518 0.00764116 -0.00207205 -0.00146343 -0.0018231 0.000401886 -0.00061102 0.00175479 0.00186697 -0.00277883 0.00361876 0.000202516 0.00122378 0.00971304 -0.00136937 0.000650027 -0.000680524 0.0154091 -0.00214097 -0.00289111 -0.000231314 0.000212588 0.00705677 -0.00191838 -0.000453031 0.00139016 -0.00147119 -0.00116554 0.00269469 -0.000373083 0.000888361 0.000205576 -0.00298497 -0.00138498 -0.000181479 0.00102152 0.000517907 0.00302849 -0.000737164 0 -0.00227415 0.0013368 0.00236559 -0.0011843 1.27865e-05 -0.000381475 -0.001945 0.000116633 -0.000147238 0.000285154 0.00208048 0.000477383 -0.000894023 -0.000329128 0.00274091 -0.00156721 -0.000216087 -0.00312507 -0.0014758 0.00246377 -0.00110196 0.000337357 0.000404178 -0.000817068 -0.00225806 0.000154945 -0.00254011 0.000416871 0.00129664 -0.00183231 0.000686129 -0.00354742 -0.000129861 -0.000428176 -0.00171818 -0.00128154 -0.00096753 -0.00114585 -0.000297077 -0.000851828 -0.00291288 0.000109185 -0.000703181
internal_weight=20513 19719 794 3898 15821 556 5239 238 2895 10582 2090 476 1003 3149 4429 3008 1816 1532 2065 2897 719 1079 1103 6153 1107 248 228 141 151 962 2256 709 147 80 641 1440 1568 176 1441 831 836 3521 1320 329 687 1921 203 146 875 91 696 611 335 376 105 570 284 451 135 731 152 1718 314 179 139 272 1117 57 435 604 126 411 408 85 428 2201 105 73 195 726 227 76 143 146 53 148 709 52 76 1095 394 142 252 438 114 87 45 95 528 321 978 406 305 54 422 370 552 1206 225 463 67 173 230 88 2632 149 160 76 572 156 133 45 525 1859 106 311
internal_count=20513 19719 794 3898 15821 556 5239 238 2895 10582 2090 476 1003 3149 4429 3008 1816 1532 2065 2897 719 1079 1103 6153 1107 248 228 141 151 962 2256 709 147 80 641 1440 1568 176 1441 831 836 3521 1320 329 687 1921 203 146 875 91 696 611 335 376 105 570 284 451 135 731 152 1718 314 179 139 272 1117 57 435 604 126 411 408 85 428 2201 105 73 195 726 227 76 143 146 53 148 709 52 76 1095 394 142 252 438 114 87 45 95 528 321 978 406 305 54 422 370 552 1206 225 463 67 173 230 88 2632 149 160 76 572 156 133 45 525 1859 106 311
cat_boundaries=0 1 2 3
cat_threshold=1 4 4
is_linear=0
shrinkage=0.05


Tree=3
num_leaves=127
num_cat=6
split_feature=17 37 27 17 27 37 37 37 37 36 17 45 37 37 37 27 27 45 36 37 27 36 33 27 32 33 36 27 32 27 32 36 43 43 27 36 27 33 36 27 37 13 27 37 27 43 43 43 27 42 27 36 43 36 37 32 45 32 9 29 43 43 43 43 43 43 43 27 27 32 36 43 42 27 29 42 41 42 29 36 33 33 22 37 27 33 27 42 43 33 45 33 33 29 45 50 37 13 27 27 13 37 33 27 48 43 48 25 36 42 27 25 33 33 42 37 36 43 36 37 13 48 37 32 3 43
split_gain=152.948 41.3551 22.232 8.6174 6.44878 1.7474 1.17493 1.12877 1.02854 0.923636 0.710863 0.36297 0.329395 0.240303 0.199461 0.175988 0.127244 0.117588 0.102219 0.0995331 0.0949497 0.0736641 0.0572185 0.0499006 0.0477696 0.0465925 0.0461389 0.0404214 0.0357792 0.035154 0.0350493 0.0323468 0.0314407 0.0304289 0.02903 0.0287364 0.0281141 0.0276149 0.0259865 0.0218762 0.0217427 0.021466 0.0179682 0.0178181 0.0176876 0.0163141 0.0155752 0.014352 0.0137898 0.0134065 0.0128524 0.0118298 0.011728 0.0116641 0.0107161 0.0105289 0.0104799 0.0100854 0.00972702 0.00969921 0.00940218 0.0187529 0.0165463 0.0147536 0.0103992 0.0161076 0.0113606 0.00933532 0.00918364 0.0133152 0.00910652 0.00887874 0.00908399 0.00883406 0.0085742 0.00818883 0.00813712 0.00805274 0.0111575 0.00785435 0.00769569 0.00754896 0.00700051 0.00697015 0.00694924 0.00738088 0.00651074 0.00648495 0.00646914 0.00650573 0.00644657 0.00643633 0.00583596 0.00561369 0.00550751 0.00814849 0.00546007 0.00616714 0.00502313 0.00489171 0.00473019 0.00460245 0.00410281 0.00399078 0.00380048 0.00472872 0.00373716 0.00371625 0.00371244 0.00359541 0.00357386 0.00355593 0.0041128 0.00428384 0.0034484 0.00328754 0.00313176 0.00300249 0.00536927 0.00280472 0.00278741 0.00286832 0.00258629 0.0025664 0.00348512 0.00441754
threshold=0 0.11176006541443891 0.67061526506104407 1 0.050327851096158109 0.56411804341049476 0.081768159749569067 0.84071550235094128 0.16213799493658396 0.029959915089911582 2 0.4502867826162319 0.27939615610975416 0.031490742503295192 0.059615896945024262 0.11836912776767521 0.094025590245218615 0.05869020188512606 0.018582056727407242 0.15211869248932372 0.15502963141458001 0.1381356573573452 0.13402744402296371 0.021399133351154304 0.064037199007971016 0.076461157726229953 0.062912515804816729 0.99505161662943908 0.40152988914097071 0.089737340891506909 0.09147452656944545 0.059543564834017432 0.05471083098445665 0.054693624026630062 0.56750456789278336 0.080421348705816437 0.40066426125380111 0.014639123538599417 0.093246943422586437 0.11836912776767521 0.017998829087323153 -5.4382324218749991 0.056315839549184309 0.12281263497727367 0.2161321682424612 0.054706280447658295 0.05471083098445665 0.054693624026630062 0.0096952817729197022 0.050630568821610787 0.24754553419387212 0.12706373187822401 0.14754653435940782 0.12092044474616935 0.041771583957429255 0.14397863891280424 0.092150679901873214 0.023091726378947668 0.98611507088852057 0.059891681559583208 0.082577789784820083 0.086916471684283639 0.082538099379031879 0.082288137906158187 0.082247588203109387 0.081731734631543138 0.081691972217025607 0.075302613706768967 0.13260384244540482 0.073897246167957273 0.096919913075564995 0.089145144640811247 0.089689180520321279 0.3625009190349554 0.062599506059233617 0.074449233134398066 0.070818122642875458 0.050616560190758143 0.010101655027414053 0.091941161413266678 0.072867608525807107 0.052576714521054925 3 0.088899709953406611 0.084950828333628006 0.057801565907631566 1.0000000180025095e-35 0.081884459407584778 0.065238782423600025 0.069408742960645073 0.034694448788082859 0.067612212667142416 0.040837504468591919 0.044904178600265757 0.11040895541891176 0.052252558969778658 0.094537762557145757 -5.3997802734374991 0.10126920744301436 0.077645409468857313 -5.3393554687499991 0.095584508350310182 0.093952203563733419 0.10623343784042032 0.040514954180565312 0.075036709766679491 0.078471350320442307 4 0.045549909243088015 0.088947966875274662 0.11028555833435996 5 0.052576714521054925 0.05938559235896726 0.097893339251635098 0.079470213792576946 0.037625039008760387 0.13646932749503707 0.11672550027465166 0.092343894776105384 -5.3173828124999991 0.06615383595809704 0.070579772532478727 0.083591810299523603 277.50000000000006 0.082590776645825717
decision_type=9 2 10 9 10 2 2 2 2 2 9 2 2 2 2 10 10 2 2 2 10 2 10 10 10 8 2 10 10 10 8 2 2 2 8 2 10 10 2 10 2 2 10 2 10 2 2 2 10 2 8 2 2 2 2 10 2 10 2 8 2 2 2 2 2 2 2 10 10 10 2 2 2 10 10 2 2 2 10 2 10 10 9 2 10 10 10 2 2 10 2 10 10 10 2 2 2 2 10 10 2 2 10 10 2 2 2 9 2 2 10 9 10 10 2 2 2 2 2 2 2 2 2 10 2 2
left_child=2 4 5 8 9 11 14 -4 15 18 16 73 19 32 31 25 24 23 48 -5 30 43 35 46 87 42 84 -9 -13 47 -10 67 -11 -19 -7 68 -14 -34 82 83 -20 -22 -3 91 -43 -25 -15 -28 -2 -48 -21 -32 79 93 -47 -23 92 -51 59 -41 62 -62 63 64 65 66 76 90 69 -18 106 -63 117 -1 101 -72 -45 -49 -79 -27 108 -44 -26 -37 122 -86 -42 -8 -80 111 -6 -17 -35 -33 95 102 97 -84 -81 -95 -99 -58 120 -83 -61 -106 110 -85 -56 -98 -31 112 -90 -114 -91 -94 -92 118 -73 -97 121 -40 -16 -71 -125 -126
right_child=1 3 7 12 6 34 10 27 20 13 -12 28 36 17 26 21 22 33 40 50 41 55 -24 45 38 52 29 -29 -30 70 51 53 37 56 -36 39 -38 -39 94 58 86 44 81 60 -46 54 49 77 -50 57 -52 -53 -54 -55 80 -57 74 -59 -60 104 61 71 -64 -65 -66 -67 -68 -69 -70 123 75 72 -74 -75 -76 -77 -78 78 88 98 -82 103 96 107 85 -87 -88 -89 89 114 116 -93 115 99 -96 119 109 100 -100 -101 -102 -103 -104 -105 105 -107 -108 -109 -110 -111 -112 -113 113 -115 -116 -117 -118 -119 -120 -121 -122 -123 -124 124 125 -127
leaf_value=0.01285702822099445 -0.0034261283242292087 -0.00092275428850299409 0.029375878540985074 0.0041568008838899209 -0.0021748036011992405 0.019930307429655014 -0.00046800713382263846 0.034686601659437058 0.00044421063403164907 -0.00086375206972433445 0.0087394071290217545 0.014298296496990793 0.0088345218642538817 -0.00091957590961086748 -0.0013189918203936489 3.7111649729904533e-05 -0.00076971017329389253 0.00035385349581051802 -0.0031294787132382464 0.0068783623738928523 0.0027168194428605183 0.0022201440571662013 0.0029597993550059209 -0.00031665316853446489 0.00012103324026106876 0.00044482448866652036 0.00041710308813933458 0.03874740984491859 0.017729039305402327 -0.00051467270289317865 0.0014558082752201534 -0.0015019172276133771 -0.003090425602744978 -0.0016538815662868224 0.024373814907002134 0 0.011580707825318413 -0.0025457790036823233 -7.1567225884525631e-05 9.0239191520785235e-06 -0.0031609724704074493 0.0037081438836923074 -0.00011811626270370192 0.00065688045023038584 0.0044403500818560142 -0.002131780364675141 -0.00089652328696808122 0 -0.0031344811495900519 -0.002881154282003486 0.0077492892014054725 0.0029983023373781042 0 -6.7284245599232427e-05 -0.0020155495727268032 0.0029490966580784017 -0.00027722371632850573 -0.0022707235894176034 0.00013130088012723115 0.00059463580155383507 0.0003391164435645727 0.0028344461983035411 0.0032091897237612344 0.00058853096267567385 0.003008098426796591 0.00044776927808206865 0.0029748891251829435 -0.0012896710174619375 0.00086035075916999441 0.00048187338561093149 0 0.00018578946134244087 0.00033757904239184379 0.014367065417474654 0 0.001467542500647517 0.0019669243417957242 -0.0014464594612703639 0 0.0010738773540974692 -0.00047071223592460681 0.00035066041367447784 -0.0010940056832279923 0.00019600293989390519 -0.00084666788660891449 0 -0.0026975672694942131 -0.001266957058728658 -0.00096462348224488146 -0.00030912471226899544 -0.0019936940700146979 0.0012834616798250379 -0.0012821204048881543 -0.0011289959698262575 0.0011273650986351233 0.00010460335640719092 0.00017709024805090471 -2.1529057569544519e-05 0.0015679254556000032 -0.00033905953277282402 -0.0005322241648749611 -0.0015086138211085889 -0.00025259966101905698 0.0010449503230712798 0.0023303977483777366 0.0013057477688128225 0.00027948037364342358 0.00072215001015920265 -0.0016623673075411558 -0.00037616558087250171 8.4582369519264072e-06 -0.00097189284443047674 0.00039558165668468199 -0.00039505063805682882 -0.0010265743559949689 -0.00043445913392377327 -0.0015860070504929904 0.0018975072478685077 0.0015976904908128352 0.0010685908042490392 0.00063782402533784841 0.00040450400051799198 -0.00093171293231476707 -0.00019989333230086725 0.00065766308399142965 0
leaf_weight=129 2108 24 87 37 192 27 73 64 22 31 25 31 315 25 342 20 40 22 913 403 69 213 27 23 102 43 23 87 116 63 28 186 492 304 53 61 24 977 71 20 238 537 29 30 225 725 21 28 1310 303 224 198 23 32 388 185 26 258 29 29 38 27 42 30 39 28 37 186 43 68 25 22 24 200 24 20 74 66 34 196 21 92 38 101 117 23 1631 88 26 177 206 166 230 162 27 25 74 107 238 45 122 31 49 53 35 108 35 302 522 47 32 276 20 55 29 32 565 118 25 41 38 45 192 59 42 73
leaf_count=129 2108 24 87 37 192 27 73 64 22 31 25 31 315 25 342 20 40 22 913 403 69 213 27 23 102 43 23 87 116 63 28 186 492 304 53 61 24 977 71 20 238 537 29 30 225 725 21 28 1310 303 224 198 23 32 388 185 26 258 29 29 38 27 42 30 39 28 37 186 43 68 25 22 24 200 24 20 74 66 34 196 21 92 38 101 117 23 1631 88 26 177 206 166 230 162 27 25 74 107 238 45 122 31 49 53 35 108 35 302 522 47 32 276 20 55 29 32 565 118 25 41 38 45 192 59 42 73
internal_value=-1.94711e-05 -0.000886117 0.0214948 0.00372642 -0.00202289 0.015999 -0.000571909 0.0343005 0.00234002 -0.00272591 0.000371442 0.0148135 0.00772241 -0.00217292 -0.0011738 0.00160839 0.000263044 -0.00190533 -0.00312241 0.00703735 0.00356648 0.00200161 0.000646596 -0.00207975 -0.000151705 0.000971211 -0.000771204 0.0370835 0.0170498 -0.00052788 0.00263881 -0.00157545 -0.00269658 -0.00130165 0.0229633 0.000579521 0.00904704 -0.00273179 2.73532e-06 0.000765492 -0.00288277 0.00383696 0.000288274 0.00167895 0.00393146 -0.00192553 -0.00249769 -0.000680534 -0.00331591 -0.00255672 0.00719867 0.00283004 0.00123154 -0.00116436 -0.00194484 0.00257219 -0.00136571 -0.00260979 0.00119518 0.00132969 0.00184438 0.00153945 0.0021025 0.00188494 0.00204752 0.00179463 0.00202615 -0.00172304 0.000172057 4.91121e-05 8.38613e-05 0.00172722 0.00154119 0.0137943 -0.000700935 0.000711279 0.00163805 -0.000723126 -0.000757507 0.00128502 -0.00179367 0.000484466 -0.00021424 0.000549848 -0.00109182 -0.000683707 -0.00275942 -0.000936252 -0.000675486 -0.000714578 -0.0018014 0.0011764 -0.00145188 -0.00124093 0.000378755 0.000284644 -0.000310392 -0.000445421 0.00135662 -0.00098166 -0.000315541 -0.00103596 9.87354e-05 0.00063944 0.00145411 0.00159293 -9.52696e-05 0.000625549 -0.00181865 0 -0.00028606 -0.000854021 -0.00035097 -0.000117391 -0.000434834 -0.00119787 -0.00170166 0.00168567 0.00104476 0.000779798 0.000243062 7.02386e-05 -0.00118931 0.000205369 6.83763e-05 0.000249505
internal_weight=20513 19719 794 3898 15821 556 5166 238 2895 10655 2009 476 1003 4455 3157 1816 1984 2955 6200 664 1079 1118 1037 2286 947 698 1583 151 147 909 248 1574 1500 669 80 1010 339 1469 786 685 2782 831 198 720 762 1679 607 734 3418 582 627 226 500 425 1656 398 647 561 221 192 534 254 280 238 208 169 141 1149 325 282 175 216 189 329 81 45 104 711 683 477 931 174 490 464 674 140 1869 161 617 583 963 186 566 393 296 269 388 267 434 207 229 57 203 145 172 143 130 403 910 121 95 377 101 75 206 262 771 165 47 66 154 116 534 242 174 115
internal_count=20513 19719 794 3898 15821 556 5166 238 2895 10655 2009 476 1003 4455 3157 1816 1984 2955 6200 664 1079 1118 1037 2286 947 698 1583 151 147 909 248 1574 1500 669 80 1010 339 1469 786 685 2782 831 198 720 762 1679 607 734 3418 582 627 226 500 425 1656 398 647 561 221 192 534 254 280 238 208 169 141 1149 325 282 175 216 189 329 81 45 104 711 683 477 931 174 490 464 674 140 1869 161 617 583 963 186 566 393 296 269 388 267 434 207 229 57 203 145 172 143 130 403 910 121 95 377 101 75 206 262 771 165 47 66 154 116 534 242 174 115
cat_boundaries=0 1 2 3 5 8 11
cat_threshold=1 4 4 2684358752 5 50331660 0 24576 1644167188 0 24576
is_linear=0
shrinkage=0.05


Tree=4
num_leaves=127
num_cat=5
split_feature=17 37 37 17 32 32 37 37 37 44 17 37 44 37 32 44 54 44 37 54 32 37 54 54 44 43 54 45 32 32 54 37 54 54 32 32 37 54 37 36 32 54 37 37 54 37 54 37 45 45 37 54 43 48 42 44 44 54 54 44 37 22 54 33 42 54 45 54 54 29 35 32 33 43 37 54 54 54 34 32 36 54 54 45 40 40 43 35 33 37 43 43 43 43 54 54 37 54 42 43 32 25 37 54 54 29 32 40 43 43 34 43 43 43 36 33 54 44 40 34 44 54 37 44 35 48
split_gain=138.084 37.356 20.0951 7.77315 5.80841 1.45454 1.08809 0.928017 0.893789 0.809078 0.602279 0.29894 0.232281 0.202129 0.176673 0.17275 0.162297 0.135238 0.125392 0.113401 0.0986643 0.0945821 0.0812769 0.0789798 0.078134 0.0759718 0.0717255 0.0573945 0.0498465 0.045575 0.0443573 0.0413992 0.042542 0.0357553 0.0342998 0.0323465 0.0316223 0.031155 0.0326821 0.0296813 0.02738 0.0272926 0.0308085 0.0269985 0.0228165 0.0190292 0.0189365 0.0189087 0.0185558 0.0179587 0.0179133 0.0163921 0.0150207 0.0149305 0.0148557 0.0146158 0.0145628 0.0148056 0.0143953 0.0324841 0.0117577 0.0112051 0.01654 0.0110378 0.0160626 0.0110135 0.0100717 0.0124394 0.00978822 0.00942283 0.00934813 0.0131677 0.00932157 0.00921544 0.00906864 0.00899958 0.00892978 0.0088363 0.00844347 0.00828326 0.00808317 0.0097072 0.00766526 0.00709925 0.00699539 0.00664276 0.00657727 0.00638128 0.00599417 0.00592604 0.00519282 0.00882652 0.00511693 0.00621871 0.00774758 0.00508647 0.00838252 0.00496429 0.00486293 0.00663571 0.00484115 0.00461109 0.00485588 0.00456727 0.0107648 0.00455077 0.00438651 0.0042463 0.00417072 0.0037236 0.00365022 0.0080522 0.0106183 0.0054067 0.00358388 0.00333948 0.00809753 0.0050618 0.00460223 0.00386316 0.00332717 0.00349848 0.00328388 0.00324558 0.00322461 0.00322171
threshold=0 0.11176006541443891 0.6892965735795149 1 0.048043606496952405 0.46606912208277856 0.080459681603683469 0.16486951763046107 0.84071550235094128 0.028098495357263355 2 0.29019889915300612 0.45184553156628671 0.035422573067621241 0.11521011685210376 0.055705968989494231 0.027029616740426057 0.07565191601148516 0.39688020104736749 0.041543783451040671 0.013304466806029277 0.14975542027810126 0.032318162044088668 0.058824161764374834 0.13485705680786172 0.054700929159924569 0.066833950483733154 0.054233677545411203 0.10804687014807941 0.019767089862075867 0.013786016980020573 0.1995082943071621 0.037001034418916966 0.027643720573694127 0.083591810299523603 0.064037199007971016 0.056619717010649752 0.014537072511408311 0.02325884021443413 0.084865974218641171 0.13621411623863725 0.044208017387873812 0.25901527018441345 0.068273753811939369 0.042992207580912885 0.026963824663072806 0.039391961288716686 0.092343894776105384 0.078445174344777421 0.42074620352641406 0.1242694831232123 0.035914295742092775 0.089145144640811247 0.041649621682087905 0.088921083602527914 0.040621850281832107 0.090180833052209072 0.026630578940289123 0.03201661312043981 0.055705968989494231 0.13783677481066028 3 0.027029616740426057 0.033685037002144556 0.050616560190758143 0.031672667095955016 0.020902756726368155 0.027305794476938969 0.064812649865125735 0.08873763297680487 0.02223602932996642 0.083591810299523603 0.090663815027523534 0.054693624026630062 0.041771583957429255 0.041543783451040671 0.04522106241208939 0.0056561120243259254 0.029384738484404985 0.064037199007971016 0.15402602157487943 0.030663770523447095 0.07797520385508265 0.13618410619550206 0.069951872895979858 0.12068273242308684 0.14751765602865727 0.023758247425135381 0.055316514678899996 0.23634703966093254 0.06524295195305134 0.065217887649151138 0.054714610948189739 0.063085605232208852 0.021314921130258877 0.033652005889246099 0.047035171498399551 0.037658956489474878 0.050653076084961814 0.054719890017458216 0.081459875572312726 4 0.10130003393055546 0.11806763133686014 0.017656925064535017 0.085058573795259412 0.07939270563706595 0.14754540466319407 0.08231567901266966 0.054693624026630062 0.007294056246131839 0.065217887649151138 0.071997055691310943 0.054683432340811078 0.062082472344398086 0.078663609817681932 0.023783408134698109 0.092602177389056795 0.090539180020111909 0.033342181463957711 0.089615829069563682 0.017925038316200039 0.069824420316341937 0.10898156657906742 0.035503144201323715 0.037238267889426857
decision_type=9 2 2 9 10 10 2 2 2 2 9 2 2 2 10 2 2 2 2 2 10 2 2 2 2 2 2 2 10 10 2 2 2 2 8 10 2 2 2 2 8 2 2 2 2 2 2 2 2 2 2 2 2 2 2 2 2 2 2 2 2 9 2 10 2 2 2 2 2 8 8 10 10 2 2 2 2 2 10 10 2 2 2 2 2 2 2 10 10 2 2 2 2 2 2 2 2 2 2 2 10 9 2 2 2 10 10 2 2 2 10 2 2 2 2 10 2 2 2 8 2 2 2 2 8 2
left_child=2 4 5 7 9 18 15 14 -4 20 17 21 -7 16 34 43 30 35 -1 33 77 -5 47 31 46 109 -10 29 48 98 45 32 -9 36 80 65 -17 38 -22 -21 -25 42 -23 44 55 -11 50 106 -24 -13 123 -18 76 69 85 -6 57 -36 -31 68 105 87 114 64 -29 -8 67 -39 -60 -50 -35 84 -48 -38 -40 90 -30 -2 -68 -49 81 -3 -64 -74 125 100 -52 -37 -83 -42 91 -65 -32 -94 -95 96 -57 107 -27 -100 -55 -81 -103 104 -79 -26 -19 -89 -73 -15 113 -112 -113 -58 -63 116 -108 118 -117 -119 -104 -122 -75 -16 -45 -72
right_child=1 3 8 11 6 12 10 23 26 13 -12 49 -14 25 24 19 51 22 -20 39 37 41 28 40 60 27 -28 63 52 58 92 -33 -34 70 56 61 73 66 74 -41 89 -43 -44 124 -46 -47 72 79 53 -51 86 -53 -54 54 -56 95 110 -59 59 -61 -62 62 82 75 -66 -67 78 -69 -70 -71 71 108 83 122 -76 -77 -78 103 -80 101 -82 88 -84 -85 -86 -87 -88 97 -90 -91 -92 -93 93 94 -96 -97 -98 -99 99 -101 -102 102 120 -105 -106 -107 115 -109 -110 -111 111 112 -114 -115 -116 117 -118 119 -120 -121 121 -123 -124 -125 -126 -127
leaf_value=0.012507572314371055 -0.0033722942367509692 0.00053749106534219224 0.028035045491372354 0.0037229133193233165 -0.0019792961523356872 0.017371779319826877 -0.00052407939676122511 0.0035547599279706294 0.036104576261117009 -0.0029353276811850447 0.0078780376577171785 0.008560997153188369 0.02205302874528527 0.00047982707457645731 0.00083708017624424611 -0.0014149695440113686 -0.00075004782506603307 -0.00022338433544981541 0.014652130694880916 4.7751899802842605e-05 -0.0030323899086893212 0.0062090435559005305 -9.2922954169648975e-05 0.00064083829542442095 0.0011130204997238807 -0.0015006213975917828 0.031148251978533006 -0.00020898301533505434 0.0016748920333647162 -0.0019001120030603146 -0.0013105532910735315 0.0040925953873895268 0.0023251078270789048 0.00059047510428400529 0.0010259732674382791 -0.00044753989672125156 0 -0.0022184053175428992 -0.0026381917369470648 0.0024099035744719281 0.0019211612941340923 0.0075554619496280718 0.0074422105982582159 -0.0010539026840840052 0 -0.0024120455878836561 0 -0.00040829438662103496 0.00089785199068238809 0.011301002547663835 0.0019622785793111824 0.00077712863176338269 0.0011495926545845375 0.00091893073997868053 0.00017286577483585218 -0.0019084223280631859 0.0013640832986473006 0 -0.0007622918815231635 0.0003241381710254107 0.0026758585401803832 -0.00044604297189301676 -0.0011424223015170031 -0.001342780485202498 -0.001744535416707 -0.0016524421792115098 -0.0026561293195375983 -0.00063835181244467577 -0.0021040818719075022 -0.00060564226787120329 -0.00037733957798922709 0.00064525133457856787 0.0019807784026910076 -0.00096249293925058639 -0.0017061298109862324 0 0.0033858448601303951 -0.0030512965279951417 -0.0012501517435038589 0.00021457172017821187 0.00099802427513309678 -0.00096179019355617219 0 0.00049533310861205775 -0.0001820754249154936 0.00057066598023726228 0.00092531794685692397 0.00021600958822869194 0 0.0033491382543049198 -0.0013123396559004941 0 -0.0028608283988877559 -0.0022692927519713702 -0.0015915312265905883 -0.00051851448752467154 -0.0014192766139339973 0.0009180193337639871 -0.0016900493978307795 -0.0029182717619071 0.0025075436269052184 0.00037077381460303837 0.00028267046114152449 -0.0033508178181204718 -0.0023146038463268625 0.0021757785205377715 4.2170172258474193e-05 -0.0004948471159762724 -9.8559450396136839e-05 -0.00033023239894001066 0.0021021232068472832 0.0002301237107859548 0.0013134895171568921 0.00019126088360221877 0 -0.00083258436898306495 0.001252389410761697 0.00039826020465547795 0 -0.00023879071670693741 0.00058532067867905194 0.001170147990045054 -0.00070330699237498319 0.0015214456199094768 -0.00010613527300275599 -0.0014298602800389745
leaf_weight=200 1031 49 83 32 388 83 63 407 120 785 26 264 67 29 93 334 75 127 207 32 1555 334 44 32 37 28 34 26 32 1348 43 366 120 25 78 41 23 228 741 30 46 217 136 198 20 428 32 21 20 20 403 20 43 20 31 209 23 57 38 23 332 56 80 20 309 58 701 23 55 20 29 28 22 521 61 22 35 1267 25 223 25 27 24 33 61 22 36 136 38 36 288 29 85 431 113 27 577 24 35 191 35 229 60 447 116 104 70 22 33 24 48 37 296 40 156 28 21 82 33 23 116 90 475 78 22 38
leaf_count=200 1031 49 83 32 388 83 63 407 120 785 26 264 67 29 93 334 75 127 207 32 1555 334 44 32 37 28 34 26 32 1348 43 366 120 25 78 41 23 228 741 30 46 217 136 198 20 428 32 21 20 20 403 20 43 20 31 209 23 57 38 23 332 56 80 20 309 58 701 23 55 20 29 28 22 521 61 22 35 1267 25 223 25 27 24 33 61 22 36 136 38 36 288 29 85 431 113 27 577 24 35 191 35 229 60 447 116 104 70 22 33 24 48 37 296 40 156 28 21 82 33 23 116 90 475 78 22 38
internal_value=-1.81951e-05 -0.000841663 0.0204239 0.00354217 -0.00192209 0.0152137 -0.000547929 0.00222531 0.0326361 -0.00259074 0.000324036 0.00733749 0.0195093 -0.00207215 0.00156652 -0.00114913 -0.00245496 0.000227066 0.0136139 -0.000790001 -0.00296198 0.0067614 0.000502577 0.0034552 0.00194944 -0.00176254 0.0350637 -0.00180376 0.00123603 -0.00196624 -0.00255708 0.00362186 0.00328474 -0.000874904 0.000935406 -0.0003602 -0.000971228 -0.00276519 -0.00287857 0.00127328 0.00210377 0.00689509 0.00657802 -0.00155156 -0.00165001 -0.00275503 0.00159173 0.000300792 0.000709259 0.00877546 0.00169834 -0.000375482 0.00210858 0.000981408 0.00129022 -0.00167791 0.00110671 0.00057839 -0.00184689 -0.00118424 0.00246553 -0.000183067 -0.000370698 -0.00139409 -0.00164038 -0.00110715 -0.00248629 -0.00209384 -0.00161094 2.17809e-05 -0.000242377 -0.000379238 0.000785767 -0.000820751 -0.00257375 -0.00114995 0.0026469 -0.00318945 -0.00261478 0.000448817 0.000185626 0 -0.000905622 0.00118277 -0.000675902 0.00167441 0.00188886 7.37587e-05 -0.000393558 0.0026123 -0.00121467 -0.000537308 -0.00219199 -0.00224408 -0.00213802 -0.00152769 -0.00155593 0.000222883 -0.00263349 -0.00275101 0.00202333 0.000480902 0.000574775 -0.00308353 -0.00299329 0.00193332 2.86038e-06 8.51536e-05 0.000161526 1.89146e-05 0.00125592 0.00133449 0.00120823 0.000700157 -0.000101883 0.000134153 0.000377404 0 -0.000361241 0.000211048 0.000753005 0.000865532 -0.000843988 0.00117918 -0.000981934 -0.00105005
internal_weight=20513 19719 794 3898 15821 557 5181 2895 237 10640 2111 1003 150 4445 1888 3070 1980 2085 407 1629 6195 719 1425 1007 1170 2465 154 2412 302 1718 1885 893 527 1567 718 660 1353 3334 2357 62 114 687 470 1441 1221 1213 697 1123 192 284 610 95 110 148 108 1201 579 135 1464 116 473 539 316 694 335 121 977 251 93 40 214 189 87 1019 802 359 67 2861 726 739 139 114 104 55 128 77 439 223 65 82 337 49 672 629 544 813 786 182 254 226 55 718 495 1830 1383 141 384 158 61 53 444 381 333 63 212 257 91 166 61 105 266 206 996 171 220 67
internal_count=20513 19719 794 3898 15821 557 5181 2895 237 10640 2111 1003 150 4445 1888 3070 1980 2085 407 1629 6195 719 1425 1007 1170 2465 154 2412 302 1718 1885 893 527 1567 718 660 1353 3334 2357 62 114 687 470 1441 1221 1213 697 1123 192 284 610 95 110 148 108 1201 579 135 1464 116 473 539 316 694 335 121 977 251 93 40 214 189 87 1019 802 359 67 2861 726 739 139 114 104 55 128 77 439 223 65 82 337 49 672 629 544 813 786 182 254 226 55 718 495 1830 1383 141 384 158 61 53 444 381 333 63 212 257 91 166 61 105 266 206 996 171 220 67
cat_boundaries=0 1 2 3 5 8
cat_threshold=1 4 4 2692743616 18567 1191182362 524288 16384
is_linear=0
shrinkage=0.05


Tree=5
num_leaves=127
num_cat=5
split_feature=17 37 27 17 27 37 37 37 27 47 17 27 37 54 37 27 47 54 27 47 47 43 47 37 54 32 47 47 42 54 27 54 27 32 37 54 37 54 47 47 13 27 54 54 27 54 54 37 32 27 37 43 47 54 47 25 54 3 47 43 34 47 43 33 49 39 29 54 54 54 54 43 47 54 25 54 37 37 54 29 13 34 43 43 42 3 43 47 34 54 14 43 43 42 54 43 43 37 43 28 27 43 37 43 14 53 28 43 37 54 1 47 39 29 27 27 40 13 43 54 27 40 39 47 43 33
split_gain=126.356 34.4359 18.0834 7.60384 4.98295 1.41342 0.970266 0.95753 0.953518 0.738102 0.564666 0.306247 0.283316 0.197389 0.15046 0.145272 0.144654 0.132341 0.130611 0.101791 0.0995976 0.0766771 0.0732353 0.0699637 0.0696155 0.0512358 0.0485436 0.0475004 0.046154 0.0452028 0.0385516 0.0383117 0.0363491 0.0350434 0.0304959 0.0301881 0.0283984 0.0280844 0.0280115 0.0261235 0.0260721 0.0259442 0.0236054 0.0220747 0.019804 0.0189569 0.018359 0.0176134 0.0160994 0.0160992 0.0159534 0.0156847 0.0146983 0.0146012 0.0145191 0.014396 0.0181064 0.0125775 0.0120104 0.0119345 0.0114901 0.0108837 0.0101604 0.0101573 0.00983623 0.00951262 0.00939234 0.00887291 0.00873061 0.00860826 0.00843055 0.00833087 0.00821736 0.00820224 0.00803217 0.0110377 0.0080312 0.00744485 0.00738957 0.00729345 0.00964869 0.00727619 0.00723383 0.00697055 0.0073722 0.00687634 0.00930777 0.00839479 0.00663816 0.00703453 0.00702324 0.00618409 0.00616639 0.0148562 0.00597362 0.00538964 0.0278104 0.0050741 0.00500225 0.0047866 0.00826372 0.00476244 0.00466104 0.00455213 0.00448973 0.00448566 0.00420966 0.00407496 0.00402436 0.0195558 0.00393434 0.00391403 0.00391269 0.0037649 0.00361135 0.0034099 0.0033737 0.00333335 0.00318352 0.00315239 0.00297324 0.0028593 0.00309369 0.0046206 0.00309349 0.00281555
threshold=0 0.10888976167222959 0.67061526506104407 1 0.047971299944745555 0.56411804341049476 0.074168734451114979 0.15826007623896568 0.81805837604055009 0.028257787039017903 2 0.42928612428367291 0.27939615610975416 0.040722646860407156 0.030353895934141051 0.99505161662943908 0.073976923386433177 0.02110604863061372 0.11836912776767521 0.048830093355046435 0.1469756433011786 0.054700929159924569 0.013858735877828177 0.14710545569934955 0.040190764596600224 0.036849998317410794 0.10281492078449879 0.087446472165777542 0.050616560190758143 0.03201661312043981 0.097785623193656704 0.044208017387873812 0.081090674172210206 0.42652607533075937 0.060380322789532259 0.028494265476862825 0.19500150455192619 0.03201661312043981 0.050823339265556808 0.07565191601148516 -5.4272460937499991 0.094025590245218615 0.042294822087078666 0.017275368764640257 0.017196527639296553 0.064812649865125735 0.041543783451040671 0.21917754366195288 0.093914218805364755 0.077645409468857313 0.39688020104736749 0.089145144640811247 0.090180833052209072 0.032662925915742533 0.037151736310391655 3 0.018338116348169762 307.50000000000006 0.14279817792046162 0.054700929159924569 0.0313449740358318 0.36968040443738553 0.054719890017458216 0.074598509397921509 0.061541173563103409 0.080421348705816437 0.042819172044027402 0.030967208720026614 0.027939034685120021 0.02110604863061372 0.0092164470747390786 0.05471083098445665 0.066049806887193391 0.034108682813334019 4 0.023783408134698109 0.090187642130391918 0.068273753811939369 0.0461469695435179 0.054045884163347456 -5.4272460937499991 0.035823368237682431 0.14751765602865727 0.06524295195305134 0.050653076084961814 22.500000000000004 0.054683432340811078 0.10898156657906742 0.039038553128099264 0.032318162044088668 90.878906250000014 0.065255592165834056 0.082596108081967642 0.085275994943966316 0.01939613489160558 0.065217887649151138 0.065246554905931869 0.094537762557145757 0.075063429622617625 0.087233435359430567 0.086704134795139151 0.082584993635783879 0.1162897602562612 0.13646932749503707 90.703125000000014 29.500000000000004 0.063307549263633453 0.14751765602865727 0.032760039044629902 0.021811400905932816 5.5000000000000009 0.10069218290233732 0.071410897081465016 0.10537082099563032 0.080142990816658002 0.10493704423934806 0.067368505850910435 -5.3503417968749991 0.054693624026630062 0.035914295742092775 0.072848259213697156 0.095152564566493916 0.079567450389909783 0.087446472165777542 0.082590776645825717 0.099262912673712581
decision_type=9 2 10 9 10 2 2 2 10 2 9 10 2 2 2 10 2 2 10 2 2 2 2 2 2 10 2 2 2 2 10 2 10 8 2 2 2 2 2 2 2 10 2 2 10 2 2 2 10 10 2 2 2 2 2 9 2 2 2 2 10 2 2 8 2 2 10 2 2 2 2 2 2 2 9 2 2 2 2 10 2 10 2 2 2 2 2 2 8 2 2 2 2 2 2 2 2 2 2 8 10 2 2 2 2 2 10 2 2 2 2 2 2 10 10 10 2 2 2 2 10 2 2 2 2 10
left_child=2 4 5 7 9 11 13 18 -4 22 16 50 23 19 17 -10 30 62 27 54 29 118 -2 -5 32 28 64 46 -23 -9 55 47 74 -14 37 -19 53 59 81 60 -26 -31 77 76 70 71 102 -25 -28 -42 -1 113 121 -22 114 92 97 -48 107 -21 -15 -13 -11 78 68 -66 -61 -38 -20 -36 -24 -30 98 -56 75 -18 -34 -40 115 80 -32 -27 85 84 -64 86 -65 101 89 90 -54 -85 110 -94 -68 -73 -97 -57 -58 104 -101 -87 -3 -53 -71 -74 -76 116 109 -46 -8 120 -106 -51 -6 -29 -50 -70 -16 -81 -108 122 -45 -124 -123 -103
right_child=1 3 8 12 6 -7 10 20 15 14 -12 61 33 39 21 -17 24 35 26 34 36 25 44 31 40 38 48 63 45 41 79 -33 43 -35 69 -37 67 -39 42 -41 49 -43 -44 52 108 -47 57 -49 58 51 -52 103 88 -55 73 56 72 -59 -60 66 -62 -63 83 82 65 -67 94 -69 117 99 -72 95 105 -75 106 -77 -78 -79 -80 119 -82 -83 -84 91 -86 87 -88 -89 -90 -91 -92 -93 93 -95 -96 96 -98 -99 -100 100 -102 125 -104 -105 112 -107 111 -109 -110 -111 -112 -113 -114 -115 -116 -117 -118 -119 -120 -121 -122 124 123 -125 -126 -127
leaf_value=0.011688414088041315 -0.003053277634952408 0 0.025801568069578614 0.0036346363084887863 -0.0019106173906873469 0.02089121237725754 -2.6228341147869889e-05 0.0030214282396971771 0.030694460085158706 -0.0017345871098775327 0.007464314317794595 0.013279956417590576 0.0079940824503305901 0.0012310985698183972 0.00041735045792657733 0.035071335671057739 -8.4317962307634917e-05 -0.0014085042350705712 0.0010606842344159833 0 0.0033358914410107502 -0.00018167843470675036 -0.0029903613745983753 0.0054832346215031857 5.7780470433726227e-05 -0.0018213430258056198 0.0002248703754811561 0.00032611019791371819 -0.0011284410790853101 0 -0.0012124955117861383 0.00721897219255359 -0.00015966796571648364 0.010848009599235667 -0.00089186941792868211 6.6543815994873603e-05 0.0042256370336545808 0.0001100746187632068 -0.0014543702665430077 0.0023175548071101785 0.00025560178829216027 0.0018791245980202841 0 0.00045490621909501685 -0.0026242998606647496 -0.0028372940059532142 -0.0015642208135334323 0.0065109352464155197 0.0013022493764238635 0.0017205993202019925 0.013312545257228149 0.00013022352176815714 0.00089393670346729842 0.0024675544310441655 -0.0014811039306941486 -0.00048650715977282665 -0.00026234108722890929 0 0.002241827260130367 -0.0015904990008608648 -0.00029974329825571347 0.015682084435645224 -0.0018464719751231985 0.0012027573455286361 0.00016721936676051768 0.001463058123866133 -0.0012951953115018801 0.0034664158447767837 -0.00036761603166026423 1.803683121679369e-05 -0.0026599642758843595 -0.0023437264879073516 -0.00085712876741502451 -0.00042504055004882047 -0.00063507022217799004 0.00093213783092595975 0.00029213640841204948 -0.00078737681571390918 -0.00020253584770953625 0.00013763229338515105 0 -0.00079537554314473543 0 -0.0014036609253182441 -0.0030055666436584203 0.0011175581872759463 0 0.0014323099916590633 0 0.0016612429685869809 0 -0.0025223900556814276 0.00038538759740110748 -0.00094951860018889207 -0.00076148288015255171 -0.00021104105120953621 -0.0019911857290172436 0.00019140239161250547 -0.001409061265590449 -0.0013919825782399741 0 0.00066377551740264028 0.00074946793962326393 0.0015000026919359559 -0.00070646222265412359 -2.6303496652919918e-06 -0.00050144016754200807 0.00093460730890943975 -0.0022331252260668986 -0.0010477520144766142 0.00067969459268789507 7.4744923068672945e-05 -6.7959079265693059e-06 0.0031899273841087998 -0.0010544608142612154 0.0012796606076788527 0.0018940706826589522 0.00048392732863279138 -0.00032478379959016419 0.00083743031057844546 0 0.00088297913552199076 -0.00046394507815573032 0.00028468266648614603 0 0
leaf_weight=185 2562 48 77 31 512 77 42 130 79 70 26 46 339 20 31 89 71 91 36 21 324 39 841 165 40 767 21 51 52 20 21 208 129 23 609 46 184 30 508 34 25 126 39 37 1265 107 25 276 94 34 106 20 202 126 611 179 22 21 302 315 23 143 40 23 26 132 295 254 25 50 1005 273 66 33 73 37 307 85 21 143 63 36 22 34 338 113 29 279 21 43 25 763 27 55 135 29 883 21 158 35 21 44 49 25 71 36 87 41 358 31 25 87 49 30 41 25 394 21 24 25 62 34 43 33 31 25
leaf_count=185 2562 48 77 31 512 77 42 130 79 70 26 46 339 20 31 89 71 91 36 21 324 39 841 165 40 767 21 51 52 20 21 208 129 23 609 46 184 30 508 34 25 126 39 37 1265 107 25 276 94 34 106 20 202 126 611 179 22 21 302 315 23 143 40 23 26 132 295 254 25 50 1005 273 66 33 73 37 307 85 21 143 63 36 22 34 338 113 29 279 21 43 25 763 27 55 135 29 883 21 158 35 21 44 49 25 71 36 87 41 358 31 25 87 49 30 41 25 394 21 24 25 62 34 43 33 31 25
internal_value=2.07178e-05 -0.000771079 0.019474 0.00332314 -0.00183853 0.0144732 -0.000592745 0.00205399 0.0308123 -0.00247921 0.000148224 0.0134291 0.00700954 -0.00120789 -0.00197046 0.0330624 6.5855e-05 -0.00240921 0.00134751 -0.00127679 0.00318264 -0.00175759 -0.00283545 0.0063715 0.000367209 -0.00179372 0.00170435 0.000838117 -0.002024 0.00229568 -0.000439029 0.00649394 0.000238781 0.00819216 -0.00101155 -0.000877076 0.0034524 -0.0012442 -0.00156818 0.00125616 0.00131355 0.00161362 -0.00128876 0.000418145 -0.00267449 -0.00207373 0 0.00613909 0.00188875 0.0016508 0.0123016 0.00192444 0.000659478 0.00310447 -0.0016339 -0.000648605 -0.000779143 -0.000806301 0.00192475 -0.00130377 0.000297471 0.0151312 -0.00257371 0.00102431 0.00102836 0.00128169 -0.00133708 0.00379766 0.000478373 -0.000783663 -0.00281335 -0.00200341 -0.00106459 -0.00143483 -0.000138506 0.000199723 0.000146989 -0.00136734 0.000458396 6.59593e-05 -0.000286401 -0.00178168 0.00111747 -0.00261929 -0.00289666 0.00115652 0.00044133 0.00122623 0.000886378 0.000952991 0.000796139 -0.00248112 -0.000131479 -0.000449141 -0.00113948 -0.00203749 -0.00194009 -0.000390279 -0.00129689 -0.000469702 -0.00091872 0.000882249 0.000405002 0.00100372 -0.000291943 -0.000604811 -0.00027063 0.0017339 -0.00251633 -0.00259053 0.00016328 -0.000147964 -0.000462641 0.00249125 -0.00185638 0.00070675 0.00179061 0 2.76424e-06 0.000271949 -0.0003115 0.000260172 5.57381e-05 -7.32331e-05 0.000538137 0.00042347
internal_weight=20502 19700 802 4073 15627 557 5310 3031 245 10317 2405 480 1042 2905 4255 168 2379 1382 1867 2828 1164 2873 6062 680 1496 2818 1092 775 1383 276 883 649 1322 362 1631 137 888 796 1435 77 174 146 632 905 3500 1344 143 441 852 134 291 109 469 450 1197 631 482 46 831 766 43 189 1245 632 240 158 745 438 82 835 1846 1237 282 644 417 108 436 593 97 252 84 803 535 1175 378 513 52 461 291 270 227 797 149 82 430 1185 912 200 180 226 56 182 97 45 170 102 309 529 1654 1296 67 236 120 64 553 76 488 46 55 168 149 178 113 76 65 69
internal_count=20502 19700 802 4073 15627 557 5310 3031 245 10317 2405 480 1042 2905 4255 168 2379 1382 1867 2828 1164 2873 6062 680 1496 2818 1092 775 1383 276 883 649 1322 362 1631 137 888 796 1435 77 174 146 632 905 3500 1344 143 441 852 134 291 109 469 450 1197 631 482 46 831 766 43 189 1245 632 240 158 745 438 82 835 1846 1237 282 644 417 108 436 593 97 252 84 803 535 1175 378 513 52 461 291 270 227 797 149 82 430 1185 912 200 180 226 56 182 97 45 170 102 309 529 1654 1296 67 236 120 64 553 76 488 46 55 168 149 178 113 76 65 69
cat_boundaries=0 1 2 3 6 9
cat_threshold=1 4 4 1610612736 524288 16896 872415256 0 4352
is_linear=0
shrinkage=0.05


Tree=6
num_leaves=127
num_cat=3
split_feature=17 37 37 17 32 27 37 37 27 44 17 37 44 37 44 45 32 54 54 44 54 27 37 44 37 45 54 27 44 37 33 54 54 54 54 54 32 43 32 44 13 32 27 44 54 27 27 54 34 37 27 54 44 37 27 54 37 32 34 27 44 45 27 27 54 34 43 27 45 27 43 54 28 43 43 43 40 54 54 36 54 54 37 37 36 43 44 28 43 41 29 27 40 37 43 44 54 37 34 37 33 13 32 37 54 45 27 54 43 43 29 44 27 54 42 32 54 14 44 28 43 54 37 14 48 54
split_gain=114.074 31.1035 16.3765 6.86127 4.50269 1.10419 0.864295 0.856585 0.75116 0.619948 0.452046 0.254251 0.201047 0.167616 0.165862 0.145343 0.143734 0.121425 0.100293 0.0989663 0.0882009 0.0871931 0.0668405 0.0641611 0.0619491 0.0608502 0.062011 0.0517704 0.0479109 0.0460307 0.0459164 0.053185 0.0455395 0.0449029 0.0332787 0.0314711 0.0301735 0.0298889 0.0270724 0.0264543 0.0260547 0.0250065 0.0234749 0.0232238 0.0231937 0.0184915 0.0169317 0.0167394 0.0279838 0.0179243 0.016299 0.0227791 0.0302478 0.0160605 0.0156188 0.0153026 0.0152285 0.0211054 0.0144303 0.0144288 0.0136593 0.0134343 0.0128965 0.0128182 0.0160299 0.0101144 0.00924536 0.00894903 0.00877058 0.00877023 0.00829372 0.00770686 0.00751253 0.0114606 0.0113422 0.014401 0.00742101 0.00764266 0.00715749 0.00705317 0.00705429 0.00699867 0.006967 0.00590761 0.00580197 0.00560504 0.00548307 0.00546256 0.00532362 0.00527136 0.00675725 0.00488772 0.00475358 0.00472641 0.00470115 0.00656514 0.00468668 0.0052607 0.00463582 0.00411226 0.0050213 0.00403579 0.00401826 0.00399205 0.00376157 0.00359917 0.00475116 0.00356318 0.00355895 0.00355483 0.00350306 0.0034236 0.00336228 0.0032631 0.00318997 0.00457129 0.00315106 0.0117283 0.00314598 0.00431271 0.00298236 0.00276878 0.00254543 0.00236671 0.00232544 0.00365724
threshold=0 0.10888976167222959 0.6892965735795149 1 0.046373815287578814 0.50315348357669243 0.16486951763046107 0.081768159749569067 0.81805837604055009 0.028257787039017903 2 0.27939615610975416 0.45184553156628671 0.39688020104736749 0.053461925545374031 0.051021883240726602 0.12237287615446808 0.025045866403779239 0.029693994071420513 0.076970113545315938 0.017656925064535017 0.022640738811483405 0.028464000963752224 0.1469756433011786 0.14710545569934955 0.04924853434718731 0.031672667095955016 0.11984248290905021 0.13826631455081081 0.063830733376570567 0.076461157726229953 0.054205021990308522 0.054205021990308522 0.03201661312043981 0.044208017387873812 0.056241303779703468 0.42652607533075937 0.054700929159924569 0.11359302140881329 0.013410105297165678 -5.4217529296874991 0.062683087916247451 0.072848259213697156 0.12244225117751442 0.085563420492824213 0.027818571520270455 0.10623343784042032 0.037001034418916966 0.017941637226881951 0.065943235225410332 0.077645409468857313 0.025704080040496461 0.080472745372146257 0.1995082943071621 0.051510820409326703 0.011702218464886166 0.038827706738426455 0.031504544356942478 0.024121668777516769 0.10493704423934806 0.037151736310391655 0.05869020188512606 0.097785623193656704 0.2161321682424612 0.032662925915742533 0.018204289756454606 0.054700929159924569 0.072848259213697156 0.10155010074859032 0.032499161326097155 0.14754653435940782 0.037001034418916966 0.16176121438732652 0.065217887649151138 0.071997055691310943 0.072026956684300578 0.16299097986502295 0.029693994071420513 0.020509197175211349 0.091063516650355072 0.021418023946313692 0.031672667095955016 0.05308840153343073 0.046504813815962547 0.074893817914593638 0.054719890017458216 0.083454840539839745 0.071246242500338217 0.05471083098445665 0.079813744337643197 0.06189001141299421 0.10126920744301436 0.087705783348572749 0.072324688065635315 0.074991725967872847 0.10281492078449879 0.041543783451040671 0.11794026676735804 0.022078075874814276 0.094537762557145757 0.063705259797498207 -5.3393554687499991 0.097870010296281354 0.11957029003214552 0.035401404066737925 0.10381546476287049 0.12672373695677988 0.036384736531281624 0.072035035059757321 0.054683432340811078 0.12017352800268886 0.071443517020682093 0.13260384244540482 0.017808057414582471 0.050616560190758143 0.041026255342402833 0.02110604863061372 90.758056640625014 0.097583790876755103 0.070290480694531116 0.10461258232254957 0.028230033434744565 0.095584508350310182 90.780029296875014 0.072869961670600877 0.01951732760485456
decision_type=9 2 2 9 10 10 2 2 10 2 9 2 2 2 2 2 10 2 2 2 2 10 2 2 2 2 2 10 2 2 8 2 2 2 2 2 8 2 10 2 2 10 10 2 2 10 10 2 10 2 10 2 2 2 10 2 2 10 8 10 2 2 10 10 2 8 2 10 2 10 2 2 8 2 2 2 2 2 2 2 2 2 2 2 2 2 2 10 2 2 10 10 2 2 2 2 2 2 8 2 10 2 10 2 2 2 8 2 2 2 8 2 10 2 2 10 2 2 2 10 2 2 2 2 2 2
left_child=2 4 5 6 9 13 16 14 -4 21 19 24 -7 44 42 20 30 -10 29 41 22 39 85 33 -5 26 45 50 46 66 31 59 -15 -8 53 40 -13 -17 -35 -2 61 78 60 76 -1 88 -18 49 -49 69 -21 68 -53 -26 -23 -41 71 -58 104 96 -6 -20 81 64 -25 122 -16 -31 118 -39 72 -28 73 -32 -75 -76 77 -29 -9 80 -48 99 -68 -24 -61 -11 91 -64 -22 90 -60 -69 -79 -44 108 110 97 -3 -83 111 -101 -40 -67 120 123 106 124 -62 -77 -74 -96 -43 -30 -88 -51 -116 -84 -118 -52 -120 -81 -47 -54 -42 125 -89
right_child=1 3 8 11 7 12 23 10 17 15 -12 36 -14 32 18 37 28 -19 35 27 25 54 83 63 34 -27 56 43 112 67 70 -33 -34 38 -36 -37 -38 47 101 55 58 62 93 -45 -46 121 79 48 -50 114 51 52 65 -55 -56 -57 57 -59 89 84 107 -63 87 -65 -66 102 82 86 -70 -71 -72 -73 109 74 75 94 -78 92 -80 103 -82 98 116 -85 -86 -87 113 105 -90 -91 -92 -93 -94 -95 95 -97 -98 -99 -100 100 -102 -103 -104 -105 -106 -107 -108 -109 -110 -111 -112 -113 -114 -115 115 -117 117 -119 119 -121 -122 -123 -124 -125 -126 -127
leaf_value=0.010713203227010484 -0.0029317663580703938 0 0.024810787095503491 0.0034534888862616494 -0.0019083560484451001 0.015647596833153508 0.0031977645088066631 -0.00027557585666831725 0.033340367408302742 -0.0016767615287952597 0.0067122887806258958 0.0075944961855296221 0.020222778740712408 0.012516872965453807 0 0 0.00053236215481142213 0.029201332186653058 0 -1.9557214447290081e-05 -0.00082359470833415964 -0.0023891886910447015 -0.002006679245461526 0.0034183405397548629 0.0048375256504036152 -0.0025526088440071585 -7.2967269844919814e-05 0.00042802795010182858 0.0017622633280542405 -0.00077778545541184346 0.0018957587838314327 -0.0015075930237561186 0.014712960075784279 5.5392990624884139e-05 0.0068581969691606064 0.0020725498735830561 0.01030795740939322 -0.0019102273262084316 0.0022476709762503945 -0.0027770728144709727 0.00078778906290306861 -0.00045001128832910722 -0.0011286794872934238 0.0022296489398656678 0.013125096699770758 -0.0013999156904350787 0.0012541624769275412 -0.0013660300167991635 0.00069741389225326284 -6.8943692460629669e-05 0 -0.00033495237132222944 0.0010769792792823987 0.006055013218000678 -0.0016781126571271583 -0.0024342499965182116 -0.001912752772329754 0 -0.0008528255901139039 0.00030997410913618129 -0.0014493235002661345 -0.0015783248505107719 0.00059075939293410957 0.0038152737933323647 0.002675270518470232 0.00035948333242696829 -0.0014305304772246922 -0.0006225831144293266 0.00056507116427808983 -0.0013601581499104144 0 0.0010619972586567268 0.001120633747503242 0.00019721869232614897 0.0024120599749278388 0.00084806200719720606 0 0.00091329961778646306 -0.0013132119930919742 0.0013464334592855846 0 -0.00014586338859981187 -0.0011184145633978575 -0.001484624297183351 0.001244636042052162 -0.0025766376393273871 -0.00031874134487747466 0 -0.0019621245174246018 0.00044566053699498397 1.4315279656378977e-07 0 0.0022281978041004229 -0.00046936591859577038 0.00090944724322760447 0.001354687629866905 -0.00027092287012519238 0.00075327734043274938 -0.0012490681529953209 0.00048131993478911853 -0.00028581465652529296 0.00088848186716419689 0.0012711852116917017 0.0017136308796936281 0.0013442233454303018 -0.00045451968076162298 0.00080963312657892055 -0.00038344860670015533 0 0.00017524118479621045 0 0 0.002399143979659667 0.00014628808371461416 -0.0012237511856420559 -0.00048696796791856348 0 -0.0010483932397107299 -0.00017321806322780238 0.0003779036165128756 0.00027747252488439258 -0.00076661324623175198 0.0024900646410311992 0 0.00025078017575718835 -0.00069309168630205399
leaf_weight=159 2281 60 76 31 293 75 89 40 86 52 27 339 62 124 23 41 59 81 22 244 27 1443 1141 386 85 163 23 58 106 498 80 32 100 29 208 20 23 205 72 1422 21 145 254 49 39 344 32 37 26 21 207 31 24 356 136 914 24 29 33 40 814 33 52 224 200 47 297 266 187 323 23 23 23 43 30 24 20 49 71 42 20 29 349 143 92 940 88 33 336 31 42 31 21 63 123 261 28 51 36 41 39 21 41 445 30 34 21 21 22 49 21 37 280 49 133 57 35 61 31 170 24 59 27 28 46 25
leaf_count=159 2281 60 76 31 293 75 89 40 86 52 27 339 62 124 23 41 59 81 22 244 27 1443 1141 386 85 163 23 58 106 498 80 32 100 29 208 20 23 205 72 1422 21 145 254 49 39 344 32 37 26 21 207 31 24 356 136 914 24 29 33 40 814 33 52 224 200 47 297 266 187 323 23 23 23 43 30 24 20 49 71 42 20 29 349 143 92 940 88 33 336 31 42 31 21 63 123 261 28 51 36 41 39 21 41 445 30 34 21 21 22 49 21 37 280 49 133 57 35 61 31 170 24 59 27 28 46 25
internal_value=1.98512e-05 -0.000732468 0.0185035 0.00315859 -0.00174696 0.0137717 0.00195288 -0.000558271 0.029358 -0.00235374 0.000295572 0.00666046 0.0177678 0.0124586 -0.00103208 -0.00187641 0.00134665 0.0313814 -0.000726849 0.000199123 -0.00202856 -0.00267238 -0.00220857 0.0031412 0.00605419 -0.00162499 -0.00144414 0.000468628 0.00177356 -0.000867453 0.000912067 0.000372846 0.0135257 0.00228487 0.00617017 0.000171622 0.00778351 -0.00127398 0.00157589 -0.00278791 0 -0.000293975 -0.00144193 0.00121893 0.0112199 -0.00159745 0.00147717 -0.00134132 -0.000435455 -0.00141171 0.000317076 0.00043097 0.000953535 0.00583284 -0.00233122 -0.00264519 -0.000207013 -0.000816603 0.000296446 0.000613808 -0.00155777 -0.000941772 -0.00014198 0.00335779 0.00317376 0.00127688 -0.00116257 -0.000619752 0.000273129 -0.00158352 0.00113857 0.000387128 0.00117094 0.00123685 0.00112637 0.00119899 0.000849256 0.000989277 -0.000984878 0.00156719 0.000794114 -0.000343352 -0.00119357 -0.00195255 0.000999704 -0.00253468 -0.000426759 0.000146429 -0.00189146 -4.11165e-05 -0.000309221 -0.000553206 0.00138171 -0.00101361 0.00110669 0.00117134 0.000210944 0.000377635 -0.000834654 -0.000202116 4.50299e-05 0.00199575 0.000841968 0.0016359 0.000812069 0 0.000124955 -0.00142855 0.000427766 0.000547725 0.000803608 -0.000338174 0.0022377 -0.000115962 -0.000957564 -0.00102939 -0.0010239 -0.000627467 0.000126965 0.000267998 0.00103437 -0.00131982 0.00192634 0.000382353 0 -0.000223966
internal_weight=20502 19700 802 4073 15627 559 3031 5284 243 10343 1882 1042 137 422 3402 4147 2010 167 1957 1855 3304 6196 2276 1021 680 1028 865 1206 1008 1697 1002 303 224 211 649 260 362 843 122 4617 240 649 1445 197 198 766 622 802 63 739 1009 765 170 441 1579 2336 99 53 185 271 1128 55 538 810 586 139 765 932 595 528 699 46 676 604 524 481 148 128 111 563 52 327 742 1284 132 992 434 211 363 106 75 297 70 317 451 405 139 111 65 262 80 93 88 511 79 159 125 835 46 72 144 182 386 137 211 190 445 96 408 201 66 403 51 49 104 58
internal_count=20502 19700 802 4073 15627 559 3031 5284 243 10343 1882 1042 137 422 3402 4147 2010 167 1957 1855 3304 6196 2276 1021 680 1028 865 1206 1008 1697 1002 303 224 211 649 260 362 843 122 4617 240 649 1445 197 198 766 622 802 63 739 1009 765 170 441 1579 2336 99 53 185 271 1128 55 538 810 586 139 765 932 595 528 699 46 676 604 524 481 148 128 111 563 52 327 742 1284 132 992 434 211 363 106 75 297 70 317 451 405 139 111 65 262 80 93 88 511 79 159 125 835 46 72 144 182 386 137 211 190 445 96 408 201 66 403 51 49 104 58
cat_boundaries=0 1 2 3
cat_threshold=1 4 4
is_linear=0
shrinkage=0.05


Tree=7
num_leaves=127
num_cat=4
split_feature=17 37 32 17 27 37 37 37 27 47 17 27 37 37 45 27 27 47 47 32 37 27 47 47 47 47 27 32 37 47 45 33 47 37 37 32 37 47 13 32 27 27 27 35 34 42 42 34 42 47 36 47 49 41 48 27 29 47 27 1 32 35 27 29 28 42 40 36 27 29 33 42 27 47 41 40 48 36 36 13 47 29 28 37 48 48 32 29 47 24 32 47 48 36 34 42 28 41 47 47 34 35 36 34 37 48 47 36 45 27 42 32 48 48 45 48 42 51 35 36 14 41 27 36 27 28
split_gain=102.99 28.0984 14.8152 6.18979 4.07574 1.22961 0.793742 0.780512 0.729256 0.595445 0.441221 0.249092 0.230232 0.163892 0.122482 0.10731 0.0926905 0.0863306 0.0796234 0.0777899 0.0634212 0.0595711 0.0417532 0.0396911 0.0394508 0.0389197 0.0381542 0.0359415 0.0239638 0.0237126 0.0231755 0.0202866 0.0199912 0.017665 0.0172237 0.0164203 0.014938 0.0142362 0.0132031 0.0131868 0.0131608 0.0125297 0.0122153 0.0119356 0.0113116 0.0105531 0.0103563 0.0101624 0.00956611 0.00910108 0.00875176 0.00865116 0.00858707 0.00937473 0.00849066 0.00814958 0.00792147 0.0125449 0.0074361 0.00742268 0.00712549 0.00712148 0.00710489 0.00693586 0.00677858 0.00666016 0.00629317 0.0083015 0.00615493 0.00589241 0.00555089 0.00544506 0.00542481 0.00542351 0.00537934 0.00553687 0.00528503 0.00491716 0.00543939 0.00487576 0.00486301 0.00483839 0.00481169 0.00443588 0.00432315 0.00404373 0.00405058 0.00401516 0.00387853 0.00385489 0.00412985 0.00375418 0.00374891 0.00368869 0.0035935 0.00355141 0.00322009 0.00324862 0.00318649 0.00302891 0.0040024 0.00299743 0.00339204 0.00294974 0.00287867 0.00284657 0.00272509 0.00310709 0.00269168 0.00266137 0.00330888 0.00261911 0.00256627 0.0043 0.0025482 0.00248908 0.0024715 0.0023325 0.0022981 0.0022768 0.00273624 0.00533588 0.00226872 0.00213908 0.0021307 0.00208495
threshold=0 0.10888976167222959 0.62722637478413035 1 0.047971299944745555 0.56411804341049476 0.081768159749569067 0.15826007623896568 0.81805837604055009 0.028257787039017903 2 0.42928612428367291 0.29019889915300612 0.059615896945024262 0.051625380474225303 0.11836912776767521 0.99505161662943908 0.089615829069563682 0.1469756433011786 0.021189459842753052 0.19500150455192619 0.012144326277241851 0.069861329265698532 0.087446472165777542 0.042625720065418107 0.10281492078449879 0.11984248290905021 0.093914218805364755 0.19500150455192619 0.06774035214466044 0.4502867826162319 0.34491088609845766 0.079341175421755825 0.030353895934141051 0.019844256102781736 0.058540100511450019 0.1444812793498382 0.13030908066652272 -5.4327392578124991 0.093914218805364755 0.063997081198771413 0.032499161326097155 0.080142990816658002 0.045645237892046997 0.042028341905326512 0.050597109137307993 0.050642816852504637 0.032861701054467042 0.072326851446472343 0.10281492078449879 0.013246743991611834 0.14279817792046162 0.061541173563103409 0.071213800565601407 0.12007103611939599 0.05781075568598381 0.063662431199581357 0.12439033593312566 0.34268485421199363 4.5000000000000009 0.13403150214929802 0.029136256332212691 0.10379662704792821 0.12700068945216933 0.060140017486065157 0.062238447484041705 0.13635556923509026 0.089492416224925916 0.084950828333628006 0.050628832988686708 0.071216185969958476 0.088749100405962303 0.063399633641585115 0.040963633909655538 0.068190623785322951 0.12571800274727898 0.067081663934082866 0.080421348705816437 0.096919913075564995 -5.4162597656249991 0.11535741680306275 0.040249187918883357 0.093420384548184909 0.080459681603683469 0.041363054817946505 0.028883088007229701 0.054432022443550727 0.083347913749367411 0.020450044951978504 3 0.093914218805364755 0.053461925545374031 0.078471350320442307 0.12235379756041904 0.029660941351743391 0.050704428266878689 0.035838042125563706 0.028076886316890141 0.13485705680786172 0.10898156657906742 0.032861701054467042 0.034574706343038282 0.071410897081465016 0.022462991222759927 0.094537762557145757 0.10880835291246048 0.076970113545315938 0.072029305349540371 0.095449532432157938 0.097785623193656704 0.076787113489521566 0.049184892254663708 0.041363054817946505 0.067011894971627392 0.091138733257564067 0.073351350488178854 0.050630568821610787 0.055906377148507387 0.036169415213007101 0.079567450389909783 90.780029296875014 0.072087976130559908 0.072848259213697156 0.082379532064577723 0.080142990816658002 0.035377579817339556
decision_type=9 2 10 9 10 2 2 2 10 2 9 10 2 2 2 10 10 2 2 10 2 10 2 2 2 2 10 10 2 2 2 8 2 2 2 10 2 2 2 10 10 10 10 10 10 2 2 10 2 2 2 2 2 2 2 10 10 2 8 2 10 10 10 8 10 2 2 2 10 10 10 2 10 2 2 2 2 2 2 2 2 10 10 2 2 2 10 10 2 9 8 2 2 2 10 2 8 2 2 2 10 10 2 8 2 2 2 2 2 10 2 10 2 2 2 2 2 2 10 2 2 2 10 2 10 10
left_child=2 4 5 7 9 11 13 15 -4 21 17 58 20 24 19 23 -10 29 27 46 36 50 42 38 122 52 35 -9 60 40 -13 -14 41 -21 -23 -19 -5 82 -3 -27 114 118 91 45 66 -24 -11 73 74 68 -2 84 53 70 77 -26 65 93 -1 79 -20 104 -40 -29 108 -25 67 69 112 -31 -17 -63 -66 -35 -47 98 -64 -54 -79 -42 -74 125 -28 -34 -41 -44 -87 -57 -36 90 124 111 -70 99 -89 -85 -93 -98 -76 100 -58 102 -68 -104 -61 -88 107 -91 -37 110 -81 -15 -50 117 -8 -115 -75 -114 -16 -108 -121 -122 -6 -46 -71 -67
right_child=1 3 8 12 6 -7 10 18 16 14 -12 30 31 22 32 25 -18 26 28 33 -22 34 43 56 55 39 37 63 -30 44 -32 -33 83 47 88 64 -38 -39 62 51 59 -43 85 -45 123 48 -48 -49 49 -51 -52 -53 54 -55 -56 87 57 -59 -60 61 -62 71 76 -65 72 81 101 -69 92 89 -72 -73 80 116 75 -77 -78 78 -80 109 -82 -83 -84 95 -86 86 105 94 -90 106 -92 96 -94 -95 -96 -97 97 -99 -100 -101 -102 -103 103 -105 -106 -107 119 -109 -110 -111 -112 -113 113 115 -116 -117 -118 -119 -120 120 121 -123 -124 -125 -126 -127
leaf_value=0.010210671022367519 -0.0028472636913867179 -0.0011510295416029849 0.023472612340409562 0.0031099790097526797 -0.0016947054993704678 0.019040967487800445 -0.0013689095121856968 0 0.027811196659016397 -0.0012126107464222706 0.0067582002430583328 0.012321276804150795 0.0073372863806211025 -0.00067670250018598752 -0.0017310830851908219 0.0015894400538234922 0.031685177471768848 -0.00078624129291484713 0.0020292031979687007 -0.0020045201261453972 0.0061006427059959612 -0.002550890384484159 0.0006144795324013355 0.00094134839877393233 -0.001317721142529774 0.00017777208569327201 0.00026845338878027033 0.0016553703701794181 0.0034394802550750804 -0.00047122967104915075 0.014476982865977765 0.0098212497316913696 -0.00099426331333544202 -0.0018243356046964152 -0.0023811868989184002 -0.00037004556355068143 0.0050761530630781338 0.0022152900993337326 -3.3278837143755598e-05 0.000981422863424218 -0.0013544306203157981 -0.0011445727405352136 0 0.0007883098973976493 0.0013273268180537387 -6.1633200617060207e-05 -0.0023296303270456185 -0.00086385906715953696 0 0.00041722385501177556 -0.0026020888610350282 0.002023069832980502 0.0002768546402351051 -4.2602123938486518e-05 3.405488207049312e-05 -0.0010209392559547561 0.00080637835279650854 0.0014476593672698467 0.011635053503315902 -0.00045093098194159292 0.0029207020071289475 0.00079880042396924741 0.0013370718693462621 0.0024953649732981521 0 5.3277852811510726e-05 0.0006924739292947761 -0.00079398666691664517 -0.00016394420660015968 -0.0009288019718054982 0.00015363775667564411 0 0.00044759443975352314 -0.00057883961655368858 -0.00092620063119069191 0 1.9004459357267356e-05 0.0017135792423086189 0.00055729557927432759 0 0.00086500080320603293 0.0005762190637042759 0.0012153117082227636 0 0.0016482466526440824 0 -0.00072418250498975691 -0.00070693930341314928 -0.0020916418712014933 0.00028047839263756013 8.4896477916295617e-05 0 0.00053659312835612632 3.8280023083200742e-05 0 -0.00064281637626643028 0 -0.0008718511274855798 -1.0612183113527636e-05 0.001220685199884752 2.6051652920397207e-05 0.00077908296140902407 0.00017913507442463881 -0.00040630696083761471 0 0 0.00071941335885434079 -0.00023056579217434274 0.00031018940153243056 0 -0.00090703260595980599 -0.0012447305085271892 -0.00096821169057802333 9.1596638068768634e-05 -0.0002929423137133882 -0.00036593997527121179 -0.0015640327129627031 -7.9324398239171405e-05 -0.0006313823288612401 -3.4231006701178341e-06 0 0.0010093546436933118 -0.0011927264842765261 0.00017444666588577019 -6.3981169348588087e-05 -0.00051109342049249988
leaf_weight=116 1473 21 76 27 603 78 43 20 77 41 26 76 282 72 281 20 89 24 69 665 575 1148 23 62 428 21 36 85 438 58 115 23 150 702 734 30 135 42 76 69 21 349 41 21 21 52 1025 67 23 44 1886 302 21 38 23 549 180 158 175 87 381 33 20 171 30 21 23 36 69 21 24 42 399 23 167 29 26 86 28 27 137 41 69 31 460 23 197 49 821 56 48 21 26 27 23 57 20 373 22 88 33 31 80 29 31 25 37 63 27 41 33 240 67 21 22 95 844 23 20 57 25 22 103 20 34 22
leaf_count=116 1473 21 76 27 603 78 43 20 77 41 26 76 282 72 281 20 89 24 69 665 575 1148 23 62 428 21 36 85 438 58 115 23 150 702 734 30 135 42 76 69 21 349 41 21 21 52 1025 67 23 44 1886 302 21 38 23 549 180 158 175 87 381 33 20 171 30 21 23 36 69 21 24 42 399 23 167 29 26 86 28 27 137 41 69 31 460 23 197 49 821 56 48 21 26 27 23 57 20 373 22 88 33 31 80 29 31 25 37 63 27 41 33 240 67 21 22 95 844 23 20 57 25 22 103 20 34 22
internal_value=1.91454e-05 -0.000695679 0.0175819 0.00300262 -0.00165993 0.0130937 -0.000533131 0.00185731 0.0279375 -0.00223938 0.000297013 0.0121172 0.00632882 -0.000982503 -0.00178202 0.00121901 0.0299361 0.000202377 0.00287662 -0.00192259 0.00581814 -0.00255955 -0.000625997 0.000756118 -0.00132371 0.00154285 0.000595899 0.0020773 0.00311917 -9.2999e-05 0.0136523 0.00754415 -0.00124323 -0.00174943 -0.00236919 0.000419209 0.00478142 0.00133877 0 0.00170883 -0.000409938 -0.00139804 -0.000832825 -0.000311684 8.16763e-05 -0.000354308 -0.00229148 -0.00164257 -0.000397159 -0.000210279 -0.00271117 0.00174148 0.00093234 0.000414461 0.00116905 -0.00111353 0.000926301 0.00103589 0.0110881 -0.000254978 0.0027956 -3.36235e-05 0.000203429 0.00223674 0.00047379 0.000526826 2.0131e-05 -6.62165e-05 -0.000311025 0 0.000921778 0.000316183 0.000526322 -0.00167257 -0.000633187 -0.000746505 0.000702194 0.00132525 0.00147414 -0.000563889 0.00056375 0.000160661 0.000938813 -0.000799015 0.00157092 -0.000515455 -0.000592777 -0.000964557 -0.00223167 7.09826e-05 -0.000156463 -0.000950876 0 0.000821917 -0.000464475 -0.000408701 -0.000803624 -0.000837132 -0.000846127 0.000875568 0.000709015 0.00029277 0.000140207 0 -0.000298375 -0.000658306 0.000179451 0 0 -0.000348885 -0.000561662 -0.00112993 -0.000451679 -0.000507849 -0.00108255 -0.000240036 -0.00154373 -0.000796886 -0.00167485 0.000335107 0.000149792 0.000441376 -0.00162873 0.000888394 -0.000486016 -0.000119977
internal_weight=20502 19700 802 4073 15627 560 5310 3031 242 10317 1861 482 1042 3449 4255 1867 166 1835 1164 3367 737 6062 1694 775 1755 1092 794 276 888 1041 191 305 888 2301 2703 647 162 147 143 852 380 650 1012 682 661 661 1066 1636 638 368 3359 831 240 82 158 1049 632 486 291 315 450 193 122 256 623 146 620 457 324 421 44 75 566 1569 270 218 46 135 114 122 536 84 105 238 529 286 245 621 1555 363 103 726 95 328 72 88 414 393 189 301 213 163 132 109 118 222 260 119 57 101 60 312 229 206 65 116 867 90 301 141 104 47 706 41 55 43
internal_count=20502 19700 802 4073 15627 560 5310 3031 242 10317 1861 482 1042 3449 4255 1867 166 1835 1164 3367 737 6062 1694 775 1755 1092 794 276 888 1041 191 305 888 2301 2703 647 162 147 143 852 380 650 1012 682 661 661 1066 1636 638 368 3359 831 240 82 158 1049 632 486 291 315 450 193 122 256 623 146 620 457 324 421 44 75 566 1569 270 218 46 135 114 122 536 84 105 238 529 286 245 621 1555 363 103 726 95 328 72 88 414 393 189 301 213 163 132 109 118 222 260 119 57 101 60 312 229 206 65 116 867 90 301 141 104 47 706 41 55 43
