tree
version=v4
num_class=1
num_tree_per_iteration=1
label_index=0
max_feature_idx=53
objective=regression
feature_names=Column_0 Column_1 Column_2 Column_3 Column_4 Column_5 Column_6 Column_7 Column_8 Column_9 Column_10 Column_11 Column_12 Column_13 Column_14 Column_15 Column_16 Column_17 Column_18 Column_19 Column_20 Column_21 Column_22 Column_23 Column_24 Column_25 Column_26 Column_27 Column_28 Column_29 Column_30 Column_31 Column_32 Column_33 Column_34 Column_35 Column_36 Column_37 Column_38 Column_39 Column_40 Column_41 Column_42 Column_43 Column_44 Column_45 Column_46 Column_47 Column_48 Column_49 Column_50 Column_51 Column_52 Column_53
feature_infos=none [0:22] [0:45] [0:1320] none none -1:0:1:4:2:3 [-1:1] [-1:1] [-1:1] [-1:1] none none [-5.48492431640625:-5.23773193359375] [90.5877685546875:90.9722900390625] [1:5] [-14.935096760357844:46.636316553649181] -1:1:2:0 -1:3:1:0:2:4 -1:1:0 -1:1:0 -1:49:94:112:115:117:118:120:122:135:136:137:138:140:144:154:160:162:173:204:205:207:208:209:210:211:222:226:227:231:233:234:242:244:245:246:247:249:250:252:253:255:256:257:258:259:268:270:271:272:275:289:291:297:299:300:303:314:316:481:486:487:488:489:490:492:493:550:551:610:611:614:615:616:617:618:619:633:644:650:657:659:665:668:669:670:671:672:673:674:691:710:713:714:716:717:720:721:761:762:765:766:767:768:769:770:771:772:777:794:796:804:839:843:844:856:948:1015:1048:1062:72:92:113:114:116:129:139:141:163:164:165:196:197:220:223:229:251:298:319:343:475:479:494:675:712:806:810:840:868:899:991:1004:1035:1065:1066:1067:1162:70:127:133:166:230:235:241:243:248:254:282:304:315:485:526:647:658:705:723:726:855:889:898:938:996:1171:148:151:161:174:221:269:287:478:480:496:525:755:773:817:890:995:1029:1086:56:110:111:119:130:224:225:238:273:602:715:776:778:849:927:1175:44:55:60:71:152:200:236:240:281:495:711:743:952:990:61:105:106:157:158:213:267:484:497:527:613:625:653:654:684:693:696:722:724:775:837:1104:1108:1220:40:143:150:156:199:219:237:301:474:638:664:702:835:1011:1083:1165:1208:35:47:48:57:109:147:171:283:349:453:491:533:586:719:1020:1082:1121:1211:1225:69:149:159:346:360:449:482:607:681:992:100:183:232:646:690:745:1001:1027:1036:1120:1207:25:34:68:202:214:215:216:438:472:483:523:548:557:656:774:857:858:893:1172:1177:31:102:104:125:153:177:284:322:451:473:879:1226:1232:33:43:58:67:172:201:239:454:582:592:739:798:829:851:875:950:967:1098:37:218:274:286:293:347:391:626:1003:32:36:42:86:93:108:262:288:302:305:538:608:679:686:782:807:880:897:917:989:1007:1014:1018:1081:1151:1180:54:217:313:351:428:547:593:682:779:842:852:877:892:993:1064:1178:1223:99:155:203:335:441:581:598:603:680:953:103:168:189:212:448:624:655:660:687:688:750:801:821:836:846:854:867:928:974:1219:29:38:145:309:338:450:507:549:652:697:764:878:916:946:999:1017:1060:1068:1160:45:185:326:340:512:520:631:718:780:805:819:874:1012:1034:1230:276:444:588:634:708:793:847:1084:1179:1185:107:170:178:317:446:524:553:563:569:661:689:704:725:747:832:1002:1043:1053:1148:28:95:101:175:285:560:605:635:645:703:783:811:997:1000:1005:1198:186:371:439:532:558:599:753:792:866:1026:1054:1130:1206:1213:1229:41:424:435:467:609:627:816:885:1170:1181:46:81:266:323:447:539:546:632:700:701:809:848:1059:1094:1106:52:176:228:307:345:359:383:415:445:535:587:591:612:797:902:1105:30:50:83:188:290:384:416:567:629:823:838:1019:1047:1061:1063:1124:1152:85:312:369:370:422:432:561:570:620:683:730:881:1013:1033:1069:1118:1163:1187:80:169:442:476:529:556:562:585:622:648:709:763:827:872:998:1009:1137:75:142:325:590:597:604:685:692:754:860:922:955:1023:1114:16:62:123:190:508:596:601:636:808:76:82:277:430:433:594:882:949:1169:21:23:91:354:537:578:579:926:1125:1161:17:121:390:412:437:577:621:651:737:799:830:876:954:1057:1122:1174:20:79:84:337:350:568:853:871:1109:1241:53:167:389:559:728:736:951:966:1006:1008:339:344:470:545:667:935:1052:1202:1216:355:376:421:477:628:666:695:707:758:891:1101:1173:13:24:403:600:706:1191:1244:39:193:375:663:678:12:19:89:310:324:334:356:583:1087:1147:11:98:321:336:352:358:518:694:936:994:1079:342:440:519:790:1031:1243:1257:96:134:365:572:584:589:630:760:784:824:894:1055:1214:1242:51:501:859:969:1028:26:296:850:896:924:1123:294:802:939:1049:1056:1089:1111:1218:27:146:184:510:566:820:923:1107:1135:15:87:944:1037:1140:1141:180:187:260:320:544:735:781:925:929:931:1231:8:63:261:676:756:826:73:372:431:795:895:1091:1117:1236:22:198:308:366:413:418:443:534:748:833:940:947:1200:348:388:742:813:818:834:77:469:536:555:971:983:1010:1025:1039:1072:1085:1204:9:64:374:414:423:426:429:522:884:1046:1134:1248:7:18:206:279:576:791:869:970:1071:1127:1131:3:623:10:295:362:933:973:977:1040:1192:1246:263:368:468:540:870:900:1167:404:462:543:887:986:1041:192:528:945:1050:1051:1144:381:741:959:1022:1136:1146:4:5:74:364:504:521:552:845:864:960:1132:1145:1153:126:357:734:788:861:901:972:738:1199:327:382:436:502:541:863:963:1021:1143:1195:132:306:332:400:571:909:1247:66:179:367:402:606:751:757:961:1201:1209:377:393:464:740:865:903:987:1149:59:331:333:379:580:825:908:1110:1133:1205:1210:328:385:1252:329:353:554:943:958:1045:1150:1158:1224:182:380:411:511:731:828:906:913:920:1176:1203:1227:698:1024:0:90:420:800:918:1038:1103:1157:1251:499:509:841:982:1042:1113:1193:1228:181:410:434:465:471:934:981:1115:1222:1237:6:124:399:459:749 -1:11:7:10:6:30:23:27:13:33:43:29:12:36:28:3:35:34:45:31:5:25:21:15:26:8:1:39:37:53:32:24:46:44:49:51:54:16:50:40:4:52:19:14:2:22:38:48:17:18:9:47:55:42:0:20 -1:4:1:5:2:3:0 -1:26:28:27:30:29:34:31:33:25:32:35:36:37:24:38:39:40:45:41:44:42:43:46:11:12:13:58:54:59:55:10:53:52:60:9:57:8:4:5:61:62:6:56:14:51:7:50:3:49:2:15:63:1:16:48:64:17:0:65:66:76:69:75:77:78:79:81:82:84:74:80:83:73:85:68:72:86:87:21:70:67:88:20:18:19:89:93:92:91:90:22 -1:82:77:78:81:80:75:74:76:79:84:83:73:85:72:86:28:30:27:4:10:29:6:11:31:7:35:36:33:12:3:26:87:2:32:5:9:8:25:34:1:37:13:38:24:88:0:14:15:39:93:40:89:16:92:41:21:45:91:90:17:20:52:58:59:54:53:50:42:44:56:57:55:51:60:49:19:43:61:62:18:63:48:64:65:94:69:66:68:22:67:46:70:99:101:102:100:104:106:107:108:98:103:105:97:109:96:110:111:112:117:113:116:114:115 [6.2456501300937078e-07:1] [6.2456501300937078e-07:1] [6.2456501300937078e-07:1] none none [6.1381619414759519e-06:1] [6.1381619414759519e-06:1] [0:0.26900373793379129] [0:0.38003768550999723] [0.00024551164820310004:0.96814423094367785] [1.4088935900366528e-06:1] none [0.00024551164820310004:0.96814423094367785] [1.676931377440731e-05:0.78983196622306562] [0.0020620594792864003:0.50649657364188483] [0.036807220492287449:1] [0.035155394552672838:0.18235571250042465] [0.00024551164820309999:1] [1.4088935900360218e-06:1] none [0.00024551164820309999:1] [1.6769313774407313e-05:0.79223133532574974] [0.0020620594792863998:0.50481552255263051] [0.017490514012865901:1] [0.017482756506325751:0.069063720663006201] [0.05660163859629256:0.61819460422835548] [1:89] [0:0.22346024646964693]
tree_sizes=11504 11756 12056 11855 11843 12316 11954 12055 11949 12120 12065 11964 12288 12106 12221 12486 12243 12647 12431 12569 13108 12779 12528 12154 13059 12139 11815 13367 13418 13371 13672 13522 12094 12209 13794 14246 13747 14626 12143 13923 12084 11794 14859 14355 14709 14851 15170 12024 14996 15295 15487 14859 15651 15296 12146 14438 14450 15841 14733 14877 15665 15859 14963 12011 11961 15787 15094 12172 14726 15225 16037 12247 12079 16078 12196 16724 14900 11990 15518 15756 15937 11931 11875 15811 15777 12319 14306 14732 13958 16250 16143 16143 11982 16079 11912 16077 14027 15308 11822 15598 14670 16385 15612 15824 16970 17064 16084

Tree=0
num_leaves=127
num_cat=6
split_feature=17 36 36 17 31 36 36 36 36 31 36 15 36 31 36 53 17 36 53 36 44 31 36 36 53 53 53 53 36 53 36 53 53 36 53 36 36 53 44 53 31 53 35 53 3 53 36 31 36 53 53 36 35 53 36 36 31 53 36 35 53 31 36 36 36 53 36 32 25 53 53 36 25 53 9 53 36 53 36 53 41 31 53 53 44 36 53 49 25 31 31 27 31 53 53 31 8 3 13 36 53 46 53 36 53 46 46 27 50 27 32 53 31 34 36 27 36 33 42 53 35 35 36 31 53 13
split_gain=673.27 148.472 99.522 30.8937 20.5994 8.75722 4.28779 3.93765 3.17951 2.31512 1.48897 1.68027 1.19768 0.829142 0.741064 0.676494 0.664514 0.595399 0.40015 0.384796 0.378469 0.352027 0.341468 0.328312 0.254841 0.252413 0.241105 0.238441 0.22998 0.253196 0.225017 0.218485 0.185358 0.168352 0.160456 0.158887 0.156487 0.154527 0.154501 0.150248 0.149725 0.0997483 0.098336 0.0949627 0.0931239 0.088716 0.0867158 0.0841506 0.0789844 0.0757748 0.0752461 0.0751231 0.0736572 0.0702253 0.0682868 0.0680024 0.0679592 0.0606131 0.0524464 0.0519294 0.049186 0.0456207 0.0454685 0.0448774 0.0416467 0.0404718 0.039748 0.0393938 0.0376029 0.0369773 0.0366775 0.0352982 0.0332153 0.0384655 0.033016 0.0450117 0.0353464 0.0486421 0.0323535 0.0314768 0.0304589 0.0303969 0.0303161 0.0298325 0.0290064 0.0270365 0.0252943 0.026656 0.0252517 0.0245374 0.0238402 0.0236445 0.0228747 0.0223359 0.021819 0.0217036 0.021301 0.0209567 0.0199109 0.0198696 0.0196244 0.0191626 0.0186097 0.0162274 0.0157646 0.0155401 0.0153389 0.0151488 0.0150487 0.0148201 0.0178012 0.0147685 0.0186232 0.0146993 0.0146711 0.0146013 0.0142966 0.0142215 0.0218668 0.0141075 0.0137423 0.0128587 0.0126026 0.011824 0.0118199 0.0116079
threshold=0 0.11210864673472405 0.71571701445199476 1 0.048472016521707066 0.53642798858217888 0.8613487407341921 0.077188672688687426 0.15565078711003574 0.024737924875468682 0.27182720620383238 1.5000000000000002 0.39474594999527174 0.61184019034905468 0.036574315795593573 0.033915650255092501 2 0.059293003572101155 0.13317254510257828 0.092580925893581231 0.046838110119523664 0.12391137369488282 0.17944614185085911 0.14484120909532647 0.059460895917078503 0.008177134814889719 0.020351155620286398 0.03562442151694388 0.067490379109542739 0.024933600036922906 0.48442152780440739 0.043670870516737952 0.042028325360497699 0.14001195248687118 0.036161131533507841 0.045671156345909264 0.017302592403504524 0.048226825377067108 0.052213295879762908 0.048226825377067108 0.064688633398621451 0.079883989260352381 0.069740577132634193 0.034747764549713824 1297.5000000000002 0.014430501476722016 0.21572746518360203 0.080908756626699926 0.61277168221827272 0.047326379899906131 0.042028325360497699 0.28297254835057817 0.063293835617736383 0.022916594651574054 0.027407631229393419 0.21023085869038965 0.082129036092943822 0.0386470988629007 0.065122078579745904 0.031887546034498157 0.10933145404696473 0.11355075518444997 0.29459283502398287 0.063608361488603868 0.03132548135250432 0.055603063991668984 0.12339736206619752 0.081361776674842165 3 0.079883989260352381 0.030591475950150319 0.12529882687647464 4 0.029593919172162478 -0.63405362205439475 0.028589294666714473 0.084380953590054666 0.048226825377067108 0.02937576098491498 0.031970404366335671 0.087774601669973237 0.18742762144869402 0.010326721361927544 0.028589294666714473 0.030532698948223504 0.067490379109542739 0.031629051136237672 0.03301451138469718 5 0.12778421895630715 0.12976568900771043 0.12408640403728012 0.10916800996546004 0.049843054825256458 0.029593919172162478 0.067879695321236624 0.78656609248549303 1267.5000000000002 -5.4547119140624991 0.045671156345909264 0.039771676489787744 0.046134315502902631 0.024444138547342242 0.026630050376399851 0.049843054825256458 0.080552588208188822 0.033672496670535158 0.013246283985331201 0.04971957413990901 0.11905745103839767 0.072422777844165051 0.051063823924207573 0.16831394877567743 0.034785517215972117 0.090222765154113704 0.8239640168162502 0.092580925893581231 0.017340855173450711 0.054698538019932692 0.13317254510257828 0.074460368781719868 0.10290268389222244 0.021425548540224035 0.10478698160953291 0.025346224845284034 -5.4217529296874991
decision_type=9 2 2 9 10 2 2 2 2 10 2 2 2 8 2 2 9 2 2 2 2 10 2 2 2 2 2 2 2 2 2 2 2 2 2 2 2 2 2 2 10 2 2 2 2 2 2 10 2 2 2 2 2 2 2 2 8 2 2 2 2 10 2 2 2 2 2 8 9 2 2 2 9 2 2 2 2 2 2 2 2 10 2 2 2 2 2 2 9 10 10 8 10 2 2 10 2 2 2 2 2 2 2 2 2 2 2 10 2 8 10 2 10 10 2 10 2 8 2 2 2 2 2 10 2 2
left_child=2 4 5 8 9 12 115 17 21 20 23 62 39 -7 26 -8 -9 27 30 52 25 56 34 31 55 36 54 35 29 45 41 -5 47 66 89 53 -2 46 59 -1 79 -14 83 94 61 84 -25 85 -15 99 64 60 98 78 82 57 -3 -24 -22 116 -26 68 -12 100 -31 71 120 80 70 -36 -44 88 73 -54 -61 -76 77 -77 -6 -21 -34 104 -11 -42 -27 -19 -63 -88 121 -10 114 -67 -49 108 -28 -37 -81 -65 -18 -29 -40 -85 -94 -38 -68 -90 -55 -78 -70 110 -72 -35 -113 -82 125 -4 -16 -60 -119 -41 -23 -58 -47 124 -73 -74
right_child=1 3 6 10 7 13 15 16 22 14 11 -13 18 48 38 -17 19 32 -20 40 58 33 24 37 51 28 43 49 -30 50 -32 -33 67 111 69 95 103 -39 63 119 42 -43 44 -45 -46 122 -48 92 -50 -51 -52 -53 72 106 -56 -57 65 -59 117 74 -62 86 -64 97 -66 91 81 -69 93 -71 109 123 90 -75 75 76 107 -79 -80 96 113 -83 -84 101 -86 -87 87 -89 105 -91 -92 -93 102 -95 -96 -97 -98 -99 -100 -101 -102 -103 -104 -105 -106 -107 -108 -109 -110 -111 -112 112 -114 -115 -116 -117 -118 118 -120 -121 -122 -123 -124 -125 -126 -127
leaf_value=0.10740751773920211 0.089011298156119995 0.093515221698961343 0.12705606570388187 0.094824744282077253 0.089958416436200117 0.11687703069991795 0.13831318919602925 0.10118718934179675 0.095659781673483643 0.08945066383931545 0.1026254982364745 0.11667958855000427 0.11042814283373822 0.11822254448381829 0.090371609457884652 0.13358194545280899 0.090922958582651883 0.091597301907199419 0.11769368540545855 0.092981755356063955 0.090426969963649989 0.09327099488805185 0.097646716268936062 0.10030986904876943 0.095887013411051464 0.089444610519875484 0.090609385999969996 0.09320214962235443 0.089020932663419705 0.091616946815497299 0.11339619443033193 0.10055892268867385 0.094452452778985702 0.095911706254039192 0.095585001307745984 0.091183021475639392 0.089511347243147299 0.10232162723053341 0.091032252677629086 0.10919267202321387 0.093355607238137281 0.1131525679769132 0.093684495018929975 0.093205762796081781 0.095522499305863179 0.090184637795141326 0.10142910003382843 0.092261298936715225 0.12284008558160714 0.094528956752972085 0.093426882048518567 0.097532051876829368 0.093057132220480801 0.090502401318928422 0.090068865280717766 0.098176219907800996 0.094499928839474084 0.096523066658988813 0.090903542619627686 0.090343463226341528 0.093516424472777401 0.093919993125723356 0.10369059389206554 0.091609451215088428 0.090229294550852407 0.094035972891905864 0.095098490215837383 0.095032768497688117 0.093108332661788765 0.093205762796081781 0.093531141331974529 0.094904443668726343 0.092078723029856188 0.09413065387041418 0.090774512000018626 0.09164602985138616 0.08943900827241992 0.093823780473082999 0.090618404869388436 0.090714965609566975 0.093433812306717628 0.096485025363267363 0.089866767528659589 0.091649132034541975 0.089993248541326412 0.091943957973402074 0.093205762796081781 0.094969865613204196 0.093533540489349601 0.096849166154163432 0.093648603566548735 0.091776762470474879 0.092413486129807695 0.092014786404545301 0.091748720141352172 0.091598408434201334 0.09245761421126264 0.092868516280726676 0.092413644496354141 0.091857630242705504 0.092931757145200869 0.092942858153357621 0.093620810406764315 0.090084649395546626 0.093782198882679385 0.094190729749003207 0.091477644141489581 0.091236031425018377 0.093586287593311987 0.093366554743093272 0.095248698939721807 0.093662811889334077 0.095769633663242579 0.091947241521369502 0.093197921645329862 0.13059618182130595 0.089379944217992141 0.093205762796081781 0.091612987909924795 0.11242300461278826 0.094572198795464843 0.095375647334533326 0.089792363718748866 0.095001791656519785 0.094033536168563678 0.092732976189200511
leaf_weight=227 5839 227 134 36 337 202 400 26 76 1338 276 25 391 33 791 140 27 1412 34 78 317 30 719 368 204 4120 565 48 1749 131 166 36 31 830 361 1995 1106 403 846 301 472 73 424 41 83 696 694 588 136 47 29 78 362 76 2145 623 253 197 55 459 30 404 715 437 134 24 759 42 225 21 27 99 88 107 1675 156 26 27 979 46 20 49 1265 43 405 1327 31 147 147 772 72 21 61 28 69 546 46 47 814 102 20 128 62 300 35 422 307 77 495 27 90 28 28 40 174 58 73 31 70 23 390 82 1082 419 125 909
leaf_count=227 5839 227 134 36 337 202 400 26 76 1338 276 25 391 33 791 140 27 1412 34 78 317 30 719 368 204 4120 565 48 1749 131 166 36 31 830 361 1995 1106 403 846 301 472 73 424 41 83 696 694 588 136 47 29 78 362 76 2145 623 253 197 55 459 30 404 715 437 134 24 759 42 225 21 27 99 88 107 1675 156 26 27 979 46 20 49 1265 43 405 1327 31 147 147 772 72 21 61 28 69 546 46 47 814 102 20 128 62 300 35 422 307 77 495 27 90 28 28 40 174 58 73 31 70 23 390 82 1082 419 125 909
internal_value=0.0931848 0.0919419 0.119517 0.0975183 0.0905867 0.11247 0.134772 0.0921815 0.0958105 0.0897691 0.102232 0.103734 0.110402 0.119224 0.0903661 0.137104 0.0932281 0.0914798 0.111874 0.0931901 0.0893957 0.0948724 0.0970168 0.101235 0.097454 0.0893529 0.0899667 0.091091 0.0895466 0.0896867 0.111548 0.0977674 0.0919627 0.0953086 0.0963546 0.0910118 0.0891306 0.101401 0.0908345 0.108616 0.0935946 0.110872 0.0936891 0.090876 0.0938637 0.0896187 0.101047 0.0918916 0.121983 0.0928227 0.0911622 0.0961038 0.0927455 0.0906283 0.0898386 0.0977243 0.0943544 0.0974109 0.0908181 0.0906448 0.0956047 0.0937884 0.1034 0.0912999 0.0908955 0.0944708 0.0949262 0.0937678 0.0936186 0.0954658 0.0939241 0.0945142 0.0929381 0.0932897 0.0907767 0.0908808 0.0915214 0.0919948 0.0904454 0.0921663 0.0932058 0.0951367 0.0896508 0.0931591 0.0894925 0.0917634 0.0941636 0.0946877 0.0942949 0.0967488 0.0928039 0.0930917 0.0923928 0.093368 0.0907252 0.0912702 0.0915302 0.0917213 0.0923596 0.0922543 0.0910703 0.0925876 0.0930625 0.0896299 0.0950468 0.0940156 0.0912704 0.0907307 0.09343 0.094644 0.0948957 0.0958478 0.094808 0.0925255 0.0927443 0.12817 0.0902816 0.0916462 0.092102 0.109443 0.0944912 0.0946856 0.0899429 0.0948145 0.0944413 0.0926701
internal_weight=51434 49116 2318 9602 39514 1586 732 13393 7049 26121 2553 1016 1215 371 10057 540 5373 8020 664 5347 16064 3968 3081 1537 1851 15591 5423 4437 8346 6597 630 72 3583 2149 1230 4240 7245 1465 4634 551 2794 464 2624 675 1981 6303 1062 3450 169 197 294 312 2553 1699 4748 1539 1819 916 473 3284 234 1898 991 1350 265 1592 1263 133 1316 382 568 1547 1712 469 2420 1961 286 183 1316 170 91 843 2603 643 4525 2739 582 178 904 848 1243 45 711 748 634 2541 92 484 841 150 866 171 123 1406 794 569 383 103 720 144 117 886 56 60 1171 192 864 156 101 324 420 335 1778 643 224 997
internal_count=51434 49116 2318 9602 39514 1586 732 13393 7049 26121 2553 1016 1215 371 10057 540 5373 8020 664 5347 16064 3968 3081 1537 1851 15591 5423 4437 8346 6597 630 72 3583 2149 1230 4240 7245 1465 4634 551 2794 464 2624 675 1981 6303 1062 3450 169 197 294 312 2553 1699 4748 1539 1819 916 473 3284 234 1898 991 1350 265 1592 1263 133 1316 382 568 1547 1712 469 2420 1961 286 183 1316 170 91 843 2603 643 4525 2739 582 178 904 848 1243 45 711 748 634 2541 92 484 841 150 866 171 123 1406 794 569 383 103 720 144 117 886 56 60 1171 192 864 156 101 324 420 335 1778 643 224 997
cat_boundaries=0 1 2 3 6 9 12
cat_threshold=1 2 4 1845497199 134217776 2693888 4160815512 134873132 537133824 905970390 5 461312
is_linear=0
shrinkage=1


Tree=1
num_leaves=127
num_cat=6
split_feature=17 36 26 17 26 36 36 36 36 26 36 15 26 36 17 44 53 26 53 26 26 36 26 26 53 36 53 36 53 26 36 53 36 36 36 36 53 53 53 53 53 44 26 36 53 36 35 43 36 26 36 53 26 26 36 53 36 36 52 36 36 25 53 36 33 43 25 43 53 35 53 53 36 43 36 53 52 53 35 8 43 36 53 36 26 53 35 53 53 53 26 44 26 44 28 26 53 52 53 26 52 52 3 28 53 25 52 36 2 49 43 47 48 36 2 36 47 36 36 35 35 35 26 39 44 53
split_gain=607.728 134.043 89.9818 27.88 19.1981 6.66945 5.72513 3.03072 2.8736 2.38693 1.34202 1.51551 1.08893 0.685745 0.592487 0.56204 0.526792 0.516194 0.509109 0.499595 0.443655 0.400856 0.396227 0.357571 0.318548 0.294078 0.276106 0.260836 0.263998 0.215372 0.205252 0.196376 0.164348 0.151 0.150732 0.149259 0.137847 0.12147 0.115764 0.114493 0.109775 0.107989 0.0982547 0.0923616 0.0908464 0.0987447 0.0838085 0.0794855 0.0767632 0.0757153 0.0754086 0.0770333 0.0718861 0.0639764 0.0637585 0.053999 0.0503446 0.0482609 0.0473142 0.0465128 0.0452001 0.0450558 0.0410424 0.0390823 0.0359603 0.0354953 0.0337092 0.0318443 0.0314916 0.0312747 0.0305298 0.0300327 0.0294386 0.0288003 0.0285711 0.0284698 0.0279881 0.0274103 0.0272672 0.0269702 0.0267717 0.0263211 0.0258063 0.0258033 0.0258002 0.02503 0.0271465 0.0246056 0.0245941 0.0240966 0.0217371 0.0214017 0.0212722 0.0212373 0.0206658 0.0205225 0.0201243 0.0198513 0.0194455 0.018546 0.0181578 0.017919 0.0176627 0.0174929 0.0174106 0.0163838 0.016354 0.0158726 0.0157935 0.015107 0.0150091 0.0147067 0.0171225 0.0146761 0.0145048 0.0143763 0.0140358 0.0140163 0.013831 0.0135785 0.0132225 0.0127748 0.0120817 0.0152057 0.0119714 0.0119297
threshold=0 0.11210864673472405 0.69657656415380853 1 0.051193627533549807 0.53642798858217888 0.8613487407341921 0.077188672688687426 0.15851127294140613 0.026572814015948003 0.27182720620383238 1.5000000000000002 0.45683022011486096 0.041911562128754375 2 0.047489985859957111 0.039771676489787744 0.54173927679510192 0.019114005919556403 0.82083091826915056 0.12737934405845763 0.059293003572101155 0.092324806305953161 0.16697149798103028 0.008177134814889719 0.14484120909532647 0.028318211037032148 0.092580925893581231 0.018000640751069021 0.3801399541258354 0.61277168221827272 0.043670870516737952 0.71571701445199476 0.017302592403504524 0.092580925893581231 0.14001195248687118 0.048226825377067108 0.036161131533507841 0.031629051136237672 0.031970404366335671 0.049843054825256458 0.057269319204458456 0.095714963401721656 0.047862357737420265 0.04286670583797289 0.18714490542858722 0.069740577132634193 0.067370564815459666 0.21572746518360203 0.086794570976241006 0.030538091510478437 0.022173976311877053 0.54173927679510192 0.21379771059289956 0.081157848383733563 0.075216291218679524 0.033834737876187022 0.39474594999527174 75.500000000000014 0.031700764768887203 0.12339736206619752 3 0.028075407971652859 0.29459283502398287 0.035362226823366739 0.095188899367008653 4 0.10724524431938752 0.053979608893080754 0.031887546034498157 0.051063823924207573 0.064157178001221726 0.19148867733611843 0.05991783160343566 0.020428698581935571 0.02050459165407446 75.500000000000014 0.048226825377067108 0.048910411527155272 -0.70710678118654757 0.054454305807902982 0.17190051949533083 0.035213014741456279 0.080121548916914601 0.12024921340747187 0.023899128184248768 0.090032427046006572 0.030994122751461305 0.0165431312840645 0.0386470988629007 0.0073565982136645008 0.4385008528791165 0.12197495152989211 0.029754747071449251 0.065917169046094765 0.079185309422567865 0.030591475950150319 66.500000000000014 0.01345499436497173 0.17663763903888466 65.500000000000014 67.500000000000014 277.50000000000006 0.097468042173385214 0.048226825377067108 5 62.500000000000007 0.088950743612502617 1.0000000180025095e-35 0.029728902647687901 0.04348854171564788 0.056790016709509034 0.076573819572340898 0.090222765154113704 1.0000000180025095e-35 0.053102786305898105 0.046839042874235834 0.093208001414448002 0.028585723910158619 0.080370741546337596 0.025426667594613511 0.045065367376593626 0.19509990569877458 0.062245125965502669 0.18156784188233518 0.044505901102937361
decision_type=9 2 10 9 10 2 2 2 2 10 2 2 10 2 9 2 2 8 2 10 10 2 10 10 2 2 2 2 2 10 2 2 2 2 2 2 2 2 2 2 2 2 10 2 2 2 2 2 2 10 2 2 10 10 2 2 2 2 2 2 2 9 2 2 10 2 9 2 2 2 2 2 2 2 2 2 2 2 2 2 2 2 2 2 10 2 2 2 2 2 10 2 10 2 8 10 2 2 2 10 2 2 2 8 2 9 2 2 2 2 2 2 2 2 2 2 2 2 2 2 2 2 10 2 2 2
left_child=2 4 5 8 9 12 19 16 20 15 25 63 29 26 -9 24 21 -7 -8 32 42 43 47 37 33 31 50 28 59 104 -19 -5 -4 -2 66 67 48 -10 105 74 73 69 70 62 45 -25 101 75 -27 78 51 88 57 81 -17 72 125 -14 79 98 119 85 93 -12 -42 97 106 77 103 -15 94 91 -39 115 -30 117 124 -22 -23 -48 -56 -46 -68 -43 -57 107 -87 110 -11 -28 -76 -31 -51 -6 -3 -63 -71 -37 -26 -67 -89 -40 -98 -62 -1 -36 -24 -49 -88 -60 -45 -81 -113 -97 -64 -18 -75 -16 -35 -44 -52 -77 123 -69 -55 -41
right_child=1 3 6 10 7 17 18 14 23 13 11 -13 52 41 22 54 40 30 -20 -21 35 49 34 44 27 36 89 -29 39 71 -32 -33 -34 118 38 65 -38 55 46 56 64 83 60 87 53 -47 58 61 -50 92 120 -53 -54 76 80 84 -58 -59 109 -61 68 95 114 -65 -66 99 82 122 -70 96 -72 -73 -74 116 90 121 -78 -79 -80 111 -82 -83 -84 -85 -86 86 108 100 -90 -91 -92 -93 -94 -95 -96 113 102 -99 -100 -101 -102 -103 -104 -105 -106 -107 -108 -109 -110 -111 -112 112 -114 -115 -116 -117 -118 -119 -120 -121 -122 -123 -124 -125 -126 -127
leaf_value=0.01353734835850454 -0.0039811562298962943 0 0.02799346029513838 0.0015382566501855994 -0.0026945691682747535 0.02055614896279323 0.043043072518003211 0.0075838845037637537 0.0034176479155534258 -0.0032846960658711316 0.0089489190583210056 0.022304809978046264 0.015070450390845622 -0.0026772002490017097 -0.00064781047281566571 -0.0025046845362409406 0 0.023257917702256988 0.03904827633339053 0.036175035216619689 0.0015665174515741697 -0.0015793999558885087 -0.0016239143279156499 0.003767185916490853 -0.0035705721239603981 0.0067489977155859391 -0.00083860812653978106 -0.0039648695807657855 -0.0023378834925153968 0.014925262888619837 0.026981216548344001 0.0069865204951109318 0.032438345514357925 -0.0034917532138391133 0.00025295868099712882 0.00049539984989367778 0.0086601844964504134 0.0020999179086507716 -0.0010190533083651611 -0.0008116741399642396 0.0032372980821540626 -0.0017190106051397217 0.00048945687699305531 -0.0019882857087929634 0.0006012502684725903 0.0046873981264648028 0.0020030618145245728 -0.00047043734337326752 0.0078122295159081742 -0.00076450505714437274 -0.0030803928828185023 -0.0016942102944589679 0.020348388415593638 0.0015000280977659351 -0.0027960337917376085 0 -0.0021945376247095188 0.018380473434577767 0.00066306096439854511 -0.0029949918562959107 0.0011244509275651739 -0.00066632250262750538 -0.00077663422681524758 0.0099606628685360299 0.00088373460005443263 0.0025963084964589918 0 0.0012979333072834977 -9.6421073874610372e-05 -0.0021783131410205493 -0.00031591950815063182 0.017280717150605047 0.0031938955662031789 0 -0.0033514644254793308 -0.0017960922541204426 0.0043170456362998577 9.5924618179511065e-05 -0.0011826752334701705 -0.00047492024562789046 -0.00082391850950987275 0.0028721448720033303 0.00084415991410418929 -0.001038063615447012 0.0018394999188321914 0 0 -0.0018306884725933469 -0.0027771480359705973 0.00087045110719610795 -0.0027730852284116071 0.016971519624770209 0.00028591369723582788 -0.0021877380323556436 0.00084081666517545691 -0.00051941207650309522 -0.00025388451534176661 0.0021695985437105254 -0.0032878726815095006 0.0033394259376961647 -0.00040605086357744461 0.0005751921883195431 -0.0017580457439979548 0.001775072783405534 0.014911800965067466 0.00063813760216575562 -0.00034855433079909146 0.00014073109399016567 0.0014034614453425375 0.0024625315418856254 -0.0016207834053630736 0.001653488299075363 0 6.7065331966350021e-05 -0.001814768726070714 -0.0012325295699129714 0.0011098218303848594 1.2565340919463e-05 -0.0028990133877768182 0.0011053420537954211 -0.0026722656603150059 -0.00095767872674090812 0.0033329420803031558 0.0021319997457276722 0.0034034058214765608 0.00049239574764757901
leaf_weight=192 6171 103 73 36 401 88 364 26 513 2320 276 25 35 382 369 767 30 101 172 77 646 755 31 592 3984 368 91 1875 301 183 148 36 93 1382 567 28 403 244 30 58 43 910 153 632 20 824 46 190 694 611 449 102 96 21 25 37 102 223 21 680 189 492 68 715 38 543 514 105 22 1844 88 137 125 46 403 74 221 41 1643 26 108 176 110 215 35 129 29 40 436 24 690 80 45 1175 366 176 31 223 1446 181 81 41 177 572 256 822 291 223 86 180 1165 32 29 240 162 51 53 84 232 461 2035 357 29 405 86 20
leaf_count=192 6171 103 73 36 401 88 364 26 513 2320 276 25 35 382 369 767 30 101 172 77 646 755 31 592 3984 368 91 1875 301 183 148 36 93 1382 567 28 403 244 30 58 43 910 153 632 20 824 46 190 694 611 449 102 96 21 25 37 102 223 21 680 189 492 68 715 38 543 514 105 22 1844 88 137 125 46 403 74 221 41 1643 26 108 176 110 215 35 129 29 40 436 24 690 80 45 1175 366 176 31 223 1446 181 81 41 177 572 256 822 291 223 86 180 1165 32 29 240 162 51 53 84 232 461 2035 357 29 405 86 20
internal_value=-1.98415e-05 -0.00120067 0.0249976 0.00409787 -0.00248837 0.0179808 0.0388495 -0.00084401 0.00247539 -0.00322736 0.00857544 0.0100025 0.0162224 -0.00255976 6.86239e-05 -0.00355698 -0.00152086 0.0242311 0.041778 0.0323547 0.00163064 -0.00160596 2.98589e-05 0.00368639 -0.00362074 0.00762829 -0.00291401 -0.00342255 -0.00328951 0.0152115 0.025501 0.00433765 0.0305318 -0.0038634 0.000443818 0.00211982 0.00778629 0.00287527 0.000713334 -0.00269674 0.000669717 -0.00201511 0.00107698 -0.00195622 0.00408252 0.0043065 0.00146338 -0.000431246 0.00744918 -0.00117716 -0.00296637 -0.00315416 0.0186251 0.003467 -0.00232262 0.00223237 -0.00145099 0.0179568 0.00179542 -0.00344135 0.00130315 -0.000212789 -0.00222228 0.00968486 0.00219726 0.00259233 -6.2031e-05 0.00173978 0.0015656 -0.00220789 0.00050063 0.0161745 0.00248482 0 -0.0028539 -0.00081227 0.00392924 0.00148606 -0.00130973 0.000994408 -0.001234 0.00266634 0.000147107 -0.00159342 0.000867582 9.77777e-05 0.000504959 -0.00170299 -0.00320632 -0.000438048 -0.0029912 0.0155729 -0.000684796 -0.00232003 0.000664536 -0.000439237 -0.00211796 0.00200302 -0.00349627 0.00278943 -0.000919416 -2.8595e-05 -0.00155812 0.00162022 0.0143371 0.000490949 -0.000472653 -0.000128378 0.0010632 0.00229981 -0.00175292 0.000402004 0.000857774 -0.000169109 -0.00153004 -0.000716949 0.000553075 -0.000514346 -0.00340983 0.000960119 -0.00274817 -0.00111361 0.00205356 0.00197037 0.00307828 -0.000413074
internal_weight=51434 49116 2318 9602 39514 1539 779 12254 7049 27260 2553 1016 1202 9016 5215 18244 7039 337 536 243 4155 6778 5189 2894 17344 1537 5457 9559 7684 848 249 72 166 7785 2740 2201 1465 954 1794 1574 261 3559 1954 3724 1940 1416 405 2449 1062 3054 5342 2858 354 524 900 441 180 258 334 6110 1397 1565 1806 991 81 975 946 1226 783 2434 557 400 369 180 1394 884 328 687 2398 133 133 196 624 1125 72 657 244 1918 2756 115 1093 263 656 1576 469 908 2052 251 5430 724 121 71 208 761 448 1389 322 413 115 201 1797 87 61 416 230 81 99 453 1614 614 2484 431 539 510 107 78
internal_count=51434 49116 2318 9602 39514 1539 779 12254 7049 27260 2553 1016 1202 9016 5215 18244 7039 337 536 243 4155 6778 5189 2894 17344 1537 5457 9559 7684 848 249 72 166 7785 2740 2201 1465 954 1794 1574 261 3559 1954 3724 1940 1416 405 2449 1062 3054 5342 2858 354 524 900 441 180 258 334 6110 1397 1565 1806 991 81 975 946 1226 783 2434 557 400 369 180 1394 884 328 687 2398 133 133 196 624 1125 72 657 244 1918 2756 115 1093 263 656 1576 469 908 2052 251 5430 724 121 71 208 761 448 1389 322 413 115 201 1797 87 61 416 230 81 99 453 1614 614 2484 431 539 510 107 78
cat_boundaries=0 1 2 3 6 9 12
cat_threshold=1 2 4 4093681528 8937535 805916928 604026692 451 5772288 1258344526 524362 26669568
is_linear=0
shrinkage=0.05


Tree=2
num_leaves=127
num_cat=10
split_feature=17 36 36 17 31 36 36 36 36 31 36 15 36 31 36 53 17 36 36 36 53 31 36 53 53 53 53 53 53 53 36 53 36 53 53 36 53 35 35 31 53 36 53 31 3 31 36 53 36 36 35 21 36 36 36 53 36 53 53 53 25 25 53 25 36 53 27 36 22 52 53 36 31 52 36 36 53 53 31 21 36 53 27 2 53 31 52 27 53 27 53 22 53 2 27 53 3 3 53 53 36 53 42 43 36 36 43 36 3 3 52 2 53 53 32 36 53 35 52 2 53 52 53 53 52 53
split_gain=548.58 121.017 81.1299 26.7351 15.2902 7.11677 3.45875 3.06483 2.73082 1.88955 1.231 1.36681 0.986252 0.679014 0.593448 0.54532 0.515484 0.351818 0.342603 0.335081 0.330112 0.324847 0.302711 0.270848 0.264106 0.213956 0.211502 0.199695 0.19803 0.186772 0.184352 0.176174 0.163962 0.148977 0.124042 0.123285 0.119236 0.114623 0.10353 0.0980706 0.0880393 0.0871594 0.0775464 0.0755906 0.085643 0.071534 0.0679093 0.0657471 0.0653961 0.0614081 0.0588841 0.0597958 0.0579753 0.0545778 0.0543918 0.050975 0.0503496 0.0499975 0.0492621 0.0484624 0.0468808 0.0446889 0.057306 0.0436863 0.0426397 0.0404479 0.0383734 0.0378177 0.0356015 0.0340099 0.0340092 0.0334169 0.0312879 0.0293741 0.0290366 0.033414 0.0280759 0.0276233 0.0273756 0.0258022 0.0251566 0.0245151 0.0242854 0.0237124 0.029368 0.0232315 0.0223125 0.0218853 0.0215093 0.0212909 0.0279129 0.0207857 0.0262668 0.0232962 0.0240984 0.0199083 0.0199043 0.0272692 0.0217149 0.0196605 0.019575 0.0517003 0.0191242 0.0190044 0.0187988 0.0187292 0.0182216 0.0182145 0.0173865 0.0172216 0.0171763 0.0171455 0.0169453 0.0164328 0.0158616 0.015746 0.0152231 0.0150844 0.0149395 0.0147538 0.0156013 0.0145218 0.0142818 0.0139524 0.0133328 0.0132321
threshold=0 0.10762459109402552 0.71571701445199476 1 0.048472016521707066 0.53642798858217888 0.8613487407341921 0.15262600470949689 0.072547042497008246 0.024737924875468682 0.27182720620383238 1.5000000000000002 0.39474594999527174 0.61184019034905468 0.036133580824947172 0.033915650255092501 2 0.090222765154113704 0.17944614185085911 0.051423694978585795 0.13317254510257828 0.12391137369488282 0.14484120909532647 0.0092128144023305904 0.13317254510257828 0.018300770030054207 0.059460895917078503 0.043670870516737952 0.020351155620286398 0.048226825377067108 0.48442152780440739 0.03562442151694388 0.01943422657914445 0.037376896677425282 0.045446275746087839 0.14001195248687118 0.048226825377067108 0.069740577132634193 0.035310510200873731 0.067879695321236624 0.096144647888577781 0.04097030371057158 0.034747764549713824 0.061663981376210784 1297.5000000000002 0.072349306970373159 0.047862357737420265 0.035213014741456279 0.24672612403803937 0.21572746518360203 0.063293835617736383 3 0.21023085869038965 0.61277168221827272 0.036574315795593573 0.031629051136237672 0.021730507569585205 0.028318211037032148 0.0386470988629007 0.019243691245519456 4 5 0.024933600036922906 6 0.1216720410572706 0.022916594651574054 0.0039984091484271513 0.032964015796345038 7 65.500000000000014 0.042028325360497699 0.29459283502398287 0.091510559021889634 53.500000000000007 0.062818349923909764 0.024394855640977226 0.014124253381670461 0.045446275746087839 0.18742762144869402 8 0.033834737876187022 0.10933145404696473 0.17912991265427639 1.0000000180025095e-35 0.024259561371461954 0.12582616939077843 56.500000000000007 0.11612912653933542 0.057450451801481429 0.086423740353756467 0.045446275746087839 9 0.024049376276472283 1.0000000180025095e-35 0.087569072277066104 0.022173976311877053 1297.5000000000002 862.50000000000011 0.030265150312044312 0.079883989260352381 0.060654385390739168 0.040499347102940404 0.16211377411279845 0.036493461787804153 0.065883208569151294 0.062818349923909764 0.088339168558153006 0.010323674564971486 862.50000000000011 982.50000000000011 86.500000000000014 1.0000000180025095e-35 0.029593919172162478 0.047326379899906131 0.070991217132917214 0.092580925893581231 0.019376519545751897 0.11516769645200937 71.500000000000014 1.0000000180025095e-35 0.022324080563965867 76.500000000000014 0.0055664380502035539 0.13317254510257828 70.500000000000014 0.030994122751461305
decision_type=9 2 2 9 10 2 2 2 2 10 2 2 2 8 2 2 9 2 2 2 2 10 2 2 2 2 2 2 2 2 2 2 2 2 2 2 2 2 2 10 2 2 2 10 2 8 2 2 2 2 2 9 2 2 2 2 2 2 2 2 9 9 2 9 2 2 10 2 9 2 2 2 10 2 2 2 2 2 10 9 2 2 10 2 2 10 2 8 2 8 2 9 2 2 10 2 2 2 2 2 2 2 2 2 2 2 2 2 2 2 2 2 2 2 10 2 2 2 2 2 2 2 2 2 2 2
left_child=2 4 5 7 9 12 -4 21 19 23 22 71 36 -7 28 -8 -10 50 33 31 30 45 27 32 25 41 52 -5 56 39 40 54 107 85 49 64 -1 55 115 69 -14 -25 112 110 61 86 57 74 81 -24 79 -52 58 -15 59 -19 76 -40 -20 -6 106 62 -45 70 121 -62 88 -49 -67 -21 116 -12 -35 -31 75 95 -11 111 108 -18 -34 -28 109 84 -41 -9 -3 -57 -48 90 -70 -65 -93 -94 -95 -27 97 98 -71 117 101 -68 113 -81 -43 -85 -47 122 -66 -63 -39 -33 -30 114 -64 -16 -53 -74 -86 120 -56 124 -2 -102 -23 -111
right_child=1 3 6 10 8 13 15 18 16 14 11 -13 20 53 38 -17 17 37 26 29 -22 35 34 24 -26 47 48 -29 42 73 -32 77 80 72 -36 -37 -38 43 46 83 -42 104 -44 44 -46 60 66 67 -50 -51 51 63 -54 -55 119 87 -58 -59 -60 -61 65 82 102 91 78 68 100 -69 89 96 -72 -73 99 -75 -76 -77 -78 -79 -80 103 -82 -83 -84 105 118 -87 -88 -89 -90 -91 -92 92 93 94 -96 -97 -98 -99 -100 -101 123 -103 -104 -105 -106 -107 -108 -109 -110 125 -112 -113 -114 -115 -116 -117 -118 -119 -120 -121 -122 -123 -124 -125 -126 -127
leaf_value=0.012798411533308679 -0.00393469420409684 -0.0014915323296150603 0.031581180260741172 0.0014138164769502779 -0.0028027127603617277 0.021341925567474065 0.040720482891245323 0.0021707892400151568 0.0072731971934244235 -0.0034311091946629779 0.0085016357115065434 0.0211940123265483 0.01565233305693231 0.022586815072690614 -0.0024615751533405561 0.036423005028591256 -0.00028791140310643616 -6.2579522122720776e-05 0.0040104140054826702 -0.0020032794377200579 0.022183109317357241 0.001001736329297828 0.0063388505270641788 -0.0032674771509854672 -0.0037791675151990175 -0.0025713687674064848 0.0021739367124350788 0.0066421259489968009 -0.0023372825996578199 0 0.018253786704003416 0.00013675800551918714 -0.003212925132924991 0 0.0081207625203821229 0.0023422462332219648 0.014646960371477081 -0.0018454371109138041 -0.0023117303584480626 -0.0010302026717436787 0.019096154721599385 -0.0023822363830937848 0 0.00034532351778758367 0.0020599590916488622 0.00096438650719616085 -0.001979361769200451 0 0.0035380226549966464 0.0073653386444647688 -0.0010169691711120951 -0.00033841716574286099 0.0045067567951634071 0.026759266998950045 -0.001877698198656628 -0.00065278034378520944 -0.0029195913992698316 -0.0011681773299028594 0.0029854380610287441 -0.0018828448757934168 0.0010877429051298435 0.00020775122056784805 0 -0.00065694362318186093 0.0017534790957883838 -0.00028179214235580548 -0.001891286811763289 -0.0018469765498281246 0.00081177177672001597 -0.0014816633523648127 0.0014692324932040054 0.0094626992160524465 0.0014892271636687505 0.0021049205101071333 -0.0015257843803577441 -0.0029159277432485417 -0.0027385660496197246 0.0010410393912227733 0.0030015781570165256 -0.0018152739748632932 -0.0024007954891818754 0.0002091044249955982 0.001895240141051029 -0.0015224990963580796 -0.00075752668962427838 0.0032030653308690888 0.00017377284025238261 -0.0020518776860517633 -0.0035001469059372336 0.00048792910619349167 0.0028681248753884454 -0.00046456019435737864 0.0012256107229570096 0.0005581532573904986 -0.0005995036810911167 -0.0016956030082327452 0 -0.0019711864620681058 -0.0006523362619722643 0.00033818896843757461 -0.0012721303768909017 0.0003807707765556838 0 -0.00091195472869831152 -0.00084842963520957541 -0.0010529924483753594 0.0015269673912600289 -0.0036244474416175865 0.0010484459201757074 -4.3302296077084833e-05 0 -0.0012643314627614147 -0.0013060276826854403 0.0023713455834297164 0.0013108934113018431 -0.0033887291409670571 0.00028135381380030538 0.0023874853939587475 0.00026214945074416691 -0.0021064782926584805 -0.0010592281194138074 0.0012789584630039234 -0.0036238785611590937 -0.0020804031931363877 0 -0.0012881362156554202
leaf_weight=227 2729 23 192 40 575 202 400 93 23 1238 276 25 427 33 1401 140 216 604 719 505 34 74 326 4596 1748 246 162 39 536 23 166 30 1180 22 490 731 324 41 1516 330 37 176 41 487 85 283 93 36 126 649 323 178 623 136 364 127 3146 122 197 249 611 754 29 545 727 112 871 86 89 1774 44 715 105 40 82 652 264 34 49 77 164 24 20 420 59 928 148 45 55 406 25 380 45 85 94 154 24 348 106 23 507 22 29 824 35 745 549 3077 145 87 23 47 69 44 204 80 223 246 83 1295 109 324 1098 88 55 33
leaf_count=227 2729 23 192 40 575 202 400 93 23 1238 276 25 427 33 1401 140 216 604 719 505 34 74 326 4596 1748 246 162 39 536 23 166 30 1180 22 490 731 324 41 1516 330 37 176 41 487 85 283 93 36 126 649 323 178 623 136 364 127 3146 122 197 249 611 754 29 545 727 112 871 86 89 1774 44 715 105 40 82 652 264 34 49 77 164 24 20 420 59 928 148 45 55 406 25 380 45 85 94 154 24 348 106 23 507 22 29 824 35 745 549 3077 145 87 23 47 69 44 204 80 223 246 83 1295 109 324 1098 88 55 33
internal_value=-1.87059e-05 -0.00114061 0.0237501 0.00371329 -0.00240966 0.0173875 0.0375248 0.00222698 -0.00099561 -0.00310431 0.00813459 0.00950305 0.0155218 0.0234782 -0.00256456 0.0396225 -0.000174787 -0.000206141 0.00338511 -0.00164479 0.0168604 0.00135591 0.00723031 -0.00344172 -0.00322491 -0.00306423 0.00384045 0.00406323 -0.0029314 -0.00137506 0.0165617 -0.00208765 -0.0036464 0.00278655 0.0073974 0.00180474 0.0138969 0.000217852 -0.00215503 -0.00141437 0.0159418 -0.0032196 -0.00208557 0.00043427 0.000497279 0.000932967 -0.00199049 -0.0024654 0.00260679 0.00702794 -0.000572804 -0.000399744 0.00408712 0.0259879 -0.00217129 -0.000287737 -0.00304783 -0.00222969 0.00379578 -0.00253107 0.00101405 0.000415462 0.000688053 -0.000263448 0.00151499 0.000784279 -0.00174782 -0.00127719 0.00049527 -0.00160046 0.00014786 0.00920097 0.0019287 0.00128527 -0.0025887 -0.00266665 -0.0033129 -8.94163e-05 0.00172018 -0.000865273 -0.00311773 0.00194753 0.000158556 -0.00109782 -0.000769022 0.00311416 -2.17337e-05 -0.00104886 -0.00258026 0.000664906 0.00130867 -0.000426959 -0.000203906 0.000206875 -2.18562e-05 -0.0022472 -0.00150782 -0.00152327 -0.0014376 0.00203659 -0.00166149 -0.00182968 0.00123936 -0.000983975 -0.00215202 -0.00122666 0.00132582 -0.00374855 0.00164211 0.000114697 -0.00123034 -0.000654132 -0.00222817 0.00136723 0.00115522 -0.00251526 0 0.00213352 -0.000126567 -0.00200064 -0.00169992 0.00108649 -0.00384692 -0.0014004 0.000563722 -0.000428051
internal_weight=51434 49116 2318 10179 38937 1586 732 7619 12829 26108 2560 1016 1215 371 10049 540 5669 5646 3268 7160 664 4351 1544 16059 7811 6063 1851 79 5294 4457 630 2703 8248 1417 1465 2105 551 2612 4755 4394 464 4807 646 1836 1772 2246 3274 1256 312 975 3034 1917 1539 169 2592 776 4648 1638 916 824 2075 1687 793 1594 1374 1243 1636 122 632 2757 445 991 396 63 1134 1052 1502 111 921 1117 1344 186 894 1637 472 1021 171 172 148 520 114 1149 604 224 179 400 2252 2228 1880 374 1488 893 306 901 211 1165 832 6904 872 874 64 77 605 277 233 1481 401 351 142 1768 473 453 3827 595 129 120
internal_count=51434 49116 2318 10179 38937 1586 732 7619 12829 26108 2560 1016 1215 371 10049 540 5669 5646 3268 7160 664 4351 1544 16059 7811 6063 1851 79 5294 4457 630 2703 8248 1417 1465 2105 551 2612 4755 4394 464 4807 646 1836 1772 2246 3274 1256 312 975 3034 1917 1539 169 2592 776 4648 1638 916 824 2075 1687 793 1594 1374 1243 1636 122 632 2757 445 991 396 63 1134 1052 1502 111 921 1117 1344 186 894 1637 472 1021 171 172 148 520 114 1149 604 224 179 400 2252 2228 1880 374 1488 893 306 901 211 1165 832 6904 872 874 64 77 605 277 233 1481 401 351 142 1768 473 453 3827 595 129 120
cat_boundaries=0 1 2 3 40 43 46 49 51 81 83
cat_threshold=1 2 4 0 1073741824 128 0 1056768 0 268435456 1024 0 0 0 0 0 67108864 0 32768 2097152 0 671088640 8388608 1048576 2147483648 0 0 33556480 0 67108992 16384 4 0 0 269485056 0 0 0 0 33554432 102763222 67379222 4477696 1811993452 155189366 38621952 3927968700 28 352256 69207042 8197 0 0 0 1024 33554432 16 671088896 67108864 2147483648 0 0 0 0 0 0 32 0 0 0 65536 0 32768 0 147456 0 2097152 0 0 8 33555456 2183207106 2639912
is_linear=0
shrinkage=0.05


Tree=3
num_leaves=127
num_cat=7
split_feature=17 36 26 17 26 36 26 36 31 36 44 15 26 26 17 26 36 26 53 26 26 36 26 36 44 36 53 53 26 36 53 36 53 26 53 53 36 36 36 26 53 53 53 36 36 44 36 53 43 26 53 26 26 36 53 53 36 35 53 26 36 53 43 9 53 25 53 26 3 36 33 36 35 53 25 36 26 42 53 26 53 43 52 36 53 52 43 9 52 10 53 53 26 43 22 36 2 28 42 36 53 43 53 26 36 36 52 53 25 36 44 44 52 53 53 9 53 36 53 26 53 41 35 47 36 32
split_gain=495.172 109.301 73.5517 22.1968 16.2247 5.36543 4.66835 2.38843 2.21342 2.20796 1.10018 1.24039 0.915085 0.788759 0.477882 0.45488 0.446858 0.430658 0.429864 0.395727 0.339282 0.280687 0.251313 0.217212 0.207268 0.200141 0.192375 0.184311 0.181022 0.145859 0.139225 0.143487 0.137534 0.135361 0.116515 0.114587 0.11157 0.110334 0.10203 0.100329 0.0931712 0.0899569 0.089361 0.0851948 0.0833537 0.0827561 0.0809007 0.0914952 0.0701206 0.062565 0.0582994 0.0568789 0.0521236 0.0507426 0.0506167 0.0494734 0.0522473 0.0494323 0.0581909 0.0487737 0.0477306 0.044571 0.0401007 0.0395762 0.0418813 0.0390814 0.0380457 0.036347 0.0357639 0.034598 0.0315247 0.0313748 0.0307399 0.0375957 0.0284171 0.0282912 0.0281532 0.0279798 0.0274537 0.02702 0.0259697 0.0249151 0.0246178 0.0240097 0.0239346 0.0237574 0.0235334 0.0233106 0.0288475 0.0267147 0.0228553 0.0221186 0.0211141 0.020531 0.0201883 0.0207327 0.0201553 0.0200384 0.0196279 0.0181807 0.0180869 0.0176477 0.0236014 0.021509 0.0175998 0.017434 0.0170669 0.0164177 0.0163901 0.0159771 0.0156901 0.0154257 0.0152411 0.0145248 0.0143445 0.0142577 0.013766 0.0136393 0.0136184 0.022048 0.0136025 0.0133011 0.0128769 0.0128641 0.012604 0.0125331
threshold=0 0.11382061332680941 0.69657656415380853 1 0.052962560484172305 0.53642798858217888 0.82083091826915056 0.077188672688687426 0.032207246449224507 0.16154955034990473 0.27147481786313138 1.5000000000000002 0.45683022011486096 0.99857676556949582 2 0.018024333057553653 0.045671156345909264 0.54173927679510192 0.039771676489787744 0.13095670161252954 0.092324806305953161 0.063608361488603868 0.15858363877172474 0.14753134194782455 0.056618407029923656 0.71571701445199476 0.016923795969028783 0.043670870516737952 0.36210380196115716 0.61277168221827272 0.0078908867054407854 0.065883208569151294 0.03562442151694388 0.15572319722814762 0.034382208974542104 0.049843054825256458 0.14001195248687118 0.092580925893581231 0.03132548135250432 0.096935017990160119 0.070387548339573489 0.075216291218679524 0.049843054825256458 0.032122845562045553 0.047337988225176812 0.075171103300025119 0.18714490542858722 0.055603063991668984 0.067370564815459666 0.013729931241676652 0.015324977936735526 0.54173927679510192 0.088955274688846814 0.015808701246864652 0.024049376276472283 0.053979608893080754 0.13757333912969408 0.067056338133434451 0.031629051136237672 0.29378982036400658 0.21572746518360203 0.039183889133701057 0.046134315502902631 -0.58216583101416131 0.04286670583797289 3 0.049843054825256458 0.17335937122355136 1.0000000180025095e-35 0.39474594999527174 0.035362226823366739 0.020428698581935571 0.047448206519953934 0.021624338891547381 4 0.033834737876187022 0.059467333427367854 0.054698538019932692 0.035213014741456279 0.23588489151134229 0.028075407971652859 0.11651849087620414 74.500000000000014 0.020428698581935571 0.020351155620286398 55.500000000000007 0.05991783160343566 -0.75183980747897738 75.500000000000014 -0.84874750804349175 0.048226825377067108 0.023161636525326035 0.063638665548095205 0.027380767881801552 5 0.094428565813662088 1.0000000180025095e-35 0.09980951771248571 0.10461415270582029 0.19148867733611843 0.021624338891547381 0.034427757688237436 0.024444138547342242 0.027826059085042903 0.084380953590054666 0.054308182862046583 62.500000000000007 0.045446275746087839 6 0.092580925893581231 0.4385008528791165 0.23142846371330969 58.500000000000007 0.035213014741456279 0.033455531727375261 -0.68322629814330804 0.041285394991243986 0.10204765427634326 0.022548920253279394 0.21846633855270095 0.011164049078997108 0.050615920585645784 0.081930279341668674 0.046839042874235834 0.01943422657914445 0.12682455255993916
decision_type=9 2 10 9 10 2 10 2 10 2 2 2 10 10 9 10 2 8 2 10 10 2 10 2 2 2 2 2 10 2 2 2 2 10 2 2 2 2 2 10 2 2 2 2 2 2 2 2 2 10 2 10 10 2 2 2 2 2 2 8 2 2 2 2 2 9 2 10 2 2 10 2 2 2 9 2 8 2 2 10 2 2 2 2 2 2 2 2 2 2 2 2 10 2 9 2 2 10 2 2 2 2 2 10 2 2 2 2 9 2 2 2 2 2 2 2 2 2 2 10 2 2 2 2 2 8
left_child=2 4 5 9 8 12 25 18 15 19 23 59 28 41 -9 24 32 -7 21 39 48 44 40 27 30 -4 38 -5 -1 -19 53 34 43 37 50 60 81 74 83 76 78 -8 86 54 80 49 61 118 84 -18 -32 69 112 -2 120 56 108 107 117 -12 -25 -24 -51 -64 -65 91 110 82 77 -14 -44 100 -46 -74 106 -36 -3 -26 -11 111 -6 90 -38 -17 -16 -78 -20 -60 89 -89 -21 109 -93 -28 -67 -96 -94 -54 -90 -80 -52 -45 -103 -104 -66 -40 -22 -39 -41 -50 -30 -49 -23 -76 -114 -115 -98 -59 -48 -120 124 -79 -110 -88 -10 -42
right_child=1 3 6 10 7 17 13 14 16 22 11 -13 51 -15 20 26 45 29 42 36 33 52 46 35 68 -27 93 -29 66 -31 31 -33 -34 -35 75 -37 67 57 105 55 125 -43 70 101 72 -47 47 79 65 62 71 -53 97 -55 -56 -57 -58 58 87 -61 -62 -63 63 64 104 94 -68 -69 -70 -71 -72 -73 73 -75 113 -77 85 121 99 -81 -82 -83 -84 -85 -86 -87 123 88 98 -91 -92 92 96 -95 95 -97 116 -99 -100 -101 -102 102 103 -105 -106 -107 -108 -109 122 -111 -112 -113 114 115 -116 -117 -118 -119 119 -121 -122 -123 -124 -125 -126 -127
leaf_value=0.01268497007503154 -0.0036284941183598813 -0.00043124605603698043 0.025336062314980007 0.0013884889013999998 -0.0020616955330173816 0.018452944558337923 0.035606757745490339 0.0068475034159262054 -0.003381405447941264 0.0031231299480166388 0.0081426725056775468 0.020138533425283624 0.013604612465937253 0.038646816221919476 -0.00045519735968050664 -0.0032432987753204762 -0.0027330183945831117 0.021014738895006397 -0.00060611470003009513 0.0015007722298263934 -0.0016024161593675196 -0.0018778782708202106 0.003408490763040139 0.0061214085929860995 6.7919211801594097e-05 0.029727611541225663 -0.0025510520963783062 0.0063645268028432681 0.013097579397472126 0.024296888882127027 -0.0032210859674868066 -0.0036281286725951007 0 0.0019710445600302985 0 0.0078631047222538809 0.0014547031472842767 0.00013555445095382338 -0.0025493945439773822 0.0015101115119987379 0 0.031564623456213699 0.0030418855134804784 -0.0025581302969711617 -0.0016978177828142231 -0.0011502317264890478 0.0045397090987508004 0.0016672095505577311 -0.00036844467387986217 -0.0020347704092792333 -0.002608002941128285 0.018432120135311779 -0.0006526404151622156 -0.0031746510022755514 -0.0016697125020406602 -0.00060220773737402968 0.0018469554413225863 0.00030958075143736551 0 0.0090770896622053183 0.0070132668408627447 0.0022644235533192552 -0.002056073923805652 -0.0015092986810707038 0.00054873788350073426 -4.9373702735606918e-05 0.015095019589926283 0.0029391819900576083 -0.0024501092914934967 0.016615791157295438 0.00081285677408418199 -0.0029878027919723557 -0.0014943734838381978 -0.00091313999053279379 0 -0.0020151271130351882 -0.00087073723174776747 -0.00023752869815593035 0.0019198403647320416 0.0036125508839998099 -0.0013851019118797554 0.0019996920571481876 0.0023410514842937529 -0.0029450815820741636 -0.0010123793077656579 0.00068800738825164777 0 0.002016649761711297 0.0022867070519194121 0.00020044119651527263 3.147445266875318e-05 -0.00026044851784442753 -9.671885135707222e-05 -0.002055551251667139 -0.00078669880050794461 -0.00011881575039300607 0.00075052000580587831 8.0178172575427463e-05 0.00069303606132521667 0.0029773621968434572 -0.0016917766790860737 -0.0022996761886617135 -0.0022213147629541849 -0.0009971210338112354 -0.0012001607950083365 -0.0012962122326575364 -0.00032742954629720318 -0.0012935136129276308 0.00053529993077222962 0.00027790006834170201 0.015124721009162213 0.0030555111582051056 -0.0010725409316189626 -0.00025526286604312748 -9.5425153284997273e-05 0.0010442091500672064 0.002227490458394018 0.0006847245030466788 0.0036084528894453627 0.0043293682886440072 -0.0026948084441807221 -0.0019994140521738531 0.0010699485567146707 0.001080081750928492 -0.0028344024997365084 0.0012814179876518221
leaf_weight=346 5174 71 73 37 1279 88 117 26 353 279 410 25 35 410 442 1945 214 101 79 598 32 74 626 372 32 114 509 45 180 148 3652 1716 50 137 39 360 128 342 987 319 31 65 42 974 1073 521 321 69 239 1133 337 96 372 939 115 31 368 459 24 628 675 134 411 1047 36 341 258 292 104 223 38 952 996 466 489 38 23 22 185 120 217 390 647 2201 424 447 46 32 119 76 35 63 45 749 380 195 132 109 35 92 110 1593 88 99 23 46 307 21 192 152 64 61 1649 22 50 72 24 724 395 348 1029 54 608 53 522 43
leaf_count=346 5174 71 73 37 1279 88 117 26 353 279 410 25 35 410 442 1945 214 101 79 598 32 74 626 372 32 114 509 45 180 148 3652 1716 50 137 39 360 128 342 987 319 31 65 42 974 1073 521 321 69 239 1133 337 96 372 939 115 31 368 459 24 628 675 134 411 1047 36 341 258 292 104 223 38 952 996 466 489 38 23 22 185 120 217 390 647 2201 424 447 46 32 119 76 35 63 45 749 380 195 132 109 35 92 110 1593 88 99 23 46 307 21 192 152 64 61 1649 22 50 72 24 724 395 348 1029 54 608 53 522 43
internal_value=-1.77487e-05 -0.00108365 0.0225644 0.00376283 -0.0022316 0.01622 0.0350885 -0.000685729 -0.00289264 0.00227944 0.00774405 0.00898891 0.0146415 0.0372969 9.65731e-05 -0.00318182 -0.00220124 0.0218293 -0.00132663 0.00155262 6.25631e-05 -0.00140899 0.00339271 0.00685145 -0.00335234 0.0280544 -0.00283214 0.00418457 0.0137126 0.0229946 -0.00337815 -0.00321526 -0.00251277 0.000429688 -0.00307605 0.00700301 0.00203989 0.000351128 -0.00297006 0.00105552 0.00249215 0.0342087 0.000660283 -0.00254012 -0.00166057 -0.00175583 0.00366372 0.00391996 -0.000370904 -0.00186421 -0.00310602 0.0168479 -0.000956816 -0.00355965 -0.00280037 0.00126578 0.00130812 0.000576011 0.00070535 0.00871364 0.00670178 0.00321368 -0.00179206 -0.00160738 -0.00143595 -0.000167613 0.0144083 0.00240819 -0.00175056 0.0162321 0.00204786 -0.00280188 -0.00147769 -0.00131261 -9.0303e-05 -0.0010437 0.000456168 -0.00102902 0.00271757 0.00298186 -0.00196699 0.00165067 0.00220132 -0.00308626 -0.000733856 0.000600923 7.78076e-06 0.00135719 0.00149432 0.000786198 0.00142745 0.000122092 0.000480992 -0.0022602 -0.000377433 -0.000559229 0.000738261 -0.0004762 0.00195764 0.00229007 -0.00239415 -0.00234741 -0.00222916 -0.00160082 -4.93109e-05 -0.00249856 -0.000449703 3.87773e-05 0.0011263 -0.000104389 0.0136558 0.00235892 -0.00108435 0.00011587 -0.00104674 0.000686994 0.00101106 0.000543435 0.00413538 0.00395337 -0.00286594 -0.00155608 0.000936263 0.000548228 -0.00306115 0.000729546
internal_weight=51434 49116 2318 9405 39711 1539 779 11897 27814 6853 2552 1063 1202 592 5354 19606 8208 337 6543 4149 5328 6285 2704 1489 13169 187 6437 82 848 249 12957 6844 4823 2891 5128 1407 2090 2754 5179 2059 630 182 258 4773 4031 3385 2074 1314 2437 2864 5051 354 2254 6113 2019 1518 1487 1832 1469 1038 1047 760 2650 1517 1106 1571 502 1067 212 258 80 1399 2535 1462 922 77 541 108 556 250 1496 1023 775 4146 866 470 178 286 262 108 633 655 264 1258 916 575 201 481 154 277 447 2754 1780 187 59 1033 339 363 1119 391 244 130 1773 583 1699 94 156 1183 1064 743 1904 76 800 99 875 74
internal_count=51434 49116 2318 9405 39711 1539 779 11897 27814 6853 2552 1063 1202 592 5354 19606 8208 337 6543 4149 5328 6285 2704 1489 13169 187 6437 82 848 249 12957 6844 4823 2891 5128 1407 2090 2754 5179 2059 630 182 258 4773 4031 3385 2074 1314 2437 2864 5051 354 2254 6113 2019 1518 1487 1832 1469 1038 1047 760 2650 1517 1106 1571 502 1067 212 258 80 1399 2535 1462 922 77 541 108 556 250 1496 1023 775 4146 866 470 178 286 262 108 633 655 264 1258 916 575 201 481 154 277 447 2754 1780 187 59 1033 339 363 1119 391 244 130 1773 583 1699 94 156 1183 1064 743 1904 76 800 99 875 74
cat_boundaries=0 1 2 3 6 9 11 14
cat_threshold=1 2 4 4127234904 76046399 805982464 604026692 419 5788672 822098976 536581 234887994 4 53760
is_linear=0
shrinkage=0.05


Tree=4
num_leaves=127
num_cat=8
split_feature=17 36 26 17 26 36 26 36 36 26 44 19 26 26 36 26 44 17 26 53 26 26 53 53 36 36 53 36 53 36 26 36 36 53 53 36 53 53 53 26 36 44 53 53 13 26 38 26 36 36 53 36 36 53 26 36 26 26 43 43 26 22 36 43 53 36 26 24 25 38 53 36 52 38 36 36 33 43 53 43 36 27 38 52 53 53 52 36 38 26 36 2 41 26 36 43 53 28 53 36 9 53 26 9 2 9 53 2 53 36 44 52 38 28 25 53 44 50 28 36 53 53 36 43 38 53
split_gain=446.981 98.6814 66.3784 20.0318 14.6505 4.84028 4.20544 2.33972 1.99616 1.78601 0.991312 1.11853 0.823601 0.703593 0.499227 0.456663 0.408566 0.386601 0.384706 0.368642 0.321909 0.272869 0.228347 0.221429 0.217335 0.197062 0.19335 0.183124 0.200151 0.175223 0.162509 0.131714 0.12723 0.118598 0.10819 0.108069 0.10029 0.0951146 0.0902435 0.0840429 0.0829632 0.0816664 0.0809555 0.0745582 0.0692423 0.073862 0.0687705 0.063318 0.0600534 0.0548859 0.0535805 0.0595905 0.0524231 0.048475 0.0480551 0.0450028 0.0439554 0.0421768 0.0410913 0.0398721 0.0332337 0.032465 0.0323903 0.0316847 0.0318568 0.0280288 0.027789 0.0274913 0.0264905 0.0249338 0.0242408 0.0234106 0.0226879 0.0226257 0.022474 0.0223206 0.0213427 0.0205394 0.0205208 0.0205049 0.0202212 0.0193903 0.0190544 0.0189556 0.0186735 0.0185856 0.0229612 0.019055 0.0178465 0.0177328 0.0176473 0.0170363 0.0169698 0.0182054 0.0168723 0.0168246 0.0179319 0.0167754 0.0167638 0.0166054 0.0159173 0.0202565 0.0158822 0.0158013 0.0157938 0.0157107 0.0155225 0.0155037 0.0187045 0.0154981 0.0148672 0.0140279 0.0133809 0.0131336 0.0130765 0.0151753 0.0139219 0.0121853 0.0127829 0.0118898 0.0118329 0.011132 0.0110589 0.010962 0.0105364 0.010233
threshold=0 0.11382061332680941 0.69657656415380853 1 0.051193627533549807 0.53642798858217888 0.82083091826915056 0.073440776009009001 0.15851127294140613 0.026572814015948003 0.27147481786313138 2 0.45683022011486096 0.99857676556949582 0.041911562128754375 0.092324806305953161 0.047489985859957111 3 0.54173927679510192 0.039771676489787744 0.13892458330860033 0.16697149798103028 0.0078908867054407854 0.028318211037032148 0.051423694978585795 0.15565078711003574 0.039771676489787744 0.073440776009009001 0.029593919172162478 0.71571701445199476 0.3801399541258354 0.092580925893581231 0.61277168221827272 0.053979608893080754 0.039183889133701057 0.015230771642871985 0.013847115280163609 0.049843054825256458 0.036161131533507841 0.096935017990160119 0.094428565813662088 0.057269319204458456 0.031629051136237672 0.075216291218679524 -5.4272460937499991 0.21379771059289956 0.069740577132634193 0.086794570976241006 0.14001195248687118 0.13757333912969408 0.02050459165407446 0.032534552660629552 0.081157848383733563 0.036725128876187764 0.54173927679510192 0.033834737876187022 0.33091864237715929 0.079955779702026858 0.081939859349978633 0.041124909890124059 0.14802260759966893 4 0.027407631229393419 0.034427757688237436 0.022916594651574054 0.39474594999527174 0.0066063441406464503 5 6 0.063293835617736383 0.096144647888577781 0.17527266980389775 62.500000000000007 0.031887546034498157 0.080121548916914601 0.21572746518360203 0.040649283367513007 0.05991783160343566 0.023355958923849712 0.097599986521328147 0.039418655881527022 0.053074996317444306 0.1075244971658252 66.500000000000014 0.0386470988629007 0.030994122751461305 74.500000000000014 0.065883208569151294 0.088265290921192827 0.073037767268076814 0.20058245103129965 1.0000000180025095e-35 0.088412779887643789 0.12737934405845763 0.023346959378007907 0.13471495830753166 0.048226825377067108 0.065917169046094765 0.070387548339573489 0.18714490542858722 -0.63405362205439475 0.028923825692179519 0.11863908031217736 -0.63405362205439475 22.500000000000004 -0.63405362205439475 0.037376896677425282 1.0000000180025095e-35 0.016684427452549212 0.053102786305898105 0.18156784188233518 67.500000000000014 0.078224150644007839 0.07306270054502377 7 0.029886615641747164 0.099997536996236411 0.054694943619315754 0.055156778489100909 0.057392820106821056 0.048226825377067108 0.061536333081659199 0.024045700733953571 0.12532612200885249 0.067056338133434451 0.037376896677425282
decision_type=9 2 10 9 10 2 10 2 2 10 2 1 10 10 2 10 2 9 8 2 10 10 2 2 2 2 2 2 2 2 10 2 2 2 2 2 2 2 2 10 2 2 2 2 2 10 2 10 2 2 2 2 2 2 10 2 10 8 2 2 8 9 2 2 2 2 10 9 9 2 2 2 2 2 2 2 10 2 2 2 2 10 2 2 2 2 2 2 2 10 2 2 2 10 2 2 2 8 2 2 2 2 10 2 2 2 2 2 2 2 2 2 2 10 9 2 2 2 8 2 2 2 2 2 2 2
left_child=2 4 5 8 9 12 29 19 20 16 25 56 30 43 23 40 22 -17 -7 24 33 38 35 50 63 26 -5 28 36 -4 -1 60 -20 39 75 -2 62 77 -10 97 58 73 102 -8 -23 53 111 59 95 88 51 122 -18 99 65 106 -12 -40 89 -26 68 92 -24 -6 80 -14 -38 104 72 -54 -32 105 -19 -16 -43 -27 -39 109 -69 83 -65 -80 -35 -50 -25 87 -87 -61 -41 -9 -55 -66 93 -48 -37 96 -22 -3 110 -46 -75 -102 124 -90 -60 -59 -30 108 -49 -21 -36 -44 -99 -57 -42 -116 -117 118 -83 125 -70 -73 -11 -63 -33 -103
right_child=1 3 6 10 7 18 13 15 21 14 11 -13 54 -15 41 17 52 31 32 37 48 44 27 84 47 34 -28 -29 55 -31 70 42 -34 82 98 94 66 76 57 49 114 74 46 -45 45 -47 61 107 79 -51 -52 -53 69 90 -56 113 -58 71 67 85 -62 123 -64 64 91 -67 -68 78 120 -71 -72 121 -74 100 -76 -77 -78 -79 81 -81 -82 117 -84 -85 -86 86 -88 -89 103 -91 -92 -93 -94 -95 -96 -97 -98 112 -100 -101 101 119 -104 -105 -106 -107 -108 -109 -110 -111 -112 -113 -114 -115 115 116 -118 -119 -120 -121 -122 -123 -124 -125 -126 -127
leaf_value=0.012257452266233836 -0.0034455828678025715 0 0.024070991828487282 0.0013401124477529387 -0.0021416237055532188 0.01753134346914887 0.033827940993691796 -0.00095730151978810061 0.0029250914152020354 -0.0028784995485118319 0.007964698701063656 0.019135618904434826 0.012926319886816194 0.036714949070956758 -0.0023024049307066373 0.0065064399863568297 -0.0021668539444476323 -0.0016714395133432338 0.019965041709582954 4.5269616909303457e-05 0.0015660829490392913 0.0025270892654856844 -0.0030927475380608119 -0.00063410581651793664 -0.001644394925959144 0.0056312462142189398 0.0058848495333733274 -0.0034053056161155917 -0.0010265798497707769 0.028242533059103465 0.013609697096894227 1.4428964253110074e-05 0.023082864611515885 -0.0015296088642546509 0.0060192081076687375 -0.0031016585408483038 -0.0028740698081353893 0.0028434362552040137 -2.3482656274917964e-05 0.00082763711851408471 0.00032613871212678832 -0.0014779872213505759 -0.00089285341091454033 0.029988816069201576 0.0032602564754305088 0.0040835777501591723 -0.00071737935145461539 -0.0010136412100826533 0.00018094246502758056 0.0017660776249989977 -0.0019589946691319516 -0.002342806188694411 -0.0023200684805008377 0.0019619754837707504 0.017511473273573507 -0.0022692335875577714 0.0088965977429996176 0.00032612394476495154 -0.00013254217381933296 -0.0013360627386882484 0.0012851335445119071 0.0016418952923786167 -0.0026604992904595681 -0.0022124655263501634 -0.00080336920954636828 0.01578537382616264 -0.0024967610115613336 -0.00029180702461098555 1.0243712025681605e-05 -0.00058086875636400301 0.016043835921879232 0.0026377028109933151 -0.00031977516545205739 -0.0021624268668246141 -0.00085206896943108975 0.0064938293337500133 0.00075304311200117971 0.00041747644447714147 -0.00040526654407670702 0.0024940424734537741 -0.0016795400028951236 0 0 0.001968516179663858 0.00088077906685344166 -0.001177079152945678 0.00011888437131467053 -0.0010047573141405608 0.00069354124094442825 -0.00057619053631372615 0.0030644376366016999 -0.0015329500975066364 0.0013653980354005333 0.00089082298065094575 -0.0026696707316148393 0.0021126412832395357 0.00033904826991085029 0 0.0082879224646955126 0.0038655270643125107 -0.001804997963741505 -0.00095370127963213716 0.00070354737620268522 0.001355074926570802 -0.00098451567034255646 0.0017235210147542375 0.00011936447533477004 -0.0009251120771116702 -1.8034132724308602e-05 -0.0012658812561924639 0.0072502010746169953 0.00045681119058605313 0.000825999251534529 -0.00063835942078694806 3.0227716313767776e-05 -6.2927495786223967e-05 -0.0010572146115070222 8.1105097584059309e-06 0.0015228900293681714 -0.0015202273508360961 0.001170011210251293 0.0016769644738036005 -0.0026095220262970144 0.0026164877964130547 0.00041913994755111143 0.0001692942939522142
leaf_weight=448 5438 105 73 39 678 88 117 647 513 1427 695 25 35 410 382 26 767 38 101 30 505 195 4151 91 704 236 74 1876 78 114 359 233 148 36 90 1482 1078 43 22 449 218 910 33 65 476 643 33 74 23 490 435 1806 31 100 96 120 343 35 101 1595 44 170 702 348 154 223 1828 289 706 104 41 172 292 390 222 537 28 88 47 592 816 21 60 182 24 65 59 832 141 797 140 328 47 36 531 200 43 64 91 386 1461 57 468 773 173 129 36 353 160 47 422 43 296 24 404 92 72 49 56 123 23 83 1674 70 812 21
leaf_count=448 5438 105 73 39 678 88 117 647 513 1427 695 25 35 410 382 26 767 38 101 30 505 195 4151 91 704 236 74 1876 78 114 359 233 148 36 90 1482 1078 43 22 449 218 910 33 65 476 643 33 74 23 490 435 1806 31 100 96 120 343 35 101 1595 44 170 702 348 154 223 1828 289 706 104 41 172 292 390 222 537 28 88 47 592 816 21 60 182 24 65 59 832 141 797 140 328 47 36 531 200 43 64 91 386 1461 57 468 773 173 129 36 353 160 47 422 43 296 24 404 92 72 49 56 123 23 83 1674 70 812 21
internal_value=-1.67637e-05 -0.00102947 0.0214384 0.00357554 -0.00212024 0.015411 0.0333364 -0.000697923 0.0021663 -0.00276901 0.00735767 0.00854011 0.0139111 0.0354338 -0.00219157 7.16176e-06 -0.00305428 0.000435023 0.0207403 -0.00136391 0.00143433 0.00316582 -0.00310877 -0.00249432 -0.00143837 0.00650964 0.00436309 -0.00294666 -0.00283867 0.0266545 0.0130282 0.00038138 0.0218468 0.0010691 0.00668196 -0.0033233 -0.00288488 0.000560067 0.0024553 0.00114119 -0.000434593 -0.00172681 0.000629088 0.0325015 0.0035125 0.0036196 0.00123944 -0.00120358 0.00200165 0.00129389 -0.00254117 -0.00259172 -0.00200068 0.00334399 0.0160076 -0.00142885 0.00827828 0.00189694 -0.000593382 -0.00129171 -5.09051e-05 0.00153166 -0.00303131 -0.00182429 -0.00169041 0.015422 -0.00263854 -0.000278333 -0.000111253 -0.00101867 0.0138756 0.00200968 -0.00047659 -0.00189541 -0.00135974 0.00623771 0.0020916 -6.9538e-05 -2.34291e-05 0.00232012 -0.00184334 0.000394573 -0.000619046 0.00179252 -0.000274025 -0.00119235 -0.000520562 -0.00122459 0.00112036 -0.000750468 0.00262691 -0.00131043 0.000576715 4.93987e-05 -0.00299033 0.00165537 0.001479 0.000521791 0.00724203 0.00353751 -0.0018171 -0.00173293 0.000451442 0.00125858 -0.000664624 0.00145615 -0.000621094 -0.000706277 -0.000354541 -0.000690796 0.0070448 -6.39275e-05 0.000684191 -0.00203275 0 -0.00012075 -0.000530291 0.000732661 0.00112828 -0.00118361 5.31191e-05 0.00234537 -0.002735 0.00187006 0.000333697 -0.000587506
internal_weight=51434 49116 2318 9405 39711 1539 779 12442 6853 27269 2552 1063 1202 592 9023 6040 18246 3074 337 6402 3959 2894 17344 5457 6166 1489 113 9893 8017 187 848 3048 249 2414 1376 7451 7759 236 954 2318 2966 3566 1945 182 1940 1745 432 3842 1545 1853 5342 4907 902 1102 354 258 1038 441 2180 3255 1103 356 4853 2324 1646 258 2906 736 1059 135 400 419 330 2434 1132 773 71 165 462 797 1164 173 96 205 115 2551 124 2427 1363 1444 240 482 116 69 2013 748 548 465 603 862 2052 1662 1513 914 274 164 114 587 234 77 512 76 360 144 786 568 164 126 77 201 729 255 3101 240 1045 78
internal_count=51434 49116 2318 9405 39711 1539 779 12442 6853 27269 2552 1063 1202 592 9023 6040 18246 3074 337 6402 3959 2894 17344 5457 6166 1489 113 9893 8017 187 848 3048 249 2414 1376 7451 7759 236 954 2318 2966 3566 1945 182 1940 1745 432 3842 1545 1853 5342 4907 902 1102 354 258 1038 441 2180 3255 1103 356 4853 2324 1646 258 2906 736 1059 135 400 419 330 2434 1132 773 71 165 462 797 1164 173 96 205 115 2551 124 2427 1363 1444 240 482 116 69 2013 748 548 465 603 862 2052 1662 1513 914 274 164 114 587 234 77 512 76 360 144 786 568 164 126 77 201 729 255 3101 240 1045 78
cat_boundaries=0 1 2 3 4 6 8 11 14
cat_threshold=1 2 2 4 18939906 2054 0 4064 604018628 2097283 1577984 2214594633 3 734464
is_linear=0
shrinkage=0.05


Tree=5
num_leaves=127
num_cat=8
split_feature=17 36 36 17 44 44 44 36 36 27 36 15 53 36 44 36 53 53 36 36 53 15 27 36 36 36 36 36 53 53 27 1 53 53 32 53 53 53 36 35 53 53 35 32 36 53 46 36 32 36 53 53 36 36 21 53 28 21 35 32 53 53 27 53 9 53 25 53 52 21 53 53 36 53 9 46 9 46 40 36 22 36 53 53 36 34 27 36 33 36 36 53 46 32 28 52 53 53 53 53 27 36 36 27 36 35 53 9 35 53 46 47 53 25 35 35 34 46 27 9 33 36 42 27 35 53
split_gain=415.494 90.2721 61.5408 19.5637 11.6667 4.78708 2.66235 2.0574 1.84209 1.28637 0.924976 0.968014 0.763178 0.744484 0.711999 0.371703 0.352115 0.314869 0.32117 0.28529 0.274176 0.25828 0.249008 0.229643 0.229054 0.213805 0.212312 0.204132 0.114633 0.11403 0.10987 0.108529 0.104416 0.0966901 0.0914956 0.0912887 0.0874088 0.0837547 0.11948 0.0805504 0.0771445 0.0762201 0.071396 0.0691142 0.0592171 0.0548947 0.0540958 0.0521414 0.0489597 0.0488809 0.10403 0.0460166 0.0455293 0.0433855 0.043352 0.0432786 0.0517944 0.0427159 0.042464 0.0392026 0.039008 0.0378589 0.0368056 0.0608354 0.036215 0.0357997 0.0352911 0.045365 0.0350374 0.0328493 0.0318694 0.030568 0.030552 0.0290352 0.0281228 0.0280478 0.0279195 0.0277906 0.0273807 0.0259261 0.0257856 0.0254764 0.0253448 0.0249008 0.0247583 0.024283 0.023983 0.0238673 0.0232306 0.0228889 0.0226546 0.0199437 0.0209328 0.0196714 0.0190219 0.0189716 0.0186863 0.0184403 0.0183987 0.0183924 0.018283 0.0178934 0.017677 0.0171314 0.0155691 0.0155621 0.0151778 0.0150732 0.0203944 0.0241791 0.0149745 0.0149327 0.0148884 0.0146024 0.014096 0.0138058 0.0174976 0.0134303 0.0134031 0.0131132 0.0183414 0.0130955 0.0130418 0.0129819 0.0125557 0.0123254
threshold=0 0.10910155727961181 0.71571701445199476 1 0.047489985859957111 0.51870188042662424 0.99857676556949582 0.15565078711003574 0.074485788277905765 0.029544008959804254 0.28297254835057817 1.5000000000000002 0.029245965132808371 0.39474594999527174 0.58895355734192045 0.8613487407341921 0.13317254510257828 0.01053843877556359 0.092580925893581231 0.090222765154113704 0.023161636525326035 1.5000000000000002 0.12408640403728012 0.12339736206619752 0.035208595606513356 0.17944614185085911 0.022367523360857882 0.060654385390739168 0.13317254510257828 0.051063823924207573 0.49730364129987592 21.500000000000004 0.037376896677425282 0.049843054825256458 0.11371915858808419 0.047326379899906131 0.046381410147396059 0.037376896677425282 0.1647400129061819 0.070416720299617916 0.040499347102940404 0.06703906065438904 0.046273488640122824 0.053333031156570947 0.24672612403803937 0.01714719213229601 0.030102535392469956 0.20539590775274877 0.42655414693474897 0.48442152780440739 0.096144647888577781 0.044505901102937361 0.24672612403803937 0.20058245103129965 2 0.044505901102937361 0.046103139025725007 3 0.037115160541295329 0.075499176138119253 0.014545929813510326 0.042028325360497699 0.06578714914071411 0.031629051136237672 -0.63405362205439475 0.041285394991243986 4 0.048226825377067108 55.500000000000007 5 0.10933145404696473 0.057450451801481429 0.013225386800297917 0.031970404366335671 -0.91037613702198728 0.034427757688237436 -0.58216583101416131 0.097599986521328147 0.17407979207340429 0.052573059945605273 6 0.024045700733953571 0.031321311261163533 0.036161131533507841 0.038438552833459573 0.040270769732796349 0.11612912653933542 0.027015865571359571 0.022600027685167039 0.035208595606513356 0.61277168221827272 0.022916594651574054 0.055096710024855354 0.062644813276907671 0.097468042173385214 66.500000000000014 0.070387548339573489 0.0057908077559956873 0.028318211037032148 0.043670870516737952 0.15547139213650207 0.13757333912969408 0.046758161077780976 0.0084299805450016013 0.032964015796345038 0.10509478271685353 0.023899128184248768 -0.63405362205439475 0.059343045046865682 0.039183889133701057 0.05129165806637976 0.05484221741153298 0.026173017043437424 7 0.025426667594613511 0.047448206519953934 0.030231888626034164 0.097599986521328147 0.039172061133930659 -0.77259657388510627 0.039279606183874001 0.099229489306526655 0.076937704350810918 0.092926026102476175 0.096650467440856383 0.028923825692179519
decision_type=9 2 2 9 2 2 2 2 2 10 2 2 2 2 2 2 2 2 2 2 2 2 10 2 2 2 2 2 2 2 8 2 2 2 10 2 2 2 2 2 2 2 2 10 2 2 2 2 10 2 2 2 2 2 9 2 10 9 2 10 2 2 10 2 2 2 9 2 2 9 2 2 2 2 2 2 2 2 2 2 9 2 2 2 2 10 10 2 10 2 2 2 2 10 10 2 2 2 2 2 10 2 2 10 2 2 2 2 2 2 2 2 2 9 2 2 10 2 10 2 10 2 2 10 2 2
left_child=2 4 5 7 9 13 15 23 27 17 21 -12 24 28 -7 48 49 26 20 43 60 37 42 59 45 32 72 35 51 53 -16 -24 124 58 36 46 94 38 -5 61 87 57 84 115 70 81 -6 96 -4 50 -15 -1 -40 82 -45 118 88 -41 -29 65 89 106 -59 113 -34 -3 67 91 -38 98 -31 -8 97 79 -61 -26 100 -76 119 -48 -68 -11 -27 101 -14 -70 107 -22 -57 -19 -32 -56 -93 -67 112 111 -39 -2 -60 -79 -36 -78 -42 -62 -28 -66 -21 123 -109 -110 -63 -75 -25 -64 -89 -10 -117 -58 -44 -65 -121 -108 -102 -71 -9 -55
right_child=1 3 6 10 8 14 71 25 19 12 11 -13 22 16 30 -17 -18 18 -20 39 40 -23 31 34 75 29 104 33 -30 44 90 -33 64 -35 76 -37 68 47 52 41 102 -43 55 54 -46 -47 73 -49 -50 -51 -52 -53 -54 125 66 56 117 62 69 74 103 110 63 78 105 93 80 -69 85 86 -72 -73 -74 95 77 -77 83 99 -80 -81 -82 -83 -84 -85 -86 -87 -88 114 -90 -91 -92 92 -94 -95 -96 -97 -98 -99 -100 -101 122 -103 -104 -105 -106 -107 121 108 109 -111 -112 -113 -114 -115 -116 116 -118 -119 -120 120 -122 -123 -124 -125 -126 -127
leaf_value=0.010791065281077185 -0.0033476001953562512 0.00053460558432984358 0.023211838392047948 0.0017840671969290398 -0.0021500056497518174 0.01697102841820709 0.035030787080865426 0.0020961455520029158 -0.0012680512903069175 -0.0028507214331779957 0.0080153887152272663 0.018159207226745636 -0.00059259617688870489 0.013490697410292933 0.017023855459642603 0.03099784938383067 0.020029685430437608 -0.0027846462603368467 -0.0032229650504716728 3.9532372878309813e-05 -0.0012644896502931979 0.0019561173232407825 0 0.0013577513828841267 -0.0021879141158143976 0.003431183244079929 -0.0026426367933337666 -0.0017673335128007576 0.015758303835474212 0.0022002870703629351 0.019553775629799836 0.0042506706679028318 0.00045362949563038704 0.0013937910012699164 0.00097201479443163343 0.0013107227187036012 -0.0018900284265560845 0.0058568358140962135 0.0057001531175236396 -9.3795126030543456e-05 0.00044389070479159196 0.0031925929041726215 -2.5699553629305993e-05 -0.00092329528936018466 0.0033320749543736638 -0.0021283131757468942 -0.0017498719461571865 0.0071746242085911696 0.027544286202396441 0.015413920539259308 0.017125337695446184 0.012190884922761956 0.0066398623290443021 0.0041646143884764451 -0.00029832366810989908 -0.0014050176557881483 0.00024087662040575306 -0.00015458531914363212 -0.00062349834005535172 -2.8960103696069272e-06 -0.0026259212382641101 -0.0022679074147586211 0 0.00027865600234370478 0.0010385700964801851 -0.001667362314737267 1.470275080431257e-05 0.0018858100231922545 -0.00026964956534596986 -0.0015674356208111825 9.9516596340860021e-05 0.030554929385889846 -0.0030207508089058399 -0.0024936832117838817 0.00070791584967017963 -0.0018245891363673852 0.0014903038709171083 0.0010963145587830436 0 -0.001441289209479327 -0.0005638790873014331 -0.0024931831025599739 0.0026090432500934608 0.0025286086557505553 -0.001916832993368465 0.0012494744337566434 -0.00015089295615344317 -0.0026677222575394901 6.7700506393123417e-05 -0.0021558970431743499 0.022520435596568227 -0.00082357221680541776 0.00040639281143476329 0 0.0015276227028480213 -0.00043778637596445218 0.0073423498453315588 -0.0031015969645486834 0.0004997204386967193 0.0020856606838492039 0.0022286796895079281 0.0020734950547449146 -0.001166556453688508 -0.0022877754819527201 -0.0021728254349513794 0.0021330275945525383 -0.00070817142183486571 -0.0011966874820243535 -0.00091709042845793554 0.00018308960655580241 -0.00038266933483346714 -0.00077819177886690784 0.00067518677852513589 0.00046986643070247086 -0.001807393229034949 -0.00090911518795367427 0 0.0016808354733476958 -0.001084503596408856 0.0019100206851742447 0.00070417821147756503 0 0.00081992112703968383 -0.0006226986391448888 0.0028093400568410067 0.0035447452891999342
leaf_weight=206 3500 281 29 20 457 177 413 137 271 1211 866 25 62 421 25 132 32 2771 1924 520 226 37 29 220 1004 449 1266 232 26 237 47 36 65 38 172 25 21 260 510 435 51 24 48 311 164 781 1482 516 164 138 34 318 334 326 468 48 40 197 273 69 1028 30 211 32 64 31 228 30 56 344 25 29 3041 30 633 2118 323 585 36 1985 964 1718 208 220 154 44 78 90 47 234 167 38 249 29 796 121 63 2112 37 66 92 440 25 1398 383 198 158 1289 876 45 28 44 192 833 434 299 75 45 174 145 60 110 36 62 767 419
leaf_count=206 3500 281 29 20 457 177 413 137 271 1211 866 25 62 421 25 132 32 2771 1924 520 226 37 29 220 1004 449 1266 232 26 237 47 36 65 38 172 25 21 260 510 435 51 24 48 311 164 781 1482 516 164 138 34 318 334 326 468 48 40 197 273 69 1028 30 211 32 64 31 228 30 56 344 25 29 3041 30 633 2118 323 585 36 1985 964 1718 208 220 154 44 78 90 47 234 167 38 249 29 796 121 63 2112 37 66 92 440 25 1398 383 198 158 1289 876 45 28 44 192 833 434 299 75 45 174 145 60 110 36 62 767 419
internal_value=1.96096e-05 -0.000963653 0.0205218 0.00327721 -0.00204609 0.0149059 0.0321609 0.00195414 -0.000833098 -0.00266036 0.00697878 0.00830762 -0.00210625 0.0132583 0.0195434 0.0286075 0.0144801 -0.00288538 -0.00264918 -0.000160575 -0.0024719 0.00629501 -0.000503122 0.00124771 -0.00226578 0.00294682 -0.00307243 -0.0013539 0.0118583 0.00329771 0.0214197 0.00241901 0.00242148 -0.00105418 0.00154379 -0.00158945 0.00124128 0.00638622 0.00598529 0.000197328 -0.00160689 0.000373248 -0.000818897 -0.000506266 0.00253691 -0.00253591 -0.0016083 0.00679238 0.0269315 0.0141689 0.013777 0.0116523 0.00607869 0.00352512 -0.000373791 -0.000407799 0.000144765 0.000335803 -0.00108452 0.00078817 -0.00260251 -0.000207032 0.000460116 0.000559359 0.00161619 0.000287135 -0.000278699 -1.00969e-05 0 -0.00103006 0.00201902 0.0347554 -0.00317392 -0.00153928 0.000910721 -0.0019431 0.00185313 0.000963708 0.00123206 -0.00157468 -0.000449858 -0.00264281 0.00317895 0.00199431 -0.00156032 0.000349395 -0.00108822 -0.0017609 -0.000624528 -0.00273742 0.0219017 -9.24261e-05 0.000225895 -0.000787618 0.00136966 -0.000883619 0.00616424 -0.00325597 -0.000458412 0.0012046 0.00137336 0.00183339 -2.09954e-05 -0.00243323 -0.00253669 0.00188525 -0.000109317 -0.00111841 -0.00105781 -0.000857893 -0.00144608 -0.00154356 0.00105204 0.000378562 -0.00196518 -0.00096831 -0.000737471 0.00106304 -0.0008782 0.00142729 0.00158198 -0.000416687 0.00187245 -0.00143567 0.00270703 0.00382322
internal_weight=51522 49164 2358 9996 39168 1591 767 7365 13170 25998 2631 891 7515 1175 416 325 625 18483 8181 5752 6257 1740 683 4306 6832 3059 10302 7418 550 1828 239 65 1231 3274 2612 4144 1329 1703 864 2819 826 1973 618 2933 426 3710 4119 839 193 593 455 524 844 1402 2288 402 180 1949 3236 1694 5431 846 1514 1317 327 341 1977 785 121 3004 262 442 8653 3662 1353 3122 1283 1284 273 3467 1192 2929 657 983 216 100 2694 750 95 3005 214 755 287 60 1208 195 323 5612 310 651 300 763 76 2426 1649 262 788 2616 2210 921 58 74 412 1044 524 645 374 85 222 237 205 268 128 406 904 745
internal_count=51522 49164 2358 9996 39168 1591 767 7365 13170 25998 2631 891 7515 1175 416 325 625 18483 8181 5752 6257 1740 683 4306 6832 3059 10302 7418 550 1828 239 65 1231 3274 2612 4144 1329 1703 864 2819 826 1973 618 2933 426 3710 4119 839 193 593 455 524 844 1402 2288 402 180 1949 3236 1694 5431 846 1514 1317 327 341 1977 785 121 3004 262 442 8653 3662 1353 3122 1283 1284 273 3467 1192 2929 657 983 216 100 2694 750 95 3005 214 755 287 60 1208 195 323 5612 310 651 300 763 76 2426 1649 262 788 2616 2210 921 58 74 412 1044 524 645 374 85 222 237 205 268 128 406 904 745
cat_boundaries=0 1 2 39 78 81 118 120 123
cat_threshold=1 2 0 1073741824 0 0 1611669504 0 276824064 0 2147485696 0 0 0 0 67108864 67108864 0 2097152 0 134217728 142606336 1048576 3221291008 0 0 33554432 0 0 1024 0 0 0 525312 0 0 0 0 167772160 0 0 272630016 2147483648 1024 16384 0 16777216 0 0 0 0 0 0 0 131072 32768 0 4194304 0 0 5376 131072 524808 0 536870914 655744 65536 2097152 0 0 4718592 4096 1073741824 0 0 0 0 128 4009820478 311427340 286071553 0 0 128 0 1611663360 8388608 256 67125248 268437504 0 0 0 0 1 83886080 2048 2097152 512 0 0 0 0 0 0 0 0 128 18440 8 0 0 512 0 0 0 0 33554432 1157636384 532483 117507622 536871296 17825792
is_linear=0
shrinkage=0.05


Tree=6
num_leaves=127
num_cat=7
split_feature=17 36 26 17 26 26 26 36 31 36 36 42 44 26 36 17 36 36 26 44 26 53 26 53 26 26 36 53 53 53 53 35 53 26 36 26 53 26 26 36 36 53 53 26 36 21 36 53 46 31 9 46 36 13 36 53 53 26 53 53 26 53 53 53 52 13 26 53 49 13 35 46 35 26 36 27 26 53 53 24 53 31 35 24 36 53 53 36 53 36 36 39 36 36 53 44 2 22 53 40 48 52 53 28 46 46 53 40 28 9 9 35 27 53 44 27 53 53 26 9 33 35 31 36 26 44
split_gain=375.067 81.5187 55.9189 15.3959 13.363 3.92291 3.55022 2.13713 1.63399 1.31282 0.807671 0.872725 0.755709 0.721826 0.462644 0.414642 0.385797 0.346976 0.230743 0.227227 0.222963 0.215913 0.212438 0.16217 0.146302 0.143556 0.126812 0.123857 0.113921 0.109301 0.108436 0.108232 0.105893 0.085604 0.0789234 0.0781326 0.0727738 0.0697306 0.0664051 0.0592372 0.0569044 0.0549982 0.0546718 0.0540399 0.0537849 0.0511527 0.0502351 0.0856663 0.0478422 0.0476966 0.0461956 0.0459376 0.0459053 0.0448681 0.0403798 0.0403646 0.0394653 0.0379833 0.0355941 0.0353485 0.0326233 0.0324722 0.0324715 0.032267 0.0356641 0.0322166 0.0316225 0.0313178 0.0287174 0.028415 0.0279547 0.0274715 0.0247002 0.0244914 0.0242305 0.0242115 0.0236031 0.023204 0.0228893 0.0227755 0.0235667 0.0214733 0.0210067 0.0205257 0.0196348 0.0192306 0.0190471 0.0189912 0.018357 0.0204446 0.0183271 0.0180825 0.0178885 0.0177612 0.0235374 0.0172694 0.0169766 0.0168287 0.0176398 0.0165315 0.0161753 0.0159818 0.0159067 0.0157492 0.0154867 0.0150968 0.0206481 0.0162006 0.0147917 0.0147819 0.0144817 0.0216608 0.0142675 0.0142465 0.013752 0.0136354 0.0134345 0.0133766 0.0128455 0.0125992 0.0125933 0.0125277 0.012453 0.012269 0.0122307 0.0121856
threshold=0 0.11838581345263487 0.69657656415380853 1 0.052962560484172305 0.49376346659240727 0.82083091826915056 0.083280456032452849 0.026890491504380856 0.1647400129061819 0.28297254835057817 0.084800779025353976 0.58895355734192045 0.99857676556949582 0.043520745482003735 2 0.39474594999527174 0.063608361488603868 0.11720693285345246 0.046838110119523664 0.14802260759966893 0.041285394991243986 0.013729931241676652 0.029593919172162478 0.15858363877172474 0.18700548060160824 0.71571701445199476 0.053979608893080754 0.036725128876187764 0.040499347102940404 0.016923795969028783 0.078224150644007839 0.039771676489787744 0.25793482498199577 0.027407631229393419 0.013387999793140553 0.10933145404696473 0.10566494245715437 0.086794570976241006 0.060654385390739168 0.39474594999527174 0.0060044698052920883 0.016800638140597814 0.15572319722814762 0.041911562128754375 3 0.092580925893581231 0.025578454193689138 0.090329863186844231 0.15210549899290524 -0.63405362205439475 0.07902486060628526 0.02109107972332112 -5.4217529296874991 0.13757333912969408 0.034382208974542104 0.048226825377067108 0.082933178778417618 0.047326379899906131 0.019243691245519456 0.082933178778417618 0.025578454193689138 0.039771676489787744 0.030994122751461305 66.500000000000014 -5.3778076171874991 0.34555800411573606 0.038025883034583319 0.051532091456727401 -5.4492187499999991 0.079064353032299459 0.05991783160343566 0.025426667594613511 0.095714963401721656 0.48442152780440739 0.11186437951774462 0.21846633855270095 0.01233289414706566 0.035213014741456279 4 0.039183889133701057 0.073186969902636997 0.048910411527155272 5 0.090222765154113704 0.031629051136237672 0.031970404366335671 0.10204765427634326 0.01345499436497173 0.014101947972285903 0.012614208408400903 0.1077856736670955 0.024394855640977226 0.19148867733611843 0.025578454193689138 0.068038768967589411 22.500000000000004 6 0.023539065539055309 0.17194394331856197 0.044113804275430733 61.500000000000007 0.022173976311877053 0.11854704416886351 0.04348854171564788 0.046134315502902631 0.032998878118985421 0.059598647438639372 0.063817045843305623 -0.63405362205439475 -0.60876142900872077 0.059343045046865682 0.1504840146357749 0.028923825692179519 0.10157303353416695 0.060905555704314607 0.022003831540507997 0.045446275746087839 0.20460825657243262 0.25881904510252091 0.040649283367513007 0.025426667594613511 0.089127599434531787 0.093208001414448002 0.29378982036400658 0.14633145606516137
decision_type=9 2 10 9 10 10 10 2 10 2 2 2 2 10 2 9 2 2 10 2 10 2 10 2 10 10 2 2 2 2 2 2 2 10 2 10 2 10 10 2 2 2 2 10 2 9 2 2 2 10 2 2 2 2 2 2 2 8 2 2 10 2 2 2 2 2 8 2 2 2 2 2 2 10 2 10 10 2 2 9 2 10 2 9 2 2 2 2 2 2 2 2 2 2 2 2 2 9 2 2 2 2 2 8 2 2 2 2 8 2 2 2 8 2 2 8 2 2 10 2 8 2 10 2 8 2
left_child=2 4 5 9 8 16 26 17 19 20 24 124 40 36 23 -9 56 21 31 22 27 44 41 34 28 29 -4 37 125 93 52 45 38 55 42 95 -8 100 82 105 -7 90 -10 71 78 -17 47 88 -21 69 96 65 77 -27 -39 -26 -1 -31 -23 123 -52 114 -25 73 -65 68 -18 -49 -34 -22 -29 -20 -36 104 -68 -45 86 -24 -6 101 -81 -63 116 -61 -50 -85 -55 110 -43 -90 -2 -72 102 94 -11 -16 -33 98 -40 112 -3 -73 -32 -51 -46 -37 119 -108 -100 -59 -41 -112 -83 -98 -62 -87 -19 -77 -105 -107 -82 -94 -113 -47 -12 -5
right_child=1 3 6 10 7 12 13 15 14 25 11 -13 -14 -15 35 18 66 32 43 48 49 58 30 62 33 53 -28 70 -30 57 92 50 51 -35 72 39 -38 54 97 87 -42 46 -44 75 63 59 -48 67 84 103 60 -53 -54 76 -56 -57 -58 109 -60 83 61 81 -64 64 -66 -67 74 -69 -70 -71 91 79 -74 -75 -76 117 -78 -79 -80 80 120 99 -84 85 -86 115 -88 -89 89 -91 -92 -93 121 -95 -96 -97 113 -99 108 -101 -102 -103 -104 118 -106 106 107 -109 -110 -111 111 122 -114 -115 -116 -117 -118 -119 -120 -121 -122 -123 -124 -125 -126 -127
leaf_value=0.010362303778935961 -0.0031891797580107144 0.00028819006655176189 0.021545937257057841 0.00076113655505811474 -0.0017951043748892987 0.012676289083621756 0.029822406616734843 0.0058781531439627043 -0.0026554134235542764 0.0029904395832473746 0.0070653844463155202 0.017254864035612084 0.020005912972294888 0.033220549361016989 -0.0025427068904036536 0.00020277040255727675 0.010884946726099418 -0.0010053727503521659 0 -0.0020649043797362058 0 -7.4556945352898473e-07 -0.0028780305508394341 -0.0010448623175966689 0.0054335331041248137 0.002505951155286294 0.025304716664536594 -0.0020697059526817124 0.005313593055933998 -2.5724472975299357e-05 -0.0018874491723683531 0.00018565798176948197 -0.0017053546516767812 0.006701847982899415 -0.0024901326406137937 -0.0017943247192454743 0.025133081389424019 0.0012104636282672711 -0.00039301580665018093 -0.001696831772407249 0.016186070714874292 -0.0028873412335167353 -0.0019260431024771506 0.00074669932481616786 -0.0015576717794420567 -0.00032518678279766121 -0.0031250309001360083 -0.0018635198039970273 -0.001344538983830437 0.00062004099993859946 5.24150378329091e-05 0.0014903098315380517 -0.0024763412690507356 0.0034464913976505872 0.0017264526372377618 0.0062309163686306603 0.011674824378844545 0.0010724980182683405 0.0016746033096046672 -0.00029054210225215349 0.00016437064663619896 -0.00015881608134033016 0.0007379520892395855 -0.001538070451167478 -0.00019475676075898123 0.0010587615815267034 0.012920141519771198 0 0.00037667863655561234 0.0017788220387041029 0.0005096493112120914 -0.00065308789708874986 -0.0020936624906390095 -0.0004498967447550193 0.01444034622989589 0.001451077254296658 0.0037736578483422998 -0.0024112450632013602 -0.00010706005614539573 0.0008505034892545227 0.0022732967746127001 0.0014077829123247804 -0.00078241762675334235 -0.00067725705142573326 -1.9913790917048669e-05 -0.00032347842906618914 0.0026859228608623513 -0.00013590363205639189 -0.0021387085705387135 -0.0027321407277732506 -0.0028016439698261061 -0.00091824866778235825 -0.0026041935089075939 0.003359861037426551 0.00223509236110339 -0.0014864683616755414 -0.00022403434212822464 -0.0005737805835733282 -0.0004460772987112811 0 0.00093950748927104405 0.00053514114084787377 -0.00087420174529449248 0.0022904067596662705 -0.0012716173444388247 -0.0017115138394670822 -0.0015875381739596972 7.7236733191976848e-05 0.00050966533134931785 0.0020968233743742944 -0.0013680702436484557 -0.00094092963121730387 0 -0.0012236778917257621 0.00057815386868835127 -0.0018844064333664334 -0.0017077061059756682 0.0028015670306978887 0.0031918323818871013 -0.0013095526075537097 0.00078523276498368108 -0.0019698064688106949 0 0.0001682496416138567 0.0078473272315526931 0.0029263008603668626
leaf_weight=238 3186 161 71 22 927 29 161 33 1973 364 265 25 200 435 269 433 41 427 115 408 29 61 2562 158 522 186 111 20 88 22 180 150 39 572 633 1278 30 1050 274 200 295 3470 362 65 1004 273 1678 131 104 20 495 73 2271 405 738 501 280 67 55 295 433 29 27 82 151 33 342 26 23 652 60 27 3372 90 125 67 519 472 27 456 61 222 1785 268 49 27 212 50 284 994 621 35 208 219 259 77 169 480 52 37 380 353 78 480 1792 694 20 36 139 268 583 377 26 53 460 81 117 54 82 504 35 374 43 220 601 20
leaf_count=238 3186 161 71 22 927 29 161 33 1973 364 265 25 200 435 269 433 41 427 115 408 29 61 2562 158 522 186 111 20 88 22 180 150 39 572 633 1278 30 1050 274 200 295 3470 362 65 1004 273 1678 131 104 20 495 73 2271 405 738 501 280 67 55 295 433 29 27 82 151 33 342 26 23 652 60 27 3372 90 125 67 519 472 27 456 61 222 1785 268 49 27 212 50 284 994 621 35 208 219 259 77 169 480 52 37 380 353 78 480 1792 694 20 36 139 268 583 377 26 53 460 81 117 54 82 504 35 374 43 220 601 20
internal_value=1.87347e-05 -0.000915464 0.019498 0.00343152 -0.00186909 0.0139312 0.0301676 -0.000515958 -0.00248169 0.00207825 0.0066512 0.00789267 0.0174749 0.031984 -0.00199404 0.000293858 0.012115 -0.00104053 0.000255142 -0.00278534 0.00147683 -0.00134733 -0.00281945 -0.00225798 0.00600664 0.00296051 0.0238785 0.00119297 0.00425647 0.00254577 -0.00257981 5.49076e-05 -0.000665679 0.00614588 -0.00230097 -0.00157587 0.0291256 0.00127257 -0.00072916 -0.00150623 0.0158914 -0.00296067 -0.00254457 0.00084719 -0.00140834 -0.000252794 -0.00286346 -0.0027729 -0.00177086 0.00202204 0.000294253 0.000541395 -0.00266652 0.00333267 0.00142632 0.0058295 0.0110835 0.00177417 0.000751293 -0.000424653 0.00040556 0.000546229 -0.000757397 -0.00130139 -0.000689418 -0.000135995 0.0131546 -0.00154906 -0.000853109 0.00171032 -0.000375341 0.000699196 -0.00215763 -0.00134904 0.0133408 0.00165256 0.0034634 -0.00280714 -0.00175259 0.000789223 0.00100405 0.000993809 -0.000874184 -0.000665785 -0.000953261 -0.000914696 0.00319374 -0.00120955 -0.00281228 -0.00260436 -0.00312735 0 -0.002026 0.00286673 0.00268485 -0.00232259 -0.000201543 -0.000366397 -0.00012644 0.00112865 0.000755007 0.000426198 -0.00160095 0.00237783 -0.00137618 -0.00165102 -0.00150086 -0.000429969 0.000223202 0.00190726 -0.00125 -0.00115576 0.00127687 -0.000485644 0.000383157 -0.00154109 -0.0011659 0.00209688 0.00243137 -0.0015467 0.00178418 -0.00220553 -0.000848893 -9.48626e-05 0.00761467 0.00191543
internal_weight=51522 49164 2358 8844 40320 1550 808 12568 27752 6228 2616 891 524 626 10656 4937 1026 7631 4904 17096 3707 4189 16535 6525 1725 2521 182 2444 130 1199 6145 3671 3442 1595 6340 4131 191 2329 3274 3785 324 10390 2335 1233 4073 1597 6583 4905 561 1263 2074 168 5305 1322 1788 1023 518 357 116 1164 1702 1207 185 3119 233 95 508 157 62 681 115 1047 4005 2886 467 186 1136 3034 954 932 552 314 2329 671 153 376 617 1253 4748 1278 3807 95 840 842 623 346 372 945 465 285 541 380 258 582 2796 2532 1254 56 191 335 1203 1003 248 222 893 108 544 121 562 1198 96 582 420 493 866 42
internal_count=51522 49164 2358 8844 40320 1550 808 12568 27752 6228 2616 891 524 626 10656 4937 1026 7631 4904 17096 3707 4189 16535 6525 1725 2521 182 2444 130 1199 6145 3671 3442 1595 6340 4131 191 2329 3274 3785 324 10390 2335 1233 4073 1597 6583 4905 561 1263 2074 168 5305 1322 1788 1023 518 357 116 1164 1702 1207 185 3119 233 95 508 157 62 681 115 1047 4005 2886 467 186 1136 3034 954 932 552 314 2329 671 153 376 617 1253 4748 1278 3807 95 840 842 623 346 372 945 465 285 541 380 258 582 2796 2532 1254 56 191 335 1203 1003 248 222 893 108 544 121 562 1198 96 582 420 493 866 42
cat_boundaries=0 1 2 3 30 32 34 36
cat_threshold=1 2 4 0 256 0 1441792 8192 0 0 67 67248128 1024 0 0 0 0 134217728 134217729 32768 0 65536 8650752 2148540416 0 0 8 0 524288 32 3355443200 1425 1308622848 16394 2759855424 2621759
is_linear=0
shrinkage=0.05


Tree=7
num_leaves=127
num_cat=8
split_feature=51 36 26 51 26 26 26 36 36 31 36 15 44 26 36 51 36 53 26 26 26 15 26 36 44 53 53 36 26 26 31 53 53 38 43 53 36 53 53 26 9 53 36 36 53 36 22 21 13 53 36 43 36 26 36 36 36 27 53 26 53 2 53 25 36 53 38 9 36 53 26 43 13 36 53 38 24 43 36 43 53 31 43 31 36 42 36 44 26 53 26 53 42 9 43 34 53 26 22 53 36 31 41 53 36 25 53 26 43 31 53 49 53 36 26 22 53 40 53 49 53 44 26 26 25 38
split_gain=338.562 73.6303 50.4669 16.2609 9.71095 3.53799 3.19732 1.77015 1.53942 1.20706 0.753484 0.78668 0.678425 0.644386 0.346144 0.325859 0.323714 0.286367 0.259466 0.241878 0.234833 0.213903 0.185244 0.181412 0.148599 0.120235 0.113122 0.109856 0.0930916 0.0906735 0.0904279 0.0868816 0.0713475 0.0642018 0.0621538 0.0603296 0.062388 0.0613034 0.0598419 0.055955 0.0553904 0.0493691 0.0482 0.0473559 0.045865 0.0445605 0.0428475 0.0422261 0.0411947 0.0401097 0.0865293 0.0385084 0.0383442 0.0374665 0.036032 0.0356815 0.0345254 0.0345225 0.0340669 0.034011 0.0320404 0.0319837 0.0313007 0.030559 0.029144 0.0285994 0.0480728 0.0282408 0.0278402 0.0261912 0.0260006 0.0253573 0.0247586 0.0237894 0.0236299 0.0224283 0.0223646 0.0221786 0.0217979 0.0215153 0.0213644 0.0207083 0.0200541 0.0198752 0.0193729 0.0183813 0.0179946 0.0172436 0.0170587 0.016974 0.0163776 0.0159652 0.0159369 0.0153376 0.0146688 0.014942 0.0142671 0.0140246 0.0138626 0.0181152 0.0136917 0.0134713 0.0132701 0.0128176 0.0134227 0.0126327 0.0126264 0.0160097 0.0124533 0.012353 0.0122901 0.0122712 0.0107368 0.0106053 0.0104022 0.010386 0.0135057 0.0103453 0.0102098 0.0102685 0.010129 0.00995348 0.0113681 0.00958353 0.00958181 0.00937686
threshold=0.44539798106224054 0.10762459109402552 0.69657656415380853 0.07588111615468629 0.049471576823160009 0.49376346659240727 0.82083091826915056 0.15565078711003574 0.073440776009009001 0.026890491504380856 0.28297254835057817 1.5000000000000002 0.58895355734192045 0.99857676556949582 0.39474594999527174 0.18388097580460275 0.037502428279784943 0.039771676489787744 0.11863908031217736 0.17994788448249457 0.096935017990160119 1.5000000000000002 0.016988209258619501 0.051423694978585795 0.052213295879762908 0.029593919172162478 0.040499347102940404 0.71571701445199476 0.15572319722814762 0.25026694226824725 0.12778421895630715 0.016923795969028783 0.049843054825256458 0.078224150644007839 0.036493461787804153 0.0069443364090058845 0.059293003572101155 0.022548920253279394 0.10933145404696473 0.07738631552110202 -0.58216583101416131 0.017554376744641328 0.39474594999527174 0.092580925893581231 0.046381410147396059 0.02076757283008077 0 1 -5.4217529296874991 0.037376896677425282 0.16154955034990473 0.056217250214855512 0.19148867733611843 0.21846633855270095 0.024045700733953571 0.021730507569585205 0.11838581345263487 0.077180409941869713 0.044505901102937361 0.19100992136756523 0.022916594651574054 1.0000000180025095e-35 0.042028325360497699 2 0.038438552833459573 0.025346224845284034 0.070416720299617916 -0.63405362205439475 0.014380251215582887 0.020351155620286398 0.34555800411573606 0.07157524666868996 -5.4437255859374991 0.14001195248687118 0.047326379899906131 0.074460368781719868 3 0.081939859349978633 0.18285458264941232 0.046134315502902631 0.040499347102940404 0.067043775503625197 0.12368531495005344 0.094042236257353487 0.48442152780440739 0.08476990699006523 0.19606917619371264 0.23794866600988979 0.07738631552110202 0.032998878118985421 0.10566494245715437 0.032621835846099727 0.082229587948796215 -0.63405362205439475 0.060399111264903209 0.035341652945489195 0.037376896677425282 0.019482104941714602 4 0.030591475950150319 0.093208001414448002 0.082129036092943822 0.050615920585645784 0.011278995808200085 0.0114509566455901 5 0.022743022064081509 0.066489703248260021 0.018579214692067254 0.058288035046402807 0.055603063991668984 0.052369746874453504 0.01233289414706566 0.037502428279784943 0.088955274688846814 6 0.030994122751461305 0.17194394331856197 0.027480977858095688 0.053212175130500604 0.038025883034583319 0.082147054906355751 0.0077105381331361508 0.29378982036400658 7 0.11030819051179315
decision_type=2 2 10 2 10 10 10 2 2 10 2 2 2 10 2 2 2 2 10 10 10 2 10 2 2 2 2 2 10 10 10 2 2 2 2 2 2 2 2 10 2 2 2 2 2 2 9 9 2 2 2 2 2 10 2 2 2 8 2 10 2 2 2 9 2 2 2 2 2 2 8 2 2 2 2 2 9 2 2 2 2 10 2 10 2 2 2 2 10 2 8 2 2 2 2 10 2 10 9 2 2 8 2 2 2 9 2 10 2 8 2 2 2 2 10 9 2 2 2 2 2 2 10 8 9 2
left_child=1 4 5 7 9 14 27 18 17 22 21 123 42 38 58 20 25 23 44 26 33 29 24 60 35 41 52 -4 43 49 46 54 94 47 108 68 37 103 -8 79 121 55 -7 72 56 96 80 118 -21 50 -5 -42 91 89 112 -11 101 -28 -2 73 64 -62 75 106 -6 -45 -67 78 -1 100 -16 -26 -22 -32 105 -48 -68 110 -59 -25 -20 -53 -30 115 -72 -82 -51 -69 -65 -50 92 125 -79 -81 95 -19 -39 -43 -90 -100 -49 -3 -95 -37 -105 -74 -35 -108 -18 -58 -46 -78 -24 -56 -96 116 -41 -103 -10 -120 -27 122 -36 -12 -71 -9
right_child=2 3 6 10 8 12 13 19 15 16 11 -13 -14 -15 70 -17 34 32 30 48 28 -23 31 39 71 120 57 -29 82 -31 59 -33 -34 63 40 36 -38 45 -40 83 51 97 -44 65 77 -47 62 69 53 86 -52 81 -54 -55 113 -57 109 67 -60 -61 61 -63 -64 88 -66 66 76 87 -70 124 84 -73 74 -75 -76 -77 111 90 -80 93 85 -83 -84 -85 -86 -87 -88 -89 98 -91 -92 -93 -94 102 114 -97 -98 -99 99 -101 -102 117 -104 104 -106 -107 107 -109 -110 -111 -112 -113 -114 -115 -116 -117 -118 -119 119 -121 -122 -123 -124 -125 -126 -127
leaf_value=-0.0029915334436413504 0.009738544585945464 -3.1015717981640925e-05 0.020470155280937458 0.0014486078311925505 -0.0019969534107025949 0.012044652825368639 0.028332212421185183 0.0019954610554036496 -0.00021269821426829309 -0.0026113097952681491 0.0067122485456332665 0.016395558090323944 0.019006117361447389 0.031559901869973754 0.010342023824398246 0.0056121586387850846 -0.0026403077046752545 -1.0902814864616421e-05 0.00066277167599246571 0.002333291453250866 -0.0010705041417049259 0.0017155380561543665 -0.0026730225574593458 -0.0013790000880253065 -0.0020620931938545371 -0.00078828768329910798 -6.0213539113778638e-06 0.024040620204674887 0.0010481744987696883 0.0062743597584303968 0.0013714398606719011 -0.0018920164545322823 0.0019258320392026677 -1.1253485760931791e-05 -0.0026558448580782058 -0.0027365040816853983 -0.0029634814917892014 -0.0012487258838973011 0.023880602577794036 -0.00064220128293106227 -0.0015562551304461351 -0.0022118219910135248 0.015377041220321611 0.00024636018646050881 -0.00012033084607846991 -0.0022997594753983389 0.00042750417064830001 -0.00057566519981487954 0.0031551792285391075 0.0053112787083595672 0.0051794064823517212 -0.0012645069511322744 0.0032549539193704059 0.0035825423215564752 -0.0023273966594726295 -0.0022403995099103489 0 0 0.011016969330908189 0.0025145350389617332 -0.0006682401587158166 -0.001481595867322174 0.0023345504953590501 -0.0005240468680790067 -0.0015385612002365189 -9.3271104570676142e-05 0.0017428734061846103 0.0015952549962478073 -0.0026069333624410222 -0.00030702719842969767 0.01227432330539442 -0.00094287934672215759 -0.00034890209900648324 0.0018284597608861715 0.0016747396802904869 0.0012389082324587505 0.00091574400843348982 0 0.0016043268808858674 -0.0013854476748695233 0.00012747750579675273 -0.00064290493083836117 0.0025409537019665655 -0.00022865687596777329 0.013718906352869709 -0.0016194384589226325 0.0062351095223342617 0.0028403569318192485 -0.00035071697888902544 0.0025342919375661711 -0.00095413605400065406 0.0017492743634209427 0.0011225519465324478 3.9822501456997094e-05 0.0011498264438904984 -0.0016520268021022319 2.3058481254979551e-07 -0.001692953304278672 0 0.0010900709066643483 0 0.00061301299317005056 -0.00099745569794729648 -0.0021327592204376626 -0.002581484484248062 9.434726194644912e-05 -9.6600650371815732e-05 0.00074271066869126094 -0.0018964859315552052 0.0009842754192824182 -0.0017897162000992612 0 -0.0023313991863513645 -0.0017994413133899498 0 -0.00096239489919302385 0.00025934096875175502 0 0.00094698167073091325 -0.00023356434663362576 0.00023165408992904354 -0.00099120878691032329 -0.0018587629382455059 0.0074550260539470161 -0.0010372180111066539 0.0025842657140988444
leaf_weight=4182 202 100 71 20 648 29 161 189 365 1179 265 25 200 435 41 25 100 60 160 205 55 37 2194 932 123 77 31 111 84 663 790 821 66 290 85 2515 1700 92 30 284 1688 326 295 714 34 227 120 664 591 228 518 688 162 531 1258 2730 34 45 316 128 194 504 67 416 1267 102 104 250 804 105 342 128 207 667 21 695 131 65 33 366 38 214 46 188 125 21 276 47 241 278 21 165 56 22 32 21 20 530 222 44 118 592 1597 351 1825 595 72 164 1188 828 24 53 580 207 46 659 40 65 42 23 26 51 709 601 520 532
leaf_count=4182 202 100 71 20 648 29 161 189 365 1179 265 25 200 435 41 25 100 60 160 205 55 37 2194 932 123 77 31 111 84 663 790 821 66 290 85 2515 1700 92 30 284 1688 326 295 714 34 227 120 664 591 228 518 688 162 531 1258 2730 34 45 316 128 194 504 67 416 1267 102 104 250 804 105 342 128 207 667 21 695 131 65 33 366 38 214 46 188 125 21 276 47 241 278 21 165 56 22 32 21 20 530 222 44 118 592 1597 351 1825 595 72 164 1188 828 24 53 580 207 46 659 40 65 42 23 26 51 709 601 520 532
