tree
version=v4
num_class=1
num_tree_per_iteration=1
label_index=0
max_feature_idx=56
objective=regression
feature_names=Column_0 Column_1 Column_2 Column_3 Column_4 Column_5 Column_6 Column_7 Column_8 Column_9 Column_10 Column_11 Column_12 Column_13 Column_14 Column_15 Column_16 Column_17 Column_18 Column_19 Column_20 Column_21 Column_22 Column_23 Column_24 Column_25 Column_26 Column_27 Column_28 Column_29 Column_30 Column_31 Column_32 Column_33 Column_34 Column_35 Column_36 Column_37 Column_38 Column_39 Column_40 Column_41 Column_42 Column_43 Column_44 Column_45 Column_46 Column_47 Column_48 Column_49 Column_50 Column_51 Column_52 Column_53 Column_54 Column_55 Column_56
feature_infos=none [0:3] [0:45] [0:225] none none none [0:0.70710678118654757] [0.70710678118654757:1] [0:0.83146961230254524] [0.55557023301960229:1] none none [-5.48492431640625:-5.23773193359375] [90.5877685546875:90.9722900390625] [1:5] [-14.935096760357844:46.225849132559659] -1:2:3:0 -1:3:1:0:2:4 -1:1:0 -1:1:0 -1:25:28:29:30:31:32:33:34:36:44:48:49:54:55:56:57:58:60:61:67:70:71:72:75:86:92:93:94:100:102:103:105:106:109:111:112:113:114:115:116:117:118:119:120:122:127:129:130:133:135:136:137:138:139:140:141:143:144:147:148:149:150:151:152:153:154:155:156:157:158:159:160:161:162:163:164:165:166:171:173:196:204:230:236:238:416:438:439:441:448:449:451:453:454:472:473:474:475:478:479:480:481:482:483:484:485:486:487:488:489:490:491:492:493:494:495:496:497:520:525:526:527:533:539:548:549:550:551:557:558:560:561:562:567:579:581:582:586:587:588:592:593:598:602:603:605:607:608:609:610:611:612:613:614:615:616:617:618:619:620:622:624:625:626:631:632:633:634:635:644:645:646:647:650:654:660:680:686:688:761:767:769:889:890:892:893:897:898:899:916:917:927:928:938:946:948:950:952:953:967:974:35:37:38:42:43:47:52:69:80:81:99:104:108:110:174:176:178:183:189:197:199:200:202:205:207:208:209:210:211:213:214:215:216:217:218:219:220:221:222:223:224:225:226:227:229:231:232:233:234:235:237:239:240:241:242:243:244:245:246:247:248:249:250:251:252:253:254:255:256:257:258:259:267:268:269:270:271:272:273:275:276:281:282:283:284:285:286:287:288:289:291:293:297:298:299:300:301:303:304:305:309:313:314:315:316:319:322:323:326:338:340:343:346:349:360:370:391:422:424:435:446:450:507:518:523:524:532:563:570:596:597:627:629:636:648:651:653:655:656:657:658:659:664:665:668:669:670:671:672:673:674:675:679:681:682:684:687:690:691:693:696:697:700:702:703:705:708:709:710:711:713:714:715:716:717:720:721:724:737:739:743:745:755:762:764:765:766:768:770:771:772:773:774:775:776:777:778:779:780:783:794:796:797:798:801:804:806:807:810:811:816:817:819:821:829:832:835:837:839:840:843:844:847:849:851:852:854:855:856:857:858:866:867:868:874:875:877:878:879:880:881:885:894:926:989:990:991:992:993:995:996:999:1000:1001:1002:1003:1004:1007:1009:1011:1012:1014:1015:1017:1018:1019:1020:1023:1026:1027:1029:1035:1036:1043:1047:1048:1053:1054:1059:1060:1062:1063:1064:1065:1066:1067:1068:1081:1082:1083:1086:1104:1120:1121:1162:1169:1175:1177:1178:1180:1198:1206:1207:1208:1211:1213:1220:1223:1225:1226:1243:1257:21:40:45:46:68:79:83:95:125:168:177:185:186:201:203:212:302:335:345:347:351:354:376:415:428:440:442:444:476:501:512:545:546:556:559:576:578:583:590:594:599:604:628:652:685:689:701:706:712:719:722:725:726:750:782:805:809:872:896:955:966:969:971:994:1008:1028:1057:1094:1101:1106:1108:1124:1160:1171:1172:1173:1179:1185:1229:1230:1232:1241:4:12:13:23:50:91:101:172:175:180:188:193:228:262:266:274:296:310:317:324:334:359:369:371:383:421:432:445:467:538:569:577:589:591:630:661:663:678:695:707:723:747:753:754:830:838:842:876:902:925:935:936:944:951:1005:1013:1025:1033:1049:1052:1056:1061:1069:1084:1105:1125:1137:1148:1200:76:85:123:145:167:169:170:277:294:307:312:336:344:403:447:519:547:553:568:600:676:692:704:735:742:781:795:808:823:850:859:871:895:922:997:998:1006:1130:1165:1181:1187:1192:1216:1219:15:17:20:41:82:107:142:290:320:325:337:339:342:350:355:365:384:390:412:508:529:535:537:584:667:683:792:799:802:836:860:931:973:1055:1114:1135:1140:1147:1163:1214:1218:1244:16:22:24:62:63:187:190:321:352:357:382:430:470:544:572:621:666:694:758:763:791:793:834:845:887:954:970:1031:1034:1037:1098:1123:1152:1174:1204:19:27:39:51:77:98:356:358:414:423:429:437:468:469:521:585:638:736:740:800:818:826:853:864:869:939:947:1040:1079:1087:1089:1109:1144:1145:1242:1247:1248:64:84:87:89:121:184:192:389:404:413:418:426:433:477:555:566:698:718:748:788:827:833:882:891:901:924:940:1041:1046:1118:1122:1134:1151:1170:1191:1195:1236:53:73:96:146:179:260:279:308:327:331:333:362:372:374:431:436:443:504:511:534:536:543:580:756:760:824:846:863:873:903:960:1010:1039:1045:1091:1117:1141:1146:1167:8:11:26:198:261:263:295:306:332:348:379:388:411:434:499:528:571:623:741:884:929:942:943:945:949:959:961:963:1071:1107:1131:1161:1202:1227:5:182:364:366:380:510:649:734:784:825:848:865:900:913:941:987:1022:1072:1074:1127:1136:1231:1246:1252:0:18:367:375:381:400:402:459:502:522:540:601:642:728:730:915:933:977:1050:1111:1132:1143:1153:1199:1210:1224:3:7:10:59:88:126:368:377:385:387:401:461:465:466:516:541:552:731:751:757:790:813:828:906:909:962:964:982:986:1038:1042:1051:1058:1078:1156:1203 -1:7:11:10:30:27:6:28:36:13:43:23:33:45:26:29:12:21:3:34:5:15:25:35:8:39:1:31:24:37:32:53:44:46:40:54:16:49:51:50:19:52:4:14:2:22:38:48:17:18:9:55:47:20:0:42 -1:4:1:5:2:3:0 -1:50:49:51:48:75:74:3:73:2:1:72:0:26:24:25 -1:74:73:75:72:26:2:25:1:27:3:24:0:50:49:51:48:98:97:99 [0:1] [1.4088935900360218e-06:1] [1.4088935900360218e-06:1] [1.4088935900360218e-06:1] none none [6.1381619414759519e-06:1] [6.1381619414759519e-06:1] [0:0.21874495860003682] [0:0.27304673418890718] [5.8072548755584534e-05:1] [1.4088935900366528e-06:1] none [5.8072548755584534e-05:1] [0.0024669834026833006:0.33704859229930206] [0.0040265677515728751:0.26601619706560109] [0.049612234370044049:0.59425340233546453] [0.054558677800063994:0.12358325984467493] [5.8072548755584642e-05:1] [1.4088935900360218e-06:1] none [5.8072548755584642e-05:1] [0.0024669834026833002:0.21110996539994237] [0.0031733245842169499:0.16750829364547354] [0.031488694517869349:0.56569315375310714] [0.0327291242279346:0.055764782371908253] [0.054766463214099684:0.53725184018296845] [1:16] [0:0.21874495860003682] none none
tree_sizes=10137 8751 10913 9968 11506 11553 9598 11449 11577 9585 11380 10449 11655 11435 11442 11507 11600 11381 8888 11421 11726 11755 11618 11589 11670 11445 11360 11272 11344 11693 11674 11637 11618 11319 11666 11477 11593 11509 11642 11687 11562 11649 11688 11645 11372 11697 8258 11661 11559 11710 11410 11451 11602 11289 11639 11477 11729 11529 11504 11262 11016 11367 10925 11363 11655 11779 11518 11410 10537 11222 11780 11611 10754 11375 11586 11149 11874 11256 11757 11893 11607 11704 11686 11719 11543 11264 11953 11689 11826 11585 11674 11702 11900 10994 11415 11142 11638 11555 11853 11850 12043 10657 11645 11551 11515 11361 10388 11698 11123 11407 11644 11454 11315 11559 11149 11584 11657 10593 11894 10753 11497 11278 11365 10945 11772 12063 10702 11595 11248 11553 10628 11286 11807 11654 11305 11688 12056 11375 10996 10603 11385 11365 11768 11689 11484 11491 11469 11320 11208 11130 11597 11427 11591 11170 10803 10385 10643 10780 10758 10852 11680 11243 11527 11471 11420 11322 11350 10494 10362 10920 11203 11154 11162 10527 10997 10571 11199 11921 11686 10973 11066 11302 11140 11647 11370 11397 11298 10328 11529 11427 11462 11379 10261 10820 10305 11108 11071 10819 10101 10527 11513 11227 11200 10296 11788 11031 11273 11328 9662 10448 11260 10354 11029 11270 10365 9816 9820 9575 11281 10883 9794 11044 10752 10509 9812 11399 11623 10426 10903 10597 11192 10587 10963 10858 10520 9579 10405 10339 10235 10364 9214 11048 9948 10747 10484 9429 10334 10281 9886 9726 9489 10208 11043 11126

Tree=0
num_leaves=113
num_cat=1
split_feature=52 45 37 17 32 32 37 32 37 36 37 43 33 45 33 32 54 42 33 54 37 54 33 47 32 43 37 29 43 32 37 45 47 54 45 54 54 43 43 43 42 43 43 42 42 32 54 54 28 32 43 32 43 48 43 47 37 42 28 32 37 43 43 43 54 35 42 43 43 42 42 43 42 42 42 43 43 43 29 32 42 43 43 34 54 54 43 43 29 41 36 43 43 42 43 42 42 45 28 34 54 43 13 33 42 32 43 43 43 40 43 14
split_gain=68.3948 18.2634 13.9875 2.25878 2.07764 1.83109 1.7832 0.511311 0.434548 0.284219 0.215637 0.126272 0.114233 0.109299 0.101764 0.0918888 0.0759344 0.0637519 0.0790677 0.0538622 0.0535807 0.0394573 0.0387891 0.0354763 0.0315793 0.0292661 0.0280439 0.0257105 0.0252291 0.0239392 0.0229831 0.0211555 0.020651 0.0204939 0.0196964 0.0186612 0.0182688 0.0178125 0.0162729 0.0143893 0.013897 0.0137448 0.013178 0.0146181 0.0174118 0.0117777 0.0110809 0.00990582 0.00923073 0.00855502 0.00856582 0.00818586 0.00799659 0.00710617 0.00707308 0.0070629 0.00649724 0.00640139 0.00610533 0.00575803 0.00572987 0.00532164 0.0170085 0.00521673 0.00535439 0.0115056 0.00511443 0.00489955 0.0153263 0.0130305 0.00488317 0.0043416 0.00567774 0.0123654 0.00801881 0.0118257 0.0106428 0.00465623 0.00421064 0.00393286 0.00389353 0.00459545 0.0212033 0.00312427 0.00307288 0.00307135 0.00271387 0.00243321 0.00215814 0.00209525 0.00185333 0.00212066 0.01101 0.00626824 0.00476203 0.00293959 0.00312277 0.00179353 0.00169843 0.00193718 0.00165716 0.00161338 0.00147359 0.0014298 0.00120925 0.000757674 0.000417909 0.000387585 0.000362761 0.000306403 0.000256629 0.000151268
threshold=0.20307956922581508 0.48819041804147817 0.080195869659919997 0 0.77890128364375422 0.036372303514248229 0.15484612131245443 0.55513044477819473 0.10895423400761224 0.022141772254435182 0.058418678015200017 0.054712728632385597 0.090455444483390199 0.25588789668636375 0.05167502513011521 0.14461212712877047 0.035531621725545283 0.050630568821610787 0.014327424760921685 0.041462297904653431 0.044469571910717466 0.029880171873136106 0.22223514737422986 0.06463055707263124 0.013078335353825415 0.054677993695420334 0.034328730010855422 0.053484218246884506 0.065222983894047445 0.060293197669150166 0.043466859145901891 0.15744778725308226 0.106010885032412 0.043947851630691044 0.043425426241868757 0.043947851630691044 0.02209051011261547 0.054700929159924569 0.054722784908684395 0.054703602608572557 0.089076463258910027 0.054693624026630062 0.1234905303696807 0.082228908544387927 0.081870793431837952 0.085408401516113605 0.027026652727289845 0.014124586349876995 0.057423102506154157 0.11426237233620506 0.10461612427425541 0.053502434284856459 0.06524295195305134 0.029883157748335502 0.065217887649151138 0.063040852706389219 0.047978830217279354 0.050648078384761507 0.15724279494390012 0.36049987167003189 0.031917790758318153 0.10464107992058948 0.10456808229912198 0.06294424641994624 0.024174630567576055 0.029107146816622669 0.074595782733974381 0.072031394542249674 0.072054286110738441 0.067077281874425396 0.050616560190758143 0.087177590961631649 0.072227646032193477 0.066964573830795709 0.073379265225784196 0.074919944375914996 0.072014652422061301 0.072047397878972394 0.055622222055726651 0.076157101810154726 0.050624506370922133 0.065222983894047445 0.06524295195305134 0.011879568844367236 0.014361029352963373 0.0068557788252037602 0.054712728632385597 0.074927501076564623 0.027994494076894104 0.066686335328766874 0.043058012667432123 0.072042648147267699 0.072054286110738441 0.067077281874425396 0.065250033057816639 0.082312202922204328 0.082402201891965107 0.073481038719657402 0.064333081880512163 0.022381385721277996 0.021747884970059292 0.072059012553987098 -5.3228759765624991 0.040315531095036237 0.081824071930644046 0.068876662244586065 0.065248683843413188 0.054712728632385597 0.07205026709882785 0.076037724316811689 0.05471083098445665 90.714111328125014
decision_type=2 2 2 9 10 10 2 10 2 2 2 2 10 2 10 10 2 2 10 2 2 2 10 2 10 2 2 10 2 10 2 2 2 2 2 2 2 2 2 2 2 2 2 2 2 8 2 2 10 10 2 8 2 2 2 2 2 2 8 10 2 2 2 2 2 8 2 2 2 2 2 2 2 2 2 2 2 2 8 10 2 2 2 8 2 2 2 2 10 2 2 2 2 2 2 2 2 2 8 10 2 2 2 10 2 10 2 2 2 2 2 2
left_child=2 3 5 13 7 9 8 -3 14 24 16 37 23 -2 35 31 20 70 38 29 46 26 -17 -10 85 -16 36 48 -29 52 -23 -8 109 40 -32 51 -20 -11 -19 -22 42 -31 43 44 61 66 60 -26 100 -34 -51 88 54 -50 110 78 -28 -40 -47 -5 -7 62 71 -57 97 -66 89 -54 -69 -70 -13 72 73 -30 77 76 -76 -74 104 105 -41 86 -83 -80 -85 -1 -82 102 -4 -25 -84 94 -93 -94 -92 101 -97 98 -65 -100 -27 -95 111 -71 -43 -55 -58 -62 -99 -14 -12 -53
right_child=1 4 6 59 -6 10 15 -9 12 11 19 17 32 -15 25 22 -18 18 21 -21 39 30 -24 45 47 27 56 28 33 41 34 -33 49 -35 -36 -37 -38 -39 57 80 -42 55 -44 -45 -46 58 -48 -49 53 50 -52 87 67 79 -56 63 106 -59 -60 -61 107 -63 -64 64 65 -67 -68 68 69 103 -72 -73 74 -75 75 -77 -78 -79 83 -81 81 82 90 84 -86 -87 -88 -89 -90 -91 91 92 93 95 -96 96 -98 108 99 -101 -102 -103 -104 -105 -106 -107 -108 -109 -110 -111 -112 -113
leaf_value=0.073261061773387148 0.08546522799412018 0.10083625127868387 0.075688030593626915 0.092488518639061032 0.12065516509103028 0.074299806660301546 0.078610557815495335 0.11040261373789502 0.076581699593898822 0.076913352735553026 0.07650461651196748 0.076655260258841118 0.078195967576206393 0.087471036326942947 0.079487021194975707 0.081704518099749129 0.077464743516284504 0.074601021483395841 0.074114145749489796 0.07805606357777907 0.076655260258841118 0.07672918699780297 0.084010529473572432 0.077121348470665416 0.073718832343412685 0.076730488369943145 0.074573965029341147 0.079283234032408736 0.077008906183235609 0.077494550592132019 0.074013911625613257 0.080626259550214741 0.079006050853606707 0.07916859308580787 0.076085003951305699 0.075157689179654735 0.075276385369563339 0.075618940486867667 0.074881747046387628 0.07642869715082859 0.07657726035513758 0.076338750342607398 0.076655260258841118 0.078499078251189125 0.076424481675117645 0.078788358240084136 0.075970796238259711 0.07424183349401467 0.076623449791793544 0.079956246589913418 0.07874298176329797 0.076727965696009953 0.075075369802692707 0.077093843915330112 0.076835295602980053 0.075970952977552714 0.075914421665619403 0.073603087800458766 0.077745910095469578 0.094807680729593641 0.075854467168163436 0.076902479548380212 0.079222624628693089 0.076655260258841118 0.07788084061924018 0.076541388419610806 0.076768602559569438 0.076784997640509514 0.076655260258841118 0.075305989634556425 0.075595266865231173 0.076763035129977994 0.077365232659677305 0.078869746204299748 0.077020126858207402 0.076655260258841118 0.078324817690578849 0.076407635433991983 0.076589979062896968 0.077674154621732647 0.075814154427094438 0.076655260258841118 0.075206566729987406 0.076460413884101519 0.075640070059724687 0.073581757948586138 0.074563245721756988 0.076584385696523441 0.076543258519108856 0.078229069285099456 0.075859823331484499 0.076655260258841118 0.076625758273359365 0.076185495340906781 0.074742590556101857 0.076655260258841118 0.075750141640309299 0.07682442224859154 0.07610418546379448 0.076655260258841118 0.076253081106366596 0.075282006343412089 0.076655260258841118 0.075838936546946567 0.076655260258841118 0.076655260258841118 0.075042917370364393 0.074863069308389651 0.076621550852989981 0.079116402763468707 0.075684134148720925 0.07741910143432694
leaf_weight=761 212 37 23 91 38 122 27 35 25 29 20 26 58 170 24 357 35 90 831 39 21 24 31 21 798 22 414 31 22 26 27 125 105 26 34 28 56 96 30 23 23 37 25 64 24 165 33 260 21 282 42 21 38 34 36 34 26 597 40 69 20 37 22 34 25 29 21 31 26 84 34 27 21 34 35 28 67 23 33 80 23 38 190 33 79 837 47 23 36 50 40 21 24 24 44 21 31 30 58 20 27 137 21 122 31 21 103 380 40 42 22 24
leaf_count=761 212 37 23 91 38 122 27 35 25 29 20 26 58 170 24 357 35 90 831 39 21 24 31 21 798 22 414 31 22 26 27 125 105 26 34 28 56 96 30 23 23 37 25 64 24 165 33 260 21 282 42 21 38 34 36 34 26 597 40 69 20 37 22 34 25 29 21 31 26 84 34 27 21 34 35 28 67 23 33 80 23 38 190 33 79 837 47 23 36 50 40 21 24 24 44 21 31 30 58 20 27 137 21 122 31 21 103 380 40 42 22 24
internal_value=0.0766187 0.0922865 0.0755516 0.0884983 0.110879 0.0744757 0.0789446 0.105596 0.078171 0.0739526 0.0756836 0.0743535 0.0789869 0.0863735 0.0774058 0.0814629 0.07526 0.0742682 0.074224 0.0762714 0.0751936 0.0744436 0.0819035 0.078208 0.0735897 0.0776651 0.074378 0.0775964 0.0777932 0.0761872 0.0756066 0.0803026 0.0794511 0.0776856 0.0750836 0.0763472 0.0741817 0.0759592 0.0737673 0.0755099 0.0775887 0.0764255 0.0776546 0.0777239 0.0775628 0.0783617 0.0748131 0.0738424 0.077083 0.0796293 0.0798151 0.0766068 0.0758805 0.0772765 0.0764249 0.0763574 0.0747082 0.073656 0.07861 0.0935306 0.0747497 0.0776651 0.0777482 0.0765512 0.0766553 0.0770702 0.0777527 0.0757562 0.0758741 0.0757309 0.0759962 0.0776016 0.0776782 0.0782298 0.0774712 0.0776759 0.0779269 0.0767519 0.0761354 0.077415 0.0754688 0.0754421 0.0755176 0.0759736 0.0758368 0.0734257 0.0749011 0.0768709 0.0761242 0.0779729 0.0754362 0.0755787 0.0757175 0.0756192 0.0752136 0.0755293 0.0760729 0.0765057 0.076379 0.0762504 0.076569 0.0753853 0.0770464 0.0755968 0.0765543 0.0769462 0.0751791 0.0748999 0.0766553 0.0786346 0.0759548 0.0772083
internal_weight=10231 652 9579 542 110 7274 2305 72 1765 5073 2201 2417 851 382 914 540 1274 2292 2232 927 1239 1515 388 322 2656 738 1430 714 509 888 85 152 529 478 61 176 887 125 717 684 452 509 429 404 340 297 555 1058 205 429 324 148 379 156 78 483 543 627 205 160 522 316 279 270 236 54 92 301 263 232 60 257 230 56 174 130 102 44 213 135 663 640 570 145 112 1598 70 89 59 71 532 342 258 237 84 213 52 182 112 78 49 161 66 206 68 55 129 400 70 100 42 45
internal_count=10231 652 9579 542 110 7274 2305 72 1765 5073 2201 2417 851 382 914 540 1274 2292 2232 927 1239 1515 388 322 2656 738 1430 714 509 888 85 152 529 478 61 176 887 125 717 684 452 509 429 404 340 297 555 1058 205 429 324 148 379 156 78 483 543 627 205 160 522 316 279 270 236 54 92 301 263 232 60 257 230 56 174 130 102 44 213 135 663 640 570 145 112 1598 70 89 59 71 532 342 258 237 84 213 52 182 112 78 49 161 66 206 68 55 129 400 70 100 42 45
cat_boundaries=0 1
cat_threshold=8
is_linear=0
shrinkage=1


Tree=1
num_leaves=96
num_cat=0
split_feature=52 37 37 15 45 37 27 45 37 33 27 27 33 27 54 54 33 27 36 37 54 36 37 27 37 44 54 44 33 44 33 27 54 27 44 37 48 33 54 35 27 27 44 48 34 27 3 2 33 45 27 54 14 27 29 54 54 54 54 37 44 40 54 2 53 54 1 35 34 44 54 54 48 27 33 54 40 48 54 27 33 54 44 27 3 36 48 48 33 54 54 54 33 45 40
split_gain=61.7553 16.5512 12.6443 3.22593 1.64197 1.608 0.721328 0.479468 0.393302 0.319804 0.167267 0.131336 0.112403 0.0964345 0.0916631 0.0878505 0.0731436 0.0598263 0.0578518 0.0476727 0.0379781 0.0358191 0.0357224 0.0356872 0.0213668 0.0201233 0.0183622 0.0176181 0.0170326 0.0165791 0.0160924 0.0138642 0.0175293 0.0127241 0.0119166 0.0119064 0.0104971 0.00979186 0.0103539 0.014422 0.00940184 0.00938943 0.00848244 0.00712914 0.0063934 0.00494817 0.00494705 0.00478393 0.00470587 0.00477667 0.00435898 0.00421398 0.00402856 0.00389418 0.00387106 0.00378722 0.00376889 0.0118969 0.00361058 0.00342244 0.00336498 0.00339201 0.00299903 0.00295007 0.00277968 0.00264812 0.00246715 0.0023121 0.00208031 0.00195529 0.00187222 0.00176966 0.00139248 0.00131426 0.00130926 0.0011402 0.0010027 0.00148342 0.00099713 0.000968091 0.000916932 0.000914778 0.000859509 0.000725959 0.000721109 0.000706757 0.00050196 0.000490143 0.000590553 0.000335452 0.0119811 0.000177803 0.000222302 9.31199e-05 8.35813e-05
threshold=0.20307956922581508 0.62406169854918303 0.080195869659919997 1.5000000000000002 0.043005223918535229 0.15484612131245443 0.86839375738056768 0.48819041804147817 0.11542621923582702 0.021397844647772016 0.057814437290188654 0.259254718704307 0.05167502513011521 0.15033161907119427 0.041462297904653431 0.023705219063168286 0.099470594357344969 0.27278774284818313 0.017274981044500651 0.031602990475106861 0.04935695962169008 0.043058012667432123 0.063170156305052808 0.11909566803281396 0.056602818977773868 0.067347901605591287 0.043947851630691044 0.050824268087874637 0.030386108430525114 0.084655316470165706 0.078310708252101999 0.036043545670531203 0.034169995974836172 0.017108795458223105 0.106010885032412 0.092294637804375496 0.027345722122644352 0.039618433000965049 0.024337187826379711 0.026537647539685801 0.07752580075867567 0.10188364094616832 0.066402607320136364 0.041164100455507578 0.023631055576510854 0.12073993674659671 202.50000000000003 22.500000000000004 0.072303438683186214 0.052150969858781253 0.03235571540026351 0.015229512047203892 90.758056640625014 0.084814014032293369 0.022261161810039353 0.024174630567576055 0.01052959715108095 0.10561981511782689 0.016831360244906019 0.1913498695563752 0.063040852706389219 0.075517559066776388 0.028899073371544459 1.0000000180025095e-35 14.500000000000002 0.026669802156967581 2.5000000000000004 0.036195138105741702 0.017206345926142518 0.07350289013880916 0.019970731005108891 0.0087015570350885158 0.039042410651575037 0.092836335458603522 0.044388067926181135 0.014361029352963373 0.051742354222034104 0.068864781624827939 0.010408501526148353 0.37267795054400393 0.028217547064391318 0.02209051011261547 0.13214948394926482 0.07443130371619501 67.500000000000014 0.084362466976664371 0.07093770977872009 0.077202862540185005 0.065293183401790869 0.10561981511782689 0.027580214893395991 0.016066532542057897 0.075876751054310285 0.091564645664081748 0.060561805566984005
decision_type=2 2 2 2 2 2 10 2 2 10 10 8 10 10 2 2 10 10 2 2 2 2 2 10 2 2 2 2 10 2 8 10 2 10 2 2 2 10 2 10 8 10 2 2 8 10 2 2 10 2 10 2 2 10 10 2 2 2 2 2 2 2 2 2 2 2 2 8 8 2 2 2 2 10 10 2 2 2 2 10 8 2 2 10 2 2 2 2 10 2 2 2 10 2 2
left_child=2 3 4 11 9 8 -3 79 12 18 21 -2 26 30 22 19 20 59 56 81 41 50 42 29 28 -25 40 33 -23 60 -7 54 68 71 -18 44 -37 -24 69 62 63 52 66 -27 -31 -36 -30 84 49 -26 86 -44 -10 -41 -17 -42 -1 58 -58 -15 61 72 -40 70 -21 -29 -12 85 -33 75 -4 -20 -14 -46 80 78 -77 83 -39 -5 -51 -11 -45 -78 -38 -62 -6 88 -71 90 -73 92 -90 -57 -53
right_child=1 6 5 7 10 13 -8 -9 16 15 14 -13 23 17 -16 31 34 -19 27 64 -22 24 37 25 48 43 -28 65 46 35 -32 32 -34 -35 45 36 47 38 39 53 55 -43 51 82 73 -47 -48 -49 -50 74 -52 94 -54 -55 -56 93 57 -59 -60 -61 67 -63 -64 -65 -66 -67 -68 -69 -70 87 -72 89 -74 -75 -76 76 77 -79 -80 -81 -82 -83 -84 -85 -86 -87 -88 -89 91 -91 -92 -93 -94 -95 -96
leaf_value=-0.0031371718900752403 0.0083478221550339991 0.031410894718773466 0 0.014839197518663623 -0.0022005347637213089 0.0016473314007407064 0.042357613951215456 0.023368599943792704 0.0019009861570401525 -0.0024428084982627855 -0.0010877863609507897 0.010495793470696964 0.00018315364225299783 0.004397197229299799 0.0022776815165852426 -0.0018359827658815644 0.0017203099746953814 0.0078052809962392226 -0.0030057276265621478 -0.0020700272163853622 0 -0.0019683865120733684 -0.00093695898453224262 0.00025646587151039645 0 0.00095958176160891064 -0.0013966527853090688 -0.0021164245333046422 -0.0011830114187380046 0.00094664543341677141 0.0036415331495967631 -0.0001386359972959359 0.00052163477512113599 -0.0023854325661602101 0.0024576786832358226 0.00010372895419976091 0.00064043545028666144 -0.00030379206997746099 0.00027263064699392864 -0.00072863134543935018 0.0006984584615275524 0.0022307954845230795 -0.00075642665791328476 0.0020050017497514751 0 0.0032411944051294697 -0.00015087422491650239 0.0017020856265602792 0 -0.00025632792061044333 -0.0014741153498774677 6.2743896818849657e-05 0.00093212313251777364 7.0256720240141033e-05 -0.00089158779369750019 -6.472705701245596e-05 -0.0027159417623257094 -0.0032426876457515956 -0.001967723719269249 0.0052006895277000136 0.0008173411807779091 0.00056699568493877685 0.0015060921111930308 0 -0.0016610599128403149 -0.0011065467089847901 -0.00058562033495889018 0 -0.0010509450253840316 -0.00026796533371437276 -0.00087713402902758113 -0.0025983880352839907 -0.00035210092042623365 0.00043630028941056955 -0.00066017881099644392 0 -0.0010821401014501058 -0.0001167514595035659 0 0.017011177417254199 -0.001092459418318195 -0.0012946761330210061 0.0032602563880346895 -0.00025641701950578229 0.0012760507300212055 0.00011183278131965212 -0.0011851466035156357 0.00010247973552991971 0 -0.0030979452226700083 -0.00089847759873054882 0.000103603013059686 -0.00017557911037057415 8.5979574927550471e-05 -6.496081645225826e-05
leaf_weight=1207 226 41 20 75 117 22 36 31 48 696 215 158 22 182 31 55 40 24 404 214 32 105 40 25 26 27 29 111 268 78 129 22 25 564 103 25 49 54 22 20 40 192 29 82 32 223 24 138 21 20 209 25 56 31 52 20 281 195 81 183 173 39 23 31 504 33 88 21 66 35 33 548 22 20 161 23 25 38 70 85 171 21 20 27 84 21 26 24 25 110 20 21 25 20 26
leaf_count=1207 226 41 20 75 117 22 36 31 48 696 215 158 22 182 31 55 40 24 404 214 32 105 40 25 26 27 29 111 268 78 129 22 25 564 103 25 49 54 22 20 40 192 29 82 32 223 24 138 21 20 209 25 56 31 52 20 281 195 81 183 173 39 23 31 504 33 88 21 66 35 33 548 22 20 161 23 25 38 70 85 171 21 20 27 84 21 26 24 25 110 20 21 25 20 26
internal_value=-3.47471e-05 0.0148532 -0.00104877 0.0119208 -0.00207172 0.00217718 0.036642 0.0172624 0.00144241 -0.0025452 -0.00087485 0.00924714 0.000834245 0.0045688 -0.000363637 -0.00196081 0.00237349 0.00501435 -0.00281587 -0.00210668 0.00178896 -0.00127877 -0.000461943 0.00107545 -0.00107563 0.00180132 -0.000237131 -0.002595 -0.00135401 0.000913915 0.00338536 -0.000986155 -0.000525537 -0.00265085 0.00288304 0.00112805 0.00132193 -0.000172171 -9.51137e-05 0.00034709 -8.98096e-07 0.00196645 -0.00082931 0.00206155 0.000647501 0.0030098 -0.00111538 0.00141578 -0.000785844 -0.000826417 -0.00172352 -0.000276312 0.00142872 -0.000145998 -0.00142497 0.000354998 -0.00303699 -0.00281041 -0.00256292 0.00481505 0.000590752 0.000221851 0.00101587 -0.000399319 -0.00179019 -0.00192062 -0.00095868 0.00070975 -0.000880038 -0.000224469 -0.000625651 -0.00278434 0 0.000101859 -0.000875964 -0.000313571 -0.000457415 -0.000538944 -0.000141934 0.0160342 -0.00103125 -0.00241634 0.00230305 -0.000750684 0.0010801 0.000766829 -0.00205182 -2.34806e-05 -9.9195e-05 -0.00264462 -0.0025475 0 -6.59687e-05 0 0
internal_weight=10231 652 9579 575 7274 2305 77 191 1765 5209 2065 384 1071 540 917 1655 694 389 3554 1435 328 1148 886 878 796 154 193 1790 397 724 151 220 113 1646 366 426 296 503 463 96 164 296 383 129 130 326 292 271 399 378 352 80 104 51 107 80 1764 557 362 365 298 83 45 84 718 144 303 215 88 367 53 1082 44 52 352 237 113 90 124 160 191 717 102 52 133 194 143 130 106 678 568 71 50 40 51
internal_count=10231 652 9579 575 7274 2305 77 191 1765 5209 2065 384 1071 540 917 1655 694 389 3554 1435 328 1148 886 878 796 154 193 1790 397 724 151 220 113 1646 366 426 296 503 463 96 164 296 383 129 130 326 292 271 399 378 352 80 104 51 107 80 1764 557 362 365 298 83 45 84 718 144 303 215 88 367 53 1082 44 52 352 237 113 90 124 160 191 717 102 52 133 194 143 130 106 678 568 71 50 40 51
is_linear=0
shrinkage=0.05


Tree=2
num_leaves=120
num_cat=1
split_feature=52 32 37 19 32 37 37 37 37 36 37 43 37 32 32 32 54 42 33 32 42 54 37 36 54 43 43 43 44 29 43 43 42 54 32 43 37 43 44 44 43 32 48 43 54 32 54 43 37 49 42 42 54 54 54 37 37 37 54 35 44 42 43 43 43 43 42 43 54 28 43 35 41 42 42 54 44 54 37 43 42 42 43 43 43 43 36 43 35 36 40 29 42 37 43 54 43 43 43 43 43 43 43 37 54 41 34 29 37 28 32 43 43 29 42 42 43 43 43
split_gain=55.7614 14.9469 11.4323 3.06289 1.49158 1.45038 0.444466 0.439323 0.355828 0.23197 0.175083 0.100784 0.0942097 0.0932168 0.0849231 0.0748757 0.0656705 0.0501004 0.0557813 0.0469038 0.0466022 0.0448161 0.0432959 0.0372794 0.026876 0.0255596 0.0236576 0.0232487 0.0223603 0.021419 0.0268202 0.0207072 0.020539 0.0222881 0.0178566 0.0176994 0.0175383 0.0167273 0.0160016 0.0155097 0.0150864 0.0138795 0.0129428 0.0114033 0.0112803 0.0104286 0.00894629 0.0087797 0.00864554 0.00698262 0.00678093 0.0142252 0.00642391 0.00639746 0.00638977 0.0110017 0.00498116 0.00488528 0.00440752 0.00571614 0.00534089 0.00430267 0.00537481 0.0240629 0.00575199 0.0228952 0.0109834 0.00715584 0.00427655 0.00424398 0.00718293 0.00409493 0.00428393 0.00405177 0.00403779 0.00385249 0.00381013 0.003801 0.00378282 0.0033498 0.00270543 0.0151159 0.016341 0.00334581 0.00311446 0.0026146 0.00250384 0.00248992 0.00429672 0.00308925 0.00293211 0.00242589 0.0025811 0.00237957 0.00200133 0.00183377 0.00151409 0.0013013 0.00120806 0.00289904 0.00115796 0.00223812 0.0256474 0.00110128 0.00101183 0.000976285 0.000880887 0.000879666 0.000861226 0.00077764 0.00065187 0.00051869 0.000418576 0.000393168 0.000258636 0.000732968 0.00284807 0.000206208 0.000102962
threshold=0.20307956922581508 0.55513044477819473 0.080195869659919997 0 0.036372303514248229 0.15484612131245443 0.47009325439700539 0.84513114877999251 0.10895423400761224 0.026147200284524223 0.058418678015200017 0.05471083098445665 0.26040784930478816 0.089660318644380413 0.060293197669150166 0.14461212712877047 0.04007667417701883 0.050630568821610787 0.013067923098440853 0.014542622817293188 0.089060600934031287 0.041462297904653431 0.042850247755786254 0.28782723074597782 0.029880171873136106 0.054677993695420334 0.10462997412699769 0.12350352727441052 0.083126982287906229 0.0439870438436935 0.065217887649151138 0.054693624026630062 0.089076463258910027 0.032399290206724801 0.11278160382434672 0.054721350750014296 0.047978830217279354 0.054697379550448295 0.10112766435199076 0.041695110296999564 0.054703602608572557 0.094455564144804896 0.038177563987675057 0.054700929159924569 0.027026652727289845 0.063877140221764231 0.043947851630691044 0.1231734932737403 0.047577219138312622 0.037859086997278309 0.082228908544387927 0.081870793431837952 0.0088306799213912837 0.042563776803301888 0.014124586349876995 0.030171853423117199 0.031300796421472703 0.017033082101403304 0.024174630567576055 0.026537647539685801 0.079559617443406214 0.050624506370922133 0.065217887649151138 0.065244379034764752 0.072035035059757321 0.072056004023490688 0.067077281874425396 0.065255592165834056 0.10561981511782689 0.063628742801987506 0.065240855145262081 0.058284821139621516 0.05838264474415885 0.050616560190758143 0.050648078384761507 0.017848094009182469 0.106010885032412 0.028494815855763054 0.10360708901056311 0.05471083098445665 0.082312202922204328 0.082384989529237021 0.074935073795361726 0.10469466433357082 0.10465376008386588 0.10468109449666037 0.15229543604468318 0.074930123766893744 0.019543093467489565 0.072603243238396911 0.079211255986031653 0.027994494076894104 0.050736363200992597 0.031602990475106861 0.12347754872743665 0.013673793059829185 0.07493695052846934 0.065238782423600025 0.07205026709882785 0.074908371828657533 0.072060909201890941 0.074908371828657533 0.07493695052846934 0.066924490735968969 0.017848094009182469 0.11075046093684962 0.00943248970545023 0.039133954002381156 0.083492567783367652 0.080047922981169611 0.052846684297351773 0.072051992506824411 0.12347754872743665 0.056314823036473657 0.067069081108982478 0.081846336260948782 0.074932770354369002 0.072067191565158228 0.065246554905931869
decision_type=2 10 2 1 10 2 2 2 2 2 2 2 2 10 10 10 2 2 10 10 2 2 2 2 2 2 2 2 2 10 2 2 2 2 10 2 2 2 2 2 2 8 2 2 2 10 2 2 2 2 2 2 2 2 2 2 2 2 2 8 2 2 2 2 2 2 2 2 2 8 2 8 2 2 2 2 2 2 2 2 2 2 2 2 2 2 2 2 10 2 2 10 2 2 2 2 2 2 2 2 2 2 2 2 2 2 8 10 2 10 10 2 2 10 2 2 2 2 2
left_child=2 3 4 12 9 8 -5 -3 14 19 16 43 -2 28 37 41 22 73 35 52 26 31 44 86 36 -16 34 29 53 71 -31 -12 33 50 113 -19 56 -4 109 96 -24 -7 -26 -11 93 69 91 -28 -44 -30 51 78 -1 -10 55 -21 -20 -56 87 -60 -61 -42 79 97 67 111 -67 -65 75 70 104 72 -27 -13 -37 -54 -36 105 108 -63 83 -82 -83 84 100 -86 -17 88 90 112 106 92 -39 -6 -52 103 -33 -64 -90 -100 -68 117 -103 -71 -41 114 -47 -93 -32 -35 -109 -66 -89 -15 -72 -116 -117 -102 -38
right_child=1 7 5 6 10 15 -8 -9 13 11 21 17 -14 20 25 23 -18 18 24 54 -22 -23 40 -25 42 27 47 -29 49 30 32 39 -34 38 76 74 118 46 -40 45 61 -43 48 -45 -46 58 -48 -49 -50 -51 94 -53 68 -55 57 -57 -58 -59 59 60 -62 62 63 64 65 66 80 -69 -70 95 77 -73 -74 -75 -76 -77 -78 -79 -80 -81 81 82 -84 -85 85 -87 -88 89 98 -91 -92 107 -94 -95 -96 -97 -98 -99 99 -101 101 102 -104 -105 -106 -107 -108 110 -110 -111 -112 -113 -114 -115 115 116 -118 -119 -120
leaf_value=-0.003011155530068694 0.0079858380721010095 0.030501197877093256 0.00095085067980325052 0.015194136539364845 -0.0021354496404075289 0.0017035554872276996 0.021590819300856077 0.039793692188938773 0.00057546622737783104 0.00030380714716679016 0.00080370810285111606 0 0.0098685447938698379 0.00128580951203938 0.0026528258231424146 0.0040280646383898545 0.001169760297265913 -0.0017025219989647176 -0.0022390382235946758 -0.0026477587244145171 8.5132603731605843e-05 0.0012769193361129832 9.7947093875860891e-06 0.0072587338792628022 -0.0019803417030141339 0 0.00071947632658523285 -0.0005585646891050598 0.00040284061662858951 0.0028448204796164582 0.00023932395080652016 -0.00054209661861683966 -0.00022787913461851567 0.00060661109975883093 0.002158682691200895 -0.001570476702933382 -0.00053066739427193354 0 0.0032431473626680142 0 -0.00015211254477846779 0.003540379969220664 0.00023533878336225796 -0.00077006484132999113 -0.00050946584898211862 -5.7701008929264102e-05 -0.0014209000072602567 0.002050497449041544 -0.00090964419265281669 0.0015659610439195685 0.0017165326228498635 -0.00023107639720981897 -0.0026517486945761104 -0.00066937795696566955 -0.0013701196327448139 -0.0019275701669534109 -0.0018795599868602034 -0.0022612957297185226 0.00070798800567585941 -0.00062211493900123614 0.00031246390875058002 -0.00063364731359750179 0.00021735517463336389 -0.0011289796520396475 0.00018145686296380947 0 -0.00066586956629325397 -0.0023923749678602842 -0.0030652559326868555 -0.00058897634925904069 -0.00011147615189290629 0 0.00064736055988745523 -0.00090613134368533813 -0.0027927673148327617 -0.0019426767235211626 0.0029661513050731228 0 0.0013127356962242347 -0.0018856885006160468 6.8874595613369543e-05 0 -0.0015797935925515661 -0.0023099487921072973 -0.00017486355571417659 -0.0011381097844448582 0.00484125995302679 -0.00081496021025984219 0.00030108854855195833 0 0 0.0001540508968687123 -0.00080406975824958999 -0.0016160297400639682 0.00060479453526985597 -0.0010157203058123131 -0.0014245707644042406 -0.00025179249106816224 -0.00042449372616421358 0.00020002418452369567 -0.0012780327227537649 0 -0.0017383075875502753 0 0.0003561402018112446 0 -0.00085902987422355702 -0.00037031555647939573 0.00077356882206210684 0.0016321393396455876 0 -0.00015089372394193486 -0.00018126491574882081 0.0022046109225785453 -0.00087105414421388022 0 -0.00068636615561158904 -0.0022424709718779226 -0.0014226967500869209
leaf_weight=1119 224 35 20 155 117 24 40 38 21 29 30 26 160 31 23 123 25 78 566 747 26 39 23 21 23 28 38 24 30 23 38 31 27 24 73 27 20 20 21 21 24 128 21 74 31 21 26 46 35 91 46 26 501 20 50 120 482 299 28 31 23 21 23 63 24 27 30 32 202 28 23 37 99 33 433 83 307 20 62 61 24 24 65 21 31 26 244 52 35 34 26 22 35 355 23 95 52 34 32 37 41 32 59 20 22 21 31 24 214 32 20 22 28 168 89 26 32 39 105
leaf_count=1119 224 35 20 155 117 24 40 38 21 29 30 26 160 31 23 123 25 78 566 747 26 39 23 21 23 28 38 24 30 23 38 31 27 24 73 27 20 20 21 21 24 128 21 74 31 21 26 46 35 91 46 26 501 20 50 120 482 299 28 31 23 21 23 63 24 27 30 32 202 28 23 37 99 33 433 83 307 20 62 61 24 24 65 21 31 26 244 52 35 34 26 22 35 355 23 95 52 34 32 37 41 32 59 20 22 21 31 24 214 32 20 22 28 168 89 26 32 39 105
internal_value=-3.30021e-05 0.014114 -0.000996582 0.0114091 -0.00196929 0.00207082 0.0165423 0.0354546 0.00137278 -0.00244145 -0.000878683 -0.00200379 0.00878568 0.00211129 0.000679545 0.00434243 -0.00126058 -0.00208933 -0.00213766 -0.00271351 0.00237041 -0.000348354 -0.00131332 0.00474302 -0.00193799 0.000909182 0.00245246 0.000846527 0.000977621 0.000901916 0.00106009 -0.0004255 0.000969787 0.00104664 0.00258036 -0.00259259 -0.00200226 -0.000317643 0.0018864 -0.000474395 -0.00105309 0.00328454 -0.0009192 -0.000419215 -0.00168904 -0.000394786 -0.000524746 0.00150939 -0.000391495 0.00131944 0.000875903 0.000750453 -0.0028841 0 -0.00244194 -0.00255408 -0.00207867 -0.00214837 -0.000186674 9.4575e-05 -0.00013179 -0.00109382 -0.00111897 -0.00104309 -0.00114287 -0.00103653 -0.00115278 -0.00160919 -0.0026965 -0.000580251 -0.000415114 0.000354163 0.000492434 -0.000537087 -0.00273225 -0.00255988 0.0028248 -0.00053962 0.000847692 -0.00162711 -0.00122083 -0.000861522 -0.00116833 -0.00134808 -0.00124955 -0.000703028 0.00458351 -0.000281479 -0.000126814 -0.000484252 -0.000415565 -0.000289882 -0.000542903 -0.0017558 0.00141972 -0.000838135 -0.00115619 0 4.19102e-05 -1.74436e-05 -0.00137925 -0.00147472 -0.00112093 -0.000381334 7.96612e-05 -0.000609418 -0.000632117 -2.88536e-06 0.000712968 0.00128362 -0.000194904 0 -0.000656092 0.00208731 -0.000656955 -0.000708178 -0.000371119 -0.00181283 -0.00132048
internal_weight=10231 652 9579 579 7274 2305 195 73 1765 5073 2201 1952 384 851 914 540 1274 1849 1790 3121 689 927 1249 388 1252 747 663 724 162 700 536 888 513 486 579 538 1173 167 77 858 746 152 79 103 503 775 147 84 56 121 409 340 1905 41 1216 867 1048 349 378 82 54 723 699 617 560 465 419 95 786 397 254 164 127 59 460 584 380 211 314 82 392 113 89 279 258 57 367 296 182 114 78 121 55 472 69 143 83 57 104 69 201 171 91 48 43 191 52 66 252 56 44 46 80 199 170 147 58 80 125
internal_count=10231 652 9579 579 7274 2305 195 73 1765 5073 2201 1952 384 851 914 540 1274 1849 1790 3121 689 927 1249 388 1252 747 663 724 162 700 536 888 513 486 579 538 1173 167 77 858 746 152 79 103 503 775 147 84 56 121 409 340 1905 41 1216 867 1048 349 378 82 54 723 699 617 560 465 419 95 786 397 254 164 127 59 460 584 380 211 314 82 392 113 89 279 258 57 367 296 182 114 78 121 55 472 69 143 83 57 104 69 201 171 91 48 43 191 52 66 252 56 44 46 80 199 170 147 58 80 125
cat_boundaries=0 1
cat_threshold=2
is_linear=0
shrinkage=0.05


Tree=3
num_leaves=110
num_cat=2
split_feature=17 37 37 17 32 45 27 45 27 37 37 36 37 27 43 44 54 33 54 42 27 27 43 32 32 27 42 32 54 28 37 27 36 43 54 43 13 54 54 43 37 43 37 43 34 54 27 37 43 54 43 42 42 42 33 54 37 29 43 43 43 37 28 42 54 43 42 43 32 43 43 34 42 37 48 29 42 42 43 33 43 27 54 45 43 43 43 3 29 37 34 28 43 28 27 42 28 42 29 54 32 43 32 34 54 37 45 42 43
split_gain=50.0209 14.012 10.1294 2.84026 1.33742 1.21915 0.589906 0.376628 0.23734 0.2111 0.200806 0.162577 0.140826 0.130078 0.0966762 0.0799375 0.0652537 0.0644171 0.0574041 0.0482111 0.0477278 0.0367623 0.0302794 0.0282594 0.0273888 0.0270486 0.0252641 0.0260261 0.02341 0.0232169 0.020977 0.0187252 0.0182931 0.0167672 0.0202943 0.0160554 0.0151691 0.0264273 0.013176 0.0120911 0.0109849 0.010599 0.0104092 0.00955035 0.00951163 0.00943858 0.00942823 0.00812997 0.00811474 0.00801733 0.00788512 0.00786196 0.00937147 0.0115266 0.00734015 0.00685711 0.00649084 0.00641599 0.011662 0.00762195 0.013779 0.00555464 0.00547271 0.00654729 0.00968197 0.0053702 0.00524327 0.00503077 0.00446578 0.0041776 0.00534906 0.00386928 0.00384088 0.00381904 0.00359088 0.00347314 0.00416707 0.0034228 0.00330837 0.00524524 0.00316864 0.00314768 0.00592465 0.00310899 0.00266042 0.00388612 0.00246499 0.00239235 0.00236061 0.00233904 0.00229661 0.00225551 0.00223216 0.00213147 0.00181282 0.00176955 0.001507 0.00149673 0.00136732 0.00120415 0.00105403 0.00105037 0.000931957 0.000870039 0.000841515 0.000667638 0.000368593 0.000156937 7.97366e-05
threshold=0 0.62406169854918303 0.080195869659919997 1 0.032874546589574963 0.13968711427246427 0.86839375738056768 0.48819041804147817 0.10053098071626478 0.050770128770223598 0.14874984725788151 0.021674877939167662 0.16362659262666848 0.27278774284818313 0.054712728632385597 0.10763978347301427 0.028899073371544459 0.05167502513011521 0.041462297904653431 0.050630568821610787 0.018259388730491703 0.057101540548542357 0.054677993695420334 0.053502434284856459 0.11797607418240451 0.15033161907119427 0.089076463258910027 0.073519465233419706 0.026669802156967581 0.061223420370911254 0.031917790758318153 0.028064651726858406 0.060742462308293853 0.12347754872743665 0.035531621725545283 0.1234905303696807 -5.4107666015624991 0.032399290206724801 0.035531621725545283 0.054700929159924569 0.10895423400761224 0.054706280447658295 0.028304053760191291 0.054721350750014296 0.02386603197477773 0.043947851630691044 0.040316175933082607 0.10458885218406519 0.054693624026630062 0.0074343144089299143 0.054693624026630062 0.089076463258910027 0.082228908544387927 0.081859068520249642 0.011980381771012407 0.024174630567576055 0.065517207919723527 0.047846265876575055 0.065222983894047445 0.071997055691310943 0.072035035059757321 0.071691595205066128 0.052016637361458708 0.050608781274668037 0.034764264215868375 0.065233934599133556 0.050653076084961814 0.054706280447658295 0.36049987167003189 0.10464107992058948 0.087112691417050178 0.021409227481394594 0.050616560190758143 0.055377048245676477 0.039209371743936357 0.032239612081511507 0.050608781274668037 0.089132584214725821 0.072051992506824411 0.040315531095036237 0.065238782423600025 0.027702648753186704 0.013787489079072162 0.0890265903600614 0.074915929639050957 0.07488702451171543 0.072035035059757321 97.500000000000014 0.07415097488985857 0.044469571910717466 0.024838239643745326 0.058097108018212107 0.072051992506824411 0.052973480799397808 0.11909566803281396 0.068531989366962573 0.062638102787450869 0.082335439647096303 0.016402816163084453 0.019970731005108891 0.054126975079968144 0.072031394542249674 0.070793463310952681 0.012088700722172694 0.055151860251237313 0.043466859145901891 0.054915899907722658 0.089076463258910027 0.074841320027820249
decision_type=9 2 2 9 10 2 8 2 10 2 2 2 2 8 2 2 2 8 2 2 10 10 2 10 10 10 2 10 2 10 2 10 2 2 2 2 2 2 2 2 2 2 2 2 8 2 10 2 2 2 2 2 2 2 10 2 2 10 2 2 2 2 8 2 2 2 2 2 10 2 2 8 2 2 2 10 2 2 2 10 2 8 2 2 2 2 2 2 8 2 10 10 2 10 10 2 8 2 10 2 10 2 10 10 2 2 2 2 2
left_child=2 3 4 7 11 8 -3 68 17 16 -5 31 24 108 39 26 30 45 21 72 43 61 -19 -20 -7 -14 27 -10 42 48 -6 49 56 34 47 51 -17 40 44 -13 -38 -32 -22 -21 -18 83 105 87 -24 -1 -34 52 53 57 66 75 98 74 -59 65 -61 67 -50 -64 93 -60 -45 -11 -2 70 84 -57 -16 -44 -31 76 -52 89 91 -80 -77 82 -51 100 85 -62 -82 -29 -63 -43 103 -58 -88 -65 -39 -94 -85 -97 -23 -42 -4 -73 -69 -81 -27 -30 -56 -91 -12
right_child=1 6 5 10 9 12 -8 -9 15 18 13 14 25 -15 19 36 38 22 23 20 28 32 29 -25 -26 104 -28 33 46 35 41 -33 50 -35 -36 -37 37 94 -40 -41 99 77 73 54 -46 -47 -48 -49 62 81 55 -53 -54 -55 106 71 78 58 59 60 69 88 63 64 -66 -67 -68 102 -70 -71 -72 101 -74 -75 -76 80 -78 -79 79 90 86 -83 -84 96 -86 -87 92 -89 -90 107 -92 -93 95 -95 -96 97 -98 -99 -100 -101 -102 -103 -104 -105 -106 -107 -108 -109 -110
leaf_value=-0.0028554983543334603 0.013511452456664306 0.028158273252465778 -0.00068272542079305819 0.003401189090023596 -0.0020540599834308836 0.0018192594855794709 0.038056690893148185 0.021027579654451352 -0.00010281813228755716 0 0.0079041823512568787 0.00028998192961856732 0.0033027217308705999 0.0097905265379486326 0 0.00097814812605685514 7.0931831267527078e-05 0.0024882448844297635 0 -0.0016975006869657768 -0.0022019077680927933 -0.0013600158471634741 0.00086782238037218901 0.002370331744775485 0.0030725575107335415 0.0045508837109774882 -0.00015672956124901594 0.00016125394797041485 -0.00050720486833959525 0 -2.991526850534522e-05 -0.0021135985849723253 0.00071223392579490433 0 0.0024791990581715419 -0.00024958070621740411 0.0011331421416876 0.0022125154265789627 0.0009693360302009895 -0.00083281924671340746 0.0019664933905450791 -0.0015125553691013713 -0.0017896735849092693 -0.0016695174971535021 -0.0011630648924260442 -0.0011542427820629044 0 0.0016120534994363994 0.00048767277802623347 -0.002558508504249228 0 0 0.001749383864465878 0 -0.0022708068281719735 0.00073944428200789795 0.0004374567301220027 0.0021755315681581395 0.00070533044636249547 0.0023934075566708229 0.00021673680690764173 -0.00058032228044770128 0.00036324449100726239 -0.00040359134122543676 -0.0014698767316223109 -0.00020022228505281437 -0.0027091961290298069 -0.0010604252703172376 0.015630751315574398 3.5709729724270518e-05 0.0014212882858757154 -0.00030262312650291331 -0.00087152685621173722 -0.00080849954468179561 0.00064234607245744599 0.00031721954967896184 -0.00071137995319773151 -0.0023758884370920666 -0.0011657079996703448 0 -0.0007331235557446774 -0.0027845613817174004 -0.0020434000327556388 0.00029017001577913318 0 0.0013583738188263517 0.00019683650029610566 0.0010440865882895341 0 -0.0012297325966391405 2.3029161431582643e-05 -0.00026914513322011917 0 0.00019371133831686416 0.0038476100230976163 -0.00048874189398391728 -0.00013920397903295563 0 -0.00067756391536626993 0.0026752900313399006 0 0.00017021237529416455 -0.00035410125832795295 -0.00048164216955130399 0.0033432476642990929 -0.0015834444529625757 -0.0013083987398506093 -0.00043629566163389606 0.0065349852271547673
leaf_weight=1041 91 40 26 25 200 93 38 31 22 21 186 26 114 136 22 31 24 26 23 91 383 27 27 24 176 313 23 24 20 23 21 238 26 23 62 25 41 21 24 81 111 537 459 40 25 33 22 161 27 627 20 20 45 29 428 25 21 28 32 22 32 41 20 29 21 21 510 389 69 25 58 20 33 30 71 26 77 25 24 25 24 449 197 38 22 22 31 92 24 284 27 22 27 20 50 59 31 31 206 102 21 27 27 60 37 29 27 21 57
leaf_count=1041 91 40 26 25 200 93 38 31 22 21 186 26 114 136 22 31 24 26 23 91 383 27 27 24 176 313 23 24 20 23 21 238 26 23 62 25 41 21 24 81 111 537 459 40 25 33 22 161 27 627 20 20 45 29 428 25 21 28 32 22 32 41 20 29 21 21 510 389 69 25 58 20 33 30 71 26 77 25 24 25 24 449 197 38 22 22 31 92 24 284 27 22 27 20 50 59 31 31 206 102 21 27 27 60 37 29 27 21 57
internal_value=-3.1611e-05 0.0131422 -0.00095986 0.0105141 -0.00187387 0.00193881 0.0330872 0.0155674 0.00114242 -0.000938106 0.00810932 -0.00236794 0.00362325 0.00840572 -0.00204272 0.00177492 -0.00143517 0.000528169 -0.00050813 -0.00211845 -0.00215879 -0.000572478 0.000747303 0.00117255 0.00265868 0.00417099 0.00126843 0.00136683 -0.00187239 0.000665712 -0.00153226 -0.00264639 -0.000352774 0.00146995 0.00155915 0.000835555 0.00233942 0.00245354 0 -0.000513288 0.00215741 -0.00140889 -0.00194877 -0.00240046 -0.000457912 -0.000386762 -0.000862514 0.00133435 7.05748e-05 -0.00269893 -9.33209e-05 0.000906991 0.000952147 0.00084555 -0.00245896 -0.000164189 -0.000588046 0.000924176 0.00106955 0.00091498 0.00108106 -0.000914692 -7.12909e-05 -0.000294829 -0.000554427 0.000252663 -0.00264299 -0.000987261 0.0144658 0.000866663 0.000984264 0.000237033 -0.000531054 -0.00173988 0.000465143 -0.000279105 -0.000542714 -0.00143651 -0.000311734 -0.00043434 -0.000124514 -0.00256676 -0.00244169 -0.000124554 0.000583613 0.000775921 -0.000220487 0.000904794 -0.000349234 -0.00140241 -0.000232116 0 -0.000103156 -5.80633e-05 0.00343811 -0.00022544 2.49817e-05 -0.000339342 -0.000778646 0.00233048 -0.000449829 0 -0.00102669 -0.000371848 0.00443849 -0.00124792 -0.00222498 -0.00119165 0.0076064
internal_weight=10231 673 9558 595 7268 2290 78 191 1557 2515 404 4753 733 379 2201 763 1161 794 1354 2094 2039 1307 645 47 269 464 407 384 943 619 1088 2552 805 362 339 475 356 325 73 107 254 888 872 1096 49 149 71 277 144 2314 393 450 430 385 1005 367 412 356 262 234 181 502 117 90 70 53 550 437 160 159 134 72 55 489 94 295 97 867 179 136 198 1273 824 116 76 54 172 116 65 842 112 43 148 49 71 117 69 90 233 213 47 47 416 85 350 49 455 305 243
internal_count=10231 673 9558 595 7268 2290 78 191 1557 2515 404 4753 733 379 2201 763 1161 794 1354 2094 2039 1307 645 47 269 464 407 384 943 619 1088 2552 805 362 339 475 356 325 73 107 254 888 872 1096 49 149 71 277 144 2314 393 450 430 385 1005 367 412 356 262 234 181 502 117 90 70 53 550 437 160 159 134 72 55 489 94 295 97 867 179 136 198 1273 824 116 76 54 172 116 65 842 112 43 148 49 71 117 69 90 233 213 47 47 416 85 350 49 455 305 243
cat_boundaries=0 1 2
cat_threshold=4 1
is_linear=0
shrinkage=0.05


Tree=4
num_leaves=127
num_cat=0
split_feature=52 37 37 15 45 45 27 45 33 27 27 27 27 43 54 44 54 33 27 37 33 37 43 28 37 39 42 29 42 27 37 43 13 54 33 27 54 43 54 37 37 54 37 33 54 35 43 43 42 42 42 43 44 43 29 43 43 43 28 43 43 1 43 43 45 54 1 43 44 44 45 34 40 37 43 43 43 43 43 54 43 37 43 43 43 27 34 27 43 14 44 33 54 43 43 43 40 28 44 35 34 54 27 29 43 43 43 35 54 3 37 54 27 45 42 54 37 54 27 13 27 27 29 3 34 13
split_gain=45.4801 12.2285 9.3449 2.35541 1.20627 1.18939 0.524175 0.337053 0.234214 0.214671 0.157166 0.126202 0.0987185 0.0748171 0.0724516 0.0712557 0.0660187 0.0607167 0.0507683 0.0340353 0.0310108 0.0301562 0.0271213 0.0285469 0.0270569 0.0270196 0.023165 0.0232212 0.0198653 0.015777 0.0151397 0.0148245 0.0131442 0.0239286 0.0122905 0.0111396 0.0132007 0.0106269 0.00954599 0.0122048 0.00941962 0.00928547 0.00839187 0.00742534 0.00852733 0.0123172 0.00731997 0.00958421 0.00725393 0.00803697 0.0107066 0.0071083 0.00698862 0.00655284 0.00635998 0.00995599 0.00723569 0.0134227 0.00604316 0.00558001 0.00537969 0.00534456 0.0109294 0.00489571 0.00465393 0.00461299 0.00441296 0.00663037 0.00436638 0.00425615 0.00425567 0.00405248 0.00386625 0.00379669 0.00378551 0.0100836 0.00470095 0.00452445 0.00374475 0.0100981 0.00366635 0.00366629 0.00366165 0.00452682 0.00348487 0.00325004 0.00318557 0.00315362 0.00292104 0.00287276 0.00273199 0.00259122 0.00240058 0.00238444 0.00336185 0.00218394 0.00208255 0.00202405 0.00200418 0.00197692 0.00203121 0.00234762 0.00213682 0.00189147 0.00172952 0.00341878 0.004736 0.00153593 0.00151628 0.00148717 0.00135202 0.00128434 0.00097808 0.000960677 0.00093812 0.000922605 0.000717928 0.000564312 0.000442154 0.000370385 0.000326068 0.000365068 0.000309186 0.000241449 0.000107861 4.95788e-05
threshold=0.20307956922581508 0.62406169854918303 0.080195869659919997 1.5000000000000002 0.043005223918535229 0.13968711427246427 0.86839375738056768 0.48819041804147817 0.021397844647772016 0.10053098071626478 0.16858517738413839 0.057814437290188654 0.259254718704307 0.054718662054457398 0.041462297904653431 0.10763978347301427 0.023705219063168286 0.05167502513011521 0.27278774284818313 0.031602990475106861 0.011584702956869178 0.16362659262666848 0.054683432340811078 0.061223420370911254 0.063170156305052808 0.043058012667432123 0.089076463258910027 0.053484218246884506 0.050648078384761507 0.11418418624207312 0.056602818977773868 0.1234905303696807 -5.4107666015624991 0.032399290206724801 0.030386108430525114 0.036043545670531203 0.036679639780973931 0.054706280447658295 0.013068730869266016 0.020093908749067625 0.11200667044407969 0.051034552546866722 0.017033082101403304 0.039618433000965049 0.024337187826379711 0.026537647539685801 0.072031394542249674 0.071985490499800089 0.089076463258910027 0.082228908544387927 0.081859068520249642 0.065244379034764752 0.063040852706389219 0.054700929159924569 0.047846265876575055 0.065222983894047445 0.071997055691310943 0.072035035059757321 0.09211429791904617 0.05470873941389482 0.054726049546387233 2.5000000000000004 0.074930123766893744 0.065233934599133556 0.0890265903600614 0.019680988040570582 1.0000000180025095e-35 0.054706280447658295 0.047621868899368008 0.06463055707263124 0.052150969858781253 0.017206345926142518 0.075517559066776388 0.1913498695563752 0.074877707731564422 0.074908371828657533 0.086936737902319636 0.074915929639050957 0.07488702451171543 0.034764264215868375 0.054717313863283143 0.037700932787068007 0.10464107992058948 0.087112691417050178 0.054697379550448295 0.084814014032293369 0.017958098790473789 0.03235571540026351 0.12345579691979168 90.823974609375014 0.050824268087874637 0.082581981893702208 0.028899073371544459 0.074915929639050957 0.07488702451171543 0.072039241436612098 0.054255103940861631 0.040619659346245958 0.091348881907822407 0.032915333740401904 0.014271177393575923 0.013546774833147805 0.07752580075867567 0.12181047589414552 0.072072250824589179 0.072047397878972394 0.065260717023847684 0.012546386343561736 0.031992575230593602 187.50000000000003 0.09481001558209777 0.019680988040570582 0.11909566803281396 0.099884369528478067 0.082384989529237021 0.02209051011261547 0.046946889921940314 0.016831360244906019 0.37267795054400393 -5.4162597656249991 0.065993689782651466 0.076816938944120616 0.052081200321083959 142.50000000000003 0.020020845250506677 -5.2899169921874991
decision_type=2 2 2 2 2 2 10 2 10 10 10 10 8 2 2 2 2 8 10 2 10 2 2 10 2 2 2 10 2 10 2 2 2 2 10 10 2 2 2 2 2 2 2 10 2 10 2 2 2 2 2 2 2 2 10 2 2 2 10 2 2 2 2 2 2 2 2 2 2 2 2 8 2 2 2 2 2 2 2 2 2 2 2 2 2 10 10 10 2 2 2 8 2 2 2 2 2 8 2 10 8 2 10 8 2 2 2 10 2 2 2 2 10 2 2 2 2 2 10 2 10 10 8 2 10 2
left_child=2 3 4 12 8 9 -3 118 13 17 21 25 -2 37 24 26 19 41 73 80 28 29 -19 65 51 87 27 52 -15 91 34 48 -17 40 -27 81 71 -1 39 -22 -34 64 -40 -26 84 92 47 -29 49 50 54 66 -11 -32 96 -56 63 -58 70 -21 -30 69 -63 -57 111 110 67 -13 123 -53 -55 -37 89 -12 95 -76 77 -77 -23 -80 -10 86 83 93 -45 -47 -18 -6 -78 -67 -73 -7 -46 94 -59 -48 -25 -66 109 100 117 122 -103 -31 105 106 -44 -72 -99 -70 -24 -4 -35 -54 -64 -82 -61 120 -5 -109 -86 -122 -102 -36 -104 -121
right_child=1 6 5 7 11 10 -8 -9 16 15 18 14 -14 20 -16 32 35 22 -20 59 38 78 23 31 43 30 -28 46 60 103 53 -33 33 112 68 36 -38 -39 42 -41 -42 -43 104 44 45 85 74 -49 -50 -51 -52 61 113 58 55 56 57 82 -60 116 -62 62 114 -65 97 72 -68 -69 98 -71 107 90 -74 -75 75 76 88 -79 79 -81 115 -83 -84 -85 99 -87 -88 -89 -90 -91 -92 -93 -94 -95 -96 -97 -98 108 -100 -101 101 102 124 -105 -106 -107 -108 119 -110 -111 -112 -113 -114 -115 -116 -117 -118 -119 -120 125 121 -123 -124 -125 -126 -127
leaf_value=0 0.0071425276726471117 0.026945660377505922 -6.222939920607803e-06 0.012650747894843948 -0.0017874924729758476 0.0006643585466793011 0.036415346557083554 0.019979581538695616 -0.00096598410847523403 -0.00020156552134359854 0.0036916962481922545 0 0.0090325480681631414 -0.0011407227105490248 0.0020380507238281116 0.00092939800752021406 0 0.001983759392770288 0.0070008443704769989 -0.0003364120411978506 -0.0025543459526950595 0.0037225895087035603 0 0 -0.00080895798781333939 -0.0016952607247023204 -0.00014892701511634151 0.0011810490174983175 -0.0019607727844631632 0.0021936259397477348 0 -0.00023715136581067128 0.0012111986561524212 0.002102413923386926 -0.00055639120734294961 0 0.00062227676140691219 -0.0012388989567302467 -0.001329595583569116 -0.0020822575387438092 0.0022371763081470044 -0.0013137900850182995 -0.0015603839522636245 0.00034212310637360643 0.00024416243316520349 -0.00065983546717064603 0.0011691563502239542 0.0027448752978107747 0 0.0016621086038153478 0 -0.0011414449969562258 0.0001409712160238996 0 0.0020671421191340239 0.00067017378874494472 0.0023052249482764307 0.00020593372924322976 0 -0.00159572706234489 -0.0026578392439468614 0.00041744593451995731 -0.00030820663301824752 -0.0001902586131531693 0.00050127441237277505 -0.00086414803670002379 2.5121023776265145e-05 -0.00095669148847939861 -0.0011997886125989742 -0.00019192327544230274 -0.0010458758083024503 -0.0011877123074886429 9.8412976435408039e-05 0.004531766587079193 0.0024915665887373008 0.001148451100366999 0.0017383294133536853 6.8920960706191252e-06 0.0034833213840410162 0.0015903732105526159 -0.0021314044924661277 -0.0016211837795890125 3.3931356223496743e-05 0.0013503461649247465 0 6.5412117210231785e-05 -0.0010614618346311961 -0.0012675661696395016 0.00074822320128028542 0 -0.00019873731820176229 0.0018834259647791838 0.0013953880269239906 0 0.0012907624716672424 0.00024507611193708243 0.00055554589138468791 4.2053395625721906e-05 -0.00025841891125562191 6.2987061662930037e-05 0 -0.0008815538241182517 -0.00034445387625151952 0.0030954378644897549 -0.0023189250747495931 -0.0011456240938744998 -0.0027080970690073567 -0.00012210557977386017 -0.00043708994308143704 -0.00040529661002565464 0.00066413384608342849 -0.00078736022396290776 0.0036556136032228101 0.0010359207452346226 -0.0010294769284413066 -0.0010275774028393166 -0.00087745182894665623 0 0.014635767849856063 -0.00076229003660341842 -0.00028898470457401615 0 -0.00019260579739120262 -1.5165606072014428e-05 0 -0.00020563260204720611
leaf_weight=21 226 41 24 75 143 21 36 31 24 22 138 21 158 35 31 31 21 43 23 20 620 122 23 21 40 105 23 35 87 72 20 25 53 21 26 25 20 77 81 407 203 24 66 21 22 20 26 38 20 45 29 162 21 24 28 32 23 32 28 662 1849 21 35 21 20 29 40 38 189 27 133 43 29 163 29 25 69 28 30 28 673 54 25 58 30 31 32 209 33 29 25 53 23 22 22 33 71 33 23 23 36 46 31 90 223 49 39 25 20 27 22 29 50 26 39 20 36 26 85 142 50 36 39 27 29 27
leaf_count=21 226 41 24 75 143 21 36 31 24 22 138 21 158 35 31 31 21 43 23 20 620 122 23 21 40 105 23 35 87 72 20 25 53 21 26 25 20 77 81 407 203 24 66 21 22 20 26 38 20 45 29 162 21 24 28 32 23 32 28 662 1849 21 35 21 20 29 40 38 189 27 133 43 29 163 29 25 69 28 30 28 673 54 25 58 30 31 32 209 33 29 25 53 23 22 22 33 71 33 23 23 36 46 31 90 223 49 39 25 20 27 22 29 50 26 39 20 36 26 85 142 50 36 39 27 29 27
internal_value=-2.98491e-05 0.0127465 -0.000900122 0.0102242 -0.00177959 0.00187303 0.0314794 0.014793 -0.0021855 0.00108728 0.00352767 -0.000753196 0.00793536 -0.00241761 -0.000308195 0.00168814 -0.00168392 0.000504842 0.00438344 -0.00181071 -0.00245726 0.00284824 0.000717088 0.000618647 -0.000396151 -0.00110424 0.0012085 0.00130259 -0.00260536 0.00239766 -0.000925689 0.000799884 0.00222032 0.00232709 -0.00116328 -0.000833715 -0.00041641 -0.000967206 -0.00225715 -0.00237235 0.00204485 -0.000380029 -0.00198747 -0.000142442 -7.39001e-05 0.000326754 0.00149026 0.00206614 0.000868799 0.00091228 0.000810983 -0.000716176 0.000369861 -0.000676531 0.000887007 0.00102894 0.000883146 0.00104409 -0.000724606 -0.00153874 -0.0026292 -0.000853544 -0.000444401 0.00023537 -0.000161618 0 -0.000271192 -0.000556388 -0.000954351 -0.00103241 -0.000780997 -0.000693917 -0.00024351 0.00416458 0.00129591 0.00144709 0.00121795 0.000640674 0.00340958 0.00265985 -0.00207584 -0.00122694 0.000828905 0.000939799 -0.000192384 -0.000121886 -0.000728789 -0.00149343 0.00146802 -0.000500406 -0.000898366 0.00160631 0.000945221 0.000559422 0.000741891 0.00073819 0.000426298 3.66905e-05 -0.00106162 -0.000239362 -0.000276379 -0.000398179 -0.000565288 0.00272708 -0.00211517 -0.00178636 -0.00203642 -0.000828997 -4.50761e-05 -0.00112385 0.000375753 -0.000528478 0.00327014 0.000743355 -0.000756688 -0.00210691 -0.00156597 -8.57693e-05 0.013745 -0.00065409 -0.000145448 -0.000194921 -9.49824e-05 -0.000375382 -0.000238559 -0.000703099
internal_weight=10231 652 9579 575 7274 2305 77 191 5209 1565 740 2065 384 3554 917 766 1655 799 324 1435 3456 416 649 606 886 1148 408 385 1971 236 796 474 358 327 397 220 113 98 1485 1027 256 150 458 503 463 96 316 73 449 429 384 383 69 399 355 263 235 182 379 718 1936 284 95 53 126 132 99 59 292 189 351 93 87 301 243 184 155 53 180 58 717 107 159 134 367 51 53 352 102 58 68 74 45 76 54 59 92 73 239 346 323 181 106 162 377 154 105 327 53 216 45 53 71 47 74 693 698 142 160 194 116 86 75 53 60 169
internal_count=10231 652 9579 575 7274 2305 77 191 5209 1565 740 2065 384 3554 917 766 1655 799 324 1435 3456 416 649 606 886 1148 408 385 1971 236 796 474 358 327 397 220 113 98 1485 1027 256 150 458 503 463 96 316 73 449 429 384 383 69 399 355 263 235 182 379 718 1936 284 95 53 126 132 99 59 292 189 351 93 87 301 243 184 155 53 180 58 717 107 159 134 367 51 53 352 102 58 68 74 45 76 54 59 92 73 239 346 323 181 106 162 377 154 105 327 53 216 45 53 71 47 74 693 698 142 160 194 116 86 75 53 60 169
is_linear=0
shrinkage=0.05


Tree=5
num_leaves=127
num_cat=3
split_feature=17 45 37 17 33 45 45 28 37 36 33 37 37 37 37 43 54 35 54 33 33 33 43 54 42 43 45 33 47 28 37 43 42 54 35 43 42 43 43 54 22 45 29 43 43 45 28 54 33 43 43 42 29 41 36 43 43 43 37 43 43 42 29 43 43 43 43 9 42 43 43 43 42 43 43 43 43 37 43 29 54 42 54 45 45 41 45 42 54 9 42 43 43 37 54 34 54 43 43 9 42 43 29 43 54 42 43 43 42 42 42 43 42 42 42 42 42 48 34 37 42 9 42 42 42 42
split_gain=41.2644 11.1814 8.41572 1.61138 1.17882 1.11281 0.939846 0.326125 0.271128 0.209434 0.160486 0.124936 0.12479 0.0979456 0.0604583 0.0602753 0.0568241 0.054133 0.0492082 0.0457351 0.0328112 0.0271578 0.0266807 0.0229142 0.0220807 0.0284958 0.0212936 0.0192263 0.0184428 0.0184181 0.0178826 0.017488 0.0161552 0.0156764 0.0155874 0.0152538 0.0217042 0.0189869 0.0316178 0.0134396 0.0130452 0.0108934 0.0100598 0.0242041 0.0103445 0.00858987 0.0086512 0.0082646 0.00809663 0.00799729 0.00754596 0.00689626 0.00673107 0.00647729 0.00709823 0.00639018 0.0288285 0.00914705 0.00628959 0.00603048 0.00897852 0.0054894 0.010496 0.0250952 0.00513389 0.00509574 0.00504119 0.00502801 0.00629528 0.01255 0.00610629 0.0118351 0.00482027 0.00478387 0.00449089 0.0125058 0.00513167 0.00415234 0.00406663 0.00395598 0.00390857 0.0038281 0.00369822 0.00344852 0.00330257 0.00326157 0.00322781 0.00310669 0.00295823 0.00292095 0.00287725 0.025949 0.00274734 0.00234202 0.0019473 0.00191321 0.00301046 0.00187689 0.00413581 0.00357912 0.00241448 0.0021741 0.00184704 0.00165492 0.00158479 0.00140932 0.00126069 0.00117786 0.00114772 0.008293 0.00102906 0.000907811 0.000753609 0.01035 0.00279471 0.00181188 0.00115892 0.000475223 0.000404822 0.00179987 0.000278212 0.000171704 0.000134274 0.00688545 0.0038884 0.00560915
threshold=0 0.48819041804147817 0.081526520551947021 1 0.62621586189262413 0.043005223918535229 0.13968711427246427 0.4765371857927746 0.13783677481066028 0.026468883475355073 0.076904659946148882 0.16362659262666848 0.058418678015200017 0.26040784930478816 0.10360708901056311 0.05470873941389482 0.047011447660469163 0.0053831879641026694 0.031643894016334127 0.05167502513011521 0.040315531095036237 0.011376972728607533 0.054700929159924569 0.035531621725545283 0.050642816852504637 0.054719890017458216 0.034832561375215433 0.026848067781761069 0.14019571129991132 0.11906539302304227 0.39520600695789304 0.054693624026630062 0.050597109137307993 0.036115392863357638 0.08524918105706715 0.072026956684300578 0.068485660227117731 0.071985490499800089 0.065217887649151138 0.046005785237303178 2 0.64992861551557246 0.014940409453856602 0.065233934599133556 0.12352406363766399 0.098347509381356862 0.12904141639598102 0.013941115707387089 0.066202852678781274 0.054683432340811078 0.06294424641994624 0.0818944990351365 0.022261161810039353 0.068114693215800312 0.084362466976664371 0.074908371828657533 0.074853701731409303 0.072042648147267699 0.1913498695563752 0.12342234141261134 0.10468109449666037 0.050624506370922133 0.0079032183685583523 0.065244379034764752 0.05471083098445665 0.054703602608572557 0.074895641366343108 0.35206144883412577 0.072264441360922846 0.074932770354369002 0.074903149217579221 0.072057248672888416 0.082349494036870502 0.054700929159924569 0.065164923057392785 0.054668415601701395 0.065206649607096392 0.19630234926942794 0.065227013515722881 0.043362026898204058 0.011942024209014792 0.06165176092133047 0.016831360244906019 0.093554031406246338 0.0890265903600614 0.068114693215800312 0.081136721912191054 0.081846336260948782 0.015229512047203892 0.68322629814330826 0.068233934360740559 0.087164470579946404 0.074924862464763084 0.095729697666927502 0.019970731005108891 0.014137384271241924 0.030755249626355338 0.087201521098846338 0.072039241436612098 0.47114434510950071 0.072243797839971133 0.10466811655038576 0.068188909719343757 0.074895641366343108 0.042098602020868757 0.082349494036870502 0.065248683843413188 0.054724858518785252 0.082228908544387927 0.068511533381049913 0.050682322767420983 0.065238782423600025 0.082312202922204328 0.082384989529237021 0.08191616356085174 0.081870793431837952 0.081900388639908409 0.048214028062274955 0.012814397725276016 0.11200667044407969 0.050630568821610787 0.58216583101416153 0.073488791555365307 0.073411218371898443 0.072289141643985325 0.072227646032193477
decision_type=9 2 2 9 10 2 2 10 2 2 10 2 2 2 2 2 2 10 2 8 10 10 2 2 2 2 2 10 2 10 2 2 2 2 8 2 2 2 2 2 9 2 10 2 2 2 8 2 10 2 2 2 10 2 2 2 2 2 2 2 2 2 10 2 2 2 2 2 2 2 2 2 2 2 2 2 2 2 2 10 2 2 2 2 2 2 2 2 2 2 2 2 2 2 2 10 2 2 2 2 2 2 8 2 2 2 2 2 2 2 2 2 2 2 2 2 2 2 8 2 2 2 2 2 2 2
left_child=2 3 5 30 7 9 10 -3 -5 21 19 29 22 39 33 73 20 24 26 51 81 107 -7 58 120 -26 47 121 -25 104 -2 -22 -33 49 35 37 90 38 74 -10 53 -9 65 -44 48 46 78 -19 59 -12 -51 84 -20 54 102 56 57 -38 -13 60 67 -29 64 111 -63 -34 -58 106 97 70 71 87 108 -11 75 -16 -76 -30 -42 -80 -23 110 -83 -55 86 94 -4 -70 -28 -87 91 -37 -72 -86 -50 -84 -97 98 -69 -99 -100 -101 -21 -31 -8 -52 -45 -1 109 -57 -14 -64 114 -114 115 122 -117 -67 -47 -120 -17 -24 123 124 125 -65
right_child=1 4 6 8 -6 12 11 41 13 15 14 23 16 -15 34 17 -18 18 52 40 31 80 27 28 25 -27 88 61 77 103 -32 32 42 -35 -36 36 55 -39 -40 -41 45 -43 43 44 -46 118 -48 -49 85 50 105 -53 -54 83 -56 72 66 -59 -60 -61 -62 62 63 112 -66 117 -68 68 69 -71 92 -73 -74 -75 76 -77 -78 -79 79 -81 -82 82 95 -85 93 89 -88 -89 -90 -91 -92 -93 -94 -95 -96 96 -98 99 100 101 -102 -103 -104 -105 -106 -107 -108 -109 -110 -111 -112 -113 113 -115 -116 116 -118 -119 119 -121 -122 -123 -124 -125 -126 -127
leaf_value=-0.0015429820135186281 0.012164517511953587 0.016718030640315185 0 0.001297998084774732 0.03405732907696233 0.00041970342543334958 0.0018951024346273101 0.021864598594005639 0.0062622693857033035 0.00041192182874948526 0.0017786492665226644 0.0037534249816629939 -0.00062483389827102049 0.0086601427120238748 0.0029916356001639254 -0.00028362313458713662 0.0019281184630623707 -0.0019303700651331517 -0.00068457448442347385 -8.7193716101984734e-05 0.0008224213823538137 -0.0022730812786739929 -0.0017272750608655703 0.0020555640928583536 -0.0012828282007142575 -0.0023645371379659224 -0.0014396924574486688 -0.00010272493566058283 0.002676874325739256 0.0030484609709400014 0.014295046581859955 0.0008848992171893574 0 0.0020138540182295431 0.00048548386778676073 0.0029337134788331295 0.0013115428768284286 0.0033358748717900589 0.00069068918739197192 0.0076543366022737841 0.0015945092246299987 0.027170790567516857 0.0012703635026526897 -0.00021731188516599956 -0.0012278709572237972 0.00058864852986394102 0 -0.0014997837663945721 0 0 0.00082775167498964322 -0.00085211122405929414 0.00048014801610539676 0 0.0012728748563897766 0.0014625707902315491 0.0034532181775889636 0 0.0046783552358514767 0.00016549174038918196 -0.0014381711222070121 -0.0005136860005310102 0.00027262691894771522 -0.0011035935748194283 -0.0016200086356046911 -0.0010876234618212826 0.0017107930633871032 -0.0002767221680992927 -0.00044168263739145113 -0.00110092725071586 0.00058034551882995048 -0.0013132965171579066 7.6876202813134736e-05 -0.00046300510022377552 0.0037490491287988275 0.0011207541792084199 0.0019837339295287414 0.0039188739572922435 0 0.00071695732970115304 -0.0019761022261996835 -0.00056595395155116079 -0.0014951725039089568 -0.0007358975523102905 0.00052875298388619166 -0.0005704269668629743 -0.0007335757660069343 0.00022300213340355459 -0.0010130295499988003 5.5958052539495319e-05 0.0032746167117696638 0.00031212138329848855 0 0 0.00069133450707128117 -0.0010343491727058411 -5.0535897736972797e-05 -0.00073856193405333955 0.00087070121771830604 0.00039176069164051602 0 -0.00028687518860226702 0.0004149062324567041 0.0021517087908007096 0.00080754194787634919 0.00016838470444394943 -0.0011377020112464695 -0.0025291853786442221 0.0017195708967708172 0.00021126601508002132 0 -8.2461775398239264e-05 8.6740266917366085e-05 -0.00097401734400080298 -0.0019974562084645181 -6.4238000435761267e-05 -0.00084228093579950922 -0.00026450781229841726 0.00093703496063875496 0.001601732200641366 -0.0011615454287079103 -0.0011065611914766629 -0.0014300226168668263 -0.00025767061059562456 -0.0017932137718525026 -0.00029645823278790135
leaf_weight=30 101 23 21 20 37 23 75 21 145 24 22 162 24 162 22 21 26 474 21 28 35 964 172 45 95 507 248 28 44 110 73 26 27 34 29 29 56 51 45 88 21 28 24 23 32 34 37 368 42 37 149 36 30 21 21 37 26 20 120 38 23 27 28 188 132 71 26 20 30 53 26 27 22 37 28 40 27 100 20 127 578 81 68 21 29 26 26 38 199 28 28 21 36 31 26 59 22 20 23 24 29 21 27 63 23 30 30 1466 30 38 33 27 21 78 20 28 22 20 88 69 26 57 72 45 35 45
leaf_count=30 101 23 21 20 37 23 75 21 145 24 22 162 24 162 22 21 26 474 21 28 35 964 172 45 95 507 248 28 44 110 73 26 27 34 29 29 56 51 45 88 21 28 24 23 32 34 37 368 42 37 149 36 30 21 21 37 26 20 120 38 23 27 28 188 132 71 26 20 30 53 26 27 22 37 28 40 27 100 20 127 578 81 68 21 29 26 26 38 199 28 28 21 36 31 26 59 22 20 23 24 29 21 27 63 23 30 30 1466 30 38 33 27 21 78 20 28 22 20 88 69 26 57 72 45 35 45
internal_value=2.27542e-05 0.0117566 -0.000837783 0.00901834 0.0264854 -0.00166491 0.00183614 0.0224831 0.00729439 -0.00207034 0.00111258 0.00329568 -0.000715883 0.00758494 0.00157037 -0.00167101 -0.00034516 -0.00171861 -0.00152312 0.000514637 -0.000403343 -0.00233809 -0.00111113 0.0038067 -0.00211424 -0.00220238 -0.00158338 -0.00115039 0.00324186 0.00238799 0.0130948 -0.000233479 -0.000287162 0.000918694 0.00186974 0.001934 0.0016643 0.0023312 0.0019822 0.00681254 0.000737207 0.0250477 -0.000334133 -0.000244133 -0.000311561 0.000872234 0.00061389 -0.00174832 -0.00025249 0.000740463 0.00061081 -0.000250386 0 0.000154441 0.000468482 0.0013932 0.00171457 0.000983654 0.00416626 -0.000350618 -0.000408828 -0.00101597 -0.00104274 -0.000924325 -0.00146401 -0.000778548 0.00268293 -0.0003368 -0.000246294 -0.000418479 -0.000155717 -0.000424696 0.00102886 -3.68277e-05 0.00243523 0.00186888 0.00297836 0.00357619 0.00076712 0.000613927 -0.00216514 -0.000869817 -0.000977692 -0.000258137 -6.44108e-07 7.73407e-05 -0.000356194 0 -0.0012612 -0.00015371 0.00248366 0.00193527 0.000175934 0.000194804 0.0003342 -0.00116746 -0.000829185 0 0.000192653 -0.000175987 0.000469336 0 6.88533e-05 0.00275221 0.00169191 0.000745316 -0.000833611 -0.00251286 0.00118049 0.00089628 -0.000346016 7.73325e-06 -0.00102587 -0.000698694 -0.0010859 -0.00103205 -0.000507375 -0.000962093 0.00116853 0.00126182 -0.000876874 -0.00159515 -0.00108705 -0.000991757 -0.00109623 -0.000969353
internal_weight=10211 698 9513 589 109 7267 2246 72 415 5088 1504 742 2179 395 847 2050 1131 1989 1340 657 1105 3038 1048 471 649 602 1289 1025 189 271 174 818 783 272 575 546 333 213 162 233 514 49 757 639 615 396 205 842 583 238 216 143 51 118 76 255 128 76 282 461 423 796 768 609 159 118 52 400 347 210 157 95 127 61 117 62 55 144 168 147 1542 287 230 42 107 122 47 68 447 54 78 50 62 60 68 149 81 137 72 65 52 45 55 173 98 179 53 1496 105 75 57 55 554 99 455 435 50 91 191 157 47 229 385 313 268 233
internal_count=10211 698 9513 589 109 7267 2246 72 415 5088 1504 742 2179 395 847 2050 1131 1989 1340 657 1105 3038 1048 471 649 602 1289 1025 189 271 174 818 783 272 575 546 333 213 162 233 514 49 757 639 615 396 205 842 583 238 216 143 51 118 76 255 128 76 282 461 423 796 768 609 159 118 52 400 347 210 157 95 127 61 117 62 55 144 168 147 1542 287 230 42 107 122 47 68 447 54 78 50 62 60 68 149 81 137 72 65 52 45 55 173 98 179 53 1496 105 75 57 55 554 99 455 435 50 91 191 157 47 229 385 313 268 233
cat_boundaries=0 1 2 4
cat_threshold=4 1 1075839010 16400
is_linear=0
shrinkage=0.05


Tree=6
num_leaves=106
num_cat=1
split_feature=52 27 37 17 32 45 37 37 36 32 37 27 43 32 32 32 32 54 27 54 27 27 42 54 36 37 42 54 42 54 54 27 54 34 43 32 43 43 54 43 42 9 43 35 43 43 54 43 42 37 27 43 42 43 9 42 43 27 43 43 43 43 37 48 42 53 43 37 43 42 36 40 41 43 54 2 54 54 37 54 54 54 54 29 27 43 27 43 28 43 35 43 35 37 27 35 54 37 42 42 42 41 35 43 45
split_gain=37.7519 9.756 7.76474 1.35716 1.01344 0.939038 0.924449 0.20993 0.170007 0.167541 0.134269 0.0956927 0.0672891 0.0610128 0.0564009 0.0473118 0.0418169 0.0412237 0.0397987 0.037309 0.0344791 0.0313095 0.0338248 0.0252854 0.0251828 0.0230467 0.0172283 0.0188109 0.0168813 0.0161036 0.0154274 0.0145755 0.012817 0.0126648 0.0190804 0.0122756 0.0115498 0.011119 0.0107293 0.00975311 0.0154879 0.0118964 0.0182512 0.00969854 0.00968878 0.0152744 0.00922374 0.00921895 0.00853948 0.00754774 0.00708227 0.00686814 0.00588142 0.00548106 0.00758547 0.00745308 0.0051435 0.00498162 0.00487969 0.00718962 0.00473412 0.0115584 0.00460812 0.00437123 0.00434816 0.00433048 0.00428437 0.00404806 0.00395681 0.00392786 0.00385867 0.00378254 0.0040906 0.00357628 0.00329646 0.00309773 0.00368062 0.00297651 0.00295637 0.00281056 0.00276417 0.00266828 0.00219172 0.00192234 0.0017116 0.00198463 0.00152831 0.00151138 0.00139013 0.0013169 0.0017697 0.00121941 0.00112213 0.00101332 0.000970997 0.000960716 0.000940211 0.000830768 0.000708925 0.00382736 0.0012639 0.00104324 0.000524964 0.000167311 4.36949e-05
threshold=0.20307956922581508 0.4894896018626127 0.081526520551947021 0 0.03694047462858522 0.64992861551557246 0.15484612131245443 0.10895423400761224 0.029133554683266661 0.77890128364375422 0.058418678015200017 0.27278774284818313 0.05470873941389482 0.10772592197715741 0.073519465233419706 0.38895720919893634 0.11278160382434672 0.047011447660469163 0.016772195205270353 0.035531621725545283 0.27278774284818313 0.03235571540026351 0.050624506370922133 0.028494815855763054 0.061604403324907624 0.046946889921940314 0.089076463258910027 0.034169995974836172 0.08904374530509708 0.026669802156967581 0.055151860251237313 0.072683987918757173 0.026669802156967581 0.0032509701822134641 0.054719890017458216 0.052307223467287722 0.054700929159924569 0.10462997412699769 0.0066342795168990191 0.074932770354369002 0.068547457699100436 0.68322629814330826 0.072059012553987098 0.044864750246343683 0.12342234141261134 0.12352406363766399 0.030487021426096651 0.1234905303696807 0.050648078384761507 0.10360708901056311 0.099075361900939671 0.054697379550448295 0.050630568821610787 0.054697379550448295 0.35206144883412577 0.050624506370922133 0.1231734932737403 0.10622832657354832 0.054683432340811078 0.06294424641994624 0.072031394542249674 0.065246554905931869 0.1913498695563752 0.041940355189349854 0.0818944990351365 13.500000000000002 0.074938800057907526 0.051927462345011319 0.072047397878972394 0.089132584214725821 0.075949390363327193 0.053744842065020955 0.097910684928137134 0.074924862464763084 0.01813170289567731 37.500000000000007 0.016831360244906019 0.030487021426096651 0.021429545417880006 0.10561981511782689 0.022254559540565825 0.019204422014187896 0.024174630567576055 0.028786118211433804 0.10053098071626478 0.065212209267623875 0.079081245851935503 0.054706280447658295 0.064333081880512163 0.074927501076564623 0.025103911607304432 0.087190659876420759 0.028578671924946782 0.064079236679114263 0.025727795743639852 0.028859475012366766 0.024905651019815619 0.19630234926942794 0.073426884273639123 0.073473282777918716 0.050624506370922133 0.047639680194760191 0.020992317030291759 0.071997055691310943 0.034163199449619756
decision_type=2 10 2 9 10 2 2 2 2 10 2 8 2 8 10 8 10 2 10 2 10 10 2 2 2 2 2 2 2 2 2 8 2 10 2 8 2 2 2 2 2 2 2 8 2 2 2 2 2 2 10 2 2 2 2 2 2 10 2 2 2 2 2 2 2 2 2 2 2 2 2 2 2 2 2 2 2 2 2 2 2 2 2 10 10 2 10 2 10 2 10 2 10 2 10 8 2 2 2 2 2 2 8 2 2
left_child=2 3 4 11 8 -3 7 14 18 -7 19 -2 51 57 35 -5 30 24 38 25 29 22 -14 67 39 52 27 47 37 62 70 53 78 34 -24 77 -27 -18 -1 41 93 42 60 50 66 -46 -35 49 -36 58 -29 -10 -6 -26 55 -55 -39 -8 -16 -60 61 -12 -15 81 71 -38 -42 -23 -62 74 -9 96 91 -43 104 89 -77 -4 -20 80 -40 -33 88 -79 -72 -86 95 -57 -56 92 -91 -73 102 -41 -76 -61 -37 -31 100 -100 -67 -101 -65 -87 -54
right_child=1 5 6 15 10 9 13 16 12 -11 17 -13 21 20 26 -17 28 -19 32 -21 -22 23 33 -25 31 36 -28 43 -30 97 -32 63 -34 46 48 64 65 56 79 40 44 73 -44 -45 45 -47 -48 -49 -50 -51 -52 -53 69 54 82 87 -58 -59 59 86 68 -63 -64 75 -66 98 -68 -69 -70 -71 84 72 -74 -75 94 76 -78 83 -80 -81 -82 -83 -84 -85 85 103 -88 -89 -90 90 -92 -93 -94 -95 -96 -97 -98 -99 99 101 -102 -103 -104 -105 -106
leaf_value=-0.0025010439592086479 0.0065453678580636547 0.01858164210010458 0 0.01175483430530018 -0.00014029519044011089 0.025403676575600512 0.00051112234990914065 0.00062172979076452288 0.00060804813813968104 0.032331230858908183 0 0.0084220899139095095 -0.0001738928660066784 0.0035728678183902466 0.001626697899057315 0.014419173141631596 0.0022911446016128838 0.0016737879872129394 -0.0021225452873814355 0.0005153812862668198 0.0058956955285178678 -0.0014230869462928627 -0.0012667918334753993 0 0.00036761884552088389 0.00015174224127121084 -0.00010812465262253412 0.001096497824689392 0.00043472327098115541 0.0028494562161452261 0 1.9203516204397172e-05 -0.00071378769213731731 -0.0016716974110099127 -0.0012310609626932209 0.00013011994433118263 -0.0014659464318387046 0.00034765351945070794 -0.0021601030952661596 -0.00032235977388322528 -0.00052210973959379028 0.00068984623427925521 -0.0015608812451489969 0.00060425072270717565 0.00011243521413930198 -0.0011721010442252142 -0.0006069423766390012 0 -0.0022781349424331053 0.0013645119278485965 0.002588675331319575 -0.00040582732518274942 -0.0016946306283448156 0 0 -0.00013225820540092989 0.0017343468224264192 0.0021192323864477366 0 0.00048667419770746513 0.00067820774521030005 -0.0013442735080106327 0.004560559682887085 0 -0.00028875569828722874 -0.0001479703150527431 -0.0015597557852371369 -0.00075285189806434199 -0.00014080535559848233 -0.0022199205099687879 0.0012036661250228739 0.00074316664287689209 0 0 -0.001460351180063729 0 0.00077433592501445275 -0.0011807146269497482 -0.0017972147630745999 -0.0025175110900006389 -0.0014824178844581835 0.00095493760191269492 0.00026060636726233012 -0.00011172944694914997 0.0023794281099789125 0.00091645230115313899 0.00082669527057329176 -0.00098630876313286308 -0.00032935711348868238 0 -0.00058360991843782559 0 0.00032905249981748447 9.9952154177653427e-05 -0.00085115663995001989 0 -0.00030814998383391692 0.0035703932375464771 0 -0.00010413990121342211 -0.00096191934019399449 -0.00076599516742020249 -0.00025331079867454379 0.0016520703772723039 -0.0012775343250534847
leaf_weight=893 254 35 27 128 20 30 20 36 22 37 38 139 39 136 22 51 376 26 458 33 24 336 98 32 20 20 31 30 22 147 20 26 35 551 44 26 50 22 1070 21 30 27 35 29 39 41 37 24 409 85 39 56 116 23 33 21 32 21 39 44 20 25 90 28 25 20 86 62 40 28 153 76 32 31 43 25 29 23 585 230 66 31 26 20 34 39 231 80 73 20 23 21 26 34 154 20 20 124 21 25 265 174 21 102 285
leaf_count=893 254 35 27 128 20 30 20 36 22 37 38 139 39 136 22 51 376 26 458 33 24 336 98 32 20 20 31 30 22 147 20 26 35 551 44 26 50 22 1070 21 30 27 35 29 39 41 37 24 409 85 39 56 116 23 33 21 32 21 39 44 20 25 90 28 25 20 86 62 40 28 153 76 32 31 43 25 29 23 585 230 66 31 26 20 34 39 231 80 73 20 23 21 26 34 154 20 20 124 21 25 265 174 21 102 285
internal_value=2.19731e-05 0.0114577 -0.000785804 0.00890107 -0.0015817 0.0257234 0.00177167 0.00118594 -0.00197738 0.0293463 -0.000696868 0.00722384 -0.00155753 0.00353405 0.000630203 0.0125495 0.00175416 -0.000257377 -0.00218795 -0.0010426 0.00368739 -0.00162728 -0.00177076 -0.00122225 -0.000314344 -0.00108884 0.00090273 0.000967279 0.00210056 0.00356953 0.00133296 -5.84499e-05 -0.00190979 -0.00182103 -0.00203329 1.20176e-05 -0.000833441 0.00217404 -0.00231839 -0.000580285 -0.000805181 -0.000295558 -0.000531502 0.00164939 -0.00101371 -0.000484109 -0.00161331 0.000812448 -0.00218776 0.000865006 0.00201479 -5.54296e-05 -0.00130827 -0.00031084 -0.000383491 -0.000671028 0.00126351 0.0014596 0.000731351 0.000656941 -0.000196942 -0.000510765 0.00399015 0.00022392 0.000229299 -0.000877971 -0.00133515 -0.00133145 4.96786e-05 -0.00133758 0.00140723 0.000331984 0.000471945 0.000260935 -0.00128754 6.44985e-05 0.000390429 -0.000536901 -0.00194506 -0.00219515 -0.00212527 0.000616458 -7.52273e-05 -0.000800934 0.00147799 0.00168845 0.000741293 -0.000858496 -0.000204895 -4.25233e-05 -0.000282663 0.000633604 2.87723e-05 0 -0.00101017 0.000354234 0 0.00319897 -0.000809578 -0.00064034 -0.00092241 -0.000708055 -2.90728e-05 0.00148483 -0.00141105
internal_weight=10211 674 9537 572 7275 102 2262 1700 5023 67 2252 393 1686 562 864 179 836 998 3337 1254 521 1608 1178 430 972 1221 594 563 452 497 384 505 1078 1139 551 270 575 430 2259 467 251 216 158 98 196 80 588 465 453 441 69 78 646 276 256 124 54 41 356 334 123 63 226 229 200 555 116 398 60 626 364 175 129 58 598 172 54 70 1043 1366 1136 57 132 43 328 175 295 101 106 118 43 97 75 55 197 64 46 271 505 220 285 199 49 141 401
internal_count=10211 674 9537 572 7275 102 2262 1700 5023 67 2252 393 1686 562 864 179 836 998 3337 1254 521 1608 1178 430 972 1221 594 563 452 497 384 505 1078 1139 551 270 575 430 2259 467 251 216 158 98 196 80 588 465 453 441 69 78 646 276 256 124 54 41 356 334 123 63 226 229 200 555 116 398 60 626 364 175 129 58 598 172 54 70 1043 1366 1136 57 132 43 328 175 295 101 106 118 43 97 75 55 197 64 46 271 505 220 285 199 49 141 401
cat_boundaries=0 1
cat_threshold=8
is_linear=0
shrinkage=0.05


Tree=7
num_leaves=127
num_cat=1
split_feature=52 32 37 19 32 37 27 37 37 39 37 27 43 43 27 32 37 32 54 27 54 27 42 54 39 37 42 54 42 27 54 13 27 28 54 54 34 43 43 54 43 43 42 43 43 43 43 54 28 42 16 54 43 37 32 43 54 42 43 13 54 43 43 45 40 43 43 43 43 43 43 34 43 42 43 43 43 35 37 43 2 54 48 42 42 43 43 43 43 43 43 43 43 37 42 45 43 41 54 41 44 37 37 41 42 37 37 42 42 42 42 42 34 43 43 43 43 43 43 28 28 54 35 54 34 41
split_gain=34.0895 8.8221 7.02076 1.83003 0.914046 0.834783 0.299634 0.218041 0.189794 0.152803 0.121708 0.0834464 0.0608031 0.0607695 0.0567863 0.051505 0.0375725 0.037285 0.0372608 0.0354706 0.0339538 0.0280746 0.0302288 0.0230444 0.0229871 0.0206588 0.0161645 0.0193365 0.0148624 0.0140209 0.0140012 0.0138488 0.0132056 0.0130337 0.0125272 0.0112084 0.0111271 0.0169369 0.010645 0.00966494 0.00957336 0.00871363 0.0140193 0.010753 0.016395 0.00871402 0.0143107 0.00829564 0.00815299 0.00788616 0.00730535 0.00715513 0.0070672 0.00643988 0.00632508 0.00621078 0.0058861 0.00508155 0.00500451 0.00495154 0.0142063 0.00429299 0.00619831 0.00426702 0.00463662 0.0042476 0.0105001 0.00365707 0.00358177 0.00352718 0.00347284 0.0144845 0.00763099 0.00773697 0.0137877 0.00723033 0.00660137 0.0041361 0.00339917 0.00326356 0.00319899 0.00297533 0.00283805 0.00277224 0.00262168 0.00443684 0.0139467 0.0024864 0.0126584 0.00486814 0.0136833 0.00347762 0.00236425 0.00229896 0.00211121 0.00140063 0.00133398 0.00125928 0.00116024 0.00105252 0.00102815 0.00100636 0.000914953 0.000796975 0.000788409 0.000479182 0.000454755 0.000398858 0.000374754 0.00454734 0.000932916 0.00609951 0.000348088 0.000338226 0.00107332 0.000440277 0.00493777 0.000970686 0.000503298 0.000295545 0.000904866 0.000262387 0.000236836 0.00022414 0.000200459 6.20192e-05
threshold=0.20307956922581508 0.55513044477819473 0.081526520551947021 0 0.03694047462858522 0.15484612131245443 0.42833284510975839 0.84513114877999251 0.10895423400761224 0.029133554683266661 0.058418678015200017 0.27278774284818313 0.05470873941389482 0.10422374931160856 0.099075361900939671 0.075290831976165068 0.19630234926942794 0.11278160382434672 0.047011447660469163 0.016772195205270353 0.035531621725545283 0.03235571540026351 0.050624506370922133 0.028494815855763054 0.061604403324907624 0.046946889921940314 0.089076463258910027 0.034169995974836172 0.08904374530509708 0.27278774284818313 0.055151860251237313 -5.4162597656249991 0.072683987918757173 0.065703007155250973 0.034169995974836172 0.026669802156967581 0.0032509701822134641 0.054721350750014296 0.054703602608572557 0.0088306799213912837 0.10461612427425541 0.074932770354369002 0.068547457699100436 0.074895641366343108 0.072059012553987098 0.12342234141261134 0.12351479819940955 0.032399290206724801 0.12320553632963642 0.050653076084961814 5.2557606189617978 0.036679639780973931 0.1234905303696807 0.10360708901056311 0.058238702382309333 0.054697379550448295 0.10561981511782689 0.050630568821610787 0.054697379550448295 -5.4162597656249991 0.0268919542423612 0.054683432340811078 0.06294424641994624 0.085241006611282366 0.054255103940861631 0.072031394542249674 0.065244379034764752 0.074942636261550163 0.072047397878972394 0.05471083098445665 0.065217887649151138 0.007877515403006876 0.071997055691310943 0.067019092389060189 0.072031394542249674 0.065227013515722881 0.054683432340811078 0.036195138105741702 0.051927462345011319 0.074924862464763084 1.0000000180025095e-35 0.031643894016334127 0.064847198290155561 0.081859068520249642 0.089132584214725821 0.065233934599133556 0.065246554905931869 0.072065017743525014 0.072042648147267699 0.074908371828657533 0.074938800057907526 0.072057248672888416 0.06525418705787793 0.021429545417880006 0.050630568821610787 0.063712296689591566 0.12353268566399074 0.065030505584272244 0.022608801900758691 0.072536931262016907 0.061060027186493886 0.074384819581749917 0.064079236679114263 0.029093706764692303 0.050624506370922133 0.071691595205066128 0.075284620894357543 0.072264441360922846 0.073426884273639123 0.073473282777918716 0.072284869398231241 0.072227646032193477 0.011879568844367236 0.12355213596178045 0.1234905303696807 0.10469804935966753 0.087190659876420759 0.087236323688602915 0.074948752343338837 0.068696663505753056 0.086463314905371361 0.014908664829149142 0.020838872336913738 0.022254559540565825 0.019404638145403739 0.066907458849381887
decision_type=2 10 2 1 10 2 10 2 2 2 2 8 2 2 8 10 2 10 2 10 2 10 2 2 2 2 2 2 2 10 2 2 8 10 2 2 10 2 2 2 2 2 2 2 2 2 2 2 10 2 2 2 2 2 8 2 2 2 2 2 2 2 2 2 2 2 2 2 2 2 2 10 2 2 2 2 2 10 2 2 2 2 2 2 2 2 2 2 2 2 2 2 2 2 2 2 2 2 2 2 2 2 2 2 2 2 2 2 2 2 2 2 10 2 2 2 2 2 2 10 10 2 8 2 10 2
left_child=2 3 4 11 9 8 -5 -3 15 19 20 -2 55 -8 -7 31 34 30 24 39 25 22 -14 78 41 57 27 52 40 -18 70 51 58 -29 -16 93 37 -24 -27 -1 50 43 102 44 65 67 -47 95 -35 -39 -19 -4 53 61 80 -11 123 -6 -26 -34 97 -17 -63 107 -65 66 -12 -44 -67 -59 71 76 75 -74 -75 -72 -10 -76 -23 -45 98 82 94 -66 85 -71 -87 88 92 -89 -91 -90 -88 -21 -60 -38 -48 -61 -33 101 -64 -99 -43 -40 -105 -96 121 125 110 -110 111 -106 -101 114 115 116 118 -118 -92 -102 -121 -84 -107 -41 -114 -56
right_child=1 7 5 6 10 14 13 -9 17 12 18 -13 21 -15 16 26 29 28 -20 35 -22 23 36 -25 32 38 -28 33 -30 -31 -32 54 59 48 -36 -37 47 49 103 56 -42 42 45 79 -46 46 96 -49 -50 -51 -52 -53 -54 -55 63 -57 -58 69 81 60 -62 62 100 64 83 68 -68 -69 -70 84 72 -73 73 74 77 -77 -78 -79 -80 -81 -82 -83 106 -85 -86 86 87 89 91 90 113 -93 -94 -95 105 -97 -98 99 -100 112 119 -103 -104 104 108 122 -108 -109 109 -111 -112 -113 124 -115 -116 -117 117 -119 -120 120 -122 -123 -124 -125 -126 -127
leaf_value=-0.0023362449718878383 0.0062182282827375262 0.023411790659865858 0 0.011384073550432501 -0.00013331532216542837 0.00051212942766211043 0.018548825251873426 0.030493712068495906 0.0015557483090941175 0.00057778331346077525 0 0.0079848464187513828 -0.00016522045792711666 0.013747105056425596 0.0033198432221253969 0.0015457310616902636 0.0038245873573197887 0.00086986076484994789 0.0015904192548687659 -0.0020164411832858833 0.00048969005815912702 -0.0013519537714423253 -0.0012556825386415614 0 0.00034932934775234971 7.9887807953828586e-05 -0.00012667675092944367 0.00036109185650079083 0.0004130854437810398 0.0058325499031357288 0 0 -0.00044163263632234791 0.0024219421548081076 0.0023578925737809614 -0.0006781999815614931 -0.0016031152622377025 -0.0012557350039454054 -0.00027688811065315784 -0.0019870776737008562 0.0013279001743374879 -0.00030631816750657147 -0.0007020683644730954 0.00065548119377482319 -0.0014830595168929834 0.00048818228296446716 -0.00037563746103528033 -0.00032311771374149444 0.00074064807797809924 -0.0021928642203577113 0.0022699099433434919 -0.0012034712103278346 0 0.0012963664988422446 0 -0.00038557212611779892 -0.0023916902388893282 -0.00031383375398355063 0 0.00035872458934019778 0.0012486199817713761 0 3.8066573476339392e-05 0 0.00090348234220054789 0.00064446606733535063 -0.0012085113213712423 -0.0015839789108563263 -0.00013378264280581879 -0.0017083519107048339 0.00097474208609624354 0.0023684276802826624 0.0023085756180973665 0.0023689355649261835 0.001014944514656367 0 0.00014548079138336224 0 -0.00071526992678583789 0 0.00019702015243344513 1.8334834090482555e-05 -8.3337971192873469e-05 0 -0.0021093194614896994 0 -0.00078180342366823263 -0.0018252102387808613 3.0283627053444441e-05 0 -0.0010964335838131085 -0.00059232549687687546 -0.0018977930026741517 -0.0017073693824462912 -0.00074821550821054417 -0.00062430647010937052 -0.0012838333851767181 -0.00033684553590010582 -0.0006920743132921266 0 0.000212923527257749 0 9.4969188702317313e-05 -0.00014060860481205864 -0.00099419494253376339 0 -0.00023324254075159711 -9.4482358818983323e-05 0 -0.00079065943329991145 -0.0015376735011651645 0 0.00029043147983176282 -0.0020454324358164981 -0.00054912392363370022 -0.001914869501801874 -0.00010420337844955021 -0.00087211604092160989 -0.0020930165922143067 0.0010667073786621668 0.00061497281070810425 0.00015217053646859557 -0.00038985146999986501 -0.0014084091204310679 0 0.00021796312324461802
leaf_weight=1194 254 32 27 149 20 21 26 40 25 22 35 140 39 33 223 22 200 22 26 458 33 336 111 32 20 23 29 24 22 21 20 20 20 50 97 35 543 53 32 769 71 21 47 27 35 22 30 24 20 387 337 28 23 85 20 56 230 23 20 35 34 38 21 24 69 20 28 69 40 92 34 53 28 25 130 23 26 20 62 31 25 21 24 20 28 24 33 75 25 30 47 36 30 585 90 21 28 32 23 20 28 27 34 20 204 21 28 22 20 215 35 26 34 21 32 27 22 56 25 72 154 21 31 66 27 20
leaf_count=1194 254 32 27 149 20 21 26 40 25 22 35 140 39 33 223 22 200 22 26 458 33 336 111 32 20 23 29 24 22 21 20 20 20 50 97 35 543 53 32 769 71 21 47 27 35 22 30 24 20 387 337 28 23 85 20 56 230 23 20 35 34 38 21 24 69 20 28 69 40 92 34 53 28 25 130 23 26 20 62 31 25 21 24 20 28 24 33 75 25 30 47 36 30 585 90 21 28 32 23 20 28 27 34 20 204 21 28 22 20 215 35 26 34 21 32 27 22 56 25 72 154 21 31 66 27 20
internal_value=2.10144e-05 0.0108879 -0.000746557 0.00889428 -0.00150338 0.00168526 0.0127175 0.0274524 0.00112844 -0.00187919 -0.000662883 0.00686051 -0.00148059 0.0159755 0.00336022 0.000599577 0.00346142 0.00166889 -0.000244141 -0.00207902 -0.000992108 -0.0015469 -0.00168332 -0.00116124 -0.000298515 -0.00103629 0.000880282 0.000943984 0.00199724 0.00404056 0.00126895 4.95375e-05 -5.3577e-05 0.00164643 0.0030447 -0.00181478 -0.00173089 -0.00193258 -0.000793098 -0.00220282 0.00206655 -0.000552612 -0.000765985 -0.000281287 -0.000506105 -0.000964375 -0.000456849 -0.00153309 0.00201464 -0.00209165 0.0021983 -0.000643417 0.000783311 0.000830196 0.000227147 -4.94441e-05 -0.00204834 -0.00124485 -0.000294253 0.000214672 0.00030157 0.000696642 0.000620518 0.000394242 0.000578748 -0.000186514 -0.000484135 -0.00127063 4.30796e-05 -0.00127235 0.00133971 0.00171575 0.00116947 0.00133225 0.00114626 0.000500846 0.000936327 0.000907726 -0.00126554 0.000244906 -0.000129404 -0.000364173 -0.000419615 0.000745163 -0.00130057 -0.00125213 -0.00115454 -0.00121598 -0.000875295 -0.00132686 -0.00116323 -0.000255693 -0.00139463 -0.00184806 -0.000544724 -0.00157565 -0.00090159 8.84083e-05 -0.000435211 0 0.000703247 -0.00013805 0 -0.000838537 -0.000863426 -0.000612887 -7.32115e-05 0 -0.000882307 -0.000723606 -0.00100386 -0.000900259 0.000136225 -0.00129545 -0.00119524 -0.00128345 -0.00113528 -0.000719957 -0.00151424 0.000738528 0.00078141 0 -0.000281708 -0.0019475 0.000197165 0.000141233
internal_weight=10211 674 9537 602 7275 2262 208 72 1700 5023 2252 394 1686 59 562 864 541 836 998 3337 1254 1608 1178 430 972 1221 566 537 452 221 384 298 505 94 320 1078 1139 551 575 2259 430 467 251 216 158 196 80 588 70 440 359 55 443 420 243 78 1065 646 276 229 209 335 313 175 113 123 63 116 60 626 364 104 260 203 175 57 51 150 398 58 68 256 235 89 603 575 483 459 124 335 260 61 63 1043 162 564 58 175 43 140 275 59 55 552 520 142 73 62 500 235 265 230 81 230 209 177 150 78 72 254 226 45 52 835 61 40
internal_count=10211 674 9537 602 7275 2262 208 72 1700 5023 2252 394 1686 59 562 864 541 836 998 3337 1254 1608 1178 430 972 1221 566 537 452 221 384 298 505 94 320 1078 1139 551 575 2259 430 467 251 216 158 196 80 588 70 440 359 55 443 420 243 78 1065 646 276 229 209 335 313 175 113 123 63 116 60 626 364 104 260 203 175 57 51 150 398 58 68 256 235 89 603 575 483 459 124 335 260 61 63 1043 162 564 58 175 43 140 275 59 55 552 520 142 73 62 500 235 265 230 81 230 209 177 150 78 72 254 226 45 52 835 61 40
cat_boundaries=0 1
cat_threshold=2
is_linear=0
shrinkage=0.05


Tree=8
num_leaves=127
num_cat=2
split_feature=24 27 37 19 32 33 45 40 36 37 33 37 27 37 43 27 37 33 27 54 54 43 27 32 54 36 54 37 34 43 43 43 27 54 54 43 43 27 54 43 43 43 37 13 37 34 54 43 44 27 43 43 43 43 27 44 37 43 43 32 43 43 43 40 27 33 43 43 54 43 43 43 43 43 33 43 43 43 48 43 54 54 45 32 43 43 43 49 43 54 3 43 43 43 43 36 40 43 43 43 45 54 37 54 34 27 43 43 43 43 43 43 43 43 43 28 41 27 34 43 43 43 43 48 35 35
split_gain=30.0168 8.36946 6.22548 1.13557 0.81799 0.742239 0.691098 0.234103 0.13777 0.124012 0.121419 0.107335 0.0902593 0.0897035 0.0548613 0.049619 0.0435638 0.0357641 0.0315867 0.0308809 0.0289627 0.0255415 0.0251725 0.0233725 0.0211021 0.0205525 0.0196116 0.0187666 0.0138105 0.0141806 0.0141956 0.0253844 0.0122846 0.0111437 0.0108621 0.0104597 0.0189967 0.0104186 0.00977455 0.00976404 0.0093083 0.0095806 0.00928515 0.00863627 0.0101345 0.00846502 0.00824315 0.00816707 0.00816112 0.00766598 0.00795318 0.00756731 0.0147998 0.013378 0.00751963 0.00724784 0.00705547 0.00690985 0.0143988 0.00672888 0.00587728 0.00583401 0.00561617 0.00543572 0.00511822 0.0050123 0.00498654 0.00535845 0.00490561 0.00464955 0.00447817 0.00426906 0.00426523 0.00417014 0.00398551 0.00397197 0.0105404 0.00414943 0.00387838 0.00369222 0.00442966 0.00349398 0.0028567 0.00258684 0.00256901 0.0024697 0.0024664 0.00221446 0.00228167 0.0021046 0.00202627 0.0020068 0.00251235 0.00198689 0.014998 0.00219122 0.00185533 0.001849 0.00627796 0.0044455 0.00181463 0.00177318 0.00172403 0.00172304 0.00142753 0.00116009 0.00103935 0.00688865 0.000993651 0.000868244 0.000823771 0.0021812 0.000745416 0.000702372 0.00077191 0.000611905 0.00285718 0.00118222 0.000572063 0.000433143 0.00396921 0.00331714 0.000327974 0.00025944 0.000235164 0.00170117
threshold=0 0.4894896018626127 0.081526520551947021 1 0.03694047462858522 0.62621586189262413 0.13968711427246427 0.19774403471320673 0.029133554683266661 0.21273377435164711 0.076904659946148882 0.058418678015200017 0.35397951230942609 0.16362659262666848 0.05470873941389482 0.13536264114290428 0.10360708901056311 0.05167502513011521 0.016772195205270353 0.035531621725545283 0.047011447660469163 0.074841320027820249 0.021193169509536456 0.11988967086213669 0.028494815855763054 0.060742462308293853 0.040622855011958399 0.046946889921940314 0.0047461373819897975 0.072026956684300578 0.071985490499800089 0.065217887649151138 0.072683987918757173 0.034169995974836172 0.076514866306086768 0.074853701731409303 0.074895641366343108 0.040770484428731511 0.026669802156967581 0.054700929159924569 0.074935073795361726 0.087142012984492381 0.1913498695563752 -5.4217529296874991 0.10760650075180454 0.031435333021966917 0.0088306799213912837 0.072039241436612098 0.043160012733479233 0.056390349200598051 0.065227013515722881 0.086936737902319636 0.10462997412699769 0.074915929639050957 0.27278774284818313 0.12228585788194252 0.051927462345011319 0.074895641366343108 0.072060909201890941 0.054126975079968144 0.12352406363766399 0.065248683843413188 0.054697379550448295 0.074545076769433991 0.091970012738227414 0.089204305819421389 0.12342234141261134 0.10467584621745084 0.10561981511782689 0.054683432340811078 0.054697379550448295 0.074924862464763084 0.054700929159924569 0.06294424641994624 0.05462703383296022 0.072066229951748162 0.072042648147267699 0.072057248672888416 0.041940355189349854 0.063037691165749199 0.031321868205868499 0.030487021426096651 0.0890265903600614 0.086937073237548887 0.12337428275291359 0.05471083098445665 0.065240855145262081 0.059170035684125134 0.074932770354369002 0.016545820607977844 112.50000000000001 0.072035035059757321 0.087211767702864318 0.074908371828657533 0.074938800057907526 0.048516103908682391 0.069886781712984777 0.065164923057392785 0.054677993695420334 0.065206649607096392 0.068940324985508797 0.019810179461403378 0.021429545417880006 0.024174630567576055 0.031435333021966917 0.11142888958419116 0.063037691165749199 0.06525418705787793 0.074942636261550163 0.10464107992058948 0.072051992506824411 0.072031394542249674 0.074944232416092549 0.087190659876420759 0.054714610948189739 0.05416702413681506 0.029093706764692303 0.054325704981078859 0.022016482511130513 0.065233934599133556 0.063122324287101253 0.065244379034764752 0.07205026709882785 0.062686105275661055 0.031656144411414865 0.037241502170250983
decision_type=9 10 2 1 10 10 2 2 2 2 10 2 8 2 2 10 2 8 10 2 2 2 10 10 2 2 2 2 10 2 2 2 8 2 2 2 2 10 2 2 2 2 2 2 2 8 2 2 2 10 2 2 2 2 8 2 2 2 2 10 2 2 2 2 8 10 2 2 2 2 2 2 2 2 10 2 2 2 2 2 2 2 2 8 2 2 2 2 2 2 2 2 2 2 2 2 2 2 2 2 2 2 2 2 8 8 2 2 2 2 2 2 2 2 2 8 2 10 8 2 2 2 2 2 8 10
left_child=2 3 4 9 8 7 10 -3 18 15 17 19 45 23 62 -2 33 59 46 27 25 54 48 105 56 40 42 75 70 30 31 97 72 69 -14 47 -37 -26 102 -29 57 108 -15 64 49 -5 -1 -31 104 103 -51 53 65 -38 -11 -28 -24 58 74 61 66 -4 -10 83 -19 -53 67 109 -48 -12 -18 -59 -27 -71 110 76 85 -78 89 -74 86 -63 -61 112 -54 -6 -81 88 118 -34 -65 -88 -93 -77 -95 -96 -35 98 -30 -99 113 -89 -20 -45 -16 -8 -87 119 -42 -43 111 -13 122 114 -50 116 -41 -118 -80 120 -108 -121 -52 -94 -75 -126
right_child=1 5 6 12 11 -7 13 -9 14 21 16 20 34 26 22 -17 28 43 38 -21 -22 -23 24 -25 37 32 55 39 29 35 -32 -33 78 96 -36 36 51 -39 -40 115 41 60 -44 44 -46 -47 68 -49 100 50 63 52 84 -55 -56 -57 -58 71 -60 82 -62 81 -64 90 -66 -67 -68 -69 -70 73 -72 -73 79 124 -76 93 77 -79 87 80 -82 -83 -84 -85 -86 106 91 101 -90 -91 -92 92 123 94 95 -97 -98 99 -100 -101 -102 -103 -104 -105 -106 -107 107 -109 -110 -111 -112 -113 -114 -115 -116 -117 117 -119 -120 121 -122 -123 -124 -125 125 -127
leaf_value=-0.0022194425054827328 0.0021348987538279234 0.015581420111698614 0 0.0074371510869301691 -0.00029820999532768672 0.029283121983317353 0.00069366358884886286 0.022708896647288104 0.00054902488185220276 0.0064848140391481268 0.0014693934011374605 -5.1323080198897961e-05 0.011509962134088329 0.0031229378405489487 -0.0016302162780601548 0.005299825679651338 0.0010407068113679446 0.00062372364140079399 -0.0019156411341603953 0.00046527952043634346 0.0014045400550566703 0.0047340461413798735 -0.0013794598187762902 0.0024082441553494975 -0.00082444182631594165 0.00020100460621348765 0.0013510300371558424 0.00014021837341353591 0.0023899938424284031 0.0011500610245813823 0.0029618183198273766 0.00056899832139243624 0 0.00073211584193863684 0.01454682771571621 0.0030640756804139221 0.0012770812280694277 0.00045644646554922536 -0.00064438659598022052 0 -0.00073368454104418847 -0.00032166005752239183 0.0039661126252650671 0.00027472540609463743 0.0011428982761702367 0.01018107149698963 -0.0018504447292936527 0 -0.00073785143357525944 0.0014199872950852578 0 0.00094213062071355218 0.00035673103460921057 -6.4379775627928571e-05 0.0076846348916357254 0.0028287284992297964 -0.00071231598855370703 0.00063246339479268627 -0.0014087947732642338 -0.00018114029760082879 -0.0010639662779595731 0 -0.00036632788725323486 6.4173833565009793e-05 -0.00033421324947685051 0.0023418750968599291 0.0001012598336174074 -0.00099244922661711403 -0.0022721577085625835 0 0 -0.00012565628815692191 -0.00085035956491899762 0.00070579488673089752 -0.00072704491087649005 -0.0017927629794984756 2.8775482705425078e-05 -0.00063338699416564932 0.00020328666014602173 0 0.00035449602132644597 -0.0010499675215541746 0.0004442184387478696 0.00058174807266479713 0.0013107369438076974 -0.001588127717158304 -0.00082831017858764138 8.5023979784596185e-07 -0.00058928216842605023 0.00077462301552629152 0.00079624928501704963 0 -0.00078587874324661698 0 -0.0014733479866571109 -0.0008392638489044034 0.0020788802435079893 0.0033306016338147306 0.00084940766802744515 0.0016826351142292533 -0.00047598424267191527 0.00053045011164128749 -0.0016220155067856196 -0.00023323470891930986 -0.0020428830367549521 0.0015428753984352088 -0.00020042230655350698 -0.0018032185937528593 -0.001663647706466397 2.6424620356082255e-05 -0.00024237554454355291 0.00045739478451113657 0.00017398284002211853 -0.0005600167734928391 -0.0015576845937463153 -0.00092662969945170282 -0.00087674808892495822 -0.00049495805730304316 -0.00012336599186226095 0 -0.0014949088205131258 -0.00071506500592419156 -0.00031359777234106267 -0.00013816166199868564 0 0.00059720103826997519
